{"name": "tree", "version": "v4", "num_class": 4, "num_tree_per_iteration": 4, "label_index": 0, "max_feature_idx": 7, "objective": "multiclass num_class:4", "average_output": false, "feature_names": ["Column_0", "Column_1", "Column_2", "Column_3", "Column_4", "Column_5", "Column_6", "Column_7"], "monotone_constraints": [], "feature_infos": {"Column_0": {"min_value": 0.4999000132083893, "max_value": 15.000100135803223, "values": []}, "Column_1": {"min_value": 1, "max_value": 52, "values": []}, "Column_2": {"min_value": 0.8888888955116272, "max_value": 141.90908813476562, "values": []}, "Column_3": {"min_value": 0.3333333432674408, "max_value": 25.636363983154297, "values": []}, "Column_4": {"min_value": 3, "max_value": 35682, "values": []}, "Column_5": {"min_value": 0.692307710647583, "max_value": 1243.3333740234375, "values": []}, "Column_6": {"min_value": 32.54999923706055, "max_value": 41.95000076293945, "values": []}, "Column_7": {"min_value": -124.3499984741211, "max_value": -114.30999755859375, "values": []}}, "tree_info": [{"tree_index": 0, "num_leaves": 15, "num_cat": 0, "shrinkage": 1, "tree_structure": {"split_index": 0, "split_feature": 0, "split_gain": 2842.22998046875, "threshold": 2.839699983596802, "decision_type": "<=", "default_left": true, "missing_type": "None", "internal_value": -1.38799, "internal_weight": 4123.33, "internal_count": 16512, "left_child": {"split_index": 1, "split_feature": 2, "split_gain": 585.2659912109375, "threshold": 4.266613006591798, "decision_type": "<=", "default_left": true, "missing_type": "None", "internal_value": -1.26708, "internal_weight": 1321.25, "internal_count": 5291, "left_child": {"split_index": 4, "split_feature": 0, "split_gain": 256.3349914550781, "threshold": 2.126000046730042, "decision_type": "<=", "default_left": true, "missing_type": "None", "internal_value": -1.34521, "internal_weight": 555.621, "internal_count": 2225, "left_child": {"split_index": 6, "split_feature": 2, "split_gain": 163.1020050048828, "threshold": 3.44922685623169, "decision_type": "<=", "default_left": true, "missing_type": "None", "internal_value": -1.28031, "internal_weight": 290.421, "internal_count": 1163, "left_child": {"leaf_index": 0, "leaf_value": -1.3758443381949994, "leaf_weight": 110.62468914687634, "leaf_count": 443}, "right_child": {"leaf_index": 7, "leaf_value": -1.2215225030022254, "leaf_weight": 179.79633450508118, "leaf_count": 720}}, "right_child": {"split_index": 13, "split_feature": 7, "split_gain": 34.68899917602539, "threshold": -117.77499771118163, "decision_type": "<=", "default_left": true, "missing_type": "None", "internal_value": -1.41629, "internal_weight": 265.2, "internal_count": 1062, "left_child": {"leaf_index": 5, "leaf_value": -1.4317467497253178, "leaf_weight": 224.24598386883736, "leaf_count": 898}, "right_child": {"leaf_index": 14, "leaf_value": -1.3316606684366934, "leaf_weight": 40.95360952615738, "leaf_count": 164}}}, "right_child": {"split_index": 5, "split_feature": 0, "split_gain": 202.16900634765625, "threshold": 2.220999956130982, "decision_type": "<=", "default_left": true, "missing_type": "None", "internal_value": -1.21039, "internal_weight": 765.633, "internal_count": 3066, "left_child": {"split_index": 12, "split_feature": 5, "split_gain": 38.93190002441406, "threshold": 2.2038024663925175, "decision_type": "<=", "default_left": true, "missing_type": "None", "internal_value": -1.15607, "internal_weight": 361.59, "internal_count": 1448, "left_child": {"leaf_index": 2, "leaf_value": -1.2355167464111125, "leaf_weight": 52.69031469523907, "leaf_count": 211}, "right_child": {"leaf_index": 13, "leaf_value": -1.1425159282429993, "leaf_weight": 308.90009136497974, "leaf_count": 1237}}, "right_child": {"split_index": 7, "split_feature": 6, "split_gain": 113.7300033569336, "threshold": 34.655000686645515, "decision_type": "<=", "default_left": true, "missing_type": "None", "internal_value": -1.259, "internal_weight": 404.042, "internal_count": 1618, "left_child": {"leaf_index": 6, "leaf_value": -1.3325245498070246, "leaf_weight": 138.34329071640968, "leaf_count": 554}, "right_child": {"leaf_index": 8, "leaf_value": -1.2207154076961413, "leaf_weight": 265.69902765750885, "leaf_count": 1064}}}}, "right_child": {"split_index": 2, "split_feature": 0, "split_gain": 391.03900146484375, "threshold": 3.695850014686585, "decision_type": "<=", "default_left": true, "missing_type": "None", "internal_value": -1.445, "internal_weight": 2802.08, "internal_count": 11221, "left_child": {"split_index": 3, "split_feature": 2, "split_gain": 335.71600341796875, "threshold": 4.974980354309083, "decision_type": "<=", "default_left": true, "missing_type": "None", "internal_value": -1.39107, "internal_weight": 908.471, "internal_count": 3638, "left_child": {"split_index": 10, "split_feature": 6, "split_gain": 47.090301513671875, "threshold": 37.93499946594239, "decision_type": "<=", "default_left": true, "missing_type": "None", "internal_value": -1.44943, "internal_weight": 472.715, "internal_count": 1893, "left_child": {"leaf_index": 1, "leaf_value": -1.4579691677688764, "leaf_weight": 440.5010195374489, "leaf_count": 1764}, "right_child": {"leaf_index": 11, "leaf_value": -1.3327206690549958, "leaf_weight": 32.21350993216038, "leaf_count": 129}}, "right_child": {"split_index": 8, "split_feature": 6, "split_gain": 85.60559844970703, "threshold": 34.38500022888184, "decision_type": "<=", "default_left": true, "missing_type": "None", "internal_value": -1.32775, "internal_weight": 435.756, "internal_count": 1745, "left_child": {"leaf_index": 4, "leaf_value": -1.3879850895454189, "leaf_weight": 153.07660146057606, "leaf_count": 613}, "right_child": {"leaf_index": 9, "leaf_value": -1.2951374000351128, "leaf_weight": 282.67979258298874, "leaf_count": 1132}}}, "right_child": {"split_index": 9, "split_feature": 7, "split_gain": 50.59149932861328, "threshold": -116.31499862670897, "decision_type": "<=", "default_left": true, "missing_type": "None", "internal_value": -1.47088, "internal_weight": 1893.61, "internal_count": 7583, "left_child": {"split_index": 11, "split_feature": 6, "split_gain": 47.07640075683594, "threshold": 38.815000534057624, "decision_type": "<=", "default_left": true, "missing_type": "None", "internal_value": -1.4717799999999999, "internal_weight": 1887.86, "internal_count": 7560, "left_child": {"leaf_index": 3, "leaf_value": -1.4738679851879297, "leaf_weight": 1855.398285239935, "leaf_count": 7430}, "right_child": {"leaf_index": 12, "leaf_value": -1.352397076136711, "leaf_weight": 32.463227063417435, "leaf_count": 130}}, "right_child": {"leaf_index": 10, "leaf_value": -1.1745369743014002, "leaf_weight": 5.7434940189123145, "leaf_count": 23}}}}}, {"tree_index": 1, "num_leaves": 16, "num_cat": 0, "shrinkage": 1, "tree_structure": {"split_index": 0, "split_feature": 0, "split_gain": 640.9749755859375, "threshold": 5.038699865341187, "decision_type": "<=", "default_left": true, "missing_type": "None", "internal_value": -1.38872, "internal_weight": 4121.33, "internal_count": 16512, "left_child": {"split_index": 1, "split_feature": 7, "split_gain": 434.3590087890625, "threshold": -118.22500228881835, "decision_type": "<=", "default_left": true, "missing_type": "None", "internal_value": -1.36807, "internal_weight": 3234.76, "internal_count": 12960, "left_child": {"split_index": 4, "split_feature": 6, "split_gain": 124.5739974975586, "threshold": 37.78499984741212, "decision_type": "<=", "default_left": true, "missing_type": "None", "internal_value": -1.39501, "internal_weight": 2099.85, "internal_count": 8413, "left_child": {"split_index": 7, "split_feature": 5, "split_gain": 90.30159759521484, "threshold": 2.631953120231629, "decision_type": "<=", "default_left": true, "missing_type": "None", "internal_value": -1.41305, "internal_weight": 1356.05, "internal_count": 5433, "left_child": {"leaf_index": 0, "leaf_value": -1.446137285717875, "leaf_weight": 512.9192894697189, "leaf_count": 2055}, "right_child": {"leaf_index": 8, "leaf_value": -1.3929248293577012, "leaf_weight": 843.1344816684723, "leaf_count": 3378}}, "right_child": {"split_index": 5, "split_feature": 6, "split_gain": 122.197998046875, "threshold": 39.354999542236335, "decision_type": "<=", "default_left": true, "missing_type": "None", "internal_value": -1.36213, "internal_weight": 743.795, "internal_count": 2980, "left_child": {"leaf_index": 5, "leaf_value": -1.3431872267923612, "leaf_weight": 610.51123213768, "leaf_count": 2446}, "right_child": {"leaf_index": 6, "leaf_value": -1.4488744271257592, "leaf_weight": 133.28413653373718, "leaf_count": 534}}}, "right_child": {"split_index": 2, "split_feature": 5, "split_gain": 259.93499755859375, "threshold": 3.1970286369323735, "decision_type": "<=", "default_left": true, "missing_type": "None", "internal_value": -1.31823, "internal_weight": 1134.91, "internal_count": 4547, "left_child": {"split_index": 6, "split_feature": 6, "split_gain": 98.26229858398438, "threshold": 33.155000686645515, "decision_type": "<=", "default_left": true, "missing_type": "None", "internal_value": -1.3566799999999999, "internal_weight": 689.633, "internal_count": 2763, "left_child": {"leaf_index": 2, "leaf_value": -1.29175914408663, "leaf_weight": 174.21784138679504, "leaf_count": 698}, "right_child": {"leaf_index": 7, "leaf_value": -1.3786307101774444, "leaf_weight": 515.4152470827103, "leaf_count": 2065}}, "right_child": {"split_index": 3, "split_feature": 7, "split_gain": 180.66400146484375, "threshold": -117.85499954223631, "decision_type": "<=", "default_left": true, "missing_type": "None", "internal_value": -1.25867, "internal_weight": 445.279, "internal_count": 1784, "left_child": {"leaf_index": 3, "leaf_value": -1.2071830636711238, "leaf_weight": 269.31382644176483, "leaf_count": 1079}, "right_child": {"leaf_index": 4, "leaf_value": -1.3374726809387176, "leaf_weight": 175.96501171588898, "leaf_count": 705}}}}, "right_child": {"split_index": 8, "split_feature": 6, "split_gain": 42.05540084838867, "threshold": 37.975000381469734, "decision_type": "<=", "default_left": true, "missing_type": "None", "internal_value": -1.46405, "internal_weight": 886.564, "internal_count": 3552, "left_child": {"split_index": 11, "split_feature": 7, "split_gain": 26.386199951171875, "threshold": -117.63499832153319, "decision_type": "<=", "default_left": true, "missing_type": "None", "internal_value": -1.47023, "internal_weight": 820.421, "internal_count": 3287, "left_child": {"split_index": 13, "split_feature": 0, "split_gain": 6.116459846496582, "threshold": 5.604249954223634, "decision_type": "<=", "default_left": true, "missing_type": "None", "internal_value": -1.4767700000000001, "internal_weight": 724.327, "internal_count": 2902, "left_child": {"leaf_index": 1, "leaf_value": -1.4626410945912551, "leaf_weight": 215.40114200115204, "leaf_count": 863}, "right_child": {"leaf_index": 14, "leaf_value": -1.4827443309072796, "leaf_weight": 508.9257572889328, "leaf_count": 2039}}, "right_child": {"split_index": 12, "split_feature": 6, "split_gain": 40.220699310302734, "threshold": 34.014999389648445, "decision_type": "<=", "default_left": true, "missing_type": "None", "internal_value": -1.421, "internal_weight": 96.0944, "internal_count": 385, "left_child": {"leaf_index": 12, "leaf_value": -1.4490689433478154, "leaf_weight": 80.86902666091919, "leaf_count": 324}, "right_child": {"leaf_index": 13, "leaf_value": -1.2718951863352697, "leaf_weight": 15.22534143924713, "leaf_count": 61}}}, "right_child": {"split_index": 9, "split_feature": 0, "split_gain": 28.171499252319336, "threshold": 5.83080005645752, "decision_type": "<=", "default_left": true, "missing_type": "None", "internal_value": -1.38734, "internal_weight": 66.1429, "internal_count": 265, "left_child": {"split_index": 10, "split_feature": 7, "split_gain": 30.4689998626709, "threshold": -122.06499862670897, "decision_type": "<=", "default_left": true, "missing_type": "None", "internal_value": -1.3353, "internal_weight": 40.4345, "internal_count": 162, "left_child": {"leaf_index": 9, "leaf_value": -1.444122673701241, "leaf_weight": 15.724532961845396, "leaf_count": 63}, "right_child": {"leaf_index": 11, "leaf_value": -1.266056966424559, "leaf_weight": 24.709980368614197, "leaf_count": 99}}, "right_child": {"split_index": 14, "split_feature": 5, "split_gain": 1.023550033569336, "threshold": 3.181963443756104, "decision_type": "<=", "default_left": true, "missing_type": "None", "internal_value": -1.46919, "internal_weight": 25.7084, "internal_count": 103, "left_child": {"leaf_index": 10, "leaf_value": -1.4789849356680613, "leaf_weight": 20.716448187828068, "leaf_count": 83}, "right_child": {"leaf_index": 15, "leaf_value": -1.4285419243145312, "leaf_weight": 4.991915225982665, "leaf_count": 20}}}}}}, {"tree_index": 2, "num_leaves": 16, "num_cat": 0, "shrinkage": 1, "tree_structure": {"split_index": 0, "split_feature": 0, "split_gain": 476.677001953125, "threshold": 2.7431499958038335, "decision_type": "<=", "default_left": true, "missing_type": "None", "internal_value": -1.38533, "internal_weight": 4130.67, "internal_count": 16512, "left_child": {"split_index": 5, "split_feature": 2, "split_gain": 77.71060180664062, "threshold": 4.201509952545167, "decision_type": "<=", "default_left": true, "missing_type": "None", "internal_value": -1.43713, "internal_weight": 1242.05, "internal_count": 4965, "left_child": {"split_index": 6, "split_feature": 5, "split_gain": 69.85330200195312, "threshold": 3.55892562866211, "decision_type": "<=", "default_left": true, "missing_type": "None", "internal_value": -1.4066100000000001, "internal_weight": 499.072, "internal_count": 1995, "left_child": {"split_index": 7, "split_feature": 0, "split_gain": 58.47159957885742, "threshold": 2.107249975204468, "decision_type": "<=", "default_left": true, "missing_type": "None", "internal_value": -1.37745, "internal_weight": 310.45, "internal_count": 1241, "left_child": {"leaf_index": 0, "leaf_value": -1.4186324677715385, "leaf_weight": 163.3554003238678, "leaf_count": 653}, "right_child": {"leaf_index": 8, "leaf_value": -1.3317158473746713, "leaf_weight": 147.09490871429443, "leaf_count": 588}}, "right_child": {"split_index": 12, "split_feature": 2, "split_gain": 8.572290420532227, "threshold": 2.2380180358886723, "decision_type": "<=", "default_left": true, "missing_type": "None", "internal_value": -1.45461, "internal_weight": 188.622, "internal_count": 754, "left_child": {"leaf_index": 7, "leaf_value": -1.3254613820907168, "leaf_weight": 5.003228187561034, "leaf_count": 20}, "right_child": {"leaf_index": 13, "leaf_value": -1.458127771289971, "leaf_weight": 183.61847448349, "leaf_count": 734}}}, "right_child": {"split_index": 8, "split_feature": 0, "split_gain": 17.341899871826172, "threshold": 2.1448000669479375, "decision_type": "<=", "default_left": true, "missing_type": "None", "internal_value": -1.45763, "internal_weight": 742.979, "internal_count": 2970, "left_child": {"split_index": 14, "split_feature": 5, "split_gain": 2.360330104827881, "threshold": 2.065373778343201, "decision_type": "<=", "default_left": true, "missing_type": "None", "internal_value": -1.4745599999999999, "internal_weight": 333.465, "internal_count": 1333, "left_child": {"leaf_index": 6, "leaf_value": -1.4492912073464919, "leaf_weight": 33.271467447280884, "leaf_count": 133}, "right_child": {"leaf_index": 15, "leaf_value": -1.477363308508845, "leaf_weight": 300.1936912536621, "leaf_count": 1200}}, "right_child": {"split_index": 9, "split_feature": 6, "split_gain": 20.00909996032715, "threshold": 35.405000686645515, "decision_type": "<=", "default_left": true, "missing_type": "None", "internal_value": -1.44385, "internal_weight": 409.514, "internal_count": 1637, "left_child": {"leaf_index": 9, "leaf_value": -1.4157545231514335, "leaf_weight": 156.6010422706604, "leaf_count": 626}, "right_child": {"leaf_index": 10, "leaf_value": -1.4612391985621238, "leaf_weight": 252.91318488121033, "leaf_count": 1011}}}}, "right_child": {"split_index": 1, "split_feature": 0, "split_gain": 391.7760009765625, "threshold": 6.3350000381469735, "decision_type": "<=", "default_left": true, "missing_type": "None", "internal_value": -1.3630499999999999, "internal_weight": 2888.61, "internal_count": 11547, "left_child": {"split_index": 2, "split_feature": 0, "split_gain": 126.06600189208984, "threshold": 4.2465999126434335, "decision_type": "<=", "default_left": true, "missing_type": "None", "internal_value": -1.34896, "internal_weight": 2519.88, "internal_count": 10073, "left_child": {"split_index": 4, "split_feature": 6, "split_gain": 120.52300262451172, "threshold": 37.93499946594239, "decision_type": "<=", "default_left": true, "missing_type": "None", "internal_value": -1.3673899999999999, "internal_weight": 1501.22, "internal_count": 6001, "left_child": {"leaf_index": 1, "leaf_value": -1.3539339119611224, "leaf_weight": 1225.0404217243195, "leaf_count": 4897}, "right_child": {"leaf_index": 5, "leaf_value": -1.4270624512958243, "leaf_weight": 276.17819595336914, "leaf_count": 1104}}, "right_child": {"split_index": 3, "split_feature": 5, "split_gain": 181.15499877929688, "threshold": 2.5827177762985234, "decision_type": "<=", "default_left": true, "missing_type": "None", "internal_value": -1.32181, "internal_weight": 1018.66, "internal_count": 4072, "left_child": {"leaf_index": 3, "leaf_value": -1.3863244656000744, "leaf_weight": 304.9467580318451, "leaf_count": 1219}, "right_child": {"leaf_index": 4, "leaf_value": -1.294244242970346, "leaf_weight": 713.7105009555817, "leaf_count": 2853}}}, "right_child": {"split_index": 10, "split_feature": 0, "split_gain": 12.578399658203125, "threshold": 7.2638001441955575, "decision_type": "<=", "default_left": true, "missing_type": "None", "internal_value": -1.45932, "internal_weight": 368.738, "internal_count": 1474, "left_child": {"split_index": 11, "split_feature": 7, "split_gain": 19.542699813842773, "threshold": -117.1949996948242, "decision_type": "<=", "default_left": true, "missing_type": "None", "internal_value": -1.43765, "internal_weight": 155.1, "internal_count": 620, "left_child": {"leaf_index": 2, "leaf_value": -1.4459278221251435, "leaf_weight": 147.09490871429443, "leaf_count": 588}, "right_child": {"leaf_index": 12, "leaf_value": -1.2854871909280516, "leaf_weight": 8.005165100097654, "leaf_count": 32}}, "right_child": {"split_index": 13, "split_feature": 2, "split_gain": 2.485369920730591, "threshold": 5.500338315963746, "decision_type": "<=", "default_left": true, "missing_type": "None", "internal_value": -1.47506, "internal_weight": 213.638, "internal_count": 854, "left_child": {"leaf_index": 11, "leaf_value": -1.4054097644160473, "leaf_weight": 5.003228187561034, "leaf_count": 20}, "right_child": {"leaf_index": 14, "leaf_value": -1.4767306234688602, "leaf_weight": 208.63461542129517, "leaf_count": 834}}}}}}, {"tree_index": 3, "num_leaves": 16, "num_cat": 0, "shrinkage": 1, "tree_structure": {"split_index": 0, "split_feature": 0, "split_gain": 3422.860107421875, "threshold": 5.604249954223634, "decision_type": "<=", "default_left": true, "missing_type": "None", "internal_value": -1.38315, "internal_weight": 4136.65, "internal_count": 16512, "left_child": {"split_index": 1, "split_feature": 5, "split_gain": 669.0339965820312, "threshold": 2.4136952161788945, "decision_type": "<=", "default_left": true, "missing_type": "None", "internal_value": -1.42072, "internal_weight": 3533.89, "internal_count": 14106, "left_child": {"split_index": 2, "split_feature": 0, "split_gain": 550.073974609375, "threshold": 3.3277499675750737, "decision_type": "<=", "default_left": true, "missing_type": "None", "internal_value": -1.34687, "internal_weight": 910.655, "internal_count": 3635, "left_child": {"split_index": 8, "split_feature": 6, "split_gain": 78.65299987792969, "threshold": 37.815000534057624, "decision_type": "<=", "default_left": true, "missing_type": "None", "internal_value": -1.41536, "internal_weight": 512.572, "internal_count": 2046, "left_child": {"leaf_index": 0, "leaf_value": -1.3879672867675041, "leaf_weight": 344.22003650665283, "leaf_count": 1374}, "right_child": {"leaf_index": 9, "leaf_value": -1.471375314310257, "leaf_weight": 168.35215759277344, "leaf_count": 672}}, "right_child": {"split_index": 5, "split_feature": 1, "split_gain": 162.86900329589844, "threshold": 19.500000000000004, "decision_type": "<=", "default_left": true, "missing_type": "None", "internal_value": -1.25868, "internal_weight": 398.083, "internal_count": 1589, "left_child": {"leaf_index": 3, "leaf_value": -1.3609165389653983, "leaf_weight": 111.98424768447876, "leaf_count": 447}, "right_child": {"leaf_index": 6, "leaf_value": -1.218660948394737, "leaf_weight": 286.0984582901001, "leaf_count": 1142}}}, "right_child": {"split_index": 3, "split_feature": 0, "split_gain": 260.7229919433594, "threshold": 4.530150175094605, "decision_type": "<=", "default_left": true, "missing_type": "None", "internal_value": -1.44635, "internal_weight": 2623.24, "internal_count": 10471, "left_child": {"split_index": 9, "split_feature": 7, "split_gain": 52.961299896240234, "threshold": -122.40500259399413, "decision_type": "<=", "default_left": true, "missing_type": "None", "internal_value": -1.46122, "internal_weight": 2146.24, "internal_count": 8567, "left_child": {"leaf_index": 2, "leaf_value": -1.4007712482060346, "leaf_weight": 135.78403186798096, "leaf_count": 542}, "right_child": {"leaf_index": 10, "leaf_value": -1.4652990436781785, "leaf_weight": 2010.4554533958435, "leaf_count": 8025}}, "right_child": {"split_index": 7, "split_feature": 5, "split_gain": 140.31900024414062, "threshold": 2.9291766881942753, "decision_type": "<=", "default_left": true, "missing_type": "None", "internal_value": -1.37948, "internal_weight": 476.998, "internal_count": 1904, "left_child": {"leaf_index": 4, "leaf_value": -1.3217103921831446, "leaf_weight": 223.4674472808838, "leaf_count": 892}, "right_child": {"leaf_index": 8, "leaf_value": -1.4304015375909789, "leaf_weight": 253.53033256530762, "leaf_count": 1012}}}}, "right_child": {"split_index": 4, "split_feature": 0, "split_gain": 223.99899291992188, "threshold": 6.3350000381469735, "decision_type": "<=", "default_left": true, "missing_type": "None", "internal_value": -1.1629, "internal_weight": 602.761, "internal_count": 2406, "left_child": {"split_index": 6, "split_feature": 5, "split_gain": 153.94000244140625, "threshold": 2.9817923307418828, "decision_type": "<=", "default_left": true, "missing_type": "None", "internal_value": -1.23956, "internal_weight": 233.488, "internal_count": 932, "left_child": {"split_index": 10, "split_feature": 6, "split_gain": 32.45669937133789, "threshold": 37.95499992370606, "decision_type": "<=", "default_left": true, "missing_type": "None", "internal_value": -1.17083, "internal_weight": 136.035, "internal_count": 543, "left_child": {"leaf_index": 1, "leaf_value": -1.1544362396222667, "leaf_weight": 122.25573348999023, "leaf_count": 488}, "right_child": {"leaf_index": 11, "leaf_value": -1.3163323463136378, "leaf_weight": 13.778822422027586, "leaf_count": 55}}, "right_child": {"split_index": 13, "split_feature": 6, "split_gain": 11.953200340270996, "threshold": 37.98500061035157, "decision_type": "<=", "default_left": true, "missing_type": "None", "internal_value": -1.33549, "internal_weight": 97.4539, "internal_count": 389, "left_child": {"leaf_index": 7, "leaf_value": -1.325368861264283, "leaf_weight": 89.93813180923462, "leaf_count": 359}, "right_child": {"leaf_index": 14, "leaf_value": -1.4566442883735484, "leaf_weight": 7.515721321105956, "leaf_count": 30}}}, "right_child": {"split_index": 11, "split_feature": 0, "split_gain": 14.313599586486816, "threshold": 7.2638001441955575, "decision_type": "<=", "default_left": true, "missing_type": "None", "internal_value": -1.11442, "internal_weight": 369.272, "internal_count": 1474, "left_child": {"split_index": 12, "split_feature": 7, "split_gain": 18.054399490356445, "threshold": -117.1949996948242, "decision_type": "<=", "default_left": true, "missing_type": "None", "internal_value": -1.13753, "internal_weight": 155.325, "internal_count": 620, "left_child": {"leaf_index": 5, "leaf_value": -1.129574781631327, "leaf_weight": 147.30813789367676, "leaf_count": 588}, "right_child": {"leaf_index": 13, "leaf_value": -1.283673532213486, "leaf_weight": 8.016769409179686, "leaf_count": 32}}, "right_child": {"split_index": 14, "split_feature": 4, "split_gain": 7.128789901733398, "threshold": 229.50000000000003, "decision_type": "<=", "default_left": true, "missing_type": "None", "internal_value": -1.09765, "internal_weight": 213.948, "internal_count": 854, "left_child": {"leaf_index": 12, "leaf_value": -1.1769205610592437, "leaf_weight": 10.772533893585203, "leaf_count": 43}, "right_child": {"leaf_index": 15, "leaf_value": -1.093443434738771, "leaf_weight": 203.1749997138977, "leaf_count": 811}}}}}}, {"tree_index": 4, "num_leaves": 15, "num_cat": 0, "shrinkage": 0.1, "tree_structure": {"split_index": 0, "split_feature": 0, "split_gain": 2267.27001953125, "threshold": 3.067950010299683, "decision_type": "<=", "default_left": true, "missing_type": "None", "internal_value": -0.000134183, "internal_weight": 4110.59, "internal_count": 16512, "left_child": {"split_index": 1, "split_feature": 6, "split_gain": 475.7239990234375, "threshold": 34.45499992370606, "decision_type": "<=", "default_left": true, "missing_type": "None", "internal_value": 0.0905196, "internal_weight": 1650.87, "internal_count": 6229, "left_child": {"split_index": 2, "split_feature": 7, "split_gain": 368.3080139160156, "threshold": -117.77499771118163, "decision_type": "<=", "default_left": true, "missing_type": "None", "internal_value": 0.0333718, "internal_weight": 773.845, "internal_count": 3003, "left_child": {"split_index": 7, "split_feature": 6, "split_gain": 161.26199340820312, "threshold": 34.02499961853028, "decision_type": "<=", "default_left": true, "missing_type": "None", "internal_value": -0.0195503, "internal_weight": 487.166, "internal_count": 1911, "left_child": {"leaf_index": 0, "leaf_value": 0.032971164345422424, "leaf_weight": 265.72720167040825, "leaf_count": 1032}, "right_child": {"leaf_index": 8, "leaf_value": -0.08257611104052714, "leaf_weight": 221.43923497200012, "leaf_count": 879}}, "right_child": {"split_index": 8, "split_feature": 6, "split_gain": 109.63200378417969, "threshold": 33.514999389648445, "decision_type": "<=", "default_left": true, "missing_type": "None", "internal_value": 0.123305, "internal_weight": 286.678, "internal_count": 1092, "left_child": {"leaf_index": 3, "leaf_value": 0.06302168487115907, "leaf_weight": 146.9933597445488, "leaf_count": 567}, "right_child": {"leaf_index": 9, "leaf_value": 0.18674212027790135, "leaf_weight": 139.6850731521845, "leaf_count": 525}}}, "right_child": {"split_index": 3, "split_feature": 7, "split_gain": 271.4989929199219, "threshold": -121.63499832153319, "decision_type": "<=", "default_left": true, "missing_type": "None", "internal_value": 0.140944, "internal_weight": 877.023, "internal_count": 3226, "left_child": {"split_index": 4, "split_feature": 6, "split_gain": 371.52099609375, "threshold": 38.66499900817872, "decision_type": "<=", "default_left": true, "missing_type": "None", "internal_value": 0.0732888, "internal_weight": 353.839, "internal_count": 1321, "left_child": {"leaf_index": 2, "leaf_value": -0.00014366731729377653, "leaf_weight": 233.77790382504463, "leaf_count": 890}, "right_child": {"leaf_index": 5, "leaf_value": 0.21627321369188574, "leaf_weight": 120.06130489706993, "leaf_count": 431}}, "right_child": {"split_index": 9, "split_feature": 7, "split_gain": 78.13030242919922, "threshold": -119.9449996948242, "decision_type": "<=", "default_left": true, "missing_type": "None", "internal_value": 0.186701, "internal_weight": 523.184, "internal_count": 1905, "left_child": {"leaf_index": 4, "leaf_value": 0.15639669991703242, "leaf_weight": 323.96207715570927, "leaf_count": 1184}, "right_child": {"leaf_index": 10, "leaf_value": 0.23597991012644792, "leaf_weight": 199.22154301404953, "leaf_count": 721}}}}, "right_child": {"split_index": 5, "split_feature": 0, "split_gain": 235.21800231933594, "threshold": 4.1119000911712655, "decision_type": "<=", "default_left": true, "missing_type": "None", "internal_value": -0.0609775, "internal_weight": 2459.72, "internal_count": 10283, "left_child": {"split_index": 6, "split_feature": 2, "split_gain": 173.77699279785156, "threshold": 5.3715858459472665, "decision_type": "<=", "default_left": true, "missing_type": "None", "internal_value": -0.0246832, "internal_weight": 1034.58, "internal_count": 4216, "left_child": {"split_index": 11, "split_feature": 6, "split_gain": 44.56520080566406, "threshold": 37.9650001525879, "decision_type": "<=", "default_left": true, "missing_type": "None", "internal_value": -0.0568145, "internal_weight": 640.745, "internal_count": 2645, "left_child": {"leaf_index": 1, "leaf_value": -0.06529674793687987, "leaf_weight": 580.6769360005856, "leaf_count": 2410}, "right_child": {"leaf_index": 12, "leaf_value": 0.025183105194680717, "leaf_weight": 60.0678897947073, "leaf_count": 235}}, "right_child": {"split_index": 10, "split_feature": 0, "split_gain": 64.08159637451172, "threshold": 3.429799914360047, "decision_type": "<=", "default_left": true, "missing_type": "None", "internal_value": 0.0275924, "internal_weight": 393.836, "internal_count": 1571, "left_child": {"leaf_index": 7, "leaf_value": 0.08722120082071778, "leaf_weight": 123.64502584934235, "leaf_count": 477}, "right_child": {"leaf_index": 11, "leaf_value": 0.00030500082624647086, "leaf_weight": 270.19117300212383, "leaf_count": 1094}}}, "right_child": {"split_index": 12, "split_feature": 7, "split_gain": 21.460899353027344, "threshold": -116.40500259399413, "decision_type": "<=", "default_left": true, "missing_type": "None", "internal_value": -0.0873254, "internal_weight": 1425.14, "internal_count": 6067, "left_child": {"split_index": 13, "split_feature": 6, "split_gain": 19.57390022277832, "threshold": 39.03499984741212, "decision_type": "<=", "default_left": true, "missing_type": "None", "internal_value": -0.0881069, "internal_weight": 1419.38, "internal_count": 6045, "left_child": {"leaf_index": 6, "leaf_value": -0.08914739633563376, "leaf_weight": 1408.3257092535496, "leaf_count": 6001}, "right_child": {"leaf_index": 14, "leaf_value": 0.04443395891108198, "leaf_weight": 11.055589169263838, "leaf_count": 44}}, "right_child": {"leaf_index": 13, "leaf_value": 0.10534806747792719, "leaf_weight": 5.757650777697562, "leaf_count": 22}}}}}, {"tree_index": 5, "num_leaves": 16, "num_cat": 0, "shrinkage": 0.1, "tree_structure": {"split_index": 0, "split_feature": 0, "split_gain": 538.3709716796875, "threshold": 5.335700035095216, "decision_type": "<=", "default_left": true, "missing_type": "None", "internal_value": 0.000183963, "internal_weight": 4109.39, "internal_count": 16512, "left_child": {"split_index": 1, "split_feature": 7, "split_gain": 336.7040100097656, "threshold": -118.22500228881835, "decision_type": "<=", "default_left": true, "missing_type": "None", "internal_value": 0.0161329, "internal_weight": 3441.24, "internal_count": 13655, "left_child": {"split_index": 3, "split_feature": 6, "split_gain": 130.60299682617188, "threshold": 37.9650001525879, "decision_type": "<=", "default_left": true, "missing_type": "None", "internal_value": -0.00742145, "internal_weight": 2196.02, "internal_count": 8841, "left_child": {"split_index": 7, "split_feature": 7, "split_gain": 74.70030212402344, "threshold": -122.35499954223631, "decision_type": "<=", "default_left": true, "missing_type": "None", "internal_value": -0.0226488, "internal_weight": 1580.01, "internal_count": 6396, "left_child": {"leaf_index": 0, "leaf_value": -0.09286303264315705, "leaf_weight": 138.26157827675343, "leaf_count": 561}, "right_child": {"leaf_index": 8, "leaf_value": -0.015915352092027803, "leaf_weight": 1441.7445307075977, "leaf_count": 5835}}, "right_child": {"split_index": 4, "split_feature": 0, "split_gain": 131.26199340820312, "threshold": 2.839699983596802, "decision_type": "<=", "default_left": true, "missing_type": "None", "internal_value": 0.0316348, "internal_weight": 616.017, "internal_count": 2445, "left_child": {"leaf_index": 4, "leaf_value": -0.01961868211883047, "leaf_weight": 275.8916235566139, "leaf_count": 1112}, "right_child": {"leaf_index": 5, "leaf_value": 0.0732089571812912, "leaf_weight": 340.12535758316517, "leaf_count": 1333}}}, "right_child": {"split_index": 2, "split_feature": 5, "split_gain": 213.718994140625, "threshold": 3.1970286369323735, "decision_type": "<=", "default_left": true, "missing_type": "None", "internal_value": 0.0576725, "internal_weight": 1245.22, "internal_count": 4814, "left_child": {"split_index": 6, "split_feature": 7, "split_gain": 97.50920104980469, "threshold": -117.16500091552733, "decision_type": "<=", "default_left": true, "missing_type": "None", "internal_value": 0.0238826, "internal_weight": 747.772, "internal_count": 2952, "left_child": {"leaf_index": 2, "leaf_value": 0.0010395244365801505, "leaf_weight": 534.0622743964195, "leaf_count": 2120}, "right_child": {"leaf_index": 7, "leaf_value": 0.08096756333794523, "leaf_weight": 213.70986232161522, "leaf_count": 832}}, "right_child": {"split_index": 5, "split_feature": 7, "split_gain": 108.66799926757812, "threshold": -118.02499771118163, "decision_type": "<=", "default_left": true, "missing_type": "None", "internal_value": 0.108466, "internal_weight": 497.444, "internal_count": 1862, "left_child": {"leaf_index": 3, "leaf_value": 0.16519613123858393, "leaf_weight": 201.13377851247787, "leaf_count": 732}, "right_child": {"leaf_index": 6, "leaf_value": 0.0699587141693359, "leaf_weight": 296.310513317585, "leaf_count": 1130}}}}, "right_child": {"split_index": 8, "split_feature": 6, "split_gain": 11.173299789428711, "threshold": 37.9650001525879, "decision_type": "<=", "default_left": true, "missing_type": "None", "internal_value": -0.0819597, "internal_weight": 668.147, "internal_count": 2857, "left_child": {"split_index": 11, "split_feature": 7, "split_gain": 5.326839923858643, "threshold": -117.31499862670897, "decision_type": "<=", "default_left": true, "missing_type": "None", "internal_value": -0.0855113, "internal_weight": 621.283, "internal_count": 2664, "left_child": {"split_index": 13, "split_feature": 6, "split_gain": 2.742189884185791, "threshold": 34.655000686645515, "decision_type": "<=", "default_left": true, "missing_type": "None", "internal_value": -0.0884751, "internal_weight": 563.546, "internal_count": 2423, "left_child": {"leaf_index": 1, "leaf_value": -0.09419579816319759, "leaf_weight": 336.93866577744484, "leaf_count": 1447}, "right_child": {"leaf_index": 14, "leaf_value": -0.07996918412011103, "leaf_weight": 226.60711999237537, "leaf_count": 976}}, "right_child": {"split_index": 12, "split_feature": 6, "split_gain": 28.381000518798828, "threshold": 34.04500007629395, "decision_type": "<=", "default_left": true, "missing_type": "None", "internal_value": -0.0565829, "internal_weight": 57.7376, "internal_count": 241, "left_child": {"leaf_index": 12, "leaf_value": -0.07868907860801694, "leaf_weight": 52.51658909022808, "leaf_count": 221}, "right_child": {"leaf_index": 13, "leaf_value": 0.1657755632349101, "leaf_weight": 5.221045106649398, "leaf_count": 20}}}, "right_child": {"split_index": 9, "split_feature": 5, "split_gain": 11.938699722290039, "threshold": 3.1262267827987675, "decision_type": "<=", "default_left": true, "missing_type": "None", "internal_value": -0.0348748, "internal_weight": 46.8638, "internal_count": 193, "left_child": {"split_index": 14, "split_feature": 7, "split_gain": 2.4878599643707275, "threshold": -122.1949996948242, "decision_type": "<=", "default_left": true, "missing_type": "None", "internal_value": -0.0641443, "internal_weight": 35.0701, "internal_count": 146, "left_child": {"leaf_index": 9, "leaf_value": -0.09742268861602563, "leaf_weight": 13.693261370062823, "leaf_count": 58}, "right_child": {"leaf_index": 15, "leaf_value": -0.04282729000242582, "leaf_weight": 21.37684662640095, "leaf_count": 88}}, "right_child": {"split_index": 10, "split_feature": 0, "split_gain": 12.142000198364258, "threshold": 5.730749845504762, "decision_type": "<=", "default_left": true, "missing_type": "None", "internal_value": 0.0521621, "internal_weight": 11.7937, "internal_count": 47, "left_child": {"leaf_index": 10, "leaf_value": 0.16617660306526993, "leaf_weight": 5.212340608239172, "leaf_count": 20}, "right_child": {"leaf_index": 11, "leaf_value": -0.038136341485553164, "leaf_weight": 6.581314340233803, "leaf_count": 27}}}}}}, {"tree_index": 6, "num_leaves": 16, "num_cat": 0, "shrinkage": 0.1, "tree_structure": {"split_index": 0, "split_feature": 0, "split_gain": 388.22601318359375, "threshold": 2.6181499958038335, "decision_type": "<=", "default_left": true, "missing_type": "None", "internal_value": 0.000174888, "internal_weight": 4118.87, "internal_count": 16512, "left_child": {"split_index": 5, "split_feature": 2, "split_gain": 65.86329650878906, "threshold": 3.9364972114562993, "decision_type": "<=", "default_left": true, "missing_type": "None", "internal_value": -0.0524158, "internal_weight": 1046.9, "internal_count": 4378, "left_child": {"split_index": 6, "split_feature": 5, "split_gain": 45.22679901123047, "threshold": 3.6752356290817265, "decision_type": "<=", "default_left": true, "missing_type": "None", "internal_value": -0.0161766, "internal_weight": 339.082, "internal_count": 1379, "left_child": {"split_index": 7, "split_feature": 7, "split_gain": 36.79169845581055, "threshold": -117.14500045776366, "decision_type": "<=", "default_left": true, "missing_type": "None", "internal_value": 0.0105804, "internal_weight": 220.647, "internal_count": 885, "left_child": {"leaf_index": 0, "leaf_value": 0.025828949379588434, "leaf_weight": 193.64379414916039, "leaf_count": 774}, "right_child": {"leaf_index": 8, "leaf_value": -0.09877100789420848, "leaf_weight": 27.002720415592194, "leaf_count": 111}}, "right_child": {"split_index": 13, "split_feature": 2, "split_gain": 5.320390224456787, "threshold": 2.6633985042572026, "decision_type": "<=", "default_left": true, "missing_type": "None", "internal_value": -0.0660252, "internal_weight": 118.436, "internal_count": 494, "left_child": {"leaf_index": 7, "leaf_value": -0.00468361764362195, "leaf_weight": 12.631474211812018, "leaf_count": 51}, "right_child": {"leaf_index": 14, "leaf_value": -0.07334850844849229, "leaf_weight": 105.80417121946812, "leaf_count": 443}}}, "right_child": {"split_index": 8, "split_feature": 5, "split_gain": 14.88659954071045, "threshold": 2.162838697433472, "decision_type": "<=", "default_left": true, "missing_type": "None", "internal_value": -0.0697762, "internal_weight": 707.82, "internal_count": 2999, "left_child": {"split_index": 11, "split_feature": 6, "split_gain": 11.694899559020996, "threshold": 38.53499984741212, "decision_type": "<=", "default_left": true, "missing_type": "None", "internal_value": -0.0319606, "internal_weight": 90.7536, "internal_count": 379, "left_child": {"leaf_index": 6, "leaf_value": -0.011071257702767075, "leaf_weight": 67.79624234139919, "leaf_count": 283}, "right_child": {"leaf_index": 12, "leaf_value": -0.09364965180256567, "leaf_weight": 22.95735514163971, "leaf_count": 96}}, "right_child": {"split_index": 12, "split_feature": 6, "split_gain": 8.956589698791504, "threshold": 35.335000991821296, "decision_type": "<=", "default_left": true, "missing_type": "None", "internal_value": -0.0753378, "internal_weight": 617.066, "internal_count": 2620, "left_child": {"leaf_index": 9, "leaf_value": -0.06058862267604053, "leaf_weight": 246.95101536810398, "leaf_count": 1038}, "right_child": {"leaf_index": 13, "leaf_value": -0.08517889571224602, "leaf_weight": 370.1151049733162, "leaf_count": 1582}}}}, "right_child": {"split_index": 1, "split_feature": 0, "split_gain": 299.4490051269531, "threshold": 6.3350000381469735, "decision_type": "<=", "default_left": true, "missing_type": "None", "internal_value": 0.0180974, "internal_weight": 3071.97, "internal_count": 12134, "left_child": {"split_index": 2, "split_feature": 0, "split_gain": 116.02400207519531, "threshold": 4.1119000911712655, "decision_type": "<=", "default_left": true, "missing_type": "None", "internal_value": 0.0292248, "internal_weight": 2725.74, "internal_count": 10660, "left_child": {"split_index": 4, "split_feature": 6, "split_gain": 121.76799774169922, "threshold": 37.93499946594239, "decision_type": "<=", "default_left": true, "missing_type": "None", "internal_value": 0.011027, "internal_weight": 1533.04, "internal_count": 6067, "left_child": {"leaf_index": 1, "leaf_value": 0.02438489632962368, "leaf_weight": 1251.827319353819, "leaf_count": 4907}, "right_child": {"leaf_index": 5, "leaf_value": -0.048435356147813025, "leaf_weight": 281.2160909026861, "leaf_count": 1160}}, "right_child": {"split_index": 3, "split_feature": 5, "split_gain": 132.5019989013672, "threshold": 2.3647725582122807, "decision_type": "<=", "default_left": true, "missing_type": "None", "internal_value": 0.0526155, "internal_weight": 1192.69, "internal_count": 4593, "left_child": {"leaf_index": 3, "leaf_value": -0.022263859385060862, "leaf_weight": 197.2376473248005, "leaf_count": 792}, "right_child": {"leaf_index": 4, "leaf_value": 0.06745200894495512, "leaf_weight": 995.4554231315851, "leaf_count": 3801}}}, "right_child": {"split_index": 9, "split_feature": 0, "split_gain": 12.001199722290039, "threshold": 7.2638001441955575, "decision_type": "<=", "default_left": true, "missing_type": "None", "internal_value": -0.0695042, "internal_weight": 346.232, "internal_count": 1474, "left_child": {"split_index": 10, "split_feature": 7, "split_gain": 16.332399368286133, "threshold": -117.1949996948242, "decision_type": "<=", "default_left": true, "missing_type": "None", "internal_value": -0.0479673, "internal_weight": 148.078, "internal_count": 620, "left_child": {"leaf_index": 2, "leaf_value": -0.05611965294975788, "leaf_weight": 139.66255903244019, "leaf_count": 588}, "right_child": {"leaf_index": 11, "leaf_value": 0.08732545498145722, "leaf_weight": 8.415686964988707, "leaf_count": 32}}, "right_child": {"split_index": 14, "split_feature": 2, "split_gain": 2.390589952468872, "threshold": 5.500338315963746, "decision_type": "<=", "default_left": true, "missing_type": "None", "internal_value": -0.0855985, "internal_weight": 198.154, "internal_count": 854, "left_child": {"leaf_index": 10, "leaf_value": -0.016320573719972323, "leaf_weight": 4.858840554952621, "leaf_count": 20}, "right_child": {"leaf_index": 15, "leaf_value": -0.08733994152909812, "leaf_weight": 193.29480500519276, "leaf_count": 834}}}}}}, {"tree_index": 7, "num_leaves": 16, "num_cat": 0, "shrinkage": 0.1, "tree_structure": {"split_index": 0, "split_feature": 0, "split_gain": 2539.330078125, "threshold": 5.306299924850465, "decision_type": "<=", "default_left": true, "missing_type": "None", "internal_value": -0.000224293, "internal_weight": 4122.9, "internal_count": 16512, "left_child": {"split_index": 1, "split_feature": 5, "split_gain": 579.1680297851562, "threshold": 2.2982753515243535, "decision_type": "<=", "default_left": true, "missing_type": "None", "internal_value": -0.0391425, "internal_weight": 3309.13, "internal_count": 13592, "left_child": {"split_index": 2, "split_feature": 0, "split_gain": 339.6960144042969, "threshold": 3.179250001907349, "decision_type": "<=", "default_left": true, "missing_type": "None", "internal_value": 0.0426886, "internal_weight": 685.686, "internal_count": 2697, "left_child": {"split_index": 8, "split_feature": 6, "split_gain": 57.03340148925781, "threshold": 37.815000534057624, "decision_type": "<=", "default_left": true, "missing_type": "None", "internal_value": -0.0258873, "internal_weight": 351.77, "internal_count": 1441, "left_child": {"leaf_index": 0, "leaf_value": 0.0006996213236166874, "leaf_weight": 244.96881195902824, "leaf_count": 986}, "right_child": {"leaf_index": 9, "leaf_value": -0.08686937608880646, "leaf_weight": 106.8014007806778, "leaf_count": 455}}, "right_child": {"split_index": 7, "split_feature": 1, "split_gain": 136.25100708007812, "threshold": 19.500000000000004, "decision_type": "<=", "default_left": true, "missing_type": "None", "internal_value": 0.114931, "internal_weight": 333.915, "internal_count": 1256, "left_child": {"leaf_index": 3, "leaf_value": 0.01326435614729906, "leaf_weight": 94.50978191196918, "leaf_count": 371}, "right_child": {"leaf_index": 8, "leaf_value": 0.1550662715187684, "leaf_weight": 239.40562061965466, "leaf_count": 885}}}, "right_child": {"split_index": 4, "split_feature": 0, "split_gain": 207.22799682617188, "threshold": 3.9004499912261967, "decision_type": "<=", "default_left": true, "missing_type": "None", "internal_value": -0.0605306, "internal_weight": 2623.44, "internal_count": 10895, "left_child": {"split_index": 10, "split_feature": 1, "split_gain": 30.91830062866211, "threshold": 51.50000000000001, "decision_type": "<=", "default_left": true, "missing_type": "None", "internal_value": -0.0793832, "internal_weight": 1809.34, "internal_count": 7605, "left_child": {"leaf_index": 2, "leaf_value": -0.08235843232470832, "leaf_weight": 1720.2224855720997, "leaf_count": 7234}, "right_child": {"leaf_index": 11, "leaf_value": -0.021949234192660105, "leaf_weight": 89.11358581483364, "leaf_count": 371}}, "right_child": {"split_index": 6, "split_feature": 5, "split_gain": 166.85499572753906, "threshold": 2.9005380868911748, "decision_type": "<=", "default_left": true, "missing_type": "None", "internal_value": -0.0186313, "internal_weight": 814.107, "internal_count": 3290, "left_child": {"leaf_index": 5, "leaf_value": 0.026980353520238406, "leaf_weight": 404.010566085577, "leaf_count": 1593}, "right_child": {"leaf_index": 7, "leaf_value": -0.06356613619376097, "leaf_weight": 410.09621854126453, "leaf_count": 1697}}}}, "right_child": {"split_index": 3, "split_feature": 0, "split_gain": 214.25599670410156, "threshold": 6.3350000381469735, "decision_type": "<=", "default_left": true, "missing_type": "None", "internal_value": 0.158032, "internal_weight": 813.776, "internal_count": 2920, "left_child": {"split_index": 5, "split_feature": 5, "split_gain": 174.23599243164062, "threshold": 3.0375944375991826, "decision_type": "<=", "default_left": true, "missing_type": "None", "internal_value": 0.103827, "internal_weight": 384.586, "internal_count": 1446, "left_child": {"split_index": 9, "split_feature": 1, "split_gain": 50.99259948730469, "threshold": 22.500000000000004, "decision_type": "<=", "default_left": true, "missing_type": "None", "internal_value": 0.152413, "internal_weight": 252.843, "internal_count": 928, "left_child": {"leaf_index": 1, "leaf_value": 0.09089484973060291, "leaf_weight": 87.89913132786751, "leaf_count": 326}, "right_child": {"leaf_index": 10, "leaf_value": 0.18519632588590276, "leaf_weight": 164.94398310780525, "leaf_count": 602}}, "right_child": {"split_index": 11, "split_feature": 0, "split_gain": 15.938599586486816, "threshold": 5.730749845504762, "decision_type": "<=", "default_left": true, "missing_type": "None", "internal_value": 0.0105805, "internal_weight": 131.743, "internal_count": 518, "left_child": {"leaf_index": 6, "leaf_value": -0.026664615130522786, "leaf_weight": 61.372575506567955, "leaf_count": 246}, "right_child": {"leaf_index": 12, "leaf_value": 0.04306326397634912, "leaf_weight": 70.37062531709671, "leaf_count": 272}}}, "right_child": {"split_index": 12, "split_feature": 6, "split_gain": 9.539529800415039, "threshold": 37.9650001525879, "decision_type": "<=", "default_left": true, "missing_type": "None", "internal_value": 0.206605, "internal_weight": 429.189, "internal_count": 1474, "left_child": {"split_index": 13, "split_feature": 7, "split_gain": 7.751520156860352, "threshold": -117.73500061035155, "decision_type": "<=", "default_left": true, "missing_type": "None", "internal_value": 0.209749, "internal_weight": 410.913, "internal_count": 1411, "left_child": {"leaf_index": 4, "leaf_value": 0.21532593104638492, "leaf_weight": 352.74849703907967, "leaf_count": 1208}, "right_child": {"leaf_index": 14, "leaf_value": 0.17592511898952862, "leaf_weight": 58.16500151157379, "leaf_count": 203}}, "right_child": {"split_index": 14, "split_feature": 1, "split_gain": 6.975359916687012, "threshold": 16.500000000000004, "decision_type": "<=", "default_left": true, "missing_type": "None", "internal_value": 0.135912, "internal_weight": 18.2758, "internal_count": 63, "left_child": {"leaf_index": 13, "leaf_value": 0.06883011812434169, "leaf_weight": 8.387218773365023, "leaf_count": 29}, "right_child": {"leaf_index": 15, "leaf_value": 0.19280842732165893, "leaf_weight": 9.888550162315367, "leaf_count": 34}}}}}}, {"tree_index": 8, "num_leaves": 15, "num_cat": 0, "shrinkage": 0.1, "tree_structure": {"split_index": 0, "split_feature": 0, "split_gain": 1821.9200439453125, "threshold": 3.0830000638961796, "decision_type": "<=", "default_left": true, "missing_type": "None", "internal_value": -0.000315602, "internal_weight": 4073.75, "internal_count": 16512, "left_child": {"split_index": 1, "split_feature": 6, "split_gain": 337.968994140625, "threshold": 34.45499992370606, "decision_type": "<=", "default_left": true, "missing_type": "None", "internal_value": 0.0770659, "internal_weight": 1741.76, "internal_count": 6294, "left_child": {"split_index": 2, "split_feature": 7, "split_gain": 300.9179992675781, "threshold": -117.77499771118163, "decision_type": "<=", "default_left": true, "missing_type": "None", "internal_value": 0.0289753, "internal_weight": 794.643, "internal_count": 3034, "left_child": {"split_index": 7, "split_feature": 6, "split_gain": 141.83099365234375, "threshold": 34.02499961853028, "decision_type": "<=", "default_left": true, "missing_type": "None", "internal_value": -0.0195845, "internal_weight": 489.704, "internal_count": 1933, "left_child": {"leaf_index": 0, "leaf_value": 0.028112423067733906, "leaf_weight": 274.2680705040693, "leaf_count": 1045}, "right_child": {"leaf_index": 8, "leaf_value": -0.08030671410801032, "leaf_weight": 215.43614315986633, "leaf_count": 888}}, "right_child": {"split_index": 8, "split_feature": 5, "split_gain": 89.71320343017578, "threshold": 2.9933091402053837, "decision_type": "<=", "default_left": true, "missing_type": "None", "internal_value": 0.106958, "internal_weight": 304.939, "internal_count": 1101, "left_child": {"leaf_index": 3, "leaf_value": 0.0601891568256197, "leaf_weight": 174.90244562923908, "leaf_count": 640}, "right_child": {"leaf_index": 9, "leaf_value": 0.16986321291666612, "leaf_weight": 130.03666158020496, "leaf_count": 461}}}, "right_child": {"split_index": 4, "split_feature": 7, "split_gain": 201.12899780273438, "threshold": -121.63499832153319, "decision_type": "<=", "default_left": true, "missing_type": "None", "internal_value": 0.117414, "internal_weight": 947.117, "internal_count": 3260, "left_child": {"split_index": 5, "split_feature": 6, "split_gain": 279.8290100097656, "threshold": 38.66499900817872, "decision_type": "<=", "default_left": true, "missing_type": "None", "internal_value": 0.0602927, "internal_weight": 373.395, "internal_count": 1338, "left_child": {"leaf_index": 2, "leaf_value": -0.0038538683830188023, "leaf_weight": 241.04559959471226, "leaf_count": 905}, "right_child": {"leaf_index": 6, "leaf_value": 0.17712170517361372, "leaf_weight": 132.3494512140751, "leaf_count": 433}}, "right_child": {"split_index": 9, "split_feature": 7, "split_gain": 56.947200775146484, "threshold": -120.09499740600585, "decision_type": "<=", "default_left": true, "missing_type": "None", "internal_value": 0.154591, "internal_weight": 573.722, "internal_count": 1922, "left_child": {"leaf_index": 5, "leaf_value": 0.12773163002202767, "leaf_weight": 332.2436123043299, "leaf_count": 1127}, "right_child": {"leaf_index": 10, "leaf_value": 0.19154616286106738, "leaf_weight": 241.47790032625198, "leaf_count": 795}}}}, "right_child": {"split_index": 3, "split_feature": 0, "split_gain": 209.35000610351562, "threshold": 4.1119000911712655, "decision_type": "<=", "default_left": true, "missing_type": "None", "internal_value": -0.0581117, "internal_weight": 2331.99, "internal_count": 10218, "left_child": {"split_index": 6, "split_feature": 2, "split_gain": 151.2169952392578, "threshold": 5.341320037841798, "decision_type": "<=", "default_left": true, "missing_type": "None", "internal_value": -0.0235867, "internal_weight": 1001.81, "internal_count": 4151, "left_child": {"split_index": 11, "split_feature": 6, "split_gain": 42.244998931884766, "threshold": 37.9650001525879, "decision_type": "<=", "default_left": true, "missing_type": "None", "internal_value": -0.0558804, "internal_weight": 592.471, "internal_count": 2536, "left_child": {"leaf_index": 1, "leaf_value": -0.0644946147044022, "leaf_weight": 536.6243521869183, "leaf_count": 2320}, "right_child": {"leaf_index": 12, "leaf_value": 0.02689295927807632, "leaf_weight": 55.846793457865715, "leaf_count": 216}}, "right_child": {"split_index": 10, "split_feature": 0, "split_gain": 51.49639892578125, "threshold": 3.626500010490418, "decision_type": "<=", "default_left": true, "missing_type": "None", "internal_value": 0.0231542, "internal_weight": 409.343, "internal_count": 1615, "left_child": {"leaf_index": 7, "leaf_value": 0.05890600412046955, "leaf_weight": 203.04443748295307, "leaf_count": 765}, "right_child": {"leaf_index": 11, "leaf_value": -0.012033549168015426, "leaf_weight": 206.298857614398, "leaf_count": 850}}}, "right_child": {"split_index": 12, "split_feature": 7, "split_gain": 22.11389923095703, "threshold": -116.31499862670897, "decision_type": "<=", "default_left": true, "missing_type": "None", "internal_value": -0.084114, "internal_weight": 1330.18, "internal_count": 6067, "left_child": {"split_index": 13, "split_feature": 6, "split_gain": 18.659000396728516, "threshold": 39.03499984741212, "decision_type": "<=", "default_left": true, "missing_type": "None", "internal_value": -0.0848648, "internal_weight": 1325.68, "internal_count": 6051, "left_child": {"leaf_index": 4, "leaf_value": -0.08595235977756843, "leaf_weight": 1314.6333478689194, "leaf_count": 6007}, "right_child": {"leaf_index": 14, "leaf_value": 0.04454827777714276, "leaf_weight": 11.04832850396633, "leaf_count": 44}}, "right_child": {"leaf_index": 13, "leaf_value": 0.13733810016500572, "leaf_weight": 4.4940346479415885, "leaf_count": 16}}}}}, {"tree_index": 9, "num_leaves": 16, "num_cat": 0, "shrinkage": 0.1, "tree_structure": {"split_index": 0, "split_feature": 0, "split_gain": 459.3299865722656, "threshold": 5.038699865341187, "decision_type": "<=", "default_left": true, "missing_type": "None", "internal_value": 0.000416964, "internal_weight": 4086.69, "internal_count": 16512, "left_child": {"split_index": 1, "split_feature": 7, "split_gain": 278.5830078125, "threshold": -118.22500228881835, "decision_type": "<=", "default_left": true, "missing_type": "None", "internal_value": 0.0168463, "internal_weight": 3295.32, "internal_count": 12960, "left_child": {"split_index": 4, "split_feature": 1, "split_gain": 97.97820281982422, "threshold": 18.500000000000004, "decision_type": "<=", "default_left": true, "missing_type": "None", "internal_value": -0.00534673, "internal_weight": 2082.21, "internal_count": 8413, "left_child": {"split_index": 5, "split_feature": 6, "split_gain": 71.7240982055664, "threshold": 37.4650001525879, "decision_type": "<=", "default_left": true, "missing_type": "None", "internal_value": 0.03497, "internal_weight": 467.456, "internal_count": 1865, "left_child": {"leaf_index": 0, "leaf_value": -0.011202199504014965, "leaf_weight": 195.63471525907516, "leaf_count": 799}, "right_child": {"leaf_index": 6, "leaf_value": 0.0682010239654791, "leaf_weight": 271.82111686468124, "leaf_count": 1066}}, "right_child": {"split_index": 7, "split_feature": 6, "split_gain": 42.16389846801758, "threshold": 37.835000991821296, "decision_type": "<=", "default_left": true, "missing_type": "None", "internal_value": -0.017018, "internal_weight": 1614.75, "internal_count": 6548, "left_child": {"leaf_index": 5, "leaf_value": -0.02739138090411244, "leaf_weight": 1143.512008085847, "leaf_count": 4685}, "right_child": {"leaf_index": 8, "leaf_value": 0.008153824949564216, "leaf_weight": 471.2423892915249, "leaf_count": 1863}}}, "right_child": {"split_index": 2, "split_feature": 5, "split_gain": 145.74000549316406, "threshold": 3.6585403680801396, "decision_type": "<=", "default_left": true, "missing_type": "None", "internal_value": 0.0549389, "internal_weight": 1213.11, "internal_count": 4547, "left_child": {"split_index": 6, "split_feature": 6, "split_gain": 44.78260040283203, "threshold": 32.95499992370606, "decision_type": "<=", "default_left": true, "missing_type": "None", "internal_value": 0.034809, "internal_weight": 907.139, "internal_count": 3472, "left_child": {"leaf_index": 2, "leaf_value": 0.07798226707643822, "leaf_weight": 189.94999852776527, "leaf_count": 708}, "right_child": {"leaf_index": 7, "leaf_value": 0.02337438426513084, "leaf_weight": 717.1885683834553, "leaf_count": 2764}}, "right_child": {"split_index": 3, "split_feature": 7, "split_gain": 114.5199966430664, "threshold": -117.85499954223631, "decision_type": "<=", "default_left": true, "missing_type": "None", "internal_value": 0.11462, "internal_weight": 305.969, "internal_count": 1075, "left_child": {"leaf_index": 3, "leaf_value": 0.15526302884559345, "leaf_weight": 212.28225937485695, "leaf_count": 722}, "right_child": {"leaf_index": 4, "leaf_value": 0.022528719053444207, "leaf_weight": 93.68714734911919, "leaf_count": 353}}}}, "right_child": {"split_index": 8, "split_feature": 6, "split_gain": 36.005001068115234, "threshold": 37.975000381469734, "decision_type": "<=", "default_left": true, "missing_type": "None", "internal_value": -0.0679952, "internal_weight": 791.376, "internal_count": 3552, "left_child": {"split_index": 9, "split_feature": 7, "split_gain": 24.819000244140625, "threshold": -117.63499832153319, "decision_type": "<=", "default_left": true, "missing_type": "None", "internal_value": -0.0743684, "internal_weight": 726.517, "internal_count": 3287, "left_child": {"split_index": 13, "split_feature": 1, "split_gain": 5.006110191345215, "threshold": 16.500000000000004, "decision_type": "<=", "default_left": true, "missing_type": "None", "internal_value": -0.0813123, "internal_weight": 636.654, "internal_count": 2902, "left_child": {"leaf_index": 1, "leaf_value": -0.0644294953072826, "leaf_weight": 137.6582249403, "leaf_count": 625}, "right_child": {"leaf_index": 14, "leaf_value": -0.0859698264960841, "leaf_weight": 498.9956828802824, "leaf_count": 2277}}, "right_child": {"split_index": 10, "split_feature": 6, "split_gain": 31.899200439453125, "threshold": 34.014999389648445, "decision_type": "<=", "default_left": true, "missing_type": "None", "internal_value": -0.0251723, "internal_weight": 89.8633, "internal_count": 385, "left_child": {"leaf_index": 10, "leaf_value": -0.052928227631275984, "leaf_weight": 73.83838249742985, "leaf_count": 324}, "right_child": {"leaf_index": 11, "leaf_value": 0.10271953097591871, "leaf_weight": 16.02487087249756, "leaf_count": 61}}}, "right_child": {"split_index": 11, "split_feature": 7, "split_gain": 21.64150047302246, "threshold": -122.06499862670897, "decision_type": "<=", "default_left": true, "missing_type": "None", "internal_value": 0.00339337, "internal_weight": 64.8587, "internal_count": 265, "left_child": {"split_index": 14, "split_feature": 2, "split_gain": 2.7477099895477295, "threshold": 6.4946701526641855, "decision_type": "<=", "default_left": true, "missing_type": "None", "internal_value": -0.06666, "internal_weight": 26.2507, "internal_count": 113, "left_child": {"leaf_index": 9, "leaf_value": -0.022996426834837092, "leaf_weight": 9.304108530282976, "leaf_count": 39}, "right_child": {"leaf_index": 15, "leaf_value": -0.09063240221764815, "leaf_weight": 16.946552872657776, "leaf_count": 74}}, "right_child": {"split_index": 12, "split_feature": 0, "split_gain": 22.53730010986328, "threshold": 5.83080005645752, "decision_type": "<=", "default_left": true, "missing_type": "None", "internal_value": 0.0510245, "internal_weight": 38.6081, "internal_count": 152, "left_child": {"leaf_index": 12, "leaf_value": 0.10239690097712131, "leaf_weight": 26.5877066552639, "leaf_count": 99}, "right_child": {"leaf_index": 13, "leaf_value": -0.06260553939463892, "leaf_weight": 12.020356625318525, "leaf_count": 53}}}}}}, {"tree_index": 10, "num_leaves": 16, "num_cat": 0, "shrinkage": 0.1, "tree_structure": {"split_index": 0, "split_feature": 0, "split_gain": 324.56500244140625, "threshold": 2.6181499958038335, "decision_type": "<=", "default_left": true, "missing_type": "None", "internal_value": 0.000377894, "internal_weight": 4097.11, "internal_count": 16512, "left_child": {"split_index": 5, "split_feature": 2, "split_gain": 57.2859992980957, "threshold": 3.9364972114562993, "decision_type": "<=", "default_left": true, "missing_type": "None", "internal_value": -0.0490294, "internal_weight": 1003.83, "internal_count": 4378, "left_child": {"split_index": 6, "split_feature": 5, "split_gain": 39.2052001953125, "threshold": 3.6752356290817265, "decision_type": "<=", "default_left": true, "missing_type": "None", "internal_value": -0.0153551, "internal_weight": 336.06, "internal_count": 1379, "left_child": {"split_index": 7, "split_feature": 0, "split_gain": 33.327301025390625, "threshold": 2.0275000333786015, "decision_type": "<=", "default_left": true, "missing_type": "None", "internal_value": 0.00906251, "internal_weight": 222.399, "internal_count": 885, "left_child": {"leaf_index": 0, "leaf_value": -0.026432814205532347, "leaf_weight": 120.81880602240562, "leaf_count": 493}, "right_child": {"leaf_index": 8, "leaf_value": 0.051280331059780374, "leaf_weight": 101.58038213849068, "leaf_count": 392}}, "right_child": {"split_index": 13, "split_feature": 2, "split_gain": 4.725830078125, "threshold": 2.6633985042572026, "decision_type": "<=", "default_left": true, "missing_type": "None", "internal_value": -0.0631326, "internal_weight": 113.661, "internal_count": 494, "left_child": {"leaf_index": 7, "leaf_value": -0.005651048548467222, "leaf_weight": 12.704163387417791, "leaf_count": 51}, "right_child": {"leaf_index": 14, "leaf_value": -0.07036589998679592, "leaf_weight": 100.95695777237415, "leaf_count": 443}}}, "right_child": {"split_index": 8, "split_feature": 5, "split_gain": 14.7322998046875, "threshold": 2.2352443933486943, "decision_type": "<=", "default_left": true, "missing_type": "None", "internal_value": -0.0659762, "internal_weight": 667.771, "internal_count": 2999, "left_child": {"split_index": 11, "split_feature": 6, "split_gain": 11.335399627685547, "threshold": 38.53499984741212, "decision_type": "<=", "default_left": true, "missing_type": "None", "internal_value": -0.0328865, "internal_weight": 111.986, "internal_count": 490, "left_child": {"leaf_index": 6, "leaf_value": -0.013503276369629242, "leaf_weight": 81.67172753810883, "leaf_count": 353}, "right_child": {"leaf_index": 12, "leaf_value": -0.0851076307147087, "leaf_weight": 30.314662605524063, "leaf_count": 137}}, "right_child": {"split_index": 12, "split_feature": 6, "split_gain": 9.005949974060059, "threshold": 35.335000991821296, "decision_type": "<=", "default_left": true, "missing_type": "None", "internal_value": -0.0726435, "internal_weight": 555.785, "internal_count": 2509, "left_child": {"leaf_index": 9, "leaf_value": -0.05734716419479287, "leaf_weight": 227.41215220093727, "leaf_count": 1002}, "right_child": {"leaf_index": 13, "leaf_value": -0.08323690592862797, "leaf_weight": 328.37270127236843, "leaf_count": 1507}}}}, "right_child": {"split_index": 1, "split_feature": 0, "split_gain": 241.6300048828125, "threshold": 6.3350000381469735, "decision_type": "<=", "default_left": true, "missing_type": "None", "internal_value": 0.0164116, "internal_weight": 3093.27, "internal_count": 12134, "left_child": {"split_index": 2, "split_feature": 7, "split_gain": 92.4843978881836, "threshold": -117.50500106811522, "decision_type": "<=", "default_left": true, "missing_type": "None", "internal_value": 0.0259751, "internal_weight": 2769.06, "internal_count": 10660, "left_child": {"split_index": 3, "split_feature": 6, "split_gain": 168.1540069580078, "threshold": 34.43499946594239, "decision_type": "<=", "default_left": true, "missing_type": "None", "internal_value": 0.0330755, "internal_weight": 2405.89, "internal_count": 9261, "left_child": {"leaf_index": 1, "leaf_value": 0.06100093013158632, "leaf_weight": 1137.1324528455734, "leaf_count": 4311}, "right_child": {"leaf_index": 4, "leaf_value": 0.008047150487365392, "leaf_weight": 1268.757725611329, "leaf_count": 4950}}, "right_child": {"split_index": 4, "split_feature": 6, "split_gain": 59.64849853515625, "threshold": 33.64500045776368, "decision_type": "<=", "default_left": true, "missing_type": "None", "internal_value": -0.0210632, "internal_weight": 363.17, "internal_count": 1399, "left_child": {"leaf_index": 3, "leaf_value": 0.009471179194503953, "leaf_weight": 231.66398313641548, "leaf_count": 892}, "right_child": {"leaf_index": 5, "leaf_value": -0.07485302508471563, "leaf_weight": 131.50625270605087, "leaf_count": 507}}}, "right_child": {"split_index": 9, "split_feature": 0, "split_gain": 11.813599586486816, "threshold": 7.2638001441955575, "decision_type": "<=", "default_left": true, "missing_type": "None", "internal_value": -0.0652686, "internal_weight": 324.214, "internal_count": 1474, "left_child": {"split_index": 10, "split_feature": 7, "split_gain": 14.338000297546387, "threshold": -117.73500061035155, "decision_type": "<=", "default_left": true, "missing_type": "None", "internal_value": -0.0434781, "internal_weight": 140.772, "internal_count": 620, "left_child": {"leaf_index": 2, "leaf_value": -0.05786347136645477, "leaf_weight": 117.00023077428341, "leaf_count": 521}, "right_child": {"leaf_index": 11, "leaf_value": 0.027325011019033188, "leaf_weight": 23.771432116627693, "leaf_count": 99}}, "right_child": {"split_index": 14, "split_feature": 4, "split_gain": 2.4369900226593018, "threshold": 229.50000000000003, "decision_type": "<=", "default_left": true, "missing_type": "None", "internal_value": -0.0819905, "internal_weight": 183.442, "internal_count": 854, "left_child": {"leaf_index": 10, "leaf_value": -0.03297866990621815, "leaf_weight": 9.613364681601523, "leaf_count": 43}, "right_child": {"leaf_index": 15, "leaf_value": -0.08470100184656258, "leaf_weight": 173.8288849592209, "leaf_count": 811}}}}}}, {"tree_index": 11, "num_leaves": 16, "num_cat": 0, "shrinkage": 0.1, "tree_structure": {"split_index": 0, "split_feature": 0, "split_gain": 1944.72998046875, "threshold": 5.27709984779358, "decision_type": "<=", "default_left": true, "missing_type": "None", "internal_value": -0.000482195, "internal_weight": 4078.42, "internal_count": 16512, "left_child": {"split_index": 1, "split_feature": 5, "split_gain": 501.0950012207031, "threshold": 2.2982753515243535, "decision_type": "<=", "default_left": true, "missing_type": "None", "internal_value": -0.036896, "internal_weight": 3191.06, "internal_count": 13529, "left_child": {"split_index": 2, "split_feature": 0, "split_gain": 254.89100646972656, "threshold": 3.179250001907349, "decision_type": "<=", "default_left": true, "missing_type": "None", "internal_value": 0.038371, "internal_weight": 692.557, "internal_count": 2688, "left_child": {"split_index": 8, "split_feature": 6, "split_gain": 52.58300018310547, "threshold": 37.80500030517579, "decision_type": "<=", "default_left": true, "missing_type": "None", "internal_value": -0.0229515, "internal_weight": 342.555, "internal_count": 1441, "left_child": {"leaf_index": 0, "leaf_value": 0.0028565642392780295, "leaf_weight": 238.8961842060089, "leaf_count": 972}, "right_child": {"leaf_index": 9, "leaf_value": -0.08243001724757973, "leaf_weight": 103.65852099657059, "leaf_count": 469}}, "right_child": {"split_index": 7, "split_feature": 1, "split_gain": 101.51399993896484, "threshold": 18.500000000000004, "decision_type": "<=", "default_left": true, "missing_type": "None", "internal_value": 0.0983887, "internal_weight": 350.002, "internal_count": 1247, "left_child": {"leaf_index": 3, "leaf_value": 0.005301814984454367, "leaf_weight": 87.77255007624626, "leaf_count": 340}, "right_child": {"leaf_index": 8, "leaf_value": 0.12954648232683988, "leaf_weight": 262.2294616252184, "leaf_count": 907}}}, "right_child": {"split_index": 3, "split_feature": 0, "split_gain": 183.74200439453125, "threshold": 3.7944999933242802, "decision_type": "<=", "default_left": true, "missing_type": "None", "internal_value": -0.0577592, "internal_weight": 2498.5, "internal_count": 10841, "left_child": {"split_index": 10, "split_feature": 1, "split_gain": 27.331199645996094, "threshold": 51.50000000000001, "decision_type": "<=", "default_left": true, "missing_type": "None", "internal_value": -0.0773492, "internal_weight": 1641.76, "internal_count": 7318, "left_child": {"leaf_index": 2, "leaf_value": -0.08035490639521109, "leaf_weight": 1557.2517835646868, "leaf_count": 6961}, "right_child": {"leaf_index": 11, "leaf_value": -0.021962023937204984, "leaf_weight": 84.5062994658947, "leaf_count": 357}}, "right_child": {"split_index": 5, "split_feature": 5, "split_gain": 138.2969970703125, "threshold": 2.9005380868911748, "decision_type": "<=", "default_left": true, "missing_type": "None", "internal_value": -0.0202193, "internal_weight": 856.743, "internal_count": 3523, "left_child": {"leaf_index": 4, "leaf_value": 0.01926180690294432, "leaf_weight": 435.85956709086895, "leaf_count": 1708}, "right_child": {"leaf_index": 6, "leaf_value": -0.06110523441611454, "leaf_weight": 420.8832692950964, "leaf_count": 1815}}}}, "right_child": {"split_index": 4, "split_feature": 0, "split_gain": 148.7550048828125, "threshold": 6.3350000381469735, "decision_type": "<=", "default_left": true, "missing_type": "None", "internal_value": 0.130466, "internal_weight": 887.363, "internal_count": 2983, "left_child": {"split_index": 6, "split_feature": 5, "split_gain": 136.11599731445312, "threshold": 2.9742256402969365, "decision_type": "<=", "default_left": true, "missing_type": "None", "internal_value": 0.0873807, "internal_weight": 421.077, "internal_count": 1509, "left_child": {"split_index": 9, "split_feature": 1, "split_gain": 40.49589920043945, "threshold": 20.500000000000004, "decision_type": "<=", "default_left": true, "missing_type": "None", "internal_value": 0.132208, "internal_weight": 259.663, "internal_count": 887, "left_child": {"leaf_index": 1, "leaf_value": 0.07268490128222016, "leaf_weight": 79.36460183560848, "leaf_count": 280}, "right_child": {"leaf_index": 10, "leaf_value": 0.1584085886604018, "leaf_weight": 180.29889744520187, "leaf_count": 607}}, "right_child": {"split_index": 11, "split_feature": 0, "split_gain": 14.992600440979004, "threshold": 5.535849809646607, "decision_type": "<=", "default_left": true, "missing_type": "None", "internal_value": 0.0152685, "internal_weight": 161.414, "internal_count": 622, "left_child": {"leaf_index": 7, "leaf_value": -0.035731934815323524, "leaf_weight": 42.47359645366669, "leaf_count": 173}, "right_child": {"leaf_index": 12, "leaf_value": 0.033480692765055164, "leaf_weight": 118.9403185993433, "leaf_count": 449}}}, "right_child": {"split_index": 12, "split_feature": 1, "split_gain": 7.099780082702637, "threshold": 17.500000000000004, "decision_type": "<=", "default_left": true, "missing_type": "None", "internal_value": 0.169374, "internal_weight": 466.286, "internal_count": 1474, "left_child": {"split_index": 13, "split_feature": 0, "split_gain": 8.988140106201172, "threshold": 7.2638001441955575, "decision_type": "<=", "default_left": true, "missing_type": "None", "internal_value": 0.150994, "internal_weight": 144.871, "internal_count": 461, "left_child": {"leaf_index": 5, "leaf_value": 0.123551294730216, "leaf_weight": 65.43739464879036, "leaf_count": 211}, "right_child": {"leaf_index": 14, "leaf_value": 0.17360196258857274, "leaf_weight": 79.43408384919167, "leaf_count": 250}}, "right_child": {"split_index": 14, "split_feature": 7, "split_gain": 2.9855799674987793, "threshold": -117.21500015258788, "decision_type": "<=", "default_left": true, "missing_type": "None", "internal_value": 0.177658, "internal_weight": 321.414, "internal_count": 1013, "left_child": {"leaf_index": 13, "leaf_value": 0.1790554208627435, "leaf_weight": 314.79993841052055, "leaf_count": 991}, "right_child": {"leaf_index": 15, "leaf_value": 0.11116877223572222, "leaf_weight": 6.614391177892684, "leaf_count": 22}}}}}}, {"tree_index": 12, "num_leaves": 15, "num_cat": 0, "shrinkage": 0.1, "tree_structure": {"split_index": 0, "split_feature": 0, "split_gain": 1491.280029296875, "threshold": 3.179250001907349, "decision_type": "<=", "default_left": true, "missing_type": "None", "internal_value": -0.000477182, "internal_weight": 4015.71, "internal_count": 16512, "left_child": {"split_index": 1, "split_feature": 0, "split_gain": 289.7070007324219, "threshold": 2.3596000671386723, "decision_type": "<=", "default_left": true, "missing_type": "None", "internal_value": 0.0634974, "internal_weight": 1910.34, "internal_count": 6789, "left_child": {"split_index": 3, "split_feature": 2, "split_gain": 192.30799865722656, "threshold": 3.722522139549256, "decision_type": "<=", "default_left": true, "missing_type": "None", "internal_value": 0.101604, "internal_weight": 975.901, "internal_count": 3324, "left_child": {"split_index": 10, "split_feature": 7, "split_gain": 28.493200302124023, "threshold": -117.12499999999999, "decision_type": "<=", "default_left": true, "missing_type": "None", "internal_value": 0.0186536, "internal_weight": 217.266, "internal_count": 831, "left_child": {"leaf_index": 0, "leaf_value": 0.008426362346093171, "leaf_weight": 201.21713760495186, "leaf_count": 774}, "right_child": {"leaf_index": 11, "leaf_value": 0.1468836013698645, "leaf_weight": 16.048550009727478, "leaf_count": 57}}, "right_child": {"split_index": 7, "split_feature": 0, "split_gain": 49.030601501464844, "threshold": 1.8847000002861025, "decision_type": "<=", "default_left": true, "missing_type": "None", "internal_value": 0.12536, "internal_weight": 758.636, "internal_count": 2493, "left_child": {"leaf_index": 4, "leaf_value": 0.15270063350487134, "leaf_weight": 351.77096907794476, "leaf_count": 1137}, "right_child": {"leaf_index": 8, "leaf_value": 0.10172115639253661, "leaf_weight": 406.86478005349636, "leaf_count": 1356}}}, "right_child": {"split_index": 2, "split_feature": 2, "split_gain": 281.8080139160156, "threshold": 4.659602642059327, "decision_type": "<=", "default_left": true, "missing_type": "None", "internal_value": 0.0237003, "internal_weight": 934.44, "internal_count": 3465, "left_child": {"split_index": 9, "split_feature": 7, "split_gain": 43.01250076293945, "threshold": -117.77499771118163, "decision_type": "<=", "default_left": true, "missing_type": "None", "internal_value": -0.0391512, "internal_weight": 404.542, "internal_count": 1628, "left_child": {"leaf_index": 2, "leaf_value": -0.05304673067852094, "leaf_weight": 342.3676447570324, "leaf_count": 1398}, "right_child": {"leaf_index": 10, "leaf_value": 0.03736535488470875, "leaf_weight": 62.174586713314056, "leaf_count": 230}}, "right_child": {"split_index": 6, "split_feature": 5, "split_gain": 50.815399169921875, "threshold": 2.4060378074646, "decision_type": "<=", "default_left": true, "missing_type": "None", "internal_value": 0.0716833, "internal_weight": 529.898, "internal_count": 1837, "left_child": {"leaf_index": 3, "leaf_value": 0.015232183661065974, "leaf_weight": 122.57403694093227, "leaf_count": 435}, "right_child": {"leaf_index": 7, "leaf_value": 0.08867083575307583, "leaf_weight": 407.32350693643093, "leaf_count": 1402}}}}, "right_child": {"split_index": 4, "split_feature": 0, "split_gain": 159.156005859375, "threshold": 4.1119000911712655, "decision_type": "<=", "default_left": true, "missing_type": "None", "internal_value": -0.0585255, "internal_weight": 2105.37, "internal_count": 9723, "left_child": {"split_index": 5, "split_feature": 2, "split_gain": 106.08100128173828, "threshold": 5.194782733917237, "decision_type": "<=", "default_left": true, "missing_type": "None", "internal_value": -0.025483, "internal_weight": 861.347, "internal_count": 3656, "left_child": {"split_index": 11, "split_feature": 6, "split_gain": 27.18199920654297, "threshold": 37.9650001525879, "decision_type": "<=", "default_left": true, "missing_type": "None", "internal_value": -0.0606138, "internal_weight": 430.218, "internal_count": 1938, "left_child": {"leaf_index": 1, "leaf_value": -0.06807044910754968, "leaf_weight": 395.42011503875256, "leaf_count": 1804}, "right_child": {"leaf_index": 12, "leaf_value": 0.024118231246317484, "leaf_weight": 34.798213705420494, "leaf_count": 134}}, "right_child": {"split_index": 8, "split_feature": 6, "split_gain": 44.74769973754883, "threshold": 39.424999237060554, "decision_type": "<=", "default_left": true, "missing_type": "None", "internal_value": 0.00957363, "internal_weight": 431.128, "internal_count": 1718, "left_child": {"leaf_index": 6, "leaf_value": 0.0030066446317687473, "leaf_weight": 413.9297116547823, "leaf_count": 1655}, "right_child": {"leaf_index": 9, "leaf_value": 0.16762493342605625, "leaf_weight": 17.198663771152496, "leaf_count": 63}}}, "right_child": {"split_index": 12, "split_feature": 7, "split_gain": 19.429399490356445, "threshold": -116.31499862670897, "decision_type": "<=", "default_left": true, "missing_type": "None", "internal_value": -0.0814037, "internal_weight": 1244.02, "internal_count": 6067, "left_child": {"split_index": 13, "split_feature": 6, "split_gain": 17.492700576782227, "threshold": 39.03499984741212, "decision_type": "<=", "default_left": true, "missing_type": "None", "internal_value": -0.0821747, "internal_weight": 1239.31, "internal_count": 6051, "left_child": {"leaf_index": 5, "leaf_value": -0.08330749803088093, "leaf_weight": 1228.142605677247, "leaf_count": 6007}, "right_child": {"leaf_index": 14, "leaf_value": 0.04243200606047922, "leaf_weight": 11.164581790566443, "leaf_count": 44}}, "right_child": {"leaf_index": 13, "leaf_value": 0.1211614695975991, "leaf_weight": 4.717148333787917, "leaf_count": 16}}}}}, {"tree_index": 13, "num_leaves": 16, "num_cat": 0, "shrinkage": 0.1, "tree_structure": {"split_index": 0, "split_feature": 0, "split_gain": 392.7139892578125, "threshold": 5.335700035095216, "decision_type": "<=", "default_left": true, "missing_type": "None", "internal_value": 0.000687419, "internal_weight": 4056.65, "internal_count": 16512, "left_child": {"split_index": 1, "split_feature": 7, "split_gain": 224.71299743652344, "threshold": -118.22500228881835, "decision_type": "<=", "default_left": true, "missing_type": "None", "internal_value": 0.0134127, "internal_weight": 3475.33, "internal_count": 13655, "left_child": {"split_index": 3, "split_feature": 6, "split_gain": 100.79299926757812, "threshold": 37.9650001525879, "decision_type": "<=", "default_left": true, "missing_type": "None", "internal_value": -0.00628697, "internal_weight": 2171.83, "internal_count": 8841, "left_child": {"split_index": 6, "split_feature": 7, "split_gain": 69.75489807128906, "threshold": -122.35499954223631, "decision_type": "<=", "default_left": true, "missing_type": "None", "internal_value": -0.0200299, "internal_weight": 1543.63, "internal_count": 6396, "left_child": {"leaf_index": 0, "leaf_value": -0.09005269602060972, "leaf_weight": 130.2592911720276, "leaf_count": 561}, "right_child": {"leaf_index": 7, "leaf_value": -0.01357643917703392, "leaf_weight": 1413.371867209673, "leaf_count": 5835}}, "right_child": {"split_index": 4, "split_feature": 6, "split_gain": 103.90599822998047, "threshold": 39.354999542236335, "decision_type": "<=", "default_left": true, "missing_type": "None", "internal_value": 0.0274827, "internal_weight": 628.198, "internal_count": 2445, "left_child": {"leaf_index": 4, "leaf_value": 0.04784346137099765, "leaf_weight": 502.30224840343, "leaf_count": 1909}, "right_child": {"leaf_index": 5, "leaf_value": -0.05375365702576253, "leaf_weight": 125.89530892670155, "leaf_count": 536}}}, "right_child": {"split_index": 2, "split_feature": 5, "split_gain": 132.8990020751953, "threshold": 3.1970286369323735, "decision_type": "<=", "default_left": true, "missing_type": "None", "internal_value": 0.0462354, "internal_weight": 1303.5, "internal_count": 4814, "left_child": {"split_index": 5, "split_feature": 7, "split_gain": 73.63200378417969, "threshold": -117.16500091552733, "decision_type": "<=", "default_left": true, "missing_type": "None", "internal_value": 0.0194452, "internal_weight": 764.985, "internal_count": 2952, "left_child": {"leaf_index": 2, "leaf_value": -0.0006359784878868114, "leaf_weight": 539.1202914565802, "leaf_count": 2120}, "right_child": {"leaf_index": 6, "leaf_value": 0.06737708352779274, "leaf_weight": 225.86517849564552, "leaf_count": 832}}, "right_child": {"split_index": 7, "split_feature": 7, "split_gain": 66.44879913330078, "threshold": -116.80500030517577, "decision_type": "<=", "default_left": true, "missing_type": "None", "internal_value": 0.0842925, "internal_weight": 538.511, "internal_count": 1862, "left_child": {"leaf_index": 3, "leaf_value": 0.09141886384109653, "leaf_weight": 517.2237107604742, "leaf_count": 1781}, "right_child": {"leaf_index": 8, "leaf_value": -0.08885904435647457, "leaf_weight": 21.287183582782745, "leaf_count": 81}}}}, "right_child": {"split_index": 8, "split_feature": 6, "split_gain": 10.088700294494629, "threshold": 37.9650001525879, "decision_type": "<=", "default_left": true, "missing_type": "None", "internal_value": -0.0753874, "internal_weight": 581.329, "internal_count": 2857, "left_child": {"split_index": 11, "split_feature": 7, "split_gain": 4.820990085601807, "threshold": -117.31499862670897, "decision_type": "<=", "default_left": true, "missing_type": "None", "internal_value": -0.0791547, "internal_weight": 537.381, "internal_count": 2664, "left_child": {"split_index": 13, "split_feature": 6, "split_gain": 3.0566000938415527, "threshold": 34.655000686645515, "decision_type": "<=", "default_left": true, "missing_type": "None", "internal_value": -0.0822868, "internal_weight": 484.412, "internal_count": 2423, "left_child": {"leaf_index": 1, "leaf_value": -0.08882799092952806, "leaf_weight": 288.6667296588421, "leaf_count": 1447}, "right_child": {"leaf_index": 14, "leaf_value": -0.07264038519094189, "leaf_weight": 195.74540850520134, "leaf_count": 976}}, "right_child": {"split_index": 12, "split_feature": 6, "split_gain": 22.40410041809082, "threshold": 34.065000534057624, "decision_type": "<=", "default_left": true, "missing_type": "None", "internal_value": -0.0505113, "internal_weight": 52.9687, "internal_count": 241, "left_child": {"leaf_index": 12, "leaf_value": -0.07137527264705884, "leaf_weight": 48.026054725050926, "leaf_count": 224}, "right_child": {"leaf_index": 13, "leaf_value": 0.1522154212661323, "leaf_weight": 4.942687362432479, "leaf_count": 17}}}, "right_child": {"split_index": 9, "split_feature": 5, "split_gain": 9.617090225219727, "threshold": 3.1262267827987675, "decision_type": "<=", "default_left": true, "missing_type": "None", "internal_value": -0.0293219, "internal_weight": 43.9484, "internal_count": 193, "left_child": {"split_index": 14, "split_feature": 7, "split_gain": 2.280639886856079, "threshold": -122.1949996948242, "decision_type": "<=", "default_left": true, "missing_type": "None", "internal_value": -0.0579078, "internal_weight": 31.9992, "internal_count": 146, "left_child": {"leaf_index": 9, "leaf_value": -0.09265039033476244, "leaf_weight": 11.87978510558605, "leaf_count": 58}, "right_child": {"leaf_index": 15, "leaf_value": -0.037393493668668135, "leaf_weight": 20.119387149810795, "leaf_count": 88}}, "right_child": {"split_index": 10, "split_feature": 0, "split_gain": 7.930749893188477, "threshold": 5.730749845504762, "decision_type": "<=", "default_left": true, "missing_type": "None", "internal_value": 0.0472288, "internal_weight": 11.9492, "internal_count": 47, "left_child": {"leaf_index": 10, "leaf_value": 0.13139108699960675, "leaf_weight": 5.7802927494049055, "leaf_count": 20}, "right_child": {"leaf_index": 11, "leaf_value": -0.03163106952542949, "leaf_weight": 6.168954536318779, "leaf_count": 27}}}}}}, {"tree_index": 14, "num_leaves": 16, "num_cat": 0, "shrinkage": 0.1, "tree_structure": {"split_index": 0, "split_feature": 0, "split_gain": 272.8919982910156, "threshold": 2.8609499931335454, "decision_type": "<=", "default_left": true, "missing_type": "None", "internal_value": 0.000554761, "internal_weight": 4070.57, "internal_count": 16512, "left_child": {"split_index": 5, "split_feature": 2, "split_gain": 59.40700149536133, "threshold": 4.201509952545167, "decision_type": "<=", "default_left": true, "missing_type": "None", "internal_value": -0.0394462, "internal_weight": 1201.91, "internal_count": 5356, "left_child": {"split_index": 6, "split_feature": 5, "split_gain": 62.527400970458984, "threshold": 3.55892562866211, "decision_type": "<=", "default_left": true, "missing_type": "None", "internal_value": -0.0133706, "internal_weight": 505.933, "internal_count": 2100, "left_child": {"split_index": 7, "split_feature": 0, "split_gain": 46.425201416015625, "threshold": 2.107249975204468, "decision_type": "<=", "default_left": true, "missing_type": "None", "internal_value": 0.0124583, "internal_weight": 328.57, "internal_count": 1312, "left_child": {"leaf_index": 0, "leaf_value": -0.02745375352416045, "leaf_weight": 154.4456181526184, "leaf_count": 653}, "right_child": {"leaf_index": 8, "leaf_value": 0.047859796320475885, "leaf_weight": 174.12422554194927, "leaf_count": 659}}, "right_child": {"split_index": 12, "split_feature": 2, "split_gain": 5.629749774932861, "threshold": 2.2380180358886723, "decision_type": "<=", "default_left": true, "missing_type": "None", "internal_value": -0.0612193, "internal_weight": 177.363, "internal_count": 788, "left_child": {"leaf_index": 7, "leaf_value": 0.036973551167685935, "leaf_weight": 5.652777731418609, "leaf_count": 21}, "right_child": {"leaf_index": 13, "leaf_value": -0.06445189359403448, "leaf_weight": 171.7104064822197, "leaf_count": 767}}}, "right_child": {"split_index": 8, "split_feature": 0, "split_gain": 18.874900817871094, "threshold": 2.1448000669479375, "decision_type": "<=", "default_left": true, "missing_type": "None", "internal_value": -0.0584014, "internal_weight": 695.982, "internal_count": 3256, "left_child": {"split_index": 14, "split_feature": 4, "split_gain": 2.2617099285125732, "threshold": 3489.5000000000005, "decision_type": "<=", "default_left": true, "missing_type": "None", "internal_value": -0.0790814, "internal_weight": 270.081, "internal_count": 1333, "left_child": {"leaf_index": 6, "leaf_value": -0.0803422597095061, "leaf_weight": 265.0494387149811, "leaf_count": 1308}, "right_child": {"leaf_index": 15, "leaf_value": -0.012664323304295712, "leaf_weight": 5.031642213463782, "leaf_count": 25}}, "right_child": {"split_index": 9, "split_feature": 5, "split_gain": 22.413999557495117, "threshold": 2.3336834907531743, "decision_type": "<=", "default_left": true, "missing_type": "None", "internal_value": -0.0452874, "internal_weight": 425.901, "internal_count": 1923, "left_child": {"leaf_index": 9, "leaf_value": -0.0006901218264871683, "leaf_weight": 89.11463728547096, "leaf_count": 395}, "right_child": {"leaf_index": 10, "leaf_value": -0.05708798117508667, "leaf_weight": 336.7860500216484, "leaf_count": 1528}}}}, "right_child": {"split_index": 1, "split_feature": 0, "split_gain": 207.79200744628906, "threshold": 6.3350000381469735, "decision_type": "<=", "default_left": true, "missing_type": "None", "internal_value": 0.0173144, "internal_weight": 2868.66, "internal_count": 11156, "left_child": {"split_index": 2, "split_feature": 6, "split_gain": 77.9906997680664, "threshold": 33.91499900817872, "decision_type": "<=", "default_left": true, "missing_type": "None", "internal_value": 0.0265534, "internal_weight": 2566.24, "internal_count": 9682, "left_child": {"split_index": 4, "split_feature": 7, "split_gain": 87.32240295410156, "threshold": -117.50500106811522, "decision_type": "<=", "default_left": true, "missing_type": "None", "internal_value": 0.0560054, "internal_weight": 665.833, "internal_count": 2480, "left_child": {"leaf_index": 1, "leaf_value": 0.08289334671905683, "leaf_weight": 429.2207584679127, "leaf_count": 1571}, "right_child": {"leaf_index": 5, "leaf_value": 0.007229824901097366, "leaf_weight": 236.6122064590454, "leaf_count": 909}}, "right_child": {"split_index": 3, "split_feature": 7, "split_gain": 87.4905014038086, "threshold": -117.75500106811522, "decision_type": "<=", "default_left": true, "missing_type": "None", "internal_value": 0.0162346, "internal_weight": 1900.41, "internal_count": 7202, "left_child": {"leaf_index": 3, "leaf_value": 0.022232597372034, "leaf_weight": 1762.6683408766985, "leaf_count": 6672}, "right_child": {"leaf_index": 4, "leaf_value": -0.060520424241130015, "leaf_weight": 137.74320781230927, "leaf_count": 530}}}, "right_child": {"split_index": 10, "split_feature": 0, "split_gain": 11.564499855041504, "threshold": 7.2638001441955575, "decision_type": "<=", "default_left": true, "missing_type": "None", "internal_value": -0.0610872, "internal_weight": 302.412, "internal_count": 1474, "left_child": {"split_index": 11, "split_feature": 6, "split_gain": 13.364999771118164, "threshold": 37.98500061035157, "decision_type": "<=", "default_left": true, "missing_type": "None", "internal_value": -0.0391426, "internal_weight": 133.853, "internal_count": 620, "left_child": {"leaf_index": 2, "leaf_value": -0.046901349036606546, "leaf_weight": 126.24192152917385, "leaf_count": 585}, "right_child": {"leaf_index": 12, "leaf_value": 0.08954893001610889, "leaf_weight": 7.611035853624343, "leaf_count": 35}}, "right_child": {"split_index": 13, "split_feature": 2, "split_gain": 2.5031700134277344, "threshold": 5.500338315963746, "decision_type": "<=", "default_left": true, "missing_type": "None", "internal_value": -0.0785134, "internal_weight": 168.559, "internal_count": 854, "left_child": {"leaf_index": 11, "leaf_value": -0.00415975295777308, "leaf_weight": 4.40935282409191, "leaf_count": 20}, "right_child": {"leaf_index": 14, "leaf_value": -0.08051064824162912, "leaf_weight": 164.14953511953354, "leaf_count": 834}}}}}}, {"tree_index": 15, "num_leaves": 16, "num_cat": 0, "shrinkage": 0.1, "tree_structure": {"split_index": 0, "split_feature": 0, "split_gain": 1520.300048828125, "threshold": 5.27709984779358, "decision_type": "<=", "default_left": true, "missing_type": "None", "internal_value": -0.000780516, "internal_weight": 4010.93, "internal_count": 16512, "left_child": {"split_index": 1, "split_feature": 5, "split_gain": 450.12298583984375, "threshold": 2.420626282691956, "decision_type": "<=", "default_left": true, "missing_type": "None", "internal_value": -0.0344152, "internal_weight": 3088.98, "internal_count": 13529, "left_child": {"split_index": 2, "split_feature": 0, "split_gain": 244.6909942626953, "threshold": 3.1260999441146855, "decision_type": "<=", "default_left": true, "missing_type": "None", "internal_value": 0.0248784, "internal_weight": 905.149, "internal_count": 3571, "left_child": {"split_index": 8, "split_feature": 6, "split_gain": 46.59579849243164, "threshold": 37.815000534057624, "decision_type": "<=", "default_left": true, "missing_type": "None", "internal_value": -0.0331221, "internal_weight": 403.289, "internal_count": 1782, "left_child": {"leaf_index": 0, "leaf_value": -0.010018471661641106, "leaf_weight": 275.84990856051445, "leaf_count": 1158}, "right_child": {"leaf_index": 9, "leaf_value": -0.0831313008633105, "leaf_weight": 127.43927143514156, "leaf_count": 624}}, "right_child": {"split_index": 4, "split_feature": 6, "split_gain": 119.34300231933594, "threshold": 38.00499916076661, "decision_type": "<=", "default_left": true, "missing_type": "None", "internal_value": 0.071487, "internal_weight": 501.86, "internal_count": 1789, "left_child": {"leaf_index": 3, "leaf_value": 0.08793877622600266, "leaf_weight": 450.5759902149439, "leaf_count": 1591}, "right_child": {"leaf_index": 5, "leaf_value": -0.07305740531643062, "leaf_weight": 51.28380884230137, "leaf_count": 198}}}, "right_child": {"split_index": 3, "split_feature": 0, "split_gain": 122.6240005493164, "threshold": 4.125699996948243, "decision_type": "<=", "default_left": true, "missing_type": "None", "internal_value": -0.058991, "internal_weight": 2183.83, "internal_count": 9958, "left_child": {"split_index": 9, "split_feature": 7, "split_gain": 33.51810073852539, "threshold": -122.40500259399413, "decision_type": "<=", "default_left": true, "missing_type": "None", "internal_value": -0.0729963, "internal_weight": 1618.47, "internal_count": 7608, "left_child": {"leaf_index": 2, "leaf_value": -0.018626123546994524, "leaf_weight": 105.96240521967411, "leaf_count": 471}, "right_child": {"leaf_index": 10, "leaf_value": -0.07680529496398936, "leaf_weight": 1512.50306327641, "leaf_count": 7137}}, "right_child": {"split_index": 7, "split_feature": 5, "split_gain": 82.39430236816406, "threshold": 2.9291766881942753, "decision_type": "<=", "default_left": true, "missing_type": "None", "internal_value": -0.0188984, "internal_weight": 565.369, "internal_count": 2350, "left_child": {"leaf_index": 4, "leaf_value": 0.019436152909821966, "leaf_weight": 281.5075657069683, "leaf_count": 1089}, "right_child": {"leaf_index": 8, "leaf_value": -0.056915130091010825, "leaf_weight": 283.86127312481403, "leaf_count": 1261}}}}, "right_child": {"split_index": 5, "split_feature": 0, "split_gain": 112.35900115966797, "threshold": 6.127349853515626, "decision_type": "<=", "default_left": true, "missing_type": "None", "internal_value": 0.111913, "internal_weight": 921.942, "internal_count": 2983, "left_child": {"split_index": 6, "split_feature": 5, "split_gain": 106.88099670410156, "threshold": 2.747272610664368, "decision_type": "<=", "default_left": true, "missing_type": "None", "internal_value": 0.068577, "internal_weight": 362.831, "internal_count": 1261, "left_child": {"split_index": 11, "split_feature": 7, "split_gain": 17.80500030517578, "threshold": -117.85499954223631, "decision_type": "<=", "default_left": true, "missing_type": "None", "internal_value": 0.130276, "internal_weight": 158.283, "internal_count": 513, "left_child": {"leaf_index": 1, "leaf_value": 0.14464808677475172, "leaf_weight": 133.72746095061302, "leaf_count": 431}, "right_child": {"leaf_index": 12, "leaf_value": 0.05200716934736746, "leaf_weight": 24.55562451481819, "leaf_count": 82}}, "right_child": {"split_index": 10, "split_feature": 5, "split_gain": 24.91510009765625, "threshold": 3.1424162387847905, "decision_type": "<=", "default_left": true, "missing_type": "None", "internal_value": 0.0208332, "internal_weight": 204.548, "internal_count": 748, "left_child": {"leaf_index": 7, "leaf_value": 0.05317250338656814, "leaf_weight": 110.054708391428, "leaf_count": 384}, "right_child": {"leaf_index": 11, "leaf_value": -0.016831703164205205, "leaf_weight": 94.49352575838566, "leaf_count": 364}}}, "right_child": {"split_index": 12, "split_feature": 7, "split_gain": 12.271100044250488, "threshold": -117.67499923706053, "decision_type": "<=", "default_left": true, "missing_type": "None", "internal_value": 0.140035, "internal_weight": 559.111, "internal_count": 1722, "left_child": {"split_index": 14, "split_feature": 6, "split_gain": 12.502699851989746, "threshold": 37.95499992370606, "decision_type": "<=", "default_left": true, "missing_type": "None", "internal_value": 0.145507, "internal_weight": 491.998, "internal_count": 1508, "left_child": {"leaf_index": 6, "leaf_value": 0.14938852525836063, "leaf_weight": 464.46160835027695, "leaf_count": 1421}, "right_child": {"leaf_index": 15, "leaf_value": 0.08003679334386976, "leaf_weight": 27.5360906124115, "leaf_count": 87}}, "right_child": {"split_index": 13, "split_feature": 6, "split_gain": 20.67729949951172, "threshold": 33.64500045776368, "decision_type": "<=", "default_left": true, "missing_type": "None", "internal_value": 0.0999239, "internal_weight": 67.1133, "internal_count": 214, "left_child": {"leaf_index": 13, "leaf_value": 0.1357701609888999, "leaf_weight": 47.36078171432018, "leaf_count": 150}, "right_child": {"leaf_index": 14, "leaf_value": 0.013974987770780385, "leaf_weight": 19.75254851579666, "leaf_count": 64}}}}}}, {"tree_index": 16, "num_leaves": 15, "num_cat": 0, "shrinkage": 0.1, "tree_structure": {"split_index": 0, "split_feature": 0, "split_gain": 1236.739990234375, "threshold": 3.429799914360047, "decision_type": "<=", "default_left": true, "missing_type": "None", "internal_value": -0.000634373, "internal_weight": 3949.78, "internal_count": 16512, "left_child": {"split_index": 1, "split_feature": 0, "split_gain": 293.97900390625, "threshold": 2.4524999856948857, "decision_type": "<=", "default_left": true, "missing_type": "None", "internal_value": 0.0494888, "internal_weight": 2191.44, "internal_count": 7818, "left_child": {"split_index": 3, "split_feature": 2, "split_gain": 166.97500610351562, "threshold": 3.648293733596802, "decision_type": "<=", "default_left": true, "missing_type": "None", "internal_value": 0.0860458, "internal_weight": 1097.8, "internal_count": 3650, "left_child": {"split_index": 10, "split_feature": 7, "split_gain": 31.040599822998047, "threshold": -117.14500045776366, "decision_type": "<=", "default_left": true, "missing_type": "None", "internal_value": 0.00531194, "internal_weight": 207.708, "internal_count": 794, "left_child": {"leaf_index": 0, "leaf_value": -0.0064237163523278564, "leaf_weight": 190.18078142404556, "leaf_count": 734}, "right_child": {"leaf_index": 11, "leaf_value": 0.13265338050361547, "leaf_weight": 17.52687031030655, "leaf_count": 60}}, "right_child": {"split_index": 6, "split_feature": 0, "split_gain": 49.13909912109375, "threshold": 1.8847000002861025, "decision_type": "<=", "default_left": true, "missing_type": "None", "internal_value": 0.104885, "internal_weight": 890.092, "internal_count": 2856, "left_child": {"leaf_index": 4, "leaf_value": 0.1323428948639744, "leaf_weight": 376.2622957378626, "leaf_count": 1174}, "right_child": {"leaf_index": 7, "leaf_value": 0.08477915692455355, "leaf_weight": 513.8294262140989, "leaf_count": 1682}}}, "right_child": {"split_index": 2, "split_feature": 2, "split_gain": 258.2130126953125, "threshold": 4.949321269989015, "decision_type": "<=", "default_left": true, "missing_type": "None", "internal_value": 0.012793, "internal_weight": 1093.64, "internal_count": 4168, "left_child": {"split_index": 7, "split_feature": 6, "split_gain": 45.628700256347656, "threshold": 37.91499900817872, "decision_type": "<=", "default_left": true, "missing_type": "None", "internal_value": -0.0333436, "internal_weight": 575.133, "internal_count": 2382, "left_child": {"leaf_index": 2, "leaf_value": -0.04318773865427223, "leaf_weight": 512.5289627611637, "leaf_count": 2161}, "right_child": {"leaf_index": 8, "leaf_value": 0.04724850778827594, "leaf_weight": 62.604107558727264, "leaf_count": 221}}, "right_child": {"split_index": 9, "split_feature": 6, "split_gain": 38.37580108642578, "threshold": 39.424999237060554, "decision_type": "<=", 