{"name": "tree", "version": "v4", "num_class": 1, "num_tree_per_iteration": 1, "label_index": 0, "max_feature_idx": 7, "objective": "binary sigmoid:1", "average_output": false, "feature_names": ["Column_0", "Column_1", "Column_2", "Column_3", "Column_4", "Column_5", "Column_6", "Column_7"], "monotone_constraints": [], "feature_infos": {"Column_0": {"min_value": 0.4999000132083893, "max_value": 15.000100135803223, "values": []}, "Column_1": {"min_value": 1, "max_value": 52, "values": []}, "Column_2": {"min_value": 0.8888888955116272, "max_value": 141.90908813476562, "values": []}, "Column_3": {"min_value": 0.3333333432674408, "max_value": 25.636363983154297, "values": []}, "Column_4": {"min_value": 3, "max_value": 35682, "values": []}, "Column_5": {"min_value": 0.692307710647583, "max_value": 1243.3333740234375, "values": []}, "Column_6": {"min_value": 32.54999923706055, "max_value": 41.95000076293945, "values": []}, "Column_7": {"min_value": -124.3499984741211, "max_value": -114.30999755859375, "values": []}}, "tree_info": [{"tree_index": 0, "num_leaves": 16, "num_cat": 0, "shrinkage": 1, "tree_structure": {"split_index": 0, "split_feature": 0, "split_gain": 4093.6298828125, "threshold": 4.1119000911712655, "decision_type": "<=", "default_left": true, "missing_type": "None", "internal_value": 0.00242248, "internal_weight": 4127.99, "internal_count": 16512, "left_child": {"split_index": 1, "split_feature": 0, "split_gain": 771.8839721679688, "threshold": 2.839699983596802, "decision_type": "<=", "default_left": true, "missing_type": "None", "internal_value": -0.0734733, "internal_weight": 2611.25, "internal_count": 10445, "left_child": {"split_index": 6, "split_feature": 2, "split_gain": 185.31199645996094, "threshold": 4.201509952545167, "decision_type": "<=", "default_left": true, "missing_type": "None", "internal_value": -0.127134, "internal_weight": 1322.75, "internal_count": 5291, "left_child": {"split_index": 7, "split_feature": 5, "split_gain": 188.22500610351562, "threshold": 3.40015459060669, "decision_type": "<=", "default_left": true, "missing_type": "None", "internal_value": -0.0805918, "internal_weight": 519.499, "internal_count": 2078, "left_child": {"leaf_index": 0, "leaf_value": -0.02813310960651186, "leaf_weight": 295.24956004321575, "leaf_count": 1181}, "right_child": {"leaf_index": 8, "leaf_value": -0.1496594653808012, "leaf_weight": 224.24966584146023, "leaf_count": 897}}, "right_child": {"split_index": 11, "split_feature": 5, "split_gain": 62.06159973144531, "threshold": 2.2352443933486943, "decision_type": "<=", "default_left": true, "missing_type": "None", "internal_value": -0.157235, "internal_weight": 803.249, "internal_count": 3213, "left_child": {"leaf_index": 7, "leaf_value": -0.0935397595584614, "leaf_weight": 128.49980852007866, "leaf_count": 514}, "right_child": {"leaf_index": 12, "leaf_value": -0.16936504712157605, "leaf_weight": 674.7489945441484, "leaf_count": 2699}}}, "right_child": {"split_index": 2, "split_feature": 5, "split_gain": 512.1859741210938, "threshold": 2.4136952161788945, "decision_type": "<=", "default_left": true, "missing_type": "None", "internal_value": -0.0183864, "internal_weight": 1288.5, "internal_count": 5154, "left_child": {"split_index": 5, "split_feature": 6, "split_gain": 195.4709930419922, "threshold": 37.93499946594239, "decision_type": "<=", "default_left": true, "missing_type": "None", "internal_value": 0.0828188, "internal_weight": 360.249, "internal_count": 1441, "left_child": {"leaf_index": 2, "leaf_value": 0.11673044644521426, "leaf_weight": 297.2495570629835, "leaf_count": 1189}, "right_child": {"leaf_index": 6, "leaf_value": -0.07718496970761815, "leaf_weight": 62.99990612268448, "leaf_count": 252}}, "right_child": {"split_index": 8, "split_feature": 6, "split_gain": 182.55799865722656, "threshold": 37.924999237060554, "decision_type": "<=", "default_left": true, "missing_type": "None", "internal_value": -0.0576637, "internal_weight": 928.249, "internal_count": 3713, "left_child": {"leaf_index": 3, "leaf_value": -0.03595004469719831, "leaf_weight": 748.7488842755556, "leaf_count": 2995}, "right_child": {"leaf_index": 9, "leaf_value": -0.1482378256351318, "leaf_weight": 179.49973252415657, "leaf_count": 718}}}}, "right_child": {"split_index": 3, "split_feature": 0, "split_gain": 369.1709899902344, "threshold": 5.335700035095216, "decision_type": "<=", "default_left": true, "missing_type": "None", "internal_value": 0.133085, "internal_weight": 1516.75, "internal_count": 6067, "left_child": {"split_index": 4, "split_feature": 5, "split_gain": 247.5590057373047, "threshold": 2.9878418445587163, "decision_type": "<=", "default_left": true, "missing_type": "None", "internal_value": 0.0865417, "internal_weight": 802.499, "internal_count": 3210, "left_child": {"split_index": 10, "split_feature": 1, "split_gain": 88.17790222167969, "threshold": 19.500000000000004, "decision_type": "<=", "default_left": true, "missing_type": "None", "internal_value": 0.129058, "internal_weight": 505.999, "internal_count": 2024, "left_child": {"leaf_index": 1, "leaf_value": 0.06334870813690859, "leaf_weight": 145.49978318810463, "leaf_count": 582}, "right_child": {"leaf_index": 11, "leaf_value": 0.15557852169140102, "leaf_weight": 360.49946281313896, "leaf_count": 1442}}, "right_child": {"split_index": 9, "split_feature": 7, "split_gain": 101.86499786376953, "threshold": -117.75500106811522, "decision_type": "<=", "default_left": true, "missing_type": "None", "internal_value": 0.0139846, "internal_weight": 296.5, "internal_count": 1186, "left_child": {"leaf_index": 5, "leaf_value": 0.04327618315954243, "leaf_weight": 237.24964646995068, "leaf_count": 949}, "right_child": {"leaf_index": 10, "leaf_value": -0.10330516211061028, "leaf_weight": 59.24991171061993, "leaf_count": 237}}}, "right_child": {"split_index": 12, "split_feature": 6, "split_gain": 15.18970012664795, "threshold": 37.98500061035157, "decision_type": "<=", "default_left": true, "missing_type": "None", "internal_value": 0.18538, "internal_weight": 714.249, "internal_count": 2857, "left_child": {"split_index": 14, "split_feature": 1, "split_gain": 7.665510177612305, "threshold": 16.500000000000004, "decision_type": "<=", "default_left": true, "missing_type": "None", "internal_value": 0.189071, "internal_weight": 671.249, "internal_count": 2685, "left_child": {"leaf_index": 4, "leaf_value": 0.17128161090189362, "leaf_weight": 177.99973475933075, "leaf_count": 712}, "right_child": {"leaf_index": 15, "leaf_value": 0.19549020479078083, "leaf_weight": 493.2492650002241, "leaf_count": 1973}}, "right_child": {"split_index": 13, "split_feature": 5, "split_gain": 12.395500183105469, "threshold": 3.081741571426392, "decision_type": "<=", "default_left": true, "missing_type": "None", "internal_value": 0.127762, "internal_weight": 42.9999, "internal_count": 172, "left_child": {"leaf_index": 13, "leaf_value": 0.16457363950398124, "leaf_weight": 29.249956414103508, "leaf_count": 117}, "right_child": {"leaf_index": 14, "leaf_value": 0.04945302940961305, "leaf_weight": 13.749979510903357, "leaf_count": 55}}}}}}, {"tree_index": 1, "num_leaves": 16, "num_cat": 0, "shrinkage": 0.1, "tree_structure": {"split_index": 0, "split_feature": 0, "split_gain": 3336, "threshold": 4.061249971389771, "decision_type": "<=", "default_left": true, "missing_type": "None", "internal_value": 3.5161799999999998e-06, "internal_weight": 4110.49, "internal_count": 16512, "left_child": {"split_index": 1, "split_feature": 0, "split_gain": 602.2750244140625, "threshold": 2.7819999456405644, "decision_type": "<=", "default_left": true, "missing_type": "None", "internal_value": -0.0703572, "internal_weight": 2553.11, "internal_count": 10247, "left_child": {"split_index": 6, "split_feature": 2, "split_gain": 158.125, "threshold": 3.8792159557342534, "decision_type": "<=", "default_left": true, "missing_type": "None", "internal_value": -0.119258, "internal_weight": 1267.87, "internal_count": 5096, "left_child": {"split_index": 7, "split_feature": 5, "split_gain": 133.85800170898438, "threshold": 3.60496199131012, "decision_type": "<=", "default_left": true, "missing_type": "None", "internal_value": -0.0623312, "internal_weight": 352.339, "internal_count": 1413, "left_child": {"leaf_index": 0, "leaf_value": -0.014693338680572194, "leaf_weight": 220.5785352885723, "leaf_count": 883}, "right_child": {"leaf_index": 8, "leaf_value": -0.14208095417351152, "leaf_weight": 131.7608305811882, "leaf_count": 530}}, "right_child": {"split_index": 11, "split_feature": 5, "split_gain": 62.33620071411133, "threshold": 2.162838697433472, "decision_type": "<=", "default_left": true, "missing_type": "None", "internal_value": -0.141167, "internal_weight": 915.526, "internal_count": 3683, "left_child": {"leaf_index": 7, "leaf_value": -0.0727599047438636, "leaf_weight": 116.29122611880302, "leaf_count": 466}, "right_child": {"leaf_index": 12, "leaf_value": -0.15111996413833115, "leaf_weight": 799.2349953204393, "leaf_count": 3217}}}, "right_child": {"split_index": 2, "split_feature": 5, "split_gain": 426.2799987792969, "threshold": 2.348954796791077, "decision_type": "<=", "default_left": true, "missing_type": "None", "internal_value": -0.0221171, "internal_weight": 1285.24, "internal_count": 5151, "left_child": {"split_index": 8, "split_feature": 6, "split_gain": 131.57200622558594, "threshold": 37.93499946594239, "decision_type": "<=", "default_left": true, "missing_type": "None", "internal_value": 0.0797519, "internal_weight": 311.289, "internal_count": 1249, "left_child": {"leaf_index": 2, "leaf_value": 0.10774098188954531, "leaf_weight": 262.61501106619835, "leaf_count": 1054}, "right_child": {"leaf_index": 9, "leaf_value": -0.07125975655887856, "leaf_weight": 48.67409195005894, "leaf_count": 195}}, "right_child": {"split_index": 5, "split_feature": 7, "split_gain": 165.9550018310547, "threshold": -117.79500198364256, "decision_type": "<=", "default_left": true, "missing_type": "None", "internal_value": -0.054676, "internal_weight": 973.951, "internal_count": 3902, "left_child": {"leaf_index": 3, "leaf_value": -0.035618418043252414, "leaf_weight": 802.8297698050737, "leaf_count": 3217}, "right_child": {"leaf_index": 6, "leaf_value": -0.14408602713501614, "leaf_weight": 171.12143854796886, "leaf_count": 685}}}}, "right_child": {"split_index": 3, "split_feature": 0, "split_gain": 341.1239929199219, "threshold": 5.038699865341187, "decision_type": "<=", "default_left": true, "missing_type": "None", "internal_value": 0.11535, "internal_weight": 1557.39, "internal_count": 6265, "left_child": {"split_index": 4, "split_feature": 5, "split_gain": 185.38699340820312, "threshold": 3.000449180603028, "decision_type": "<=", "default_left": true, "missing_type": "None", "internal_value": 0.0619193, "internal_weight": 676.142, "internal_count": 2713, "left_child": {"split_index": 9, "split_feature": 6, "split_gain": 77.54460144042969, "threshold": 37.98500061035157, "decision_type": "<=", "default_left": true, "missing_type": "None", "internal_value": 0.101426, "internal_weight": 430.867, "internal_count": 1731, "left_child": {"leaf_index": 1, "leaf_value": 0.1189848744454303, "leaf_weight": 367.85311026871204, "leaf_count": 1478}, "right_child": {"leaf_index": 10, "leaf_value": -0.0010733063719852855, "leaf_weight": 63.0139556825161, "leaf_count": 253}}, "right_child": {"split_index": 10, "split_feature": 1, "split_gain": 72.88069915771484, "threshold": 18.500000000000004, "decision_type": "<=", "default_left": true, "missing_type": "None", "internal_value": -0.00748171, "internal_weight": 245.275, "internal_count": 982, "left_child": {"leaf_index": 5, "leaf_value": -0.08274603363198094, "leaf_weight": 84.39064313471317, "leaf_count": 338}, "right_child": {"leaf_index": 11, "leaf_value": 0.0319976601781733, "leaf_weight": 160.8841165304184, "leaf_count": 644}}}, "right_child": {"split_index": 12, "split_feature": 0, "split_gain": 42.31800079345703, "threshold": 5.604249954223634, "decision_type": "<=", "default_left": true, "missing_type": "None", "internal_value": 0.156344, "internal_weight": 881.243, "internal_count": 3552, "left_child": {"split_index": 13, "split_feature": 1, "split_gain": 46.8661003112793, "threshold": 17.500000000000004, "decision_type": "<=", "default_left": true, "missing_type": "None", "internal_value": 0.124646, "internal_weight": 284.97, "internal_count": 1146, "left_child": {"leaf_index": 4, "leaf_value": 0.06343930478895132, "leaf_weight": 86.93624874949455, "leaf_count": 349}, "right_child": {"leaf_index": 14, "leaf_value": 0.15151561549911235, "leaf_weight": 198.03366282582283, "leaf_count": 797}}, "right_child": {"split_index": 14, "split_feature": 6, "split_gain": 5.794879913330078, "threshold": 37.9650001525879, "decision_type": "<=", "default_left": true, "missing_type": "None", "internal_value": 0.171494, "internal_weight": 596.273, "internal_count": 2406, "left_child": {"leaf_index": 13, "leaf_value": 0.1740221328172573, "leaf_weight": 559.4706586748362, "leaf_count": 2258}, "right_child": {"leaf_index": 15, "leaf_value": 0.133056778933724, "leaf_weight": 36.80265499651432, "leaf_count": 148}}}}}}, {"tree_index": 2, "num_leaves": 16, "num_cat": 0, "shrinkage": 0.1, "tree_structure": {"split_index": 0, "split_feature": 0, "split_gain": 2746.669921875, "threshold": 4.125699996948243, "decision_type": "<=", "default_left": true, "missing_type": "None", "internal_value": 1.40781e-05, "internal_weight": 4067.89, "internal_count": 16512, "left_child": {"split_index": 1, "split_feature": 0, "split_gain": 544.635009765625, "threshold": 3.0943499803543095, "decision_type": "<=", "default_left": true, "missing_type": "None", "internal_value": -0.0617992, "internal_weight": 2597.82, "internal_count": 10512, "left_child": {"split_index": 4, "split_feature": 5, "split_gain": 198.3699951171875, "threshold": 2.162838697433472, "decision_type": "<=", "default_left": true, "missing_type": "None", "internal_value": -0.0989761, "internal_weight": 1565.66, "internal_count": 6360, "left_child": {"split_index": 7, "split_feature": 6, "split_gain": 122.31700134277344, "threshold": 37.93499946594239, "decision_type": "<=", "default_left": true, "missing_type": "None", "internal_value": -0.0146451, "internal_weight": 236.754, "internal_count": 952, "left_child": {"leaf_index": 0, "leaf_value": 0.02662592741669094, "leaf_weight": 178.05261275172234, "leaf_count": 716}, "right_child": {"leaf_index": 8, "leaf_value": -0.13982773682457753, "leaf_weight": 58.70159865915775, "leaf_count": 236}}, "right_child": {"split_index": 8, "split_feature": 2, "split_gain": 103.21499633789062, "threshold": 4.36451816558838, "decision_type": "<=", "default_left": true, "missing_type": "None", "internal_value": -0.114, "internal_weight": 1328.91, "internal_count": 5408, "left_child": {"leaf_index": 5, "leaf_value": -0.08103193925709232, "leaf_weight": 553.8454543352127, "leaf_count": 2244}, "right_child": {"leaf_index": 9, "leaf_value": -0.13755891260227826, "leaf_weight": 775.0605863183737, "leaf_count": 3164}}}, "right_child": {"split_index": 2, "split_feature": 5, "split_gain": 313.06298828125, "threshold": 2.648513793945313, "decision_type": "<=", "default_left": true, "missing_type": "None", "internal_value": -0.00540655, "internal_weight": 1032.16, "internal_count": 4152, "left_child": {"split_index": 5, "split_feature": 6, "split_gain": 194.06100463867188, "threshold": 37.95499992370606, "decision_type": "<=", "default_left": true, "missing_type": "None", "internal_value": 0.0577228, "internal_weight": 446.061, "internal_count": 1799, "left_child": {"leaf_index": 2, "leaf_value": 0.09052020308633993, "leaf_weight": 357.63596335053444, "leaf_count": 1443}, "right_child": {"leaf_index": 6, "leaf_value": -0.07492626552881902, "leaf_weight": 88.42543525993824, "leaf_count": 356}}, "right_child": {"split_index": 9, "split_feature": 7, "split_gain": 90.50379943847656, "threshold": -117.79500198364256, "decision_type": "<=", "default_left": true, "missing_type": "None", "internal_value": -0.053452, "internal_weight": 586.103, "internal_count": 2353, "left_child": {"leaf_index": 3, "leaf_value": -0.03481165887656486, "leaf_weight": 478.44521683454514, "leaf_count": 1919}, "right_child": {"leaf_index": 10, "leaf_value": -0.13629199099461153, "leaf_weight": 107.65760718286037, "leaf_count": 434}}}}, "right_child": {"split_index": 3, "split_feature": 0, "split_gain": 253.83799743652344, "threshold": 5.335700035095216, "decision_type": "<=", "default_left": true, "missing_type": "None", "internal_value": 0.109248, "internal_weight": 1470.06, "internal_count": 6000, "left_child": {"split_index": 6, "split_feature": 5, "split_gain": 165.59100341796875, "threshold": 2.9878418445587163, "decision_type": "<=", "default_left": true, "missing_type": "None", "internal_value": 0.0700243, "internal_weight": 777.409, "internal_count": 3143, "left_child": {"split_index": 11, "split_feature": 1, "split_gain": 70.14739990234375, "threshold": 19.500000000000004, "decision_type": "<=", "default_left": true, "missing_type": "None", "internal_value": 0.10554, "internal_weight": 488.272, "internal_count": 1983, "left_child": {"leaf_index": 1, "leaf_value": 0.046594479657435205, "leaf_weight": 142.83261653780937, "leaf_count": 575}, "right_child": {"leaf_index": 12, "leaf_value": 0.12991213246020247, "leaf_weight": 345.43967567384243, "leaf_count": 1408}}, "right_child": {"split_index": 10, "split_feature": 7, "split_gain": 80.93509674072266, "threshold": -117.75500106811522, "decision_type": "<=", "default_left": true, "missing_type": "None", "internal_value": 0.0100488, "internal_weight": 289.137, "internal_count": 1160, "left_child": {"leaf_index": 7, "leaf_value": 0.03647336889384133, "leaf_weight": 231.41152074933052, "leaf_count": 928}, "right_child": {"leaf_index": 11, "leaf_value": -0.09588287812963961, "leaf_weight": 57.72534300386906, "leaf_count": 232}}}, "right_child": {"split_index": 12, "split_feature": 6, "split_gain": 11.757499694824219, "threshold": 37.98500061035157, "decision_type": "<=", "default_left": true, "missing_type": "None", "internal_value": 0.15327, "internal_weight": 692.653, "internal_count": 2857, "left_child": {"split_index": 14, "split_feature": 7, "split_gain": 6.544879913330078, "threshold": -117.24499893188475, "decision_type": "<=", "default_left": true, "missing_type": "None", "internal_value": 0.156592, "internal_weight": 650.369, "internal_count": 2685, "left_child": {"leaf_index": 4, "leaf_value": 0.15941136014176174, "leaf_weight": 602.7717352509499, "leaf_count": 2489}, "right_child": {"leaf_index": 15, "leaf_value": 0.12089334687830636, "leaf_weight": 47.59710629284382, "leaf_count": 196}}, "right_child": {"split_index": 13, "split_feature": 0, "split_gain": 11.101099967956543, "threshold": 5.83080005645752, "decision_type": "<=", "default_left": true, "missing_type": "None", "internal_value": 0.102174, "internal_weight": 42.2842, "internal_count": 172, "left_child": {"leaf_index": 13, "leaf_value": 0.044008296382547316, "leaf_weight": 18.475366532802582, "leaf_count": 75}, "right_child": {"leaf_index": 14, "leaf_value": 0.14730968258415073, "leaf_weight": 23.808811336755753, "leaf_count": 97}}}}}}, {"tree_index": 3, "num_leaves": 16, "num_cat": 0, "shrinkage": 0.1, "tree_structure": {"split_index": 0, "split_feature": 0, "split_gain": 2279.530029296875, "threshold": 3.834650039672852, "decision_type": "<=", "default_left": true, "missing_type": "None", "internal_value": 2.9710999999999997e-05, "internal_weight": 4007.93, "internal_count": 16512, "left_child": {"split_index": 1, "split_feature": 0, "split_gain": 370.6549987792969, "threshold": 2.5760000944137578, "decision_type": "<=", "default_left": true, "missing_type": "None", "internal_value": -0.0647251, "internal_weight": 2307.05, "internal_count": 9454, "left_child": {"split_index": 6, "split_feature": 2, "split_gain": 132.33200073242188, "threshold": 3.48455023765564, "decision_type": "<=", "default_left": true, "missing_type": "None", "internal_value": -0.110184, "internal_weight": 1009.1, "internal_count": 4175, "left_child": {"split_index": 10, "split_feature": 6, "split_gain": 62.69240188598633, "threshold": 34.04500007629395, "decision_type": "<=", "default_left": true, "missing_type": "None", "internal_value": -0.0290002, "internal_weight": 167.462, "internal_count": 680, "left_child": {"leaf_index": 0, "leaf_value": -0.10655633883249659, "leaf_weight": 64.24298122525215, "leaf_count": 262}, "right_child": {"leaf_index": 11, "leaf_value": 0.01927031150602401, "leaf_weight": 103.21912816166878, "leaf_count": 418}}, "right_child": {"split_index": 11, "split_feature": 5, "split_gain": 43.568199157714844, "threshold": 2.162838697433472, "decision_type": "<=", "default_left": true, "missing_type": "None", "internal_value": -0.126337, "internal_weight": 841.635, "internal_count": 3495, "left_child": {"leaf_index": 7, "leaf_value": -0.06904857517865935, "leaf_weight": 114.66325134038925, "leaf_count": 463}, "right_child": {"leaf_index": 12, "leaf_value": -0.13537333648108324, "leaf_weight": 726.9716800898314, "leaf_count": 3032}}}, "right_child": {"split_index": 3, "split_feature": 5, "split_gain": 326.5320129394531, "threshold": 2.420626282691956, "decision_type": "<=", "default_left": true, "missing_type": "None", "internal_value": -0.0293828, "internal_weight": 1297.95, "internal_count": 5279, "left_child": {"split_index": 5, "split_feature": 6, "split_gain": 140.69400024414062, "threshold": 37.95499992370606, "decision_type": "<=", "default_left": true, "missing_type": "None", "internal_value": 0.0488233, "internal_weight": 378.284, "internal_count": 1541, "left_child": {"leaf_index": 2, "leaf_value": 0.07697082898234102, "leaf_weight": 311.8524267822504, "leaf_count": 1270}, "right_child": {"leaf_index": 6, "leaf_value": -0.08331174887894731, "leaf_weight": 66.43111564218998, "leaf_count": 271}}, "right_child": {"split_index": 7, "split_feature": 6, "split_gain": 126.17500305175781, "threshold": 37.924999237060554, "decision_type": "<=", "default_left": true, "missing_type": "None", "internal_value": -0.0615511, "internal_weight": 919.665, "internal_count": 3738, "left_child": {"leaf_index": 4, "leaf_value": -0.043340390210163705, "leaf_weight": 740.6390752345324, "leaf_count": 3005}, "right_child": {"leaf_index": 8, "leaf_value": -0.13688946135234992, "leaf_weight": 179.02592813968658, "leaf_count": 733}}}}, "right_child": {"split_index": 2, "split_feature": 0, "split_gain": 352.0539855957031, "threshold": 5.038699865341187, "decision_type": "<=", "default_left": true, "missing_type": "None", "internal_value": 0.0878618, "internal_weight": 1700.88, "internal_count": 7058, "left_child": {"split_index": 4, "split_feature": 5, "split_gain": 173.85899353027344, "threshold": 2.9742256402969365, "decision_type": "<=", "default_left": true, "missing_type": "None", "internal_value": 0.0429337, "internal_weight": 861.113, "internal_count": 3506, "left_child": {"split_index": 8, "split_feature": 6, "split_gain": 108.90699768066406, "threshold": 37.98500061035157, "decision_type": "<=", "default_left": true, "missing_type": "None", "internal_value": 0.0785678, "internal_weight": 528.64, "internal_count": 2168, "left_child": {"leaf_index": 1, "leaf_value": 0.09850227038839056, "leaf_weight": 443.15877340734005, "leaf_count": 1822}, "right_child": {"leaf_index": 9, "leaf_value": -0.024777759894854232, "leaf_weight": 85.48129646480083, "leaf_count": 346}}, "right_child": {"split_index": 9, "split_feature": 1, "split_gain": 63.93239974975586, "threshold": 18.500000000000004, "decision_type": "<=", "default_left": true, "missing_type": "None", "internal_value": -0.0137257, "internal_weight": 332.472, "internal_count": 1338, "left_child": {"leaf_index": 5, "leaf_value": -0.07745282763325584, "leaf_weight": 106.83731570839882, "leaf_count": 431}, "right_child": {"leaf_index": 10, "leaf_value": 0.016448896152913315, "leaf_weight": 225.6351149380207, "leaf_count": 907}}}, "right_child": {"split_index": 12, "split_feature": 6, "split_gain": 35.46979904174805, "threshold": 37.975000381469734, "decision_type": "<=", "default_left": true, "missing_type": "None", "internal_value": 0.133932, "internal_weight": 839.772, "internal_count": 3552, "left_child": {"split_index": 14, "split_feature": 7, "split_gain": 21.31089973449707, "threshold": -117.63499832153319, "decision_type": "<=", "default_left": true, "missing_type": "None", "internal_value": 0.139852, "internal_weight": 775.429, "internal_count": 3287, "left_child": {"leaf_index": 3, "leaf_value": 0.14593505418797229, "leaf_weight": 683.4047695398331, "leaf_count": 2902}, "right_child": {"leaf_index": 15, "leaf_value": 0.0946745379535614, "leaf_weight": 92.023786470294, "leaf_count": 385}}, "right_child": {"split_index": 13, "split_feature": 7, "split_gain": 30.45240020751953, "threshold": -122.06499862670897, "decision_type": "<=", "default_left": true, "missing_type": "None", "internal_value": 0.062586, "internal_weight": 64.3435, "internal_count": 265, "left_child": {"leaf_index": 13, "leaf_value": 0.1425351468707428, "leaf_weight": 27.373792827129364, "leaf_count": 113}, "right_child": {"leaf_index": 14, "leaf_value": 0.003388554260542845, "leaf_weight": 36.96972234547138, "leaf_count": 152}}}}}}, {"tree_index": 4, "num_leaves": 16, "num_cat": 0, "shrinkage": 0.1, "tree_structure": {"split_index": 0, "split_feature": 0, "split_gain": 1902.7099609375, "threshold": 4.125699996948243, "decision_type": "<=", "default_left": true, "missing_type": "None", "internal_value": 3.98088e-05, "internal_weight": 3936.41, "internal_count": 16512, "left_child": {"split_index": 1, "split_feature": 0, "split_gain": 406.0899963378906, "threshold": 2.6181499958038335, "decision_type": "<=", "default_left": true, "missing_type": "None", "internal_value": -0.0517171, "internal_weight": 2532.76, "internal_count": 10512, "left_child": {"split_index": 7, "split_feature": 2, "split_gain": 117.26300048828125, "threshold": 3.48455023765564, "decision_type": "<=", "default_left": true, "missing_type": "None", "internal_value": -0.0999343, "internal_weight": 1033.77, "internal_count": 4378, "left_child": {"split_index": 10, "split_feature": 5, "split_gain": 61.11320114135742, "threshold": 3.6402605772018437, "decision_type": "<=", "default_left": true, "missing_type": "None", "internal_value": -0.0239792, "internal_weight": 169.861, "internal_count": 693, "left_child": {"leaf_index": 0, "leaf_value": 0.019253380210622142, "leaf_weight": 111.78785625100136, "leaf_count": 450}, "right_child": {"leaf_index": 11, "leaf_value": -0.10719970227393616, "leaf_weight": 58.07318498194218, "leaf_count": 243}}, "right_child": {"split_index": 11, "split_feature": 0, "split_gain": 45.92150115966797, "threshold": 2.220999956130982, "decision_type": "<=", "default_left": true, "missing_type": "None", "internal_value": -0.114868, "internal_weight": 863.91, "internal_count": 3685, "left_child": {"leaf_index": 8, "leaf_value": -0.13325622897815456, "leaf_weight": 528.0367756485939, "leaf_count": 2254}, "right_child": {"leaf_index": 12, "leaf_value": -0.08596045445126232, "leaf_weight": 335.8732929825783, "leaf_count": 1431}}}, "right_child": {"split_index": 2, "split_feature": 5, "split_gain": 301.99798583984375, "threshold": 2.348954796791077, "decision_type": "<=", "default_left": true, "missing_type": "None", "internal_value": -0.0184644, "internal_weight": 1498.99, "internal_count": 6134, "left_child": {"split_index": 8, "split_feature": 2, "split_gain": 100.12799835205078, "threshold": 5.072501420974732, "decision_type": "<=", "default_left": true, "missing_type": "None", "internal_value": 0.0612885, "internal_weight": 360.585, "internal_count": 1487, "left_child": {"leaf_index": 2, "leaf_value": 0.09466600258581277, "leaf_weight": 257.340353384614, "leaf_count": 1061}, "right_child": {"leaf_index": 9, "leaf_value": -0.02190549399651057, "leaf_weight": 103.2449911981821, "leaf_count": 426}}, "right_child": {"split_index": 4, "split_feature": 6, "split_gain": 160.98699951171875, "threshold": 37.924999237060554, "decision_type": "<=", "default_left": true, "missing_type": "None", "internal_value": -0.0437259, "internal_weight": 1138.4, "internal_count": 4647, "left_child": {"leaf_index": 3, "leaf_value": -0.025090144673205386, "leaf_weight": 913.9511702954769, "leaf_count": 3713}, "right_child": {"leaf_index": 5, "leaf_value": -0.11960955115990515, "leaf_weight": 224.4511610865593, "leaf_count": 934}}}}, "right_child": {"split_index": 3, "split_feature": 0, "split_gain": 201.2729949951172, "threshold": 5.335700035095216, "decision_type": "<=", "default_left": true, "missing_type": "None", "internal_value": 0.0934303, "internal_weight": 1403.65, "internal_count": 6000, "left_child": {"split_index": 5, "split_feature": 7, "split_gain": 140.51300048828125, "threshold": -117.71500015258788, "decision_type": "<=", "default_left": true, "missing_type": "None", "internal_value": 0.0584913, "internal_weight": 758.187, "internal_count": 3143, "left_child": {"split_index": 6, "split_feature": 6, "split_gain": 120.31300354003906, "threshold": 37.98500061035157, "decision_type": "<=", "default_left": true, "missing_type": "None", "internal_value": 0.0768952, "internal_weight": 641.032, "internal_count": 2660, "left_child": {"leaf_index": 1, "leaf_value": 0.09506312125408384, "leaf_weight": 545.1587401479483, "leaf_count": 2272}, "right_child": {"leaf_index": 7, "leaf_value": -0.026411941946274747, "leaf_weight": 95.87306897342205, "leaf_count": 388}}, "right_child": {"split_index": 9, "split_feature": 6, "split_gain": 72.64990234375, "threshold": 33.854999542236335, "decision_type": "<=", "default_left": true, "missing_type": "None", "internal_value": -0.0422084, "internal_weight": 117.156, "internal_count": 483, "left_child": {"leaf_index": 6, "leaf_value": 0.014176015827395637, "leaf_weight": 77.44898790121078, "leaf_count": 320}, "right_child": {"leaf_index": 10, "leaf_value": -0.15218818564431033, "leaf_weight": 39.7065574079752, "leaf_count": 163}}}, "right_child": {"split_index": 12, "split_feature": 0, "split_gain": 11.993900299072266, "threshold": 6.277050018310548, "decision_type": "<=", "default_left": true, "missing_type": "None", "internal_value": 0.134471, "internal_weight": 645.465, "internal_count": 2857, "left_child": {"split_index": 13, "split_feature": 1, "split_gain": 16.62529945373535, "threshold": 16.500000000000004, "decision_type": "<=", "default_left": true, "missing_type": "None", "internal_value": 0.119839, "internal_weight": 299.909, "internal_count": 1321, "left_child": {"leaf_index": 4, "leaf_value": 0.08202284084335293, "leaf_weight": 83.78018322587013, "leaf_count": 362}, "right_child": {"leaf_index": 14, "leaf_value": 0.13449787012118225, "leaf_weight": 216.12836681306362, "leaf_count": 959}}, "right_child": {"split_index": 14, "split_feature": 4, "split_gain": 1.9343199729919434, "threshold": 374.50000000000006, "decision_type": "<=", "default_left": true, "missing_type": "None", "internal_value": 0.14717, "internal_weight": 345.557, "internal_count": 1536, "left_child": {"leaf_index": 13, "leaf_value": 0.12013817513576042, "leaf_weight": 24.587315633893013, "leaf_count": 109}, "right_child": {"leaf_index": 15, "leaf_value": 0.14924107849473525, "leaf_weight": 320.9696205407381, "leaf_count": 1427}}}}}}, {"tree_index": 5, "num_leaves": 16, "num_cat": 0, "shrinkage": 0.1, "tree_structure": {"split_index": 0, "split_feature": 0, "split_gain": 1593.4000244140625, "threshold": 3.834650039672852, "decision_type": "<=", "default_left": true, "missing_type": "None", "internal_value": 5.28749e-05, "internal_weight": 3858.61, "internal_count": 16512, "left_child": {"split_index": 2, "split_feature": 0, "split_gain": 268.4630126953125, "threshold": 2.411499977111817, "decision_type": "<=", "default_left": true, "missing_type": "None", "internal_value": -0.0547238, "internal_weight": 2234.8, "internal_count": 9454, "left_child": {"split_index": 7, "split_feature": 2, "split_gain": 100.72100067138672, "threshold": 3.3654434680938725, "decision_type": "<=", "default_left": true, "missing_type": "None", "internal_value": -0.100798, "internal_weight": 807.62, "internal_count": 3519, "left_child": {"split_index": 10, "split_feature": 6, "split_gain": 38.95709991455078, "threshold": 34.04500007629395, "decision_type": "<=", "default_left": true, "missing_type": "None", "internal_value": -0.0188866, "internal_weight": 126.588, "internal_count": 520, "left_child": {"leaf_index": 0, "leaf_value": -0.09312089224475897, "leaf_weight": 45.361190766096115, "leaf_count": 190}, "right_child": {"leaf_index": 11, "leaf_value": 0.022569739126026833, "leaf_weight": 81.22649654746056, "leaf_count": 330}}, "right_child": {"split_index": 13, "split_feature": 5, "split_gain": 25.3794002532959, "threshold": 2.0782574415206914, "decision_type": "<=", "default_left": true, "missing_type": "None", "internal_value": -0.116024, "internal_weight": 681.032, "internal_count": 2999, "left_child": {"leaf_index": 8, "leaf_value": -0.06230473107612527, "leaf_weight": 77.88985742628574, "leaf_count": 322}, "right_child": {"leaf_index": 14, "leaf_value": -0.12296082716539297, "leaf_weight": 603.1420139670372, "leaf_count": 2677}}}, "right_child": {"split_index": 3, "split_feature": 2, "split_gain": 278.0350036621094, "threshold": 4.713615894317628, "decision_type": "<=", "default_left": true, "missing_type": "None", "internal_value": -0.0286511, "internal_weight": 1427.18, "internal_count": 5935, "left_child": {"split_index": 4, "split_feature": 5, "split_gain": 306.1709899902344, "threshold": 3.501324534416199, "decision_type": "<=", "default_left": true, "missing_type": "None", "internal_value": 0.0222326, "internal_weight": 612.778, "internal_count": 2535, "left_child": {"leaf_index": 3, "leaf_value": 0.06198748502336829, "leaf_weight": 465.52562071383, "leaf_count": 1923}, "right_child": {"leaf_index": 5, "leaf_value": -0.10344874560467394, "leaf_weight": 147.25251331925392, "leaf_count": 612}}, "right_child": {"split_index": 8, "split_feature": 7, "split_gain": 94.95020294189453, "threshold": -121.85499954223631, "decision_type": "<=", "default_left": true, "missing_type": "None", "internal_value": -0.0669372, "internal_weight": 814.404, "internal_count": 3400, "left_child": {"leaf_index": 4, "leaf_value": -0.0012879870358198557, "leaf_weight": 173.4025181978941, "leaf_count": 730}, "right_child": {"leaf_index": 9, "leaf_value": -0.08469655075288518, "leaf_weight": 641.0015496462584, "leaf_count": 2670}}}}, "right_child": {"split_index": 1, "split_feature": 0, "split_gain": 271.9410095214844, "threshold": 5.011600017547608, "decision_type": "<=", "default_left": true, "missing_type": "None", "internal_value": 0.0754403, "internal_weight": 1623.81, "internal_count": 7058, "left_child": {"split_index": 5, "split_feature": 7, "split_gain": 147.85699462890625, "threshold": -117.75500106811522, "decision_type": "<=", "default_left": true, "missing_type": "None", "internal_value": 0.035396, "internal_weight": 829.531, "internal_count": 3443, "left_child": {"split_index": 6, "split_feature": 6, "split_gain": 156.39500427246094, "threshold": 37.98500061035157, "decision_type": "<=", "default_left": true, "missing_type": "None", "internal_value": 0.0539727, "internal_weight": 694.977, "internal_count": 2887, "left_child": {"leaf_index": 1, "leaf_value": 0.07561249705066217, "leaf_weight": 575.26836130023, "leaf_count": 2401}, "right_child": {"leaf_index": 7, "leaf_value": -0.05001896380114752, "leaf_weight": 119.70883478224277, "leaf_count": 486}}, "right_child": {"split_index": 9, "split_feature": 6, "split_gain": 64.66190338134766, "threshold": 33.86499977111817, "decision_type": "<=", "default_left": true, "missing_type": "None", "internal_value": -0.0605534, "internal_weight": 134.553, "internal_count": 556, "left_child": {"leaf_index": 6, "leaf_value": -0.010019615865533016, "leaf_weight": 87.86375416815281, "leaf_count": 363}, "right_child": {"leaf_index": 10, "leaf_value": -0.15565150681747456, "leaf_weight": 46.68961164355278, "leaf_count": 193}}}, "right_child": {"split_index": 11, "split_feature": 0, "split_gain": 33.91019821166992, "threshold": 5.604249954223634, "decision_type": "<=", "default_left": true, "missing_type": "None", "internal_value": 0.117262, "internal_weight": 794.281, "internal_count": 3615, "left_child": {"split_index": 12, "split_feature": 1, "split_gain": 33.75239944458008, "threshold": 17.500000000000004, "decision_type": "<=", "default_left": true, "missing_type": "None", "internal_value": 0.089055, "internal_weight": 277.373, "internal_count": 1209, "left_child": {"leaf_index": 2, "leaf_value": 0.03825553392858884, "leaf_weight": 88.88180476427078, "leaf_count": 372}, "right_child": {"leaf_index": 13, "leaf_value": 0.11300925273238999, "leaf_weight": 188.49094150960445, "leaf_count": 837}}, "right_child": {"split_index": 14, "split_feature": 0, "split_gain": 4.922619819641113, "threshold": 6.277050018310548, "decision_type": "<=", "default_left": true, "missing_type": "None", "internal_value": 0.132398, "internal_weight": 516.908, "internal_count": 2406, "left_child": {"leaf_index": 12, "leaf_value": 0.11952246563181229, "leaf_weight": 188.60638317465782, "leaf_count": 870}, "right_child": {"leaf_index": 15, "leaf_value": 0.13979416405177064, "leaf_weight": 328.30149795114994, "leaf_count": 1536}}}}}}, {"tree_index": 6, "num_leaves": 16, "num_cat": 0, "shrinkage": 0.1, "tree_structure": {"split_index": 0, "split_feature": 0, "split_gain": 1342.0999755859375, "threshold": 3.5488499402999882, "decision_type": "<=", "default_left": true, "missing_type": "None", "internal_value": 5.716230000000001e-05, "internal_weight": 3778.01, "internal_count": 16512, "left_child": {"split_index": 3, "split_feature": 6, "split_gain": 213.41000366210938, "threshold": 37.924999237060554, "decision_type": "<=", "default_left": true, "missing_type": "None", "internal_value": -0.0588628, "internal_weight": 1910.75, "internal_count": 8270, "left_child": {"split_index": 4, "split_feature": 5, "split_gain": 274.4460144042969, "threshold": 2.618283033370972, "decision_type": "<=", "default_left": true, "missing_type": "None", "internal_value": -0.0416795, "internal_weight": 1511.23, "internal_count": 6490, "left_child": {"split_index": 5, "split_feature": 7, "split_gain": 220.7270050048828, "threshold": -117.14500045776366, "decision_type": "<=", "default_left": true, "missing_type": "None", "internal_value": 0.0159281, "internal_weight": 534.495, "internal_count": 2245, "left_child": {"leaf_index": 0, "leaf_value": 0.042264357742532135, "leaf_weight": 457.63271839916706, "leaf_count": 1919}, "right_child": {"leaf_index": 6, "leaf_value": -0.14087604867088854, "leaf_weight": 76.86235365271568, "leaf_count": 326}}, "right_child": {"split_index": 6, "split_feature": 7, "split_gain": 187.23599243164062, "threshold": -122.31499862670897, "decision_type": "<=", "default_left": true, "missing_type": "None", "internal_value": -0.0732039, "internal_weight": 976.735, "internal_count": 4245, "left_child": {"leaf_index": 5, "leaf_value": 0.19983462911227678, "leaf_weight": 24.48590861260891, "leaf_count": 102}, "right_child": {"leaf_index": 7, "leaf_value": -0.08022469576043574, "leaf_weight": 952.2492910176516, "leaf_count": 4143}}}, "right_child": {"split_index": 11, "split_feature": 7, "split_gain": 16.547000885009766, "threshold": -122.435001373291, "decision_type": "<=", "default_left": true, "missing_type": "None", "internal_value": -0.123861, "internal_weight": 399.516, "internal_count": 1780, "left_child": {"split_index": 12, "split_feature": 6, "split_gain": 64.10150146484375, "threshold": 38.70499992370606, "decision_type": "<=", "default_left": true, "missing_type": "None", "internal_value": -0.086546, "internal_weight": 91.5908, "internal_count": 406, "left_child": {"leaf_index": 4, "leaf_value": 0.033751930178535304, "leaf_weight": 29.85592246055603, "leaf_count": 127}, "right_child": {"leaf_index": 13, "leaf_value": -0.14472393224090283, "leaf_weight": 61.73485819995403, "leaf_count": 279}}, "right_child": {"split_index": 14, "split_feature": 2, "split_gain": 3.6239399909973145, "threshold": 19.048315048217777, "decision_type": "<=", "default_left": true, "missing_type": "None", "internal_value": -0.134961, "internal_weight": 307.925, "internal_count": 1374, "left_child": {"leaf_index": 12, "leaf_value": -0.13631649427014222, "leaf_weight": 303.19022454321384, "leaf_count": 1353}, "right_child": {"leaf_index": 15, "leaf_value": -0.04815191206646766, "leaf_weight": 4.735035136342048, "leaf_count": 21}}}}, "right_child": {"split_index": 1, "split_feature": 0, "split_gain": 323.25799560546875, "threshold": 5.011600017547608, "decision_type": "<=", "default_left": true, "missing_type": "None", "internal_value": 0.0603492, "internal_weight": 1867.26, "internal_count": 8242, "left_child": {"split_index": 2, "split_feature": 5, "split_gain": 224.35299682617188, "threshold": 2.8079589605331425, "decision_type": "<=", "default_left": true, "missing_type": "None", "internal_value": 0.0258749, "internal_weight": 1107.18, "internal_count": 4627, "left_child": {"split_index": 7, "split_feature": 6, "split_gain": 115.48500061035156, "threshold": 38.54500007629395, "decision_type": "<=", "default_left": true, "missing_type": "None", "internal_value": 0.0702863, "internal_weight": 561.061, "internal_count": 2378, "left_child": {"leaf_index": 1, "leaf_value": 0.08356643517273704, "leaf_weight": 516.7823625206947, "leaf_count": 2195}, "right_child": {"leaf_index": 8, "leaf_value": -0.0847066569060038, "leaf_weight": 44.27900958061218, "leaf_count": 183}}, "right_child": {"split_index": 8, "split_feature": 7, "split_gain": 93.19090270996094, "threshold": -122.38499832153319, "decision_type": "<=", "default_left": true, "missing_type": "None", "internal_value": -0.019752, "internal_weight": 546.114, "internal_count": 2249, "left_child": {"leaf_index": 3, "leaf_value": 0.13277371781099911, "leaf_weight": 37.320357382297516, "leaf_count": 154}, "right_child": {"leaf_index": 9, "leaf_value": -0.03093986270298866, "leaf_weight": 508.79362267255783, "leaf_count": 2095}}}, "right_child": {"split_index": 9, "split_feature": 0, "split_gain": 33.001399993896484, "threshold": 5.769949913024903, "decision_type": "<=", "default_left": true, "missing_type": "None", "internal_value": 0.110566, "internal_weight": 760.088, "internal_count": 3615, "left_child": {"split_index": 10, "split_feature": 1, "split_gain": 33.544700622558594, "threshold": 16.500000000000004, "decision_type": "<=", "default_left": true, "missing_type": "None", "internal_value": 0.0862523, "internal_weight": 321.862, "internal_count": 1459, "left_child": {"leaf_index": 2, "leaf_value": 0.03546240347973165, "leaf_weight": 92.61815343797207, "leaf_count": 396}, "right_child": {"leaf_index": 11, "leaf_value": 0.10677225585005834, "leaf_weight": 229.24426051974297, "leaf_count": 1063}}, "right_child": {"split_index": 13, "split_feature": 4, "split_gain": 3.7336599826812744, "threshold": 107.50000000000001, "decision_type": "<=", "default_left": true, "missing_type": "None", "internal_value": 0.128423, "internal_weight": 438.226, "internal_count": 2156, "left_child": {"leaf_index": 10, "leaf_value": 0.056088044700967565, "leaf_weight": 7.021331176161765, "leaf_count": 34}, "right_child": {"leaf_index": 14, "leaf_value": 0.1296012113759156, "leaf_weight": 431.20431827008724, "leaf_count": 2122}}}}}}, {"tree_index": 7, "num_leaves": 16, "num_cat": 0, "shrinkage": 0.1, "tree_structure": {"split_index": 0, "split_feature": 0, "split_gain": 1140.93994140625, "threshold": 4.22819995880127, "decision_type": "<=", "default_left": true, "missing_type": "None", "internal_value": 6.0094200000000005e-05, "internal_weight": 3696.05, "internal_count": 16512, "left_child": {"split_index": 1, "split_feature": 0, "split_gain": 302.7560119628906, "threshold": 3.109699964523316, "decision_type": "<=", "default_left": true, "missing_type": "None", "internal_value": -0.0382608, "internal_weight": 2504.58, "internal_count": 10902, "left_child": {"split_index": 3, "split_feature": 2, "split_gain": 143.0070037841797, "threshold": 4.348633289337159, "decision_type": "<=", "default_left": true, "missing_type": "None", "internal_value": -0.0683339, "internal_weight": 1432.69, "internal_count": 6425, "left_child": {"split_index": 4, "split_feature": 5, "split_gain": 156.60800170898438, "threshold": 3.4421863555908208, "decision_type": "<=", "default_left": true, "missing_type": "None", "internal_value": -0.0331749, "internal_weight": 640.044, "internal_count": 2780, "left_child": {"leaf_index": 0, "leaf_value": 0.004299364364551402, "leaf_weight": 406.6525860130787, "leaf_count": 1716}, "right_child": {"leaf_index": 5, "leaf_value": -0.09846863458230345, "leaf_weight": 233.39146453142166, "leaf_count": 1064}}, "right_child": {"split_index": 11, "split_feature": 6, "split_gain": 31.10219955444336, "threshold": 37.924999237060554, "decision_type": "<=", "default_left": true, "missing_type": "None", "internal_value": -0.096724, "internal_weight": 792.646, "internal_count": 3645, "left_child": {"leaf_index": 4, "leaf_value": -0.08328995997795297, "leaf_weight": 542.930065408349, "leaf_count": 2453}, "right_child": {"leaf_index": 12, "leaf_value": -0.1259321959693877, "leaf_weight": 249.71586993336678, "leaf_count": 1192}}}, "right_child": {"split_index": 2, "split_feature": 5, "split_gain": 191.6439971923828, "threshold": 2.6652197837829594, "decision_type": "<=", "default_left": true, "missing_type": "None", "internal_value": 0.00193485, "internal_weight": 1071.89, "internal_count": 4477, "left_child": {"split_index": 6, "split_feature": 7, "split_gain": 99.68890380859375, "threshold": -117.60499954223631, "decision_type": "<=", "default_left": true, "missing_type": "None", "internal_value": 0.0500444, "internal_weight": 467.147, "internal_count": 1975, "left_child": {"leaf_index": 2, "leaf_value": 0.06805651692450546, "leaf_weight": 405.4985629469156, "leaf_count": 1720}, "right_child": {"leaf_index": 7, "leaf_value": -0.06843098081343353, "leaf_weight": 61.648933574557304, "leaf_count": 255}}, "right_child": {"split_index": 8, "split_feature": 7, "split_gain": 82.47049713134766, "threshold": -117.79500198364256, "decision_type": "<=", "default_left": true, "missing_type": "None", "internal_value": -0.0352283, "internal_weight": 604.746, "internal_count": 2502, "left_child": {"leaf_index": 3, "leaf_value": -0.017913972063905027, "leaf_weight": 495.76260916888714, "leaf_count": 2040}, "right_child": {"leaf_index": 9, "leaf_value": -0.11399091983878823, "leaf_weight": 108.98313947021961, "leaf_count": 462}}}}, "right_child": {"split_index": 5, "split_feature": 0, "split_gain": 124.52400207519531, "threshold": 5.335700035095216, "decision_type": "<=", "default_left": true, "missing_type": "None", "internal_value": 0.0806143, "internal_weight": 1191.47, "internal_count": 5610, "left_child": {"split_index": 7, "split_feature": 1, "split_gain": 95.05760192871094, "threshold": 18.500000000000004, "decision_type": "<=", "default_left": true, "missing_type": "None", "internal_value": 0.0503544, "internal_weight": 635.071, "internal_count": 2753, "left_child": {"split_index": 10, "split_feature": 7, "split_gain": 37.31650161743164, "threshold": -121.46500015258788, "decision_type": "<=", "default_left": true, "missing_type": "None", "internal_value": -0.00645025, "internal_weight": 201.241, "internal_count": 837, "left_child": {"leaf_index": 1, "leaf_value": 0.0679490602603267, "leaf_weight": 50.49884361028671, "leaf_count": 210}, "right_child": {"leaf_index": 11, "leaf_value": -0.03137409524438312, "leaf_weight": 150.74231949448586, "leaf_count": 627}}, "right_child": {"split_index": 9, "split_feature": 7, "split_gain": 71.61319732666016, "threshold": -117.75500106811522, "decision_type": "<=", "default_left": true, "missing_type": "None", "internal_value": 0.0767044, "internal_weight": 433.83, "internal_count": 1916, "left_child": {"leaf_index": 8, "leaf_value": 0.08962167158511153, "leaf_weight": 394.00370252132416, "leaf_count": 1747}, "right_child": {"leaf_index": 10, "leaf_value": -0.051087103063912634, "leaf_weight": 39.82631078362465, "leaf_count": 169}}}, "right_child": {"split_index": 12, "split_feature": 6, "split_gain": 11.200699806213379, "threshold": 37.9650001525879, "decision_type": "<=", "default_left": true, "missing_type": "None", "internal_value": 0.115153, "internal_weight": 556.399, "internal_count": 2857, "left_child": {"split_index": 14, "split_feature": 1, "split_gain": 6.756309986114502, "threshold": 16.500000000000004, "decision_type": "<=", "default_left": true, "missing_type": "None", "internal_value": 0.119173, "internal_weight": 515.049, "internal_count": 2664, "left_child": {"leaf_index": 6, "leaf_value": 0.10048293643432696, "leaf_weight": 140.61200092732906, "leaf_count": 705}, "right_child": {"leaf_index": 15, "leaf_value": 0.12619154633687638, "leaf_weight": 374.4369662106037, "leaf_count": 1959}}, "right_child": {"split_index": 13, "split_feature": 7, "split_gain": 12.39490032196045, "threshold": -122.06499862670897, "decision_type": "<=", "default_left": true, "missing_type": "None", "internal_value": 0.065078, "internal_weight": 41.3496, "internal_count": 193, "left_child": {"leaf_index": 13, "leaf_value": 0.12620439842625433, "leaf_weight": 18.406392976641655, "leaf_count": 89}, "right_child": {"leaf_index": 14, "leaf_value": 0.01603867077654097, "leaf_weight": 22.943162739276886, "leaf_count": 104}}}}}}, {"tree_index": 8, "num_leaves": 16, "num_cat": 0, "shrinkage": 0.1, "tree_structure": {"split_index": 0, "split_feature": 0, "split_gain": 964.322998046875, "threshold": 4.530150175094605, "decision_type": "<=", "default_left": true, "missing_type": "None", "internal_value": 6.95011e-05, "internal_weight": 3613.32, "internal_count": 16512, "left_child": {"split_index": 1, "split_feature": 0, "split_gain": 308.3710021972656, "threshold": 2.671550035476685, "decision_type": "<=", "default_left": true, "missing_type": "None", "internal_value": -0.0309755, "internal_weight": 2654.64, "internal_count": 11736, "left_child": {"split_index": 5, "split_feature": 2, "split_gain": 87.71209716796875, "threshold": 3.9011673927307133, "decision_type": "<=", "default_left": true, "missing_type": "None", "internal_value": -0.0752898, "internal_weight": 986.665, "internal_count": 4638, "left_child": {"split_index": 6, "split_feature": 7, "split_gain": 74.81069946289062, "threshold": -118.23500061035155, "decision_type": "<=", "default_left": true, "missing_type": "None", "internal_value": -0.0320082, "internal_weight": 317.536, "internal_count": 1384, "left_child": {"leaf_index": 0, "leaf_value": 0.0062184025226968715, "leaf_weight": 195.98075453937054, "leaf_count": 843}, "right_child": {"leaf_index": 7, "leaf_value": -0.09364007517124967, "leaf_weight": 121.5550748705864, "leaf_count": 541}}, "right_child": {"split_index": 10, "split_feature": 5, "split_gain": 29.220800399780273, "threshold": 2.290632843971253, "decision_type": "<=", "default_left": true, "missing_type": "None", "internal_value": -0.0958291, "internal_weight": 669.129, "internal_count": 3254, "left_child": {"leaf_index": 6, "leaf_value": -0.054273055090832426, "leaf_weight": 135.0561482012272, "leaf_count": 605}, "right_child": {"leaf_index": 11, "leaf_value": -0.10633781502768021, "leaf_weight": 534.0728660672903, "leaf_count": 2649}}}, "right_child": {"split_index": 2, "split_feature": 5, "split_gain": 225.10699462890625, "threshold": 2.913734078407288, "decision_type": "<=", "default_left": true, "missing_type": "None", "internal_value": -0.00476205, "internal_weight": 1667.97, "internal_count": 7098, "left_child": {"split_index": 3, "split_feature": 6, "split_gain": 249.6009979248047, "threshold": 37.93499946594239, "decision_type": "<=", "default_left": true, "missing_type": "None", "internal_value": 0.0248538, "internal_weight": 1010.95, "internal_count": 4329, "left_child": {"leaf_index": 2, "leaf_value": 0.05140768830409224, "leaf_weight": 786.3727313280106, "leaf_count": 3351}, "right_child": {"leaf_index": 4, "leaf_value": -0.06812567096709181, "leaf_weight": 224.57914713025093, "leaf_count": 978}}, "right_child": {"split_index": 4, "split_feature": 7, "split_gain": 97.17019653320312, "threshold": -122.38499832153319, "decision_type": "<=", "default_left": true, "missing_type": "None", "internal_value": -0.0503316, "internal_weight": 657.022, "internal_count": 2769, "left_child": {"leaf_index": 3, "leaf_value": 0.10498861456588666, "leaf_weight": 37.95218999683857, "leaf_count": 158}, "right_child": {"leaf_index": 5, "leaf_value": -0.05985356525177579, "leaf_weight": 619.0695523172617, "leaf_count": 2611}}}}, "right_child": {"split_index": 7, "split_feature": 0, "split_gain": 71.69989776611328, "threshold": 5.604249954223634, "decision_type": "<=", "default_left": true, "missing_type": "None", "internal_value": 0.0860352, "internal_weight": 958.677, "internal_count": 4776, "left_child": {"split_index": 8, "split_feature": 5, "split_gain": 60.81420135498047, "threshold": 3.0298304557800297, "decision_type": "<=", "default_left": true, "missing_type": "None", "internal_value": 0.0610034, "internal_weight": 521.647, "internal_count": 2370, "left_child": {"split_index": 9, "split_feature": 6, "split_gain": 33.692901611328125, "threshold": 38.604999542236335, "decision_type": "<=", "default_left": true, "missing_type": "None", "internal_value": 0.0870732, "internal_weight": 329.537, "internal_count": 1536, "left_child": {"leaf_index": 1, "leaf_value": 0.09425512801991626, "leaf_weight": 313.71090357005596, "leaf_count": 1471}, "right_child": {"leaf_index": 10, "leaf_value": -0.055287782643164675, "leaf_weight": 15.826378047466276, "leaf_count": 65}}, "right_child": {"split_index": 11, "split_feature": 7, "split_gain": 27.93000030517578, "threshold": -121.46500015258788, "decision_type": "<=", "default_left": true, "missing_type": "None", "internal_value": 0.0162844, "internal_weight": 192.109, "internal_count": 834, "left_child": {"leaf_index": 9, "leaf_value": 0.08031234189597086, "leaf_weight": 50.29320049285889, "leaf_count": 218}, "right_child": {"leaf_index": 12, "leaf_value": -0.0064222067055290585, "leaf_weight": 141.8162376433611, "leaf_count": 616}}}, "right_child": {"split_index": 12, "split_feature": 0, "split_gain": 5.470449924468994, "threshold": 6.277050018310548, "decision_type": "<=", "default_left": true, "missing_type": "None", "internal_value": 0.115913, "internal_weight": 437.03, "internal_count": 2406, "left_child": {"split_index": 13, "split_feature": 1, "split_gain": 6.7952799797058105, "threshold": 16.500000000000004, "decision_type": "<=", "default_left": true, "missing_type": "None", "internal_value": 0.101326, "internal_weight": 161.869, "internal_count": 870, "left_child": {"leaf_index": 8, "leaf_value": 0.06899429538247497, "leaf_weight": 46.37887932360172, "leaf_count": 235}, "right_child": {"leaf_index": 14, "leaf_value": 0.11431043375558839, "leaf_weight": 115.49016164243221, "leaf_count": 635}}, "right_child": {"split_index": 14, "split_feature": 4, "split_gain": 2.1727800369262695, "threshold": 374.50000000000006, "decision_type": "<=", "default_left": true, "missing_type": "None", "internal_value": 0.124495, "internal_weight": 275.161, "internal_count": 1536, "left_child": {"leaf_index": 13, "leaf_value": 0.09284239913875998, "leaf_weight": 20.10295395553112, "leaf_count": 109}, "right_child": {"leaf_index": 15, "leaf_value": 0.1269893253669979, "leaf_weight": 255.05789656937122, "leaf_count": 1427}}}}}}, {"tree_index": 9, "num_leaves": 16, "num_cat": 0, "shrinkage": 0.1, "tree_structure": {"split_index": 0, "split_feature": 0, "split_gain": 815.2769775390625, "threshold": 3.3762999773025517, "decision_type": "<=", "default_left": true, "missing_type": "None", "internal_value": 7.56616e-05, "internal_weight": 3530.19, "internal_count": 16512, "left_child": {"split_index": 4, "split_feature": 6, "split_gain": 157.06900024414062, "threshold": 37.924999237060554, "decision_type": "<=", "default_left": true, "missing_type": "None", "internal_value": -0.051344, "internal_weight": 1645.89, "internal_count": 7626, "left_child": {"split_index": 5, "split_feature": 7, "split_gain": 196.5279998779297, "threshold": -117.77499771118163, "decision_type": "<=", "default_left": true, "missing_type": "None", "internal_value": -0.0358571, "internal_weight": 1315.31, "internal_count": 5972, "left_child": {"split_index": 6, "split_feature": 5, "split_gain": 223.1750030517578, "threshold": 3.4287186861038212, "decision_type": "<=", "default_left": true, "missing_type": "None", "internal_value": -0.0148531, "internal_weight": 1015.48, "internal_count": 4584, "left_child": {"leaf_index": 0, "leaf_value": 0.01837262113769973, "leaf_weight": 675.9441522359848, "leaf_count": 2959}, "right_child": {"leaf_index": 7, "leaf_value": -0.08099852928489351, "leaf_weight": 339.53539268672466, "leaf_count": 1625}}, "right_child": {"split_index": 8, "split_feature": 5, "split_gain": 34.81840133666992, "threshold": 1.9322223067283633, "decision_type": "<=", "default_left": true, "missing_type": "None", "internal_value": -0.106994, "internal_weight": 299.833, "internal_count": 1388, "left_child": {"leaf_index": 6, "leaf_value": -0.019332000241633625, "leaf_weight": 39.36121916770935, "leaf_count": 166}, "right_child": {"leaf_index": 9, "leaf_value": -0.1202408473157737, "leaf_weight": 260.4714921414852, "leaf_count": 1222}}}, "right_child": {"split_index": 12, "split_feature": 7, "split_gain": 8.965009689331055, "threshold": -122.38499832153319, "decision_type": "<=", "default_left": true, "missing_type": "None", "internal_value": -0.112964, "internal_weight": 330.574, "internal_count": 1654, "left_child": {"split_index": 13, "split_feature": 6, "split_gain": 47.835601806640625, "threshold": 38.32500076293946, "decision_type": "<=", "default_left": true, "missing_type": "None", "internal_value": -0.0838379, "internal_weight": 80.0773, "internal_count": 394, "left_child": {"leaf_index": 5, "leaf_value": 0.16024022793068135, "leaf_weight": 7.297822043299674, "leaf_count": 31}, "right_child": {"leaf_index": 14, "leaf_value": -0.10831239799927735, "leaf_weight": 72.77950395643711, "leaf_count": 363}}, "right_child": {"split_index": 14, "split_feature": 4, "split_gain": 3.144550085067749, "threshold": 3681.5000000000005, "decision_type": "<=", "default_left": true, "missing_type": "None", "internal_value": -0.122275, "internal_weight": 250.497, "internal_count": 1260, "left_child": {"leaf_index": 13, "leaf_value": -0.12393484198407834, "leaf_weight": 245.11954015493393, "leaf_count": 1233}, "right_child": {"leaf_index": 15, "leaf_value": -0.046631010939958, "leaf_weight": 5.377503752708434, "leaf_count": 27}}}}, "right_child": {"split_index": 1, "split_feature": 0, "split_gain": 250.55099487304688, "threshold": 5.038699865341187, "decision_type": "<=", "default_left": true, "missing_type": "None", "internal_value": 0.0449892, "internal_weight": 1884.31, "internal_count": 8886, "left_child": {"split_index": 2, "split_feature": 7, "split_gain": 171.24600219726562, "threshold": -121.85499954223631, "decision_type": "<=", "default_left": true, "missing_type": "None", "internal_value": 0.0187251, "internal_weight": 1240.67, "internal_count": 5334, "left_child": {"split_index": 7, "split_feature": 6, "split_gain": 97.1864013671875, "threshold": 38.73500061035157, "decision_type": "<=", "default_left": true, "missing_type": "None", "internal_value": 0.0835094, "internal_weight": 307.042, "internal_count": 1345, "left_child": {"leaf_index": 1, "leaf_value": 0.09686127762910408, "leaf_weight": 290.6712724715471, "leaf_count": 1275}, "right_child": {"leaf_index": 8, "leaf_value": -0.15355459300167207, "leaf_weight": 16.37110498547554, "leaf_count": 70}}, "right_child": {"split_index": 3, "split_feature": 6, "split_gain": 336.7829895019531, "threshold": 34.45499992370606, "decision_type": "<=", "default_left": true, "missing_type": "None", "internal_value": -0.00258044, "internal_weight": 933.631, "internal_count": 3989, "left_child": {"leaf_index": 3, "leaf_value": 0.035490237766685695, "leaf_weight": 666.0247609615326, "leaf_count": 2866}, "right_child": {"leaf_index": 4, "leaf_value": -0.09733152529890993, "leaf_weight": 267.6066170334816, "leaf_count": 1123}}}, "right_child": {"split_index": 9, "split_feature": 6, "split_gain": 32.976200103759766, "threshold": 37.975000381469734, "decision_type": "<=", "default_left": true, "missing_type": "None", "internal_value": 0.0956162, "internal_weight": 643.633, "internal_count": 3552, "left_child": {"split_index": 11, "split_feature": 7, "split_gain": 19.382299423217773, "threshold": -117.63499832153319, "decision_type": "<=", "default_left": true, "missing_type": "None", "internal_value": 0.102602, "internal_weight": 587.652, "internal_count": 3287, "left_child": {"leaf_index": 2, "leaf_value": 0.1096068677482107, "leaf_weight": 511.55659110844135, "leaf_count": 2902}, "right_child": {"leaf_index": 12, "leaf_value": 0.05551435468978924, "leaf_weight": 76.09536400437355, "leaf_count": 385}}, "right_child": {"split_index": 10, "split_feature": 7, "split_gain": 24.800800323486328, "threshold": -122.06499862670897, "decision_type": "<=", "default_left": true, "missing_type": "None", "internal_value": 0.0222795, "internal_weight": 55.9808, "internal_count": 265, "left_child": {"leaf_index": 10, "leaf_value": 0.10416309337175123, "leaf_weight": 22.272523447871208, "leaf_count": 113}, "right_child": {"leaf_index": 11, "leaf_value": -0.03182457758015705, "leaf_weight": 33.70826943218708, "leaf_count": 152}}}}}}, {"tree_index": 10, "num_leaves": 16, "num_cat": 0, "shrinkage": 0.1, "tree_structure": {"split_index": 0, "split_feature": 0, "split_gain": 697.530029296875, "threshold": 4.530150175094605, "decision_type": "<=", "default_left": true, "missing_type": "None", "internal_value": 6.40373e-05, "internal_weight": 3451.17, "internal_count": 16512, "left_child": {"split_index": 1, "split_feature": 0, "split_gain": 242.9499969482422, "threshold": 2.411499977111817, "decision_type": "<=", "default_left": true, "missing_type": "None", "internal_value": -0.0263404, "internal_weight": 2566.02, "internal_count": 11736, "left_child": {"split_index": 4, "split_feature": 2, "split_gain": 78.8281021118164, "threshold": 2.928991556167603, "decision_type": "<=", "default_left": true, "missing_type": "None", "internal_value": -0.0767148, "internal_weight": 697.256, "internal_count": 3519, "left_child": {"split_index": 11, "split_feature": 3, "split_gain": 16.658300399780273, "threshold": 0.9822178184986116, "decision_type": "<=", "default_left": true, "missing_type": "None", "internal_value": 0.0300986, "internal_weight": 62.8631, "internal_count": 267, "left_child": {"leaf_index": 0, "leaf_value": -0.0821758455662197, "leaf_weight": 10.919553726911543, "leaf_count": 48}, "right_child": {"leaf_index": 12, "leaf_value": 0.05370089701176675, "leaf_weight": 51.9435388892889, "leaf_count": 219}}, "right_child": {"split_index": 10, "split_feature": 6, "split_gain": 27.850099563598633, "threshold": 35.335000991821296, "decision_type": "<=", "default_left": true, "missing_type": "None", "internal_value": -0.0872991, "internal_weight": 634.393, "internal_count": 3252, "left_child": {"leaf_index": 5, "leaf_value": -0.06649342322571498, "leaf_weight": 319.42504435777664, "leaf_count": 1597}, "right_child": {"leaf_index": 11, "leaf_value": -0.1083992701363916, "leaf_weight": 314.9678145200014, "leaf_count": 1655}}}, "right_child": {"split_index": 2, "split_feature": 7, "split_gain": 232.3280029296875, "threshold": -117.75500106811522, "decision_type": "<=", "default_left": true, "missing_type": "None", "internal_value": -0.00754519, "internal_weight": 1868.76, "internal_count": 8217, "left_child": {"split_index": 3, "split_feature": 6, "split_gain": 302.0050048828125, "threshold": 37.93499946594239, "decision_type": "<=", "default_left": true, "missing_type": "None", "internal_value": 0.00822491, "internal_weight": 1557.25, "internal_count": 6844, "left_child": {"leaf_index": 2, "leaf_value": 0.031047732253891153, "leaf_weight": 1227.5470372885466, "leaf_count": 5306}, "right_child": {"leaf_index": 4, "leaf_value": -0.07674909013855237, "leaf_weight": 329.70187425613403, "leaf_count": 1538}}, "right_child": {"split_index": 5, "split_feature": 6, "split_gain": 73.32579803466797, "threshold": 33.655000686645515, "decision_type": "<=", "default_left": true, "missing_type": "None", "internal_value": -0.0863792, "internal_weight": 311.515, "internal_count": 1373, "left_child": {"leaf_index": 3, "leaf_value": -0.04310389494556714, "leaf_weight": 173.4867586195469, "leaf_count": 752}, "right_child": {"leaf_index": 6, "leaf_value": -0.14077156110596098, "leaf_weight": 138.0282319933176, "leaf_count": 621}}}}, "right_child": {"split_index": 6, "split_feature": 0, "split_gain": 67.81400299072266, "threshold": 5.604249954223634, "decision_type": "<=", "default_left": true, "missing_type": "None", "internal_value": 0.0766095, "internal_weight": 885.152, "internal_count": 4776, "left_child": {"split_index": 7, "split_feature": 1, "split_gain": 55.4650993347168, "threshold": 22.500000000000004, "decision_type": "<=", "default_left": true, "missing_type": "None", "internal_value": 0.0522002, "internal_weight": 497.922, "internal_count": 2370, "left_child": {"split_index": 9, "split_feature": 5, "split_gain": 30.49679946899414, "threshold": 2.8079589605331425, "decision_type": "<=", "default_left": true, "missing_type": "None", "internal_value": 0.0136476, "internal_weight": 213.308, "internal_count": 946, "left_child": {"leaf_index": 1, "leaf_value": 0.061385806284675916, "leaf_weight": 82.23178297281265, "leaf_count": 379}, "right_child": {"leaf_index": 10, "leaf_value": -0.016301361084052456, "leaf_weight": 131.07616531848907, "leaf_count": 567}}, "right_child": {"split_index": 8, "split_feature": 6, "split_gain": 36.10309982299805, "threshold": 38.604999542236335, "decision_type": "<=", "default_left": true, "missing_type": "None", "internal_value": 0.081094, "internal_weight": 284.614, "internal_count": 1424, "left_child": {"leaf_index": 8, "leaf_value": 0.08601120084808575, "leaf_weight": 279.2901738137007, "leaf_count": 1402}, "right_child": {"leaf_index": 9, "leaf_value": -0.17687900598448672, "leaf_weight": 5.3234799802303305, "leaf_count": 22}}}, "right_child": {"split_index": 12, "split_feature": 0, "split_gain": 5.89985990524292, "threshold": 6.277050018310548, "decision_type": "<=", "default_left": true, "missing_type": "None", "internal_value": 0.107996, "internal_weight": 387.23, "internal_count": 2406, "left_child": {"split_index": 13, "split_feature": 1, "split_gain": 6.778570175170898, "threshold": 16.500000000000004, "decision_type": "<=", "default_left": true, "missing_type": "None", "internal_value": 0.0920751, "internal_weight": 145.373, "internal_count": 870, "left_child": {"leaf_index": 7, "leaf_value": 0.05878398098242809, "leaf_weight": 43.049751460552216, "leaf_count": 235}, "right_child": {"leaf_index": 14, "leaf_value": 0.10608149034232642, "leaf_weight": 102.32328441739082, "leaf_count": 635}}, "right_child": {"split_index": 14, "split_feature": 4, "split_gain": 2.3117899894714355, "threshold": 374.50000000000006, "decision_type": "<=", "default_left": true, "missing_type": "None", "internal_value": 0.117566, "internal_weight": 241.857, "internal_count": 1536, "left_child": {"leaf_index": 13, "leaf_value": 0.08323591560995441, "leaf_weight": 18.143987327814102, "leaf_count": 109}, "right_child": {"leaf_index": 15, "leaf_value": 0.12035025789825345, "leaf_weight": 223.7131969332695, "leaf_count": 1427}}}}}}, {"tree_index": 11, "num_leaves": 16, "num_cat": 0, "shrinkage": 0.1, "tree_structure": {"split_index": 0, "split_feature": 0, "split_gain": 592.0059814453125, "threshold": 3.179250001907349, "decision_type": "<=", "default_left": true, "missing_type": "None", "internal_value": 5.9697199999999995e-05, "internal_weight": 3375.77, "internal_count": 16512, "left_child": {"split_index": 4, "split_feature": 2, "split_gain": 123.95899963378906, "threshold": 4.348633289337159, "decision_type": "<=", "default_left": true, "missing_type": "None", "internal_value": -0.0501565, "internal_weight": 1384.69, "internal_count": 6789, "left_child": {"split_index": 5, "split_feature": 5, "split_gain": 129.5399932861328, "threshold": 3.5724598169326787, "decision_type": "<=", "default_left": true, "missing_type": "None", "internal_value": -0.017193, "internal_weight": 625.488, "internal_count": 2884, "left_child": {"split_index": 6, "split_feature": 0, "split_gain": 118.58999633789062, "threshold": 2.126000046730042, "decision_type": "<=", "default_left": true, "missing_type": "None", "internal_value": 0.012684, "internal_weight": 437.095, "internal_count": 1920, "left_child": {"leaf_index": 0, "leaf_value": -0.051416141324904775, "leaf_weight": 173.83506512641907, "leaf_count": 795}, "right_child": {"leaf_index": 7, "leaf_value": 0.05501045605388349, "leaf_weight": 263.2596143633127, "leaf_count": 1125}}, "right_child": {"split_index": 11, "split_feature": 7, "split_gain": 21.5939998626709, "threshold": -121.76499938964842, "decision_type": "<=", "default_left": true, "missing_type": "None", "internal_value": -0.0865112, "internal_weight": 188.393, "internal_count": 964, "left_child": {"leaf_index": 6, "leaf_value": 0.051390513373208324, "leaf_weight": 10.709666430950163, "leaf_count": 52}, "right_child": {"leaf_index": 12, "leaf_value": -0.09482304331030407, "leaf_weight": 177.68357586860657, "leaf_count": 912}}}, "right_child": {"split_index": 8, "split_feature": 6, "split_gain": 38.568199157714844, "threshold": 34.45499992370606, "decision_type": "<=", "default_left": true, "missing_type": "None", "internal_value": -0.0773141, "internal_weight": 759.206, "internal_count": 3905, "left_child": {"split_index": 9, "split_feature": 7, "split_gain": 94.74150085449219, "threshold": -118.35499954223631, "decision_type": "<=", "default_left": true, "missing_type": "None", "internal_value": -0.0465313, "internal_weight": 264.966, "internal_count": 1306, "left_child": {"leaf_index": 5, "leaf_value": 0.157731427785878, "leaf_weight": 20.914750546216965, "leaf_count": 92}, "right_child": {"leaf_index": 10, "leaf_value": -0.0640362547250649, "leaf_weight": 244.0516737997532, "leaf_count": 1214}}, "right_child": {"split_index": 10, "split_feature": 7, "split_gain": 59.137298583984375, "threshold": -121.60499954223631, "decision_type": "<=", "default_left": true, "missing_type": "None", "internal_value": -0.0938171, "internal_weight": 494.239, "internal_count": 2599, "left_child": {"leaf_index": 9, "leaf_value": -0.049090586130005484, "leaf_weight": 184.97788424789906, "leaf_count": 973}, "right_child": {"leaf_index": 11, "leaf_value": -0.12056928078972827, "leaf_weight": 309.2612507343292, "leaf_count": 1626}}}}, "right_child": {"split_index": 1, "split_feature": 0, "split_gain": 224.48899841308594, "threshold": 5.335700035095216, "decision_type": "<=", "default_left": true, "missing_type": "None", "internal_value": 0.0349826, "internal_weight": 1991.07, "internal_count": 9723, "left_child": {"split_index": 2, "split_feature": 7, "split_gain": 186.45599365234375, "threshold": -117.79500198364256, "decision_type": "<=", "default_left": true, "missing_type": "None", "internal_value": 0.017045, "internal_weight": 1549.02, "internal_count": 6866, "left_child": {"split_index": 3, "split_feature": 6, "split_gain": 192.16799926757812, "threshold": 37.9650001525879, "decision_type": "<=", "default_left": true, "missing_type": "None", "internal_value": 0.0327256, "internal_weight": 1286.27, "internal_count": 5724, "left_child": {"leaf_index": 1, "leaf_value": 0.05133568072128848, "leaf_weight": 1044.2064736932516, "leaf_count": 4665}, "right_child": {"leaf_index": 4, "leaf_value": -0.0475527596442899, "leaf_weight": 242.06746944785118, "leaf_count": 1059}}, "right_child": {"split_index": 7, "split_feature": 6, "split_gain": 82.13079833984375, "threshold": 33.64500045776368, "decision_type": "<=", "default_left": true, "missing_type": "None", "internal_value": -0.059719, "internal_weight": 262.747, "internal_count": 1142, "left_child": {"leaf_index": 3, "leaf_value": -0.011864222860275334, "leaf_weight": 151.64663510024548, "leaf_count": 650}, "right_child": {"leaf_index": 8, "leaf_value": -0.12503857023072015, "leaf_weight": 111.10026067495346, "leaf_count": 492}}}, "right_child": {"split_index": 12, "split_feature": 0, "split_gain": 12.42609977722168, "threshold": 6.277050018310548, "decision_type": "<=", "default_left": true, "missing_type": "None", "internal_value": 0.0978384, "internal_weight": 442.053, "internal_count": 2857, "left_child": {"split_index": 13, "split_feature": 1, "split_gain": 14.841300010681152, "threshold": 16.500000000000004, "decision_type": "<=", "default_left": true, "missing_type": "None", "internal_value": 0.080789, "internal_weight": 217.323, "internal_count": 1321, "left_child": {"leaf_index": 2, "leaf_value": 0.042098776489933966, "leaf_weight": 68.08401820063591, "leaf_count": 362}, "right_child": {"leaf_index": 14, "leaf_value": 0.09843980685354996, "leaf_weight": 149.23867690563202, "leaf_count": 959}}, "right_child": {"split_index": 14, "split_feature": 4, "split_gain": 2.3536601066589355, "threshold": 374.50000000000006, "decision_type": "<=", "default_left": true, "missing_type": "None", "internal_value": 0.114326, "internal_weight": 224.731, "internal_count": 1536, "left_child": {"leaf_index": 13, "leaf_value": 0.07886662049098325, "leaf_weight": 17.279884830117226, "leaf_count": 109}, "right_child": {"leaf_index": 15, "leaf_value": 0.11727934747729143, "leaf_weight": 207.45076841115952, "leaf_count": 1427}}}}}}, {"tree_index": 12, "num_leaves": 16, "num_cat": 0, "shrinkage": 0.1, "tree_structure": {"split_index": 0, "split_feature": 0, "split_gain": 517.4450073242188, "threshold": 4.572499990463258, "decision_type": "<=", "default_left": true, "missing_type": "None", "internal_value": 4.5047e-05, "internal_weight": 3298.68, "internal_count": 16512, "left_child": {"split_index": 1, "split_feature": 5, "split_gain": 212.0500030517578, "threshold": 3.0375944375991826, "decision_type": "<=", "default_left": true, "missing_type": "None", "internal_value": -0.0221795, "internal_weight": 2508.73, "internal_count": 11862, "left_child": {"split_index": 2, "split_feature": 6, "split_gain": 271.8789978027344, "threshold": 37.93499946594239, "decision_type": "<=", "default_left": true, "missing_type": "None", "internal_value": 3.7855600000000004e-05, "internal_weight": 1583.81, "internal_count": 7392, "left_child": {"split_index": 3, "split_feature": 7, "split_gain": 277.7030029296875, "threshold": -117.77499771118163, "decision_type": "<=", "default_left": true, "missing_type": "None", "internal_value": 0.0231849, "internal_weight": 1207.06, "internal_count": 5430, "left_child": {"leaf_index": 0, "leaf_value": 0.049704305918773596, "leaf_weight": 924.4660927802324, "leaf_count": 4133}, "right_child": {"leaf_index": 4, "leaf_value": -0.0635685961613634, "leaf_weight": 282.59703989326954, "leaf_count": 1297}}, "right_child": {"split_index": 6, "split_feature": 7, "split_gain": 56.48569869995117, "threshold": -122.38499832153319, "decision_type": "<=", "default_left": true, "missing_type": "None", "internal_value": -0.0741232, "internal_weight": 376.747, "internal_count": 1962, "left_child": {"leaf_index": 3, "leaf_value": -0.010410483995952725, "leaf_weight": 101.61822770535946, "leaf_count": 511}, "right_child": {"leaf_index": 7, "leaf_value": -0.09765542620681797, "leaf_weight": 275.1285657286644, "leaf_count": 1451}}}, "right_child": {"split_index": 4, "split_feature": 7, "split_gain": 100.18299865722656, "threshold": -122.38499832153319, "decision_type": "<=", "default_left": true, "missing_type": "None", "internal_value": -0.060224, "internal_weight": 924.921, "internal_count": 4470, "left_child": {"split_index": 5, "split_feature": 6, "split_gain": 69.28679656982422, "threshold": 38.32500076293946, "decision_type": "<=", "default_left": true, "missing_type": "None", "internal_value": 0.100706, "internal_weight": 37.1301, "internal_count": 165, "left_child": {"leaf_index": 2, "leaf_value": 0.18782611520001877, "leaf_weight": 26.3944900482893, "leaf_count": 112}, "right_child": {"leaf_index": 6, "leaf_value": -0.11348726399303062, "leaf_weight": 10.735598653554915, "leaf_count": 53}}, "right_child": {"split_index": 9, "split_feature": 7, "split_gain": 44.527000427246094, "threshold": -117.79500198364256, "decision_type": "<=", "default_left": true, "missing_type": "None", "internal_value": -0.0669545, "internal_weight": 887.791, "internal_count": 4305, "left_child": {"leaf_index": 5, "leaf_value": -0.05674139872734762, "leaf_weight": 734.9427690505981, "leaf_count": 3508}, "right_child": {"leaf_index": 10, "leaf_value": -0.1160626427828184, "leaf_weight": 152.84812507033348, "leaf_count": 797}}}}, "right_child": {"split_index": 7, "split_feature": 0, "split_gain": 54.2677001953125, "threshold": 5.604249954223634, "decision_type": "<=", "default_left": true, "missing_type": "None", "internal_value": 0.0706266, "internal_weight": 789.944, "internal_count": 4650, "left_child": {"split_index": 8, "split_feature": 5, "split_gain": 49.652000427246094, "threshold": 3.181963443756104, "decision_type": "<=", "default_left": true, "missing_type": "None", "internal_value": 0.0478831, "internal_weight": 450.636, "internal_count": 2244, "left_child": {"split_index": 10, "split_feature": 1, "split_gain": 37.09590148925781, "threshold": 27.500000000000004, "decision_type": "<=", "default_left": true, "missing_type": "None", "internal_value": 0.0675294, "internal_weight": 333.729, "internal_count": 1707, "left_child": {"leaf_index": 1, "leaf_value": 0.03576045370071943, "leaf_weight": 174.91277535259724, "leaf_count": 827}, "right_child": {"leaf_index": 11, "leaf_value": 0.10251822516456216, "leaf_weight": 158.81581856310368, "leaf_count": 880}}, "right_child": {"split_index": 11, "split_feature": 6, "split_gain": 26.06800079345703, "threshold": 37.80500030517579, "decision_type": "<=", "default_left": true, "missing_type": "None", "internal_value": -0.00819979, "internal_weight": 116.908, "internal_count": 537, "left_child": {"leaf_index": 9, "leaf_value": 0.009143324370065395, "leaf_weight": 103.01207435131073, "leaf_count": 479}, "right_child": {"leaf_index": 12, "leaf_value": -0.13676918325637352, "leaf_weight": 13.895607545971869, "leaf_count": 58}}}, "right_child": {"split_index": 12, "split_feature": 6, "split_gain": 6.099299907684326, "threshold": 37.9650001525879, "decision_type": "<=", "default_left": true, "missing_type": "None", "internal_value": 0.100832, "internal_weight": 339.308, "internal_count": 2406, "left_child": {"split_index": 14, "split_feature": 3, "split_gain": 3.396120071411133, "threshold": 0.9590502381324769, "decision_type": "<=", "default_left": true, "missing_type": "None", "internal_value": 0.104676, "internal_weight": 313.541, "internal_count": 2258, "left_child": {"leaf_index": 8, "leaf_value": 0.07712886266227152, "leaf_weight": 39.16423927247524, "leaf_count": 280}, "right_child": {"leaf_index": 15, "leaf_value": 0.10860781320389382, "leaf_weight": 274.37627324461937, "leaf_count": 1978}}, "right_child": {"split_index": 13, "split_feature": 0, "split_gain": 5.299900054931641, "threshold": 5.83080005645752, "decision_type": "<=", "default_left": true, "missing_type": "None", "internal_value": 0.0540639, "internal_weight": 25.7676, "internal_count": 148, "left_child": {"leaf_index": 13, "leaf_value": -0.021413631106845032, "leaf_weight": 6.835357978940013, "leaf_count": 35}, "right_child": {"leaf_index": 14, "leaf_value": 0.08131444053538323, "leaf_weight": 18.932285115122795, "leaf_count": 113}}}}}}, {"tree_index": 13, "num_leaves": 16, "num_cat": 0, "shrinkage": 0.1, "tree_structure": {"split_index": 0, "split_feature": 0, "split_gain": 446.6189880371094, "threshold": 3.3762999773025517, "decision_type": "<=", "default_left": true, "missing_type": "None", "internal_value": 4.86951e-05, "internal_weight": 3225.49, "internal_count": 16512, "left_child": {"split_index": 3, "split_feature": 6, "split_gain": 111.26200103759766, "threshold": 37.924999237060554, "decision_type": "<=", "default_left": true, "missing_type": "None", "internal_value": -0.0395606, "internal_weight": 1512.14, "internal_count": 7626, "left_child": {"split_index": 4, "split_feature": 7, "split_gain": 154.01300048828125, "threshold": -122.31499862670897, "decision_type": "<=", "default_left": true, "missing_type": "None", "internal_value": -0.0266745, "internal_weight": 1233.72, "internal_count": 5972, "left_child": {"split_index": 12, "split_feature": 6, "split_gain": 8.406399726867676, "threshold": 37.77499961853028, "decision_type": "<=", "default_left": true, "missing_type": "None", "internal_value": 0.153083, "internal_weight": 45.8902, "internal_count": 196, "left_child": {"leaf_index": 0, "leaf_value": 0.18835421663198396, "leaf_weight": 27.32984295487404, "leaf_count": 117}, "right_child": {"leaf_index": 13, "leaf_value": 0.10114682197632195, "leaf_weight": 18.5603516548872, "leaf_count": 79}}, "right_child": {"split_index": 5, "split_feature": 5, "split_gain": 112.56099700927734, "threshold": 2.618283033370972, "decision_type": "<=", "default_left": true, "missing_type": "None", "internal_value": -0.0336192, "internal_weight": 1187.83, "internal_count": 5776, "left_child": {"leaf_index": 5, "leaf_value": 0.006914003810399968, "leaf_weight": 434.50499030947685, "leaf_count": 1935}, "right_child": {"leaf_index": 6, "leaf_value": -0.05699801055961509, "leaf_weight": 753.3241845071316, "leaf_count": 3841}}}, "right_child": {"split_index": 10, "split_feature": 6, "split_gain": 9.855250358581543, "threshold": 38.585000991821296, "decision_type": "<=", "default_left": true, "missing_type": "None", "internal_value": -0.0966601, "internal_weight": 278.424, "internal_count": 1654, "left_child": {"split_index": 11, "split_feature": 7, "split_gain": 38.40449905395508, "threshold": -122.38499832153319, "decision_type": "<=", "default_left": true, "missing_type": "None", "internal_value": -0.0760166, "internal_weight": 126.33, "internal_count": 708, "left_child": {"leaf_index": 4, "leaf_value": 0.040179030237510786, "leaf_weight": 23.217161908745766, "leaf_count": 107}, "right_child": {"leaf_index": 12, "leaf_value": -0.10217944110589217, "leaf_weight": 103.11291052401066, "leaf_count": 601}}, "right_child": {"split_index": 13, "split_feature": 2, "split_gain": 4.58450984954834, "threshold": 9.006097793579103, "decision_type": "<=", "default_left": true, "missing_type": "None", "internal_value": -0.113807, "internal_weight": 152.094, "internal_count": 946, "left_child": {"leaf_index": 11, "leaf_value": -0.11731152998300023, "leaf_weight": 146.1385513842106, "leaf_count": 910}, "right_child": {"leaf_index": 14, "leaf_value": -0.027805728384988876, "leaf_weight": 5.955782696604728, "leaf_count": 36}}}}, "right_child": {"split_index": 1, "split_feature": 0, "split_gain": 156.29600524902344, "threshold": 5.335700035095216, "decision_type": "<=", "default_left": true, "missing_type": "None", "internal_value": 0.0350065, "internal_weight": 1713.35, "internal_count": 8886, "left_child": {"split_index": 2, "split_feature": 5, "split_gain": 157.36300659179688, "threshold": 2.8079589605331425, "decision_type": "<=", "default_left": true, "missing_type": "None", "internal_value": 0.0185825, "internal_weight": 1322.33, "internal_count": 6029, "left_child": {"split_index": 6, "split_feature": 1, "split_gain": 74.85030364990234, "threshold": 19.500000000000004, "decision_type": "<=", "default_left": true, "missing_type": "None", "internal_value": 0.0535277, "internal_weight": 652.632, "internal_count": 3097, "left_child": {"leaf_index": 1, "leaf_value": 0.002072530159455144, "leaf_weight": 197.25817647576332, "leaf_count": 879}, "right_child": {"leaf_index": 7, "leaf_value": 0.07581700292333172, "leaf_weight": 455.37368227541447, "leaf_count": 2218}}, "right_child": {"split_index": 7, "split_feature": 7, "split_gain": 62.76459884643555, "threshold": -122.38499832153319, "decision_type": "<=", "default_left": true, "missing_type": "None", "internal_value": -0.0154719, "internal_weight": 669.703, "internal_count": 2932, "left_child": {"leaf_index": 3, "leaf_value": 0.10001122958091176, "leaf_weight": 43.97267213463783, "leaf_count": 201}, "right_child": {"leaf_index": 8, "leaf_value": -0.02358734321960111, "leaf_weight": 625.7304366528988, "leaf_count": 2731}}}, "right_child": {"split_index": 8, "split_feature": 0, "split_gain": 12.973999977111816, "threshold": 6.277050018310548, "decision_type": "<=", "default_left": true, "missing_type": "None", "internal_value": 0.0905488, "internal_weight": 391.016, "internal_count": 2857, "left_child": {"split_index": 9, "split_feature": 1, "split_gain": 14.321399688720703, "threshold": 16.500000000000004, "decision_type": "<=", "default_left": true, "missing_type": "None", "internal_value": 0.0724642, "internal_weight": 196.917, "internal_count": 1321, "left_child": {"leaf_index": 2, "leaf_value": 0.03376774368332436, "leaf_weight": 64.37466701865196, "leaf_count": 362}, "right_child": {"leaf_index": 10, "leaf_value": 0.09125871329025255, "leaf_weight": 132.54229639470577, "leaf_count": 959}}, "right_child": {"split_index": 14, "split_feature": 4, "split_gain": 2.60863995552063, "threshold": 374.50000000000006, "decision_type": "<=", "default_left": true, "missing_type": "None", "internal_value": 0.108896, "internal_weight": 194.099, "internal_count": 1536, "left_child": {"leaf_index": 9, "leaf_value": 0.06952243565777387, "leaf_weight": 15.484546452760695, "leaf_count": 109}, "right_child": {"leaf_index": 15, "leaf_value": 0.11230939375859098, "leaf_weight": 178.61461754143238, "leaf_count": 1427}}}}}}, {"tree_index": 14, "num_leaves": 16, "num_cat": 0, "shrinkage": 0.1, "tree_structure": {"split_index": 0, "split_feature": 0, "split_gain": 387.0169982910156, "threshold": 4.383199930191041, "decision_type": "<=", "default_left": true, "missing_type": "None", "internal_value": 5.43955e-05, "internal_weight": 3157.12, "internal_count": 16512, "left_child": {"split_index": 1, "split_feature": 5, "split_gain": 163.5709991455078, "threshold": 2.4530432224273686, "decision_type": "<=", "default_left": true, "missing_type": "None", "internal_value": -0.0210378, "internal_weight": 2316.45, "internal_count": 11349, "left_child": {"split_index": 2, "split_feature": 6, "split_gain": 118.08999633789062, "threshold": 38.53499984741212, "decision_type": "<=", "default_left": true, "missing_type": "None", "internal_value": 0.0191773, "internal_weight": 704.021, "internal_count": 3350, "left_child": {"split_index": 3, "split_feature": 7, "split_gain": 130.28599548339844, "threshold": -117.14500045776366, "decision_type": "<=", "default_left": true, "missing_type": "None", "internal_value": 0.0345472, "internal_weight": 617.11, "internal_count": 2839, "left_child": {"leaf_index": 0, "leaf_value": 0.04992183804960185, "leaf_weight": 554.9737419188023, "leaf_count": 2548}, "right_child": {"leaf_index": 4, "leaf_value": -0.10277245928699107, "leaf_weight": 62.1360415071249, "leaf_count": 291}}, "right_child": {"split_index": 11, "split_feature": 0, "split_gain": 8.690320014953613, "threshold": 3.0830000638961796, "decision_type": "<=", "default_left": true, "missing_type": "None", "internal_value": -0.0899558, "internal_weight": 86.9117, "internal_count": 511, "left_child": {"leaf_index": 3, "leaf_value": -0.11014284977269469, "leaf_weight": 61.746462881565094, "leaf_count": 393}, "right_child": {"leaf_index": 12, "leaf_value": -0.04042396926860183, "leaf_weight": 25.16525110602379, "leaf_count": 118}}}, "right_child": {"split_index": 4, "split_feature": 6, "split_gain": 111.24199676513672, "threshold": 34.45499992370606, "decision_type": "<=", "default_left": true, "missing_type": "None", "internal_value": -0.0385965, "internal_weight": 1612.43, "internal_count": 7999, "left_child": {"split_index": 5, "split_feature": 7, "split_gain": 223.4759979248047, "threshold": -117.79500198364256, "decision_type": "<=", "default_left": true, "missing_type": "None", "internal_value": -0.0146135, "internal_weight": 879.321, "internal_count": 4225, "left_child": {"leaf_index": 2, "leaf_value": 0.01696527265006564, "leaf_weight": 631.5234120488167, "leaf_count": 2910}, "right_child": {"leaf_index": 6, "leaf_value": -0.09509361820812047, "leaf_weight": 247.79711128771305, "leaf_count": 1315}}, "right_child": {"split_index": 6, "split_feature": 7, "split_gain": 216.35800170898438, "threshold": -121.63499832153319, "decision_type": "<=", "default_left": true, "missing_type": "None", "internal_value": -0.0673628, "internal_weight": 733.108, "internal_count": 3774, "left_child": {"leaf_index": 5, "leaf_value": -0.00573138679449683, "leaf_weight": 320.54558354616165, "leaf_count": 1576}, "right_child": {"leaf_index": 7, "leaf_value": -0.11524812189894731, "leaf_weight": 412.5619640275836, "leaf_count": 2198}}}}, "right_child": {"split_index": 7, "split_feature": 0, "split_gain": 60.19620132446289, "threshold": 5.769949913024903, "decision_type": "<=", "default_left": true, "missing_type": "None", "internal_value": 0.0581734, "internal_weight": 840.669, "internal_count": 5163, "left_child": {"split_index": 8, "split_feature": 7, "split_gain": 53.92610168457031, "threshold": -121.89500045776366, "decision_type": "<=", "default_left": true, "missing_type": "None", "internal_value": 0.0401763, "internal_weight": 578.838, "internal_count": 3007, "left_child": {"split_index": 10, "split_feature": 5, "split_gain": 14.31470012664795, "threshold": 2.9005380868911748, "decision_type": "<=", "default_left": true, "missing_type": "None", "internal_value": 0.0943744, "internal_weight": 139.378, "internal_count": 782, "left_child": {"leaf_index": 1, "leaf_value": 0.11709199582982442, "leaf_weight": 92.76391274482012, "leaf_count": 551}, "right_child": {"leaf_index": 11, "leaf_value": 0.04916512417397003, "leaf_weight": 46.61376588046551, "leaf_count": 231}}, "right_child": {"split_index": 9, "split_feature": 6, "split_gain": 126.98200225830078, "threshold": 34.45499992370606, "decision_type": "<=", "default_left": true, "missing_type": "None", "internal_value": 0.022987, "internal_weight": 439.46, "internal_count": 2225, "left_child": {"leaf_index": 9, "leaf_value": 0.056712233821463925, "leaf_weight": 315.335119985044, "leaf_count": 1657}, "right_child": {"leaf_index": 10, "leaf_value": -0.06269063106931828, "leaf_weight": 124.12530472129583, "leaf_count": 568}}}, "right_child": {"split_index": 12, "split_feature": 4, "split_gain": 4.986090183258057, "threshold": 390.50000000000006, "decision_type": "<=", "default_left": true, "missing_type": "None", "internal_value": 0.0979603, "internal_weight": 261.831, "internal_count": 2156, "left_child": {"split_index": 13, "split_feature": 3, "split_gain": 3.641619920730591, "threshold": 1.2215074896812441, "decision_type": "<=", "default_left": true, "missing_type": "None", "internal_value": 0.0500682, "internal_weight": 20.0722, "internal_count": 149, "left_child": {"leaf_index": 8, "leaf_value": 0.06730948551051727, "leaf_weight": 17.246387690305713, "leaf_count": 129}, "right_child": {"leaf_index": 14, "leaf_value": -0.05515983686000873, "leaf_weight": 2.825762316584586, "leaf_count": 20}}, "right_child": {"split_index": 14, "split_feature": 0, "split_gain": 3.331350088119507, "threshold": 6.277050018310548, "decision_type": "<=", "default_left": true, "missing_type": "None", "internal_value": 0.101937, "internal_weight": 241.759, "internal_count": 2007, "left_child": {"leaf_index": 13, "leaf_value": 0.0848947239398347, "leaf_weight": 77.7953252568841, "leaf_count": 587}, "right_child": {"leaf_index": 15, "leaf_value": 0.11002231613708212, "leaf_weight": 163.96391265839338, "leaf_count": 1420}}}}}}, {"tree_index": 15, "num_leaves": 16, "num_cat": 0, "shrinkage": 0.1, "tree_structure": {"split_index": 0, "split_feature": 0, "split_gain": 341.4070129394531, "threshold": 3.179250001907349, "decision_type": "<=", "default_left": true, "missing_type": "None", "internal_value": 3.93233e-05, "internal_weight": 3090.32, "internal_count": 16512, "left_child": {"split_index": 4, "split_feature": 6, "split_gain": 93.3759994506836, "threshold": 34.45499992370606, "decision_type": "<=", "default_left": true, "missing_type": "None", "internal_value": -0.0397997, "internal_weight": 1268.27, "internal_count": 6789, "left_child": {"split_index": 5, "split_feature": 7, "split_gain": 208.38900756835938, "threshold": -118.27499771118163, "decision_type": "<=", "default_left": true, "missing_type": "None", "internal_value": -0.0135196, "internal_weight": 654.402, "internal_count": 3300, "left_child": {"split_index": 10, "split_feature": 6, "split_gain": 62.28409957885742, "threshold": 34.04500007629395, "decision_type": "<=", "default_left": true, "missing_type": "None", "internal_value": 0.0741667, "internal_weight": 191.652, "internal_count": 875, "left_child": {"leaf_index": 0, "leaf_value": 0.010730327729378153, "leaf_weight": 85.62543198466301, "leaf_count": 417}, "right_child": {"leaf_index": 11, "leaf_value": 0.12539675446466275, "leaf_weight": 106.02680622041225, "leaf_count": 458}}, "right_child": {"split_index": 11, "split_feature": 5, "split_gain": 56.730098724365234, "threshold": 3.5724598169326787, "decision_type": "<=", "default_left": true, "missing_type": "None", "internal_value": -0.0498357, "internal_weight": 462.75, "internal_count": 2425, "left_child": {"leaf_index": 6, "leaf_value": -0.024283468667709654, "leaf_weight": 301.94026379287243, "leaf_count": 1491}, "right_child": {"leaf_index": 12, "leaf_value": -0.09781321225001766, "leaf_weight": 160.80984684824944, "leaf_count": 934}}}, "right_child": {"split_index": 6, "split_feature": 7, "split_gain": 146.26400756835938, "threshold": -121.85499954223631, "decision_type": "<=", "default_left": true, "missing_type": "None", "internal_value": -0.0678151, "internal_weight": 613.868, "internal_count": 3489, "left_child": {"split_index": 7, "split_feature": 6, "split_gain": 104.052001953125, "threshold": 37.78499984741212, "decision_type": "<=", "default_left": true, "missing_type": "None", "internal_value": -0.00908943, "internal_weight": 250.823, "internal_count": 1303, "left_child": {"leaf_index": 5, "leaf_value": 0.07175410270683343, "leaf_weight": 97.38934378325939, "leaf_count": 436}, "right_child": {"leaf_index": 8, "leaf_value": -0.060403390923328665, "leaf_weight": 153.43386029452085, "leaf_count": 867}}, "right_child": {"split_index": 14, "split_feature": 7, "split_gain": 15.824399948120117, "threshold": -119.9449996948242, "decision_type": "<=", "default_left": true, "missing_type": "None", "internal_value": -0.108388, "internal_weight": 363.045, "internal_count": 2186, "left_child": {"leaf_index": 7, "leaf_value": -0.09219362097518731, "leaf_weight": 226.66675593703985, "leaf_count": 1420}, "right_child": {"leaf_index": 15, "leaf_value": -0.13530355224000112, "leaf_weight": 136.37828335911036, "leaf_count": 766}}}}, "right_child": {"split_index": 1, "split_feature": 5, "split_gain": 141.28500366210938, "threshold": 3.2261782884597783, "decision_type": "<=", "default_left": true, "missing_type": "None", "internal_value": 0.02777, "internal_weight": 1822.05, "internal_count": 9723, "left_child": {"split_index": 2, "split_feature": 6, "split_gain": 113.19599914550781, "threshold": 37.9650001525879, "decision_type": "<=", "default_left": true, "missing_type": "None", "internal_value": 0.0432859, "internal_weight": 1390.38, "internal_count": 7567, "left_child": {"split_index": 3, "split_feature": 7, "split_gain": 147.17799377441406, "threshold": -117.60499954223631, "decision_type": "<=", "default_left": true, "missing_type": "None", "internal_value": 0.0560623, "internal_weight": 1158.17, "internal_count": 6461, "left_child": {"leaf_index": 1, "leaf_value": 0.0716324707055825, "leaf_weight": 972.6175690367818, "leaf_count": 5557}, "right_child": {"leaf_index": 4, "leaf_value": -0.02555414304117707, "leaf_weight": 185.54926930367947, "leaf_count": 904}}, "right_child": {"split_index": 8, "split_feature": 7, "split_gain": 71.61959838867188, "threshold": -122.38499832153319, "decision_type": "<=", "default_left": true, "missing_type": "None", "internal_value": -0.0204364, "internal_weight": 232.213, "internal_count": 1106, "left_child": {"leaf_index": 3, "leaf_value": 0.07253452757707483, "leaf_weight": 61.068180434405804, "leaf_count": 287}, "right_child": {"leaf_index": 9, "leaf_value": -0.05361044763443963, "leaf_weight": 171.14444382488728, "leaf_count": 819}}}, "right_child": {"split_index": 9, "split_feature": 0, "split_gain": 68.3593978881836, "threshold": 5.24935007095337, "decision_type": "<=", "default_left": true, "missing_type": "None", "internal_value": -0.0222055, "internal_weight": 431.674, "internal_count": 2156, "left_child": {"split_index": 12, "split_feature": 7, "split_gain": 55.911399841308594, "threshold": -121.48500061035155, "decision_type": "<=", "default_left": true, "missing_type": "None", "internal_value": -0.0422966, "internal_weight": 343.991, "internal_count": 1505, "left_child": {"leaf_index": 2, "leaf_value": 0.03831623895613791, "leaf_weight": 68.82418937981129, "leaf_count": 299}, "right_child": {"leaf_index": 13, "leaf_value": -0.0624593042302832, "leaf_weight": 275.16714169085026, "leaf_count": 1206}}, "right_child": {"split_index": 13, "split_feature": 6, "split_gain": 17.704200744628906, "threshold": 37.80500030517579, "decision_type": "<=", "default_left": true, "missing_type": "None", "internal_value": 0.056615, "internal_weight": 87.6823, "internal_count": 651, "left_child": {"leaf_index": 10, "leaf_value": 0.07238531611248886, "leaf_weight": 78.06657698005438, "leaf_count": 597}, "right_child": {"leaf_index": 14, "leaf_value": -0.0714189720837222, "leaf_weight": 9.615685917437075, "leaf_count": 54}}}}}}, {"tree_index": 16, "num_leaves": 16, "num_cat": 0, "shrinkage": 0.1, "tree_structure": {"split_index": 0, "split_feature": 0, "split_gain": 294.9649963378906, "threshold": 4.572499990463258, "decision_type": "<=", "default_left": true, "missing_type": "None", "internal_value": 1.2333e-05, "internal_weight": 3022.95, "internal_count": 16512, "left_child": {"split_index": 1, "split_feature": 5, "split_gain": 146.54299926757812, "threshold": 3.621022701263428, "decision_type": "<=", "default_left": true, "missing_type": "None", "internal_value": -0.0168517, "internal_weight": 2340.72, "internal_count": 11862, "left_child": {"split_index": 2, "split_feature": 6, "split_gain": 243.20599365234375, "threshold": 34.45499992370606, "decision_type": "<=", "default_left": true, "missing_type": "None", "internal_value": -0.00574796, "internal_weight": 1955.59, "internal_count": 9740, "left_child": {"split_index": 3, "split_feature": 7, "split_gain": 409.6600036621094, "threshold": -117.77499771118163, "decision_type": "<=", "default_left": true, "missing_type": "None", "internal_value": 0.0302763, "internal_weight": 956.98, "internal_count": 4482, "left_child": {"leaf_index": 0, "leaf_value": 