{"name": "tree", "version": "v4", "num_class": 1, "num_tree_per_iteration": 1, "label_index": 0, "max_feature_idx": 7, "objective": "regression", "average_output": false, "feature_names": ["Column_0", "Column_1", "Column_2", "Column_3", "Column_4", "Column_5", "Column_6", "Column_7"], "monotone_constraints": [], "feature_infos": {"Column_0": {"min_value": 0.4999000132083893, "max_value": 15.000100135803223, "values": []}, "Column_1": {"min_value": 1, "max_value": 52, "values": []}, "Column_2": {"min_value": 0.8888888955116272, "max_value": 141.90908813476562, "values": []}, "Column_3": {"min_value": 0.3333333432674408, "max_value": 25.636363983154297, "values": []}, "Column_4": {"min_value": 3, "max_value": 35682, "values": []}, "Column_5": {"min_value": 0.692307710647583, "max_value": 1243.3333740234375, "values": []}, "Column_6": {"min_value": 32.54999923706055, "max_value": 41.95000076293945, "values": []}, "Column_7": {"min_value": -124.3499984741211, "max_value": -114.30999755859375, "values": []}}, "tree_info": [{"tree_index": 0, "num_leaves": 16, "num_cat": 0, "shrinkage": 1, "tree_structure": {"split_index": 0, "split_feature": 0, "split_gain": 6988.7099609375, "threshold": 5.038699865341187, "decision_type": "<=", "default_left": true, "missing_type": "None", "internal_value": 2.07195, "internal_weight": 16512, "internal_count": 16512, "left_child": {"split_index": 1, "split_feature": 0, "split_gain": 1686.2099609375, "threshold": 3.067950010299683, "decision_type": "<=", "default_left": true, "missing_type": "None", "internal_value": 2.03789, "internal_weight": 12960, "internal_count": 12960, "left_child": {"split_index": 5, "split_feature": 2, "split_gain": 319.447998046875, "threshold": 4.310140848159791, "decision_type": "<=", "default_left": true, "missing_type": "None", "internal_value": 2.00039, "internal_weight": 6229, "internal_count": 6229, "left_child": {"split_index": 8, "split_feature": 0, "split_gain": 182.27000427246094, "threshold": 2.220999956130982, "decision_type": "<=", "default_left": true, "missing_type": "None", "internal_value": 2.02716, "internal_weight": 2599, "internal_count": 2599, "left_child": {"leaf_index": 0, "leaf_value": 2.002685702517945, "leaf_weight": 1402, "leaf_count": 1402}, "right_child": {"leaf_index": 9, "leaf_value": 2.055815749635711, "leaf_weight": 1197, "leaf_count": 1197}}, "right_child": {"split_index": 10, "split_feature": 0, "split_gain": 138.18899536132812, "threshold": 2.411499977111817, "decision_type": "<=", "default_left": true, "missing_type": "None", "internal_value": 1.98123, "internal_weight": 3630, "internal_count": 3630, "left_child": {"leaf_index": 6, "leaf_value": 1.961879457681825, "leaf_weight": 1830, "leaf_count": 1830}, "right_child": {"leaf_index": 11, "leaf_value": 2.0009030784878834, "leaf_weight": 1800, "leaf_count": 1800}}}, "right_child": {"split_index": 3, "split_feature": 5, "split_gain": 977.385009765625, "threshold": 2.348954796791077, "decision_type": "<=", "default_left": true, "missing_type": "None", "internal_value": 2.07259, "internal_weight": 6731, "internal_count": 6731, "left_child": {"split_index": 6, "split_feature": 1, "split_gain": 235.1199951171875, "threshold": 24.500000000000004, "decision_type": "<=", "default_left": true, "missing_type": "None", "internal_value": 2.1449, "internal_weight": 1463, "internal_count": 1463, "left_child": {"leaf_index": 2, "leaf_value": 2.094501831336523, "leaf_weight": 567, "leaf_count": 567}, "right_child": {"leaf_index": 7, "leaf_value": 2.1767869500799675, "leaf_weight": 896, "leaf_count": 896}}, "right_child": {"split_index": 7, "split_feature": 0, "split_gain": 214.04400634765625, "threshold": 4.077549934387208, "decision_type": "<=", "default_left": true, "missing_type": "None", "internal_value": 2.05251, "internal_weight": 5268, "internal_count": 5268, "left_child": {"leaf_index": 4, "leaf_value": 2.0356094211781537, "leaf_weight": 3094, "leaf_count": 3094}, "right_child": {"leaf_index": 8, "leaf_value": 2.076552849539862, "leaf_weight": 2174, "leaf_count": 2174}}}}, "right_child": {"split_index": 2, "split_feature": 0, "split_gain": 1293.1800537109375, "threshold": 6.867200136184693, "decision_type": "<=", "default_left": true, "missing_type": "None", "internal_value": 2.19622, "internal_weight": 3552, "internal_count": 3552, "left_child": {"split_index": 4, "split_feature": 5, "split_gain": 432.531005859375, "threshold": 2.6710387468338017, "decision_type": "<=", "default_left": true, "missing_type": "None", "internal_value": 2.15739, "internal_weight": 2512, "internal_count": 2512, "left_child": {"split_index": 12, "split_feature": 1, "split_gain": 108.94200134277344, "threshold": 19.500000000000004, "decision_type": "<=", "default_left": true, "missing_type": "None", "internal_value": 2.2124, "internal_weight": 911, "internal_count": 911, "left_child": {"leaf_index": 1, "leaf_value": 2.1558599736411375, "leaf_weight": 248, "leaf_count": 248}, "right_child": {"leaf_index": 13, "leaf_value": 2.233551520306233, "leaf_weight": 663, "leaf_count": 663}}, "right_child": {"split_index": 11, "split_feature": 0, "split_gain": 122.13099670410156, "threshold": 5.730749845504762, "decision_type": "<=", "default_left": true, "missing_type": "None", "internal_value": 2.12609, "internal_weight": 1601, "internal_count": 1601, "left_child": {"leaf_index": 5, "leaf_value": 2.0994046620642437, "leaf_weight": 828, "leaf_count": 828}, "right_child": {"leaf_index": 12, "leaf_value": 2.154676585639304, "leaf_weight": 773, "leaf_count": 773}}}, "right_child": {"split_index": 9, "split_feature": 0, "split_gain": 157.3260040283203, "threshold": 7.852449893951417, "decision_type": "<=", "default_left": true, "missing_type": "None", "internal_value": 2.28999, "internal_weight": 1040, "internal_count": 1040, "left_child": {"split_index": 13, "split_feature": 1, "split_gain": 74.62190246582031, "threshold": 26.500000000000004, "decision_type": "<=", "default_left": true, "missing_type": "None", "internal_value": 2.24376, "internal_weight": 431, "internal_count": 431, "left_child": {"leaf_index": 3, "leaf_value": 2.210502141641485, "leaf_weight": 263, "leaf_count": 263}, "right_child": {"leaf_index": 14, "leaf_value": 2.295819879905527, "leaf_weight": 168, "leaf_count": 168}}, "right_child": {"split_index": 14, "split_feature": 0, "split_gain": 34.804901123046875, "threshold": 8.73955011367798, "decision_type": "<=", "default_left": true, "missing_type": "None", "internal_value": 2.32271, "internal_weight": 609, "internal_count": 609, "left_child": {"leaf_index": 10, "leaf_value": 2.2934723094715035, "leaf_weight": 244, "leaf_count": 244}, "right_child": {"leaf_index": 15, "leaf_value": 2.3422574193033054, "leaf_weight": 365, "leaf_count": 365}}}}}}, {"tree_index": 1, "num_leaves": 16, "num_cat": 0, "shrinkage": 0.1, "tree_structure": {"split_index": 0, "split_feature": 0, "split_gain": 5662.9501953125, "threshold": 5.132599830627442, "decision_type": "<=", "default_left": true, "missing_type": "None", "internal_value": 4.10806e-12, "internal_weight": 16512, "internal_count": 16512, "left_child": {"split_index": 1, "split_feature": 0, "split_gain": 1468.739990234375, "threshold": 3.179250001907349, "decision_type": "<=", "default_left": true, "missing_type": "None", "internal_value": -0.0292625, "internal_weight": 13213, "internal_count": 13213, "left_child": {"split_index": 4, "split_feature": 5, "split_gain": 339.5260009765625, "threshold": 2.162838697433472, "decision_type": "<=", "default_left": true, "missing_type": "None", "internal_value": -0.0616944, "internal_weight": 6789, "internal_count": 6789, "left_child": {"split_index": 10, "split_feature": 6, "split_gain": 125.58499908447266, "threshold": 37.93499946594239, "decision_type": "<=", "default_left": true, "missing_type": "None", "internal_value": -0.00896551, "internal_weight": 1035, "internal_count": 1035, "left_child": {"leaf_index": 0, "leaf_value": 0.01043296714185124, "leaf_weight": 790, "leaf_count": 790}, "right_child": {"leaf_index": 11, "leaf_value": -0.07151570076393725, "leaf_weight": 245, "leaf_count": 245}}, "right_child": {"split_index": 6, "split_feature": 6, "split_gain": 233.94200134277344, "threshold": 34.45499992370606, "decision_type": "<=", "default_left": true, "missing_type": "None", "internal_value": -0.0711789, "internal_weight": 5754, "internal_count": 5754, "left_child": {"leaf_index": 5, "leaf_value": -0.050461000666087524, "leaf_weight": 2799, "leaf_count": 2799}, "right_child": {"leaf_index": 7, "leaf_value": -0.09080315398919442, "leaf_weight": 2955, "leaf_count": 2955}}}, "right_child": {"split_index": 3, "split_feature": 5, "split_gain": 843.1309814453125, "threshold": 2.4136952161788945, "decision_type": "<=", "default_left": true, "missing_type": "None", "internal_value": 0.005012, "internal_weight": 6424, "internal_count": 6424, "left_child": {"split_index": 7, "split_feature": 6, "split_gain": 221.60400390625, "threshold": 37.93499946594239, "decision_type": "<=", "default_left": true, "missing_type": "None", "internal_value": 0.0678913, "internal_weight": 1601, "internal_count": 1601, "left_child": {"leaf_index": 2, "leaf_value": 0.08277978151145837, "leaf_weight": 1380, "leaf_count": 1380}, "right_child": {"leaf_index": 8, "leaf_value": -0.025077410612773673, "leaf_weight": 221, "leaf_count": 221}}, "right_child": {"split_index": 8, "split_feature": 0, "split_gain": 152.73300170898438, "threshold": 4.1119000911712655, "decision_type": "<=", "default_left": true, "missing_type": "None", "internal_value": -0.0158609, "internal_weight": 4823, "internal_count": 4823, "left_child": {"leaf_index": 4, "leaf_value": -0.03188103084859533, "leaf_weight": 2664, "leaf_count": 2664}, "right_child": {"leaf_index": 9, "leaf_value": 0.003906510689501483, "leaf_weight": 2159, "leaf_count": 2159}}}}, "right_child": {"split_index": 2, "split_feature": 0, "split_gain": 948.8170166015625, "threshold": 6.867200136184693, "decision_type": "<=", "default_left": true, "missing_type": "None", "internal_value": 0.117201, "internal_weight": 3299, "internal_count": 3299, "left_child": {"split_index": 5, "split_feature": 5, "split_gain": 328.18701171875, "threshold": 2.747272610664368, "decision_type": "<=", "default_left": true, "missing_type": "None", "internal_value": 0.0808129, "internal_weight": 2259, "internal_count": 2259, "left_child": {"split_index": 11, "split_feature": 1, "split_gain": 92.09500122070312, "threshold": 21.500000000000004, "decision_type": "<=", "default_left": true, "missing_type": "None", "internal_value": 0.125717, "internal_weight": 946, "internal_count": 946, "left_child": {"leaf_index": 1, "leaf_value": 0.07855565807423975, "leaf_weight": 288, "leaf_count": 288}, "right_child": {"leaf_index": 12, "leaf_value": 0.14635949802564072, "leaf_weight": 658, "leaf_count": 658}}, "right_child": {"split_index": 13, "split_feature": 0, "split_gain": 79.14820098876953, "threshold": 5.83080005645752, "decision_type": "<=", "default_left": true, "missing_type": "None", "internal_value": 0.0484598, "internal_weight": 1313, "internal_count": 1313, "left_child": {"leaf_index": 6, "leaf_value": 0.02558932977751398, "leaf_weight": 703, "leaf_count": 703}, "right_child": {"leaf_index": 14, "leaf_value": 0.07481711662767578, "leaf_weight": 610, "leaf_count": 610}}}, "right_child": {"split_index": 9, "split_feature": 0, "split_gain": 127.89099884033203, "threshold": 8.445449829101564, "decision_type": "<=", "default_left": true, "missing_type": "None", "internal_value": 0.19624, "internal_weight": 1040, "internal_count": 1040, "left_child": {"split_index": 12, "split_feature": 1, "split_gain": 86.90480041503906, "threshold": 26.500000000000004, "decision_type": "<=", "default_left": true, "missing_type": "None", "internal_value": 0.16703, "internal_weight": 614, "internal_count": 614, "left_child": {"leaf_index": 3, "leaf_value": 0.13627084435834347, "leaf_weight": 368, "leaf_count": 368}, "right_child": {"leaf_index": 13, "leaf_value": 0.21304494015289457, "leaf_weight": 246, "leaf_count": 246}}, "right_child": {"split_index": 14, "split_feature": 4, "split_gain": 19.8705997467041, "threshold": 170.50000000000003, "decision_type": "<=", "default_left": true, "missing_type": "None", "internal_value": 0.23834, "internal_weight": 426, "internal_count": 426, "left_child": {"leaf_index": 10, "leaf_value": 0.14793560320268506, "leaf_weight": 23, "leaf_count": 23}, "right_child": {"leaf_index": 15, "leaf_value": 0.243499549377534, "leaf_weight": 403, "leaf_count": 403}}}}}}, {"tree_index": 2, "num_leaves": 16, "num_cat": 0, "shrinkage": 0.1, "tree_structure": {"split_index": 0, "split_feature": 0, "split_gain": 4603.7998046875, "threshold": 5.27709984779358, "decision_type": "<=", "default_left": true, "missing_type": "None", "internal_value": -4.4410299999999997e-10, "internal_weight": 16512, "internal_count": 16512, "left_child": {"split_index": 1, "split_feature": 0, "split_gain": 1288.81005859375, "threshold": 3.109699964523316, "decision_type": "<=", "default_left": true, "missing_type": "None", "internal_value": -0.0247943, "internal_weight": 13529, "internal_count": 13529, "left_child": {"split_index": 4, "split_feature": 5, "split_gain": 254.1060028076172, "threshold": 2.2352443933486943, "decision_type": "<=", "default_left": true, "missing_type": "None", "internal_value": -0.0572489, "internal_weight": 6425, "internal_count": 6425, "left_child": {"split_index": 9, "split_feature": 6, "split_gain": 113.74700164794922, "threshold": 37.93499946594239, "decision_type": "<=", "default_left": true, "missing_type": "None", "internal_value": -0.0150581, "internal_weight": 1168, "internal_count": 1168, "left_child": {"leaf_index": 0, "leaf_value": 0.0035352075892217515, "leaf_weight": 862, "leaf_count": 862}, "right_child": {"leaf_index": 10, "leaf_value": -0.06743522633743637, "leaf_weight": 306, "leaf_count": 306}}, "right_child": {"split_index": 8, "split_feature": 6, "split_gain": 181.40199279785156, "threshold": 34.45499992370606, "decision_type": "<=", "default_left": true, "missing_type": "None", "internal_value": -0.0666229, "internal_weight": 5257, "internal_count": 5257, "left_child": {"leaf_index": 5, "leaf_value": -0.04762874946696684, "leaf_weight": 2570, "leaf_count": 2570}, "right_child": {"leaf_index": 9, "leaf_value": -0.08478993767134882, "leaf_weight": 2687, "leaf_count": 2687}}}, "right_child": {"split_index": 2, "split_feature": 5, "split_gain": 734.9089965820312, "threshold": 2.263468742370606, "decision_type": "<=", "default_left": true, "missing_type": "None", "internal_value": 0.00455826, "internal_weight": 7104, "internal_count": 7104, "left_child": {"split_index": 6, "split_feature": 1, "split_gain": 214.593994140625, "threshold": 19.500000000000004, "decision_type": "<=", "default_left": true, "missing_type": "None", "internal_value": 0.0750541, "internal_weight": 1224, "internal_count": 1224, "left_child": {"leaf_index": 2, "leaf_value": 0.00941300462960334, "leaf_weight": 354, "leaf_count": 354}, "right_child": {"leaf_index": 7, "leaf_value": 0.10176320433029545, "leaf_weight": 870, "leaf_count": 870}}, "right_child": {"split_index": 7, "split_feature": 0, "split_gain": 196.24200439453125, "threshold": 4.061249971389771, "decision_type": "<=", "default_left": true, "missing_type": "None", "internal_value": -0.0101164, "internal_weight": 5880, "internal_count": 5880, "left_child": {"leaf_index": 3, "leaf_value": -0.027594367911343703, "leaf_weight": 3070, "leaf_count": 3070}, "right_child": {"leaf_index": 8, "leaf_value": 0.008978791116874375, "leaf_weight": 2810, "leaf_count": 2810}}}}, "right_child": {"split_index": 3, "split_feature": 0, "split_gain": 677.6699829101562, "threshold": 7.393000125885011, "decision_type": "<=", "default_left": true, "missing_type": "None", "internal_value": 0.112451, "internal_weight": 2983, "internal_count": 2983, "left_child": {"split_index": 5, "split_feature": 5, "split_gain": 246.62399291992188, "threshold": 2.6585924625396733, "decision_type": "<=", "default_left": true, "missing_type": "None", "internal_value": 0.0837702, "internal_weight": 2190, "internal_count": 2190, "left_child": {"split_index": 11, "split_feature": 1, "split_gain": 62.916900634765625, "threshold": 21.500000000000004, "decision_type": "<=", "default_left": true, "missing_type": "None", "internal_value": 0.131034, "internal_weight": 734, "internal_count": 734, "left_child": {"leaf_index": 1, "leaf_value": 0.08509268640136382, "leaf_weight": 212, "leaf_count": 212}, "right_child": {"leaf_index": 12, "leaf_value": 0.14969207360070214, "leaf_weight": 522, "leaf_count": 522}}, "right_child": {"split_index": 10, "split_feature": 0, "split_gain": 96.10050201416016, "threshold": 6.277050018310548, "decision_type": "<=", "default_left": true, "missing_type": "None", "internal_value": 0.0599435, "internal_weight": 1456, "internal_count": 1456, "left_child": {"leaf_index": 6, "leaf_value": 0.04170227550433511, "leaf_weight": 968, "leaf_count": 968}, "right_child": {"leaf_index": 11, "leaf_value": 0.09612695387341312, "leaf_weight": 488, "leaf_count": 488}}}, "right_child": {"split_index": 12, "split_feature": 0, "split_gain": 52.53799819946289, "threshold": 8.73955011367798, "decision_type": "<=", "default_left": true, "missing_type": "None", "internal_value": 0.191659, "internal_weight": 793, "internal_count": 793, "left_child": {"split_index": 13, "split_feature": 1, "split_gain": 49.488399505615234, "threshold": 28.500000000000004, "decision_type": "<=", "default_left": true, "missing_type": "None", "internal_value": 0.167889, "internal_weight": 428, "internal_count": 428, "left_child": {"leaf_index": 4, "leaf_value": 0.14108849344210644, "leaf_weight": 264, "leaf_count": 264}, "right_child": {"leaf_index": 14, "leaf_value": 0.21103234067559243, "leaf_weight": 164, "leaf_count": 164}}, "right_child": {"split_index": 14, "split_feature": 4, "split_gain": 18.319700241088867, "threshold": 170.50000000000003, "decision_type": "<=", "default_left": true, "missing_type": "None", "internal_value": 0.219532, "internal_weight": 365, "internal_count": 365, "left_child": {"leaf_index": 13, "leaf_value": 0.133142041058644, "leaf_weight": 23, "leaf_count": 23}, "right_child": {"leaf_index": 15, "leaf_value": 0.22534147801629284, "leaf_weight": 342, "leaf_count": 342}}}}}}, {"tree_index": 3, "num_leaves": 16, "num_cat": 0, "shrinkage": 0.1, "tree_structure": {"split_index": 0, "split_feature": 0, "split_gain": 3764.929931640625, "threshold": 5.604249954223634, "decision_type": "<=", "default_left": true, "missing_type": "None", "internal_value": 2.0510700000000003e-10, "internal_weight": 16512, "internal_count": 16512, "left_child": {"split_index": 1, "split_feature": 0, "split_gain": 1227.949951171875, "threshold": 3.5488499402999882, "decision_type": "<=", "default_left": true, "missing_type": "None", "internal_value": -0.0197208, "internal_weight": 14106, "internal_count": 14106, "left_child": {"split_index": 4, "split_feature": 5, "split_gain": 340.1860046386719, "threshold": 2.2352443933486943, "decision_type": "<=", "default_left": true, "missing_type": "None", "internal_value": -0.0445061, "internal_weight": 8270, "internal_count": 8270, "left_child": {"split_index": 9, "split_feature": 0, "split_gain": 144.32899475097656, "threshold": 2.5510500669479375, "decision_type": "<=", "default_left": true, "missing_type": "None", "internal_value": -0.00207348, "internal_weight": 1538, "internal_count": 1538, "left_child": {"leaf_index": 0, "leaf_value": -0.03476814280907845, "leaf_weight": 719, "leaf_count": 719}, "right_child": {"leaf_index": 10, "leaf_value": 0.02662915121941846, "leaf_weight": 819, "leaf_count": 819}}, "right_child": {"split_index": 5, "split_feature": 0, "split_gain": 177.75399780273438, "threshold": 2.5205000638961796, "decision_type": "<=", "default_left": true, "missing_type": "None", "internal_value": -0.0542003, "internal_weight": 6732, "internal_count": 6732, "left_child": {"leaf_index": 5, "leaf_value": -0.07118563805049996, "leaf_weight": 3217, "leaf_count": 3217}, "right_child": {"leaf_index": 6, "leaf_value": -0.038654885318247914, "leaf_weight": 3515, "leaf_count": 3515}}}, "right_child": {"split_index": 2, "split_feature": 5, "split_gain": 570.9110107421875, "threshold": 2.4136952161788945, "decision_type": "<=", "default_left": true, "missing_type": "None", "internal_value": 0.0154016, "internal_weight": 5836, "internal_count": 5836, "left_child": {"split_index": 6, "split_feature": 1, "split_gain": 175.58599853515625, "threshold": 19.500000000000004, "decision_type": "<=", "default_left": true, "missing_type": "None", "internal_value": 0.0722523, "internal_weight": 1356, "internal_count": 1356, "left_child": {"leaf_index": 2, "leaf_value": 0.01500134604378521, "leaf_weight": 384, "leaf_count": 384}, "right_child": {"leaf_index": 7, "leaf_value": 0.09486997145930354, "leaf_weight": 972, "leaf_count": 972}}, "right_child": {"split_index": 8, "split_feature": 5, "split_gain": 146.20399475097656, "threshold": 2.9742256402969365, "decision_type": "<=", "default_left": true, "missing_type": "None", "internal_value": -0.00180589, "internal_weight": 4480, "internal_count": 4480, "left_child": {"leaf_index": 3, "leaf_value": 0.015726743441525307, "leaf_weight": 2307, "leaf_count": 2307}, "right_child": {"leaf_index": 9, "leaf_value": -0.020419689496244245, "leaf_weight": 2173, "leaf_count": 2173}}}}, "right_child": {"split_index": 3, "split_feature": 0, "split_gain": 392.114013671875, "threshold": 7.7054998874664316, "decision_type": "<=", "default_left": true, "missing_type": "None", "internal_value": 0.11562, "internal_weight": 2406, "internal_count": 2406, "left_child": {"split_index": 7, "split_feature": 5, "split_gain": 174.91000366210938, "threshold": 3.0089663267135625, "decision_type": "<=", "default_left": true, "missing_type": "None", "internal_value": 0.0905403, "internal_weight": 1736, "internal_count": 1736, "left_child": {"split_index": 10, "split_feature": 1, "split_gain": 77.20570373535156, "threshold": 27.500000000000004, "decision_type": "<=", "default_left": true, "missing_type": "None", "internal_value": 0.115067, "internal_weight": 1087, "internal_count": 1087, "left_child": {"leaf_index": 1, "leaf_value": 0.08824404048099597, "leaf_weight": 540, "leaf_count": 540}, "right_child": {"leaf_index": 11, "leaf_value": 0.14154672050640887, "leaf_weight": 547, "leaf_count": 547}}, "right_child": {"split_index": 12, "split_feature": 0, "split_gain": 35.337799072265625, "threshold": 6.477449893951417, "decision_type": "<=", "default_left": true, "missing_type": "None", "internal_value": 0.0494608, "internal_weight": 649, "internal_count": 649, "left_child": {"leaf_index": 8, "leaf_value": 0.03134884353594877, "leaf_weight": 405, "leaf_count": 405}, "right_child": {"leaf_index": 13, "leaf_value": 0.07952359126132653, "leaf_weight": 244, "leaf_count": 244}}}, "right_child": {"split_index": 11, "split_feature": 1, "split_gain": 36.22760009765625, "threshold": 18.500000000000004, "decision_type": "<=", "default_left": true, "missing_type": "None", "internal_value": 0.180602, "internal_weight": 670, "internal_count": 670, "left_child": {"split_index": 13, "split_feature": 0, "split_gain": 21.329200744628906, "threshold": 8.73955011367798, "decision_type": "<=", "default_left": true, "missing_type": "None", "internal_value": 0.145826, "internal_weight": 207, "internal_count": 207, "left_child": {"leaf_index": 4, "leaf_value": 0.11538860400489302, "leaf_weight": 109, "leaf_count": 109}, "right_child": {"leaf_index": 14, "leaf_value": 0.1796790506766767, "leaf_weight": 98, "leaf_count": 98}}, "right_child": {"split_index": 14, "split_feature": 4, "split_gain": 12.519000053405762, "threshold": 252.50000000000003, "decision_type": "<=", "default_left": true, "missing_type": "None", "internal_value": 0.19615, "internal_weight": 463, "internal_count": 463, "left_child": {"leaf_index": 12, "leaf_value": 0.12252938872711226, "leaf_weight": 22, "leaf_count": 22}, "right_child": {"leaf_index": 15, "leaf_value": 0.19982307143973996, "leaf_weight": 441, "leaf_count": 441}}}}}}, {"tree_index": 4, "num_leaves": 16, "num_cat": 0, "shrinkage": 0.1, "tree_structure": {"split_index": 0, "split_feature": 0, "split_gain": 3109.969970703125, "threshold": 4.530150175094605, "decision_type": "<=", "default_left": true, "missing_type": "None", "internal_value": 3.41788e-11, "internal_weight": 16512, "internal_count": 16512, "left_child": {"split_index": 2, "split_feature": 0, "split_gain": 578.02099609375, "threshold": 2.7819999456405644, "decision_type": "<=", "default_left": true, "missing_type": "None", "internal_value": -0.0276854, "internal_weight": 11736, "internal_count": 11736, "left_child": {"split_index": 5, "split_feature": 2, "split_gain": 222.50999450683594, "threshold": 3.8792159557342534, "decision_type": "<=", "default_left": true, "missing_type": "None", "internal_value": -0.053018, "internal_weight": 5096, "internal_count": 5096, "left_child": {"split_index": 13, "split_feature": 5, "split_gain": 66.52040100097656, "threshold": 3.0973600149154668, "decision_type": "<=", "default_left": true, "missing_type": "None", "internal_value": -0.0192823, "internal_weight": 1413, "internal_count": 1413, "left_child": {"leaf_index": 0, "leaf_value": 0.003761962947789131, "leaf_weight": 664, "leaf_count": 664}, "right_child": {"leaf_index": 14, "leaf_value": -0.03971142561693436, "leaf_weight": 749, "leaf_count": 749}}, "right_child": {"split_index": 11, "split_feature": 0, "split_gain": 76.59660339355469, "threshold": 2.220999956130982, "decision_type": "<=", "default_left": true, "missing_type": "None", "internal_value": -0.0659609, "internal_weight": 3683, "internal_count": 3683, "left_child": {"leaf_index": 6, "leaf_value": -0.07998436555853132, "leaf_weight": 1893, "leaf_count": 1893}, "right_child": {"leaf_index": 12, "leaf_value": -0.0511305148076746, "leaf_weight": 1790, "leaf_count": 1790}}}, "right_child": {"split_index": 3, "split_feature": 5, "split_gain": 480.9490051269531, "threshold": 2.065373778343201, "decision_type": "<=", "default_left": true, "missing_type": "None", "internal_value": -0.00824329, "internal_weight": 6640, "internal_count": 6640, "left_child": {"split_index": 7, "split_feature": 1, "split_gain": 143.93800354003906, "threshold": 24.500000000000004, "decision_type": "<=", "default_left": true, "missing_type": "None", "internal_value": 0.0663947, "internal_weight": 764, "internal_count": 764, "left_child": {"leaf_index": 3, "leaf_value": 0.013724239558150275, "leaf_weight": 309, "leaf_count": 309}, "right_child": {"leaf_index": 8, "leaf_value": 0.10216424002035798, "leaf_weight": 455, "leaf_count": 455}}, "right_child": {"split_index": 6, "split_feature": 1, "split_gain": 191.63600158691406, "threshold": 47.50000000000001, "decision_type": "<=", "default_left": true, "missing_type": "None", "internal_value": -0.0179477, "internal_weight": 5876, "internal_count": 5876, "left_child": {"leaf_index": 4, "leaf_value": -0.023241758193508905, "leaf_weight": 5411, "leaf_count": 5411}, "right_child": {"leaf_index": 7, "leaf_value": 0.04365635593379197, "leaf_weight": 465, "leaf_count": 465}}}}, "right_child": {"split_index": 1, "split_feature": 0, "split_gain": 827.4819946289062, "threshold": 6.3350000381469735, "decision_type": "<=", "default_left": true, "missing_type": "None", "internal_value": 0.0680309, "internal_weight": 4776, "internal_count": 4776, "left_child": {"split_index": 4, "split_feature": 5, "split_gain": 280.9469909667969, "threshold": 2.521973609924317, "decision_type": "<=", "default_left": true, "missing_type": "None", "internal_value": 0.0402204, "internal_weight": 3302, "internal_count": 3302, "left_child": {"split_index": 10, "split_feature": 1, "split_gain": 81.83090209960938, "threshold": 21.500000000000004, "decision_type": "<=", "default_left": true, "missing_type": "None", "internal_value": 0.0906005, "internal_weight": 829, "internal_count": 829, "left_child": {"leaf_index": 1, "leaf_value": 0.0450184207434037, "leaf_weight": 267, "leaf_count": 267}, "right_child": {"leaf_index": 11, "leaf_value": 0.11225600295511218, "leaf_weight": 562, "leaf_count": 562}}, "right_child": {"split_index": 12, "split_feature": 1, "split_gain": 76.39530181884766, "threshold": 16.500000000000004, "decision_type": "<=", "default_left": true, "missing_type": "None", "internal_value": 0.023332, "internal_weight": 2473, "internal_count": 2473, "left_child": {"leaf_index": 5, "leaf_value": -0.004752044282397309, "leaf_weight": 696, "leaf_count": 696}, "right_child": {"leaf_index": 13, "leaf_value": 0.034331769106013786, "leaf_weight": 1777, "leaf_count": 1777}}}, "right_child": {"split_index": 8, "split_feature": 0, "split_gain": 130.55099487304688, "threshold": 7.852449893951417, "decision_type": "<=", "default_left": true, "missing_type": "None", "internal_value": 0.130331, "internal_weight": 1474, "internal_count": 1474, "left_child": {"split_index": 9, "split_feature": 1, "split_gain": 87.96420288085938, "threshold": 26.500000000000004, "decision_type": "<=", "default_left": true, "missing_type": "None", "internal_value": 0.105359, "internal_weight": 865, "internal_count": 865, "left_child": {"leaf_index": 2, "leaf_value": 0.08000630841837572, "leaf_weight": 530, "leaf_count": 530}, "right_child": {"leaf_index": 10, "leaf_value": 0.14547001991921396, "leaf_weight": 335, "leaf_count": 335}}, "right_child": {"split_index": 14, "split_feature": 7, "split_gain": 22.037500381469727, "threshold": -118.00500106811522, "decision_type": "<=", "default_left": true, "missing_type": "None", "internal_value": 0.165799, "internal_weight": 609, "internal_count": 609, "left_child": {"leaf_index": 9, "leaf_value": 0.17648124744598684, "leaf_weight": 463, "leaf_count": 463}, "right_child": {"leaf_index": 15, "leaf_value": 0.1319234844042014, "leaf_weight": 146, "leaf_count": 146}}}}}}, {"tree_index": 5, "num_leaves": 16, "num_cat": 0, "shrinkage": 0.1, "tree_structure": {"split_index": 0, "split_feature": 0, "split_gain": 2550.22998046875, "threshold": 5.038699865341187, "decision_type": "<=", "default_left": true, "missing_type": "None", "internal_value": 4.23522e-11, "internal_weight": 16512, "internal_count": 16512, "left_child": {"split_index": 1, "split_feature": 0, "split_gain": 618.6920166015625, "threshold": 2.7819999456405644, "decision_type": "<=", "default_left": true, "missing_type": "None", "internal_value": -0.0205742, "internal_weight": 12960, "internal_count": 12960, "left_child": {"split_index": 5, "split_feature": 2, "split_gain": 181.593994140625, "threshold": 3.694865703582764, "decision_type": "<=", "default_left": true, "missing_type": "None", "internal_value": -0.0477162, "internal_weight": 5096, "internal_count": 5096, "left_child": {"split_index": 12, "split_feature": 7, "split_gain": 55.416099548339844, "threshold": -118.27499771118163, "decision_type": "<=", "default_left": true, "missing_type": "None", "internal_value": -0.0110343, "internal_weight": 1067, "internal_count": 1067, "left_child": {"leaf_index": 0, "leaf_value": 0.0107725297847013, "leaf_weight": 557, "leaf_count": 557}, "right_child": {"leaf_index": 13, "leaf_value": -0.03485084645235546, "leaf_weight": 510, "leaf_count": 510}}, "right_child": {"split_index": 9, "split_feature": 0, "split_gain": 80.91960144042969, "threshold": 1.948599994182587, "decision_type": "<=", "default_left": true, "missing_type": "None", "internal_value": -0.0574307, "internal_weight": 4029, "internal_count": 4029, "left_child": {"leaf_index": 6, "leaf_value": -0.0780224275546918, "leaf_weight": 1295, "leaf_count": 1295}, "right_child": {"leaf_index": 10, "leaf_value": -0.04767712829679663, "leaf_weight": 2734, "leaf_count": 2734}}}, "right_child": {"split_index": 3, "split_feature": 5, "split_gain": 444.37701416015625, "threshold": 2.4469861984252934, "decision_type": "<=", "default_left": true, "missing_type": "None", "internal_value": -0.00298579, "internal_weight": 7864, "internal_count": 7864, "left_child": {"split_index": 4, "split_feature": 6, "split_gain": 227.23199462890625, "threshold": 37.93499946594239, "decision_type": "<=", "default_left": true, "missing_type": "None", "internal_value": 0.0350722, "internal_weight": 2207, "internal_count": 2207, "left_child": {"leaf_index": 2, "leaf_value": 0.0494260209038543, "leaf_weight": 1839, "leaf_count": 1839}, "right_child": {"leaf_index": 5, "leaf_value": -0.03665770860790634, "leaf_weight": 368, "leaf_count": 368}}, "right_child": {"split_index": 7, "split_feature": 7, "split_gain": 120.22899627685547, "threshold": -122.38499832153319, "decision_type": "<=", "default_left": true, "missing_type": "None", "internal_value": -0.0178336, "internal_weight": 5657, "internal_count": 5657, "left_child": {"leaf_index": 4, "leaf_value": 0.033122820016127257, "leaf_weight": 428, "leaf_count": 428}, "right_child": {"leaf_index": 8, "leaf_value": -0.02200443948083455, "leaf_weight": 5229, "leaf_count": 5229}}}}, "right_child": {"split_index": 2, "split_feature": 0, "split_gain": 453.16400146484375, "threshold": 6.396349906921388, "decision_type": "<=", "default_left": true, "missing_type": "None", "internal_value": 0.0750682, "internal_weight": 3552, "internal_count": 3552, "left_child": {"split_index": 6, "split_feature": 5, "split_gain": 153.5970001220703, "threshold": 2.5763870477676396, "decision_type": "<=", "default_left": true, "missing_type": "None", "internal_value": 0.0460546, "internal_weight": 2140, "internal_count": 2140, "left_child": {"split_index": 11, "split_feature": 5, "split_gain": 56.4208984375, "threshold": 2.065373778343201, "decision_type": "<=", "default_left": true, "missing_type": "None", "internal_value": 0.0888269, "internal_weight": 603, "internal_count": 603, "left_child": {"leaf_index": 1, "leaf_value": 0.14834315959356795, "leaf_weight": 126, "leaf_count": 126}, "right_child": {"leaf_index": 12, "leaf_value": 0.07310566614360615, "leaf_weight": 477, "leaf_count": 477}}, "right_child": {"split_index": 13, "split_feature": 5, "split_gain": 47.90950012207031, "threshold": 3.0375944375991826, "decision_type": "<=", "default_left": true, "missing_type": "None", "internal_value": 0.029274, "internal_weight": 1537, "internal_count": 1537, "left_child": {"leaf_index": 7, "leaf_value": 0.04635283271899396, "leaf_weight": 794, "leaf_count": 794}, "right_child": {"leaf_index": 14, "leaf_value": 0.011022865422711487, "leaf_weight": 743, "leaf_count": 743}}}, "right_child": {"split_index": 8, "split_feature": 0, "split_gain": 97.52870178222656, "threshold": 7.852449893951417, "decision_type": "<=", "default_left": true, "missing_type": "None", "internal_value": 0.119041, "internal_weight": 1412, "internal_count": 1412, "left_child": {"split_index": 10, "split_feature": 1, "split_gain": 68.14189910888672, "threshold": 26.500000000000004, "decision_type": "<=", "default_left": true, "missing_type": "None", "internal_value": 0.0961531, "internal_weight": 803, "internal_count": 803, "left_child": {"leaf_index": 3, "leaf_value": 0.07293180387477578, "leaf_weight": 491, "leaf_count": 491}, "right_child": {"leaf_index": 11, "leaf_value": 0.13269679649130037, "leaf_weight": 312, "leaf_count": 312}}, "right_child": {"split_index": 14, "split_feature": 1, "split_gain": 19.471399307250977, "threshold": 20.500000000000004, "decision_type": "<=", "default_left": true, "missing_type": "None", "internal_value": 0.149219, "internal_weight": 609, "internal_count": 609, "left_child": {"leaf_index": 9, "leaf_value": 0.12448216700953159, "leaf_weight": 209, "leaf_count": 209}, "right_child": {"leaf_index": 15, "leaf_value": 0.1621442724764347, "leaf_weight": 400, "leaf_count": 400}}}}}}, {"tree_index": 6, "num_leaves": 16, "num_cat": 0, "shrinkage": 0.1, "tree_structure": {"split_index": 0, "split_feature": 0, "split_gain": 2092.639892578125, "threshold": 4.530150175094605, "decision_type": "<=", "default_left": true, "missing_type": "None", "internal_value": 7.18532e-12, "internal_weight": 16512, "internal_count": 16512, "left_child": {"split_index": 2, "split_feature": 5, "split_gain": 403.1470031738281, "threshold": 2.2982753515243535, "decision_type": "<=", "default_left": true, "missing_type": "None", "internal_value": -0.0227101, "internal_weight": 11736, "internal_count": 11736, "left_child": {"split_index": 3, "split_feature": 6, "split_gain": 233.3730010986328, "threshold": 37.93499946594239, "decision_type": "<=", "default_left": true, "missing_type": "None", "internal_value": 0.0135884, "internal_weight": 2427, "internal_count": 2427, "left_child": {"split_index": 4, "split_feature": 7, "split_gain": 241.37600708007812, "threshold": -118.11500167846678, "decision_type": "<=", "default_left": true, "missing_type": "None", "internal_value": 0.0295429, "internal_weight": 1919, "internal_count": 1919, "left_child": {"leaf_index": 0, "leaf_value": 0.0539865350306668, "leaf_weight": 1301, "leaf_count": 1301}, "right_child": {"leaf_index": 5, "leaf_value": -0.021915178321177425, "leaf_weight": 618, "leaf_count": 618}}, "right_child": {"split_index": 13, "split_feature": 6, "split_gain": 19.240400314331055, "threshold": 38.514999389648445, "decision_type": "<=", "default_left": true, "missing_type": "None", "internal_value": -0.046681, "internal_weight": 508, "internal_count": 508, "left_child": {"leaf_index": 4, "leaf_value": -0.0226292206937058, "leaf_weight": 201, "leaf_count": 201}, "right_child": {"leaf_index": 14, "leaf_value": -0.06242822427181254, "leaf_weight": 307, "leaf_count": 307}}}, "right_child": {"split_index": 5, "split_feature": 0, "split_gain": 223.56900024414062, "threshold": 2.87625002861023, "decision_type": "<=", "default_left": true, "missing_type": "None", "internal_value": -0.0321737, "internal_weight": 9309, "internal_count": 9309, "left_child": {"split_index": 7, "split_feature": 6, "split_gain": 111.18000030517578, "threshold": 34.52499961853028, "decision_type": "<=", "default_left": true, "missing_type": "None", "internal_value": -0.0488854, "internal_weight": 4304, "internal_count": 4304, "left_child": {"leaf_index": 3, "leaf_value": -0.03261016970802208, "leaf_weight": 2125, "leaf_count": 2125}, "right_child": {"leaf_index": 8, "leaf_value": -0.06475723373961893, "leaf_weight": 2179, "leaf_count": 2179}}, "right_child": {"split_index": 8, "split_feature": 6, "split_gain": 109.625, "threshold": 37.944999694824226, "decision_type": "<=", "default_left": true, "missing_type": "None", "internal_value": -0.0178027, "internal_weight": 5005, "internal_count": 5005, "left_child": {"leaf_index": 6, "leaf_value": -0.01075115919531048, "leaf_weight": 4079, "leaf_count": 4079}, "right_child": {"leaf_index": 9, "leaf_value": -0.04886424726237454, "leaf_weight": 926, "leaf_count": 926}}}}, "right_child": {"split_index": 1, "split_feature": 0, "split_gain": 530.5029907226562, "threshold": 6.3350000381469735, "decision_type": "<=", "default_left": true, "missing_type": "None", "internal_value": 0.0558053, "internal_weight": 4776, "internal_count": 4776, "left_child": {"split_index": 6, "split_feature": 5, "split_gain": 198.8000030517578, "threshold": 2.7354881763458256, "decision_type": "<=", "default_left": true, "missing_type": "None", "internal_value": 0.0335377, "internal_weight": 3302, "internal_count": 3302, "left_child": {"split_index": 10, "split_feature": 5, "split_gain": 80.0198974609375, "threshold": 2.0509070158004765, "decision_type": "<=", "default_left": true, "missing_type": "None", "internal_value": 0.0631723, "internal_weight": 1343, "internal_count": 1343, "left_child": {"leaf_index": 1, "leaf_value": 0.12367477404954348, "leaf_weight": 188, "leaf_count": 188}, "right_child": {"leaf_index": 11, "leaf_value": 0.05332429195109159, "leaf_weight": 1155, "leaf_count": 1155}}, "right_child": {"split_index": 12, "split_feature": 6, "split_gain": 39.393798828125, "threshold": 37.95499992370606, "decision_type": "<=", "default_left": true, "missing_type": "None", "internal_value": 0.0132216, "internal_weight": 1959, "internal_count": 1959, "left_child": {"leaf_index": 7, "leaf_value": 0.018595475427123993, "leaf_weight": 1713, "leaf_count": 1713}, "right_child": {"leaf_index": 13, "leaf_value": -0.024198745641331152, "leaf_weight": 246, "leaf_count": 246}}}, "right_child": {"split_index": 9, "split_feature": 0, "split_gain": 85.23570251464844, "threshold": 8.012499809265138, "decision_type": "<=", "default_left": true, "missing_type": "None", "internal_value": 0.105688, "internal_weight": 1474, "internal_count": 1474, "left_child": {"split_index": 11, "split_feature": 1, "split_gain": 64.63909912109375, "threshold": 26.500000000000004, "decision_type": "<=", "default_left": true, "missing_type": "None", "internal_value": 0.0871892, "internal_weight": 926, "internal_count": 926, "left_child": {"leaf_index": 2, "leaf_value": 0.06587805843479606, "leaf_weight": 561, "leaf_count": 561}, "right_child": {"leaf_index": 12, "leaf_value": 0.11994419677680589, "leaf_weight": 365, "leaf_count": 365}}, "right_child": {"split_index": 14, "split_feature": 4, "split_gain": 16.57659912109375, "threshold": 139.50000000000003, "decision_type": "<=", "default_left": true, "missing_type": "None", "internal_value": 0.136947, "internal_weight": 548, "internal_count": 548, "left_child": {"leaf_index": 10, "leaf_value": 0.047584112146869306, "leaf_weight": 20, "leaf_count": 20}, "right_child": {"leaf_index": 15, "leaf_value": 0.14033229768145689, "leaf_weight": 528, "leaf_count": 528}}}}}}, {"tree_index": 7, "num_leaves": 16, "num_cat": 0, "shrinkage": 0.1, "tree_structure": {"split_index": 0, "split_feature": 0, "split_gain": 1714.489990234375, "threshold": 5.604249954223634, "decision_type": "<=", "default_left": true, "missing_type": "None", "internal_value": -7.23758e-11, "internal_weight": 16512, "internal_count": 16512, "left_child": {"split_index": 1, "split_feature": 0, "split_gain": 600.8800048828125, "threshold": 3.5488499402999882, "decision_type": "<=", "default_left": true, "missing_type": "None", "internal_value": -0.013308, "internal_weight": 14106, "internal_count": 14106, "left_child": {"split_index": 3, "split_feature": 2, "split_gain": 196.55499267578125, "threshold": 4.528919458389283, "decision_type": "<=", "default_left": true, "missing_type": "None", "internal_value": -0.0306459, "internal_weight": 8270, "internal_count": 8270, "left_child": {"split_index": 4, "split_feature": 0, "split_gain": 170.65499877929688, "threshold": 2.2336499691009526, "decision_type": "<=", "default_left": true, "missing_type": "None", "internal_value": -0.0141835, "internal_weight": 3864, "internal_count": 3864, "left_child": {"leaf_index": 0, "leaf_value": -0.037844540300815466, "leaf_weight": 1704, "leaf_count": 1704}, "right_child": {"leaf_index": 5, "leaf_value": 0.004482396351145494, "leaf_weight": 2160, "leaf_count": 2160}}, "right_child": {"split_index": 9, "split_feature": 0, "split_gain": 64.3635025024414, "threshold": 2.50440001487732, "decision_type": "<=", "default_left": true, "missing_type": "None", "internal_value": -0.0450832, "internal_weight": 4406, "internal_count": 4406, "left_child": {"leaf_index": 4, "leaf_value": -0.060620817884670775, "leaf_weight": 1661, "leaf_count": 1661}, "right_child": {"leaf_index": 10, "leaf_value": -0.0356814216058625, "leaf_weight": 2745, "leaf_count": 2745}}}, "right_child": {"split_index": 2, "split_feature": 5, "split_gain": 317.489013671875, "threshold": 2.6829812526702885, "decision_type": "<=", "default_left": true, "missing_type": "None", "internal_value": 0.011261, "internal_weight": 5836, "internal_count": 5836, "left_child": {"split_index": 5, "split_feature": 6, "split_gain": 158.031005859375, "threshold": 37.93499946594239, "decision_type": "<=", "default_left": true, "missing_type": "None", "internal_value": 0.0391788, "internal_weight": 2399, "internal_count": 2399, "left_child": {"leaf_index": 2, "leaf_value": 0.05012138567669483, "leaf_weight": 2030, "leaf_count": 2030}, "right_child": {"leaf_index": 6, "leaf_value": -0.021020442933010742, "leaf_weight": 369, "leaf_count": 369}}, "right_child": {"split_index": 8, "split_feature": 7, "split_gain": 67.68579864501953, "threshold": -122.38499832153319, "decision_type": "<=", "default_left": true, "missing_type": "None", "internal_value": -0.00822547, "internal_weight": 3437, "internal_count": 3437, "left_child": {"leaf_index": 3, "leaf_value": 0.04209681134624031, "leaf_weight": 248, "leaf_count": 248}, "right_child": {"leaf_index": 9, "leaf_value": -0.012138901140012861, "leaf_weight": 3189, "leaf_count": 3189}}}}, "right_child": {"split_index": 6, "split_feature": 0, "split_gain": 157.60699462890625, "threshold": 7.393000125885011, "decision_type": "<=", "default_left": true, "missing_type": "None", "internal_value": 0.0780228, "internal_weight": 2406, "internal_count": 2406, "left_child": {"split_index": 7, "split_feature": 5, "split_gain": 98.32360076904297, "threshold": 2.4530432224273686, "decision_type": "<=", "default_left": true, "missing_type": "None", "internal_value": 0.0600772, "internal_weight": 1613, "internal_count": 1613, "left_child": {"split_index": 11, "split_feature": 6, "split_gain": 29.56800079345703, "threshold": 37.89500045776368, "decision_type": "<=", "default_left": true, "missing_type": "None", "internal_value": 0.113831, "internal_weight": 281, "internal_count": 281, "left_child": {"leaf_index": 1, "leaf_value": 0.12440717415224145, "leaf_weight": 254, "leaf_count": 254}, "right_child": {"leaf_index": 12, "leaf_value": 0.014338116927279366, "leaf_weight": 27, "leaf_count": 27}}, "right_child": {"split_index": 10, "split_feature": 1, "split_gain": 46.391700744628906, "threshold": 36.50000000000001, "decision_type": "<=", "default_left": true, "missing_type": "None", "internal_value": 0.0487372, "internal_weight": 1332, "internal_count": 1332, "left_child": {"leaf_index": 8, "leaf_value": 0.04196471026839456, "leaf_weight": 1177, "leaf_count": 1177}, "right_child": {"leaf_index": 11, "leaf_value": 0.10016408877297034, "leaf_weight": 155, "leaf_count": 155}}}, "right_child": {"split_index": 12, "split_feature": 0, "split_gain": 25.98430061340332, "threshold": 9.16885042190552, "decision_type": "<=", "default_left": true, "missing_type": "None", "internal_value": 0.114525, "internal_weight": 793, "internal_count": 793, "left_child": {"split_index": 13, "split_feature": 1, "split_gain": 25.489700317382812, "threshold": 28.500000000000004, "decision_type": "<=", "default_left": true, "missing_type": "None", "internal_value": 0.100253, "internal_weight": 489, "internal_count": 489, "left_child": {"leaf_index": 7, "leaf_value": 0.08197427401616045, "leaf_weight": 298, "leaf_count": 298}, "right_child": {"leaf_index": 14, "leaf_value": 0.12877059219434311, "leaf_weight": 191, "leaf_count": 191}}, "right_child": {"split_index": 14, "split_feature": 4, "split_gain": 12.284299850463867, "threshold": 170.50000000000003, "decision_type": "<=", "default_left": true, "missing_type": "None", "internal_value": 0.137483, "internal_weight": 304, "internal_count": 304, "left_child": {"leaf_index": 13, "leaf_value": 0.06722001462526943, "leaf_weight": 23, "leaf_count": 23}, "right_child": {"leaf_index": 15, "leaf_value": 0.143234345103445, "leaf_weight": 281, "leaf_count": 281}}}}}}, {"tree_index": 8, "num_leaves": 16, "num_cat": 0, "shrinkage": 0.1, "tree_structure": {"split_index": 0, "split_feature": 0, "split_gain": 1413.1099853515625, "threshold": 4.125699996948243, "decision_type": "<=", "default_left": true, "missing_type": "None", "internal_value": -1.3674200000000001e-11, "internal_weight": 16512, "internal_count": 16512, "left_child": {"split_index": 2, "split_feature": 5, "split_gain": 273.4859924316406, "threshold": 2.037605166435242, "decision_type": "<=", "default_left": true, "missing_type": "None", "internal_value": -0.0221014, "internal_weight": 10512, "internal_count": 10512, "left_child": {"split_index": 7, "split_feature": 1, "split_gain": 98.90270233154297, "threshold": 27.500000000000004, "decision_type": "<=", "default_left": true, "missing_type": "None", "internal_value": 0.0235861, "internal_weight": 1165, "internal_count": 1165, "left_child": {"split_index": 12, "split_feature": 7, "split_gain": 40.13309860229492, "threshold": -118.1949996948242, "decision_type": "<=", "default_left": true, "missing_type": "None", "internal_value": -0.00463948, "internal_weight": 601, "internal_count": 601, "left_child": {"leaf_index": 0, "leaf_value": 0.016067064167483828, "leaf_weight": 366, "leaf_count": 366}, "right_child": {"leaf_index": 13, "leaf_value": -0.036888808402371534, "leaf_weight": 235, "leaf_count": 235}}, "right_child": {"split_index": 8, "split_feature": 6, "split_gain": 104.3949966430664, "threshold": 37.815000534057624, "decision_type": "<=", "default_left": true, "missing_type": "None", "internal_value": 0.0536634, "internal_weight": 564, "internal_count": 564, "left_child": {"leaf_index": 8, "leaf_value": 0.07650278369366953, "leaf_weight": 440, "leaf_count": 440}, "right_child": {"leaf_index": 9, "leaf_value": -0.02737944624837368, "leaf_weight": 124, "leaf_count": 124}}}, "right_child": {"split_index": 4, "split_feature": 6, "split_gain": 148.82699584960938, "threshold": 38.475000381469734, "decision_type": "<=", "default_left": true, "missing_type": "None", "internal_value": -0.0277959, "internal_weight": 9347, "internal_count": 9347, "left_child": {"split_index": 5, "split_feature": 7, "split_gain": 310.22601318359375, "threshold": -122.38499832153319, "decision_type": "<=", "default_left": true, "missing_type": "None", "internal_value": -0.0227218, "internal_weight": 8046, "internal_count": 8046, "left_child": {"leaf_index": 3, "leaf_value": 0.06486956033660266, "leaf_weight": 385, "leaf_count": 385}, "right_child": {"leaf_index": 6, "leaf_value": -0.027123707100118827, "leaf_weight": 7661, "leaf_count": 7661}}, "right_child": {"split_index": 14, "split_feature": 7, "split_gain": 15.556599617004395, "threshold": -121.34499740600585, "decision_type": "<=", "default_left": true, "missing_type": "None", "internal_value": -0.0591761, "internal_weight": 1301, "internal_count": 1301, "left_child": {"leaf_index": 5, "leaf_value": -0.06569333500478024, "leaf_weight": 960, "leaf_count": 960}, "right_child": {"leaf_index": 15, "leaf_value": -0.040828619221166665, "leaf_weight": 341, "leaf_count": 341}}}}, "right_child": {"split_index": 1, "split_feature": 0, "split_gain": 441.9570007324219, "threshold": 6.277050018310548, "decision_type": "<=", "default_left": true, "missing_type": "None", "internal_value": 0.0387217, "internal_weight": 6000, "internal_count": 6000, "left_child": {"split_index": 3, "split_feature": 5, "split_gain": 214.43499755859375, "threshold": 2.7354881763458256, "decision_type": "<=", "default_left": true, "missing_type": "None", "internal_value": 0.0228015, "internal_weight": 4464, "internal_count": 4464, "left_child": {"split_index": 6, "split_feature": 1, "split_gain": 125.94599914550781, "threshold": 19.500000000000004, "decision_type": "<=", "default_left": true, "missing_type": "None", "internal_value": 0.0483439, "internal_weight": 1893, "internal_count": 1893, "left_child": {"leaf_index": 1, "leaf_value": 0.006925304577816172, "leaf_weight": 529, "leaf_count": 529}, "right_child": {"leaf_index": 7, "leaf_value": 0.0644073171955291, "leaf_weight": 1364, "leaf_count": 1364}}, "right_child": {"split_index": 11, "split_feature": 0, "split_gain": 46.199501037597656, "threshold": 5.335700035095216, "decision_type": "<=", "default_left": true, "missing_type": "None", "internal_value": 0.00399492, "internal_weight": 2571, "internal_count": 2571, "left_child": {"leaf_index": 4, "leaf_value": -0.0049982862950452445, "leaf_weight": 1773, "leaf_count": 1773}, "right_child": {"leaf_index": 12, "leaf_value": 0.02397607190025046, "leaf_weight": 798, "leaf_count": 798}}}, "right_child": {"split_index": 9, "split_feature": 1, "split_gain": 65.94779968261719, "threshold": 29.500000000000004, "decision_type": "<=", "default_left": true, "missing_type": "None", "internal_value": 0.0849897, "internal_weight": 1536, "internal_count": 1536, "left_child": {"split_index": 10, "split_feature": 0, "split_gain": 50.66749954223633, "threshold": 9.16885042190552, "decision_type": "<=", "default_left": true, "missing_type": "None", "internal_value": 0.0689841, "internal_weight": 962, "internal_count": 962, "left_child": {"leaf_index": 2, "leaf_value": 0.0588875770126585, "leaf_weight": 806, "leaf_count": 806}, "right_child": {"leaf_index": 11, "leaf_value": 0.12114951932468476, "leaf_weight": 156, "leaf_count": 156}}, "right_child": {"split_index": 13, "split_feature": 6, "split_gain": 20.135299682617188, "threshold": 37.61499977111817, "decision_type": "<=", "default_left": true, "missing_type": "None", "internal_value": 0.111815, "internal_weight": 574, "internal_count": 574, "left_child": {"leaf_index": 10, "leaf_value": 0.12149430990905788, "leaf_weight": 453, "leaf_count": 453}, "right_child": {"leaf_index": 14, "leaf_value": 0.07557525511711743, "leaf_weight": 121, "leaf_count": 121}}}}}}, {"tree_index": 9, "num_leaves": 16, "num_cat": 0, "shrinkage": 0.1, "tree_structure": {"split_index": 0, "split_feature": 0, "split_gain": 1158.1400146484375, "threshold": 4.6754000186920175, "decision_type": "<=", "default_left": true, "missing_type": "None", "internal_value": -6.18256e-11, "internal_weight": 16512, "internal_count": 16512, "left_child": {"split_index": 1, "split_feature": 5, "split_gain": 276.2929992675781, "threshold": 2.023195028305054, "decision_type": "<=", "default_left": true, "missing_type": "None", "internal_value": -0.0159105, "internal_weight": 12133, "internal_count": 12133, "left_child": {"split_index": 6, "split_feature": 0, "split_gain": 117.12699890136719, "threshold": 3.2027499675750737, "decision_type": "<=", "default_left": true, "missing_type": "None", "internal_value": 0.0286559, "internal_weight": 1248, "internal_count": 1248, "left_child": {"split_index": 12, "split_feature": 1, "split_gain": 33.20869827270508, "threshold": 27.500000000000004, "decision_type": "<=", "default_left": true, "missing_type": "None", "internal_value": 0.003734, "internal_weight": 751, "internal_count": 751, "left_child": {"leaf_index": 0, "leaf_value": -0.01601707182945987, "leaf_weight": 399, "leaf_count": 399}, "right_child": {"leaf_index": 13, "leaf_value": 0.026122292911697348, "leaf_weight": 352, "leaf_count": 352}}, "right_child": {"split_index": 8, "split_feature": 1, "split_gain": 105.0770034790039, "threshold": 18.500000000000004, "decision_type": "<=", "default_left": true, "missing_type": "None", "internal_value": 0.0663144, "internal_weight": 497, "internal_count": 497, "left_child": {"leaf_index": 7, "leaf_value": -0.003955971006922824, "leaf_weight": 149, "leaf_count": 149}, "right_child": {"leaf_index": 9, "leaf_value": 0.09640147316536529, "leaf_weight": 348, "leaf_count": 348}}}, "right_child": {"split_index": 3, "split_feature": 0, "split_gain": 189.1269989013672, "threshold": 2.589450001716614, "decision_type": "<=", "default_left": true, "missing_type": "None", "internal_value": -0.0210202, "internal_weight": 10885, "internal_count": 10885, "left_child": {"split_index": 7, "split_feature": 2, "split_gain": 108.61100006103516, "threshold": 3.48455023765564, "decision_type": "<=", "default_left": true, "missing_type": "None", "internal_value": -0.0390262, "internal_weight": 3798, "internal_count": 3798, "left_child": {"leaf_index": 2, "leaf_value": 0.0015522436481650698, "leaf_weight": 562, "leaf_count": 562}, "right_child": {"leaf_index": 8, "leaf_value": -0.04607345863976019, "leaf_weight": 3236, "leaf_count": 3236}}, "right_child": {"split_index": 4, "split_feature": 1, "split_gain": 140.69700622558594, "threshold": 43.50000000000001, "decision_type": "<=", "default_left": true, "missing_type": "None", "internal_value": -0.0113706, "internal_weight": 7087, "internal_count": 7087, "left_child": {"leaf_index": 4, "leaf_value": -0.016924369164521683, "leaf_weight": 6134, "leaf_count": 6134}, "right_child": {"leaf_index": 5, "leaf_value": 0.024376151988087107, "leaf_weight": 953, "leaf_count": 953}}}}, "right_child": {"split_index": 2, "split_feature": 0, "split_gain": 250.77099609375, "threshold": 6.396349906921388, "decision_type": "<=", "default_left": true, "missing_type": "None", "internal_value": 0.0440837, "internal_weight": 4379, "internal_count": 4379, "left_child": {"split_index": 5, "split_feature": 5, "split_gain": 120.69999694824219, "threshold": 2.3578463792800908, "decision_type": "<=", "default_left": true, "missing_type": "None", "internal_value": 0.0275751, "internal_weight": 2967, "internal_count": 2967, "left_child": {"split_index": 11, "split_feature": 1, "split_gain": 50.2140998840332, "threshold": 21.500000000000004, "decision_type": "<=", "default_left": true, "missing_type": "None", "internal_value": 0.0759757, "internal_weight": 439, "internal_count": 439, "left_child": {"leaf_index": 1, "leaf_value": 0.02855185838721022, "leaf_weight": 148, "leaf_count": 148}, "right_child": {"leaf_index": 12, "leaf_value": 0.10009498201899512, "leaf_weight": 291, "leaf_count": 291}}, "right_child": {"split_index": 9, "split_feature": 5, "split_gain": 54.48189926147461, "threshold": 2.9742256402969365, "decision_type": "<=", "default_left": true, "missing_type": "None", "internal_value": 0.0191701, "internal_weight": 2528, "internal_count": 2528, "left_child": {"leaf_index": 6, "leaf_value": 0.0329927998773407, "leaf_weight": 1340, "leaf_count": 1340}, "right_child": {"leaf_index": 10, "leaf_value": 0.0035787992947350273, "leaf_weight": 1188, "leaf_count": 1188}}}, "right_child": {"split_index": 10, "split_feature": 1, "split_gain": 52.002201080322266, "threshold": 21.500000000000004, "decision_type": "<=", "default_left": true, "missing_type": "None", "internal_value": 0.0787728, "internal_weight": 1412, "internal_count": 1412, "left_child": {"split_index": 13, "split_feature": 0, "split_gain": 28.084800720214844, "threshold": 8.73955011367798, "decision_type": "<=", "default_left": true, "missing_type": "None", "internal_value": 0.0561209, "internal_weight": 590, "internal_count": 590, "left_child": {"leaf_index": 3, "leaf_value": 0.044866405763936155, "leaf_weight": 466, "leaf_count": 466}, "right_child": {"leaf_index": 14, "leaf_value": 0.09841619574975584, "leaf_weight": 124, "leaf_count": 124}}, "right_child": {"split_index": 14, "split_feature": 0, "split_gain": 18.591400146484375, "threshold": 7.7054998874664316, "decision_type": "<=", "default_left": true, "missing_type": "None", "internal_value": 0.0950314, "internal_weight": 822, "internal_count": 822, "left_child": {"leaf_index": 11, "leaf_value": 0.07977118105806712, "leaf_weight": 405, "leaf_count": 405}, "right_child": {"leaf_index": 15, "leaf_value": 0.10985248800259916, "leaf_weight": 417, "leaf_count": 417}}}}}}, {"tree_index": 10, "num_leaves": 16, "num_cat": 0, "shrinkage": 0.1, "tree_structure": {"split_index": 0, "split_feature": 0, "split_gain": 953.6199951171875, "threshold": 4.125699996948243, "decision_type": "<=", "default_left": true, "missing_type": "None", "internal_value": -1.76676e-11, "internal_weight": 16512, "internal_count": 16512, "left_child": {"split_index": 2, "split_feature": 5, "split_gain": 185.9530029296875, "threshold": 2.521973609924317, "decision_type": "<=", "default_left": true, "missing_type": "None", "internal_value": -0.018156, "internal_weight": 10512, "internal_count": 10512, "left_child": {"split_index": 3, "split_feature": 6, "split_gain": 184.19500732421875, "threshold": 37.93499946594239, "decision_type": "<=", "default_left": true, "missing_type": "None", "internal_value": 0.000513295, "internal_weight": 3539, "internal_count": 3539, "left_child": {"split_index": 4, "split_feature": 7, "split_gain": 228.427001953125, "threshold": -122.35499954223631, "decision_type": "<=", "default_left": true, "missing_type": "None", "internal_value": 0.0143627, "internal_weight": 2586, "internal_count": 2586, "left_child": {"leaf_index": 0, "leaf_value": 0.1214330714004668, "leaf_weight": 185, "leaf_count": 185}, "right_child": {"leaf_index": 5, "leaf_value": 0.006112766462684249, "leaf_weight": 2401, "leaf_count": 2401}}, "right_child": {"split_index": 14, "split_feature": 6, "split_gain": 16.63599967956543, "threshold": 39.354999542236335, "decision_type": "<=", "default_left": true, "missing_type": "None", "internal_value": -0.0370675, "internal_weight": 953, "internal_count": 953, "left_child": {"leaf_index": 4, "leaf_value": -0.02967955326364336, "leaf_weight": 726, "leaf_count": 726}, "right_child": {"leaf_index": 15, "leaf_value": -0.060695873703479376, "leaf_weight": 227, "leaf_count": 227}}}, "right_child": {"split_index": 6, "split_feature": 6, "split_gain": 109.9209976196289, "threshold": 34.45499992370606, "decision_type": "<=", "default_left": true, "missing_type": "None", "internal_value": -0.0276312, "internal_weight": 6973, "internal_count": 6973, "left_child": {"split_index": 7, "split_feature": 7, "split_gain": 183.97999572753906, "threshold": -117.79500198364256, "decision_type": "<=", "default_left": true, "missing_type": "None", "internal_value": -0.0159342, "internal_weight": 3733, "internal_count": 3733, "left_child": {"leaf_index": 3, "leaf_value": -0.0011770606396976273, "leaf_weight": 2589, "leaf_count": 2589}, "right_child": {"leaf_index": 8, "leaf_value": -0.049331381621473824, "leaf_weight": 1144, "leaf_count": 1144}}, "right_child": {"split_index": 8, "split_feature": 7, "split_gain": 165.89500427246094, "threshold": -121.56499862670897, "decision_type": "<=", "default_left": true, "missing_type": "None", "internal_value": -0.0411081, "internal_weight": 3240, "internal_count": 3240, "left_child": {"leaf_index": 7, "leaf_value": -0.014368351396360432, "leaf_weight": 1352, "leaf_count": 1352}, "right_child": {"leaf_index": 9, "leaf_value": -0.060256445952873654, "leaf_weight": 1888, "leaf_count": 1888}}}}, "right_child": {"split_index": 1, "split_feature": 0, "split_gain": 298.3840026855469, "threshold": 5.83080005645752, "decision_type": "<=", "default_left": true, "missing_type": "None", "internal_value": 0.0318094, "internal_weight": 6000, "internal_count": 6000, "left_child": {"split_index": 5, "split_feature": 5, "split_gain": 154.4499969482422, "threshold": 2.2734093666076665, "decision_type": "<=", "default_left": true, "missing_type": "None", "internal_value": 0.0154813, "internal_weight": 3906, "internal_count": 3906, "left_child": {"split_index": 9, "split_feature": 1, "split_gain": 91.2177963256836, "threshold": 16.500000000000004, "decision_type": "<=", "default_left": true, "missing_type": "None", "internal_value": 0.0650744, "internal_weight": 541, "internal_count": 541, "left_child": {"leaf_index": 1, "leaf_value": -0.004419899171750461, "leaf_weight": 140, "leaf_count": 140}, "right_child": {"leaf_index": 10, "leaf_value": 0.08933678191524473, "leaf_weight": 401, "leaf_count": 401}}, "right_child": {"split_index": 11, "split_feature": 1, "split_gain": 72.48719787597656, "threshold": 38.50000000000001, "decision_type": "<=", "default_left": true, "missing_type": "None", "internal_value": 0.00750809, "internal_weight": 3365, "internal_count": 3365, "left_child": {"leaf_index": 6, "leaf_value": 0.0016236302171929067, "leaf_weight": 2899, "leaf_count": 2899}, "right_child": {"leaf_index": 12, "leaf_value": 0.04411552059796415, "leaf_weight": 466, "leaf_count": 466}}}, "right_child": {"split_index": 10, "split_feature": 1, "split_gain": 74.6865005493164, "threshold": 26.500000000000004, "decision_type": "<=", "default_left": true, "missing_type": "None", "internal_value": 0.0622665, "internal_weight": 2094, "internal_count": 2094, "left_child": {"split_index": 12, "split_feature": 0, "split_gain": 52.69350051879883, "threshold": 7.2638001441955575, "decision_type": "<=", "default_left": true, "missing_type": "None", "internal_value": 0.046266, "internal_weight": 1219, "internal_count": 1219, "left_child": {"leaf_index": 2, "leaf_value": 0.030108419637820735, "leaf_weight": 760, "leaf_count": 760}, "right_child": {"leaf_index": 13, "leaf_value": 0.07301928540691734, "leaf_weight": 459, "leaf_count": 459}}, "right_child": {"split_index": 13, "split_feature": 6, "split_gain": 25.44610023498535, "threshold": 38.00499916076661, "decision_type": "<=", "default_left": true, "missing_type": "None", "internal_value": 0.0845576, "internal_weight": 875, "internal_count": 875, "left_child": {"leaf_index": 11, "leaf_value": 0.08723174588511037, "leaf_weight": 854, "leaf_count": 854}, "right_child": {"leaf_index": 14, "leaf_value": -0.024191539725732236, "leaf_weight": 21, "leaf_count": 21}}}}}}, {"tree_index": 11, "num_leaves": 16, "num_cat": 0, "shrinkage": 0.1, "tree_structure": {"split_index": 0, "split_feature": 0, "split_gain": 786.3200073242188, "threshold": 3.834650039672852, "decision_type": "<=", "default_left": true, "missing_type": "None", "internal_value": -4.54225e-11, "internal_weight": 16512, "internal_count": 16512, "left_child": {"split_index": 3, "split_feature": 6, "split_gain": 128.74600219726562, "threshold": 37.91499900817872, "decision_type": "<=", "default_left": true, "missing_type": "None", "internal_value": -0.0188553, "internal_weight": 9454, "internal_count": 9454, "left_child": {"split_index": 4, "split_feature": 7, "split_gain": 313.1419982910156, "threshold": -122.31499862670897, "decision_type": "<=", "default_left": true, "missing_type": "None", "internal_value": -0.0127971, "internal_weight": 7447, "internal_count": 7447, "left_child": {"split_index": 11, "split_feature": 6, "split_gain": 23.99690055847168, "threshold": 37.75499916076661, "decision_type": "<=", "default_left": true, "missing_type": "None", "internal_value": 0.0892561, "internal_weight": 289, "internal_count": 289, "left_child": {"leaf_index": 0, "leaf_value": 0.056711124244520045, "leaf_weight": 127, "leaf_count": 127}, "right_child": {"leaf_index": 12, "leaf_value": 0.11476981149595461, "leaf_weight": 162, "leaf_count": 162}}, "right_child": {"split_index": 5, "split_feature": 7, "split_gain": 151.99200439453125, "threshold": -117.77499771118163, "decision_type": "<=", "default_left": true, "missing_type": "None", "internal_value": -0.0169174, "internal_weight": 7158, "internal_count": 7158, "left_child": {"leaf_index": 5, "leaf_value": -0.008825734740031411, "leaf_weight": 5471, "leaf_count": 5471}, "right_child": {"leaf_index": 6, "leaf_value": -0.043159057853021134, "leaf_weight": 1687, "leaf_count": 1687}}}, "right_child": {"split_index": 12, "split_feature": 6, "split_gain": 22.73859977722168, "threshold": 39.354999542236335, "decision_type": "<=", "default_left": true, "missing_type": "None", "internal_value": -0.0413342, "internal_weight": 2007, "internal_count": 2007, "left_child": {"split_index": 13, "split_feature": 7, "split_gain": 24.821199417114258, "threshold": -122.38499832153319, "decision_type": "<=", "default_left": true, "missing_type": "None", "internal_value": -0.0350725, "internal_weight": 1491, "internal_count": 1491, "left_child": {"leaf_index": 4, "leaf_value": -0.00818060654729578, "leaf_weight": 279, "leaf_count": 279}, "right_child": {"leaf_index": 14, "leaf_value": -0.041262981060757105, "leaf_weight": 1212, "leaf_count": 1212}}, "right_child": {"split_index": 14, "split_feature": 1, "split_gain": 1.9537400007247925, "threshold": 24.500000000000004, "decision_type": "<=", "default_left": true, "missing_type": "None", "internal_value": -0.0594277, "internal_weight": 516, "internal_count": 516, "left_child": {"leaf_index": 13, "leaf_value": -0.05388794231146835, "leaf_weight": 285, "leaf_count": 285}, "right_child": {"leaf_index": 15, "leaf_value": -0.06626248809819421, "leaf_weight": 231, "leaf_count": 231}}}}, "right_child": {"split_index": 1, "split_feature": 0, "split_gain": 282.14300537109375, "threshold": 5.83080005645752, "decision_type": "<=", "default_left": true, "missing_type": "None", "internal_value": 0.0252561, "internal_weight": 7058, "internal_count": 7058, "left_child": {"split_index": 2, "split_feature": 5, "split_gain": 165.2050018310547, "threshold": 2.065373778343201, "decision_type": "<=", "default_left": true, "missing_type": "None", "internal_value": 0.0122704, "internal_weight": 4964, "internal_count": 4964, "left_child": {"split_index": 6, "split_feature": 1, "split_gain": 96.56659698486328, "threshold": 16.500000000000004, "decision_type": "<=", "default_left": true, "missing_type": "None", "internal_value": 0.0744869, "internal_weight": 393, "internal_count": 393, "left_child": {"leaf_index": 1, "leaf_value": -0.007608518194451574, "leaf_weight": 105, "leaf_count": 105}, "right_child": {"leaf_index": 7, "leaf_value": 0.10441746294422449, "leaf_weight": 288, "leaf_count": 288}}, "right_child": {"split_index": 7, "split_feature": 1, "split_gain": 90.768798828125, "threshold": 18.500000000000004, "decision_type": "<=", "default_left": true, "missing_type": "None", "internal_value": 0.00692121, "internal_weight": 4571, "internal_count": 4571, "left_child": {"leaf_index": 3, "leaf_value": -0.014540438655148057, "leaf_weight": 1377, "leaf_count": 1377}, "right_child": {"leaf_index": 8, "leaf_value": 0.016173777922697592, "leaf_weight": 3194, "leaf_count": 3194}}}, "right_child": {"split_index": 8, "split_feature": 5, "split_gain": 62.27170181274414, "threshold": 3.1424162387847905, "decision_type": "<=", "default_left": true, "missing_type": "None", "internal_value": 0.0560399, "internal_weight": 2094, "internal_count": 2094, "left_child": {"split_index": 9, "split_feature": 7, "split_gain": 41.13050079345703, "threshold": -117.83499908447264, "decision_type": "<=", "default_left": true, "missing_type": "None", "internal_value": 0.0662181, "internal_weight": 1553, "internal_count": 1553, "left_child": {"leaf_index": 2, "leaf_value": 0.07354940342681525, "leaf_weight": 1291, "leaf_count": 1291}, "right_child": {"leaf_index": 10, "leaf_value": 0.030093007801386764, "leaf_weight": 262, "leaf_count": 262}}, "right_child": {"split_index": 10, "split_feature": 0, "split_gain": 25.126300811767578, "threshold": 6.867200136184693, "decision_type": "<=", "default_left": true, "missing_type": "None", "internal_value": 0.0268223, "internal_weight": 541, "internal_count": 541, "left_child": {"leaf_index": 9, "leaf_value": 0.006015467931117331, "leaf_weight": 280, "leaf_count": 280}, "right_child": {"leaf_index": 11, "leaf_value": 0.049143856275698235, "leaf_weight": 261, "leaf_count": 261}}}}}}, {"tree_index": 12, "num_leaves": 15, "num_cat": 0, "shrinkage": 0.1, "tree_structure": {"split_index": 0, "split_feature": 0, "split_gain": 639.010986328125, "threshold": 4.530150175094605, "decision_type": "<=", "default_left": true, "missing_type": "None", "internal_value": 1.6547e-11, "internal_weight": 16512, "internal_count": 16512, "left_child": {"split_index": 1, "split_feature": 5, "split_gain": 198.14100646972656, "threshold": 2.8079589605331425, "decision_type": "<=", "default_left": true, "missing_type": "None", "internal_value": -0.0125495, "internal_weight": 11736, "internal_count": 11736, "left_child": {"split_index": 2, "split_feature": 6, "split_gain": 216.16099548339844, "threshold": 37.944999694824226, "decision_type": "<=", "default_left": true, "missing_type": "None", "internal_value": 0.000314043, "internal_weight": 5927, "internal_count": 5927, "left_child": {"split_index": 3, "split_feature": 7, "split_gain": 218.1479949951172, "threshold": -122.35499954223631, "decision_type": "<=", "default_left": true, "missing_type": "None", "internal_value": 0.0118573, "internal_weight": 4341, "internal_count": 4341, "left_child": {"leaf_index": 0, "leaf_value": 0.09642546661557598, "leaf_weight": 285, "leaf_count": 285}, "right_child": {"leaf_index": 4, "leaf_value": 0.005915004299845574, "leaf_weight": 4056, "leaf_count": 4056}}, "right_child": {"split_index": 9, "split_feature": 6, "split_gain": 25.30190086364746, "threshold": 39.354999542236335, "decision_type": "<=", "default_left": true, "missing_type": "None", "internal_value": -0.0312807, "internal_weight": 1586, "internal_count": 1586, "left_child": {"leaf_index": 3, "leaf_value": -0.023847388873286985, "leaf_weight": 1178, "leaf_count": 1178}, "right_child": {"leaf_index": 10, "leaf_value": -0.052742545339210405, "leaf_weight": 408, "leaf_count": 408}}}, "right_child": {"split_index": 7, "split_feature": 7, "split_gain": 52.902198791503906, "threshold": -117.79500198364256, "decision_type": "<=", "default_left": true, "missing_type": "None", "internal_value": -0.0256743, "internal_weight": 5809, "internal_count": 5809, "left_child": {"split_index": 8, "split_feature": 6, "split_gain": 100.4800033569336, "threshold": 34.52499961853028, "decision_type": "<=", "default_left": true, "missing_type": "None", "internal_value": -0.021171, "internal_weight": 4751, "internal_count": 4751, "left_child": {"leaf_index": 2, "leaf_value": -0.006747083228243328, "leaf_weight": 2395, "leaf_count": 2395}, "right_child": {"leaf_index": 9, "leaf_value": -0.03583366510020146, "leaf_weight": 2356, "leaf_count": 2356}}, "right_child": {"split_index": 13, "split_feature": 7, "split_gain": 11.482600212097168, "threshold": -116.31499862670897, "decision_type": "<=", "default_left": true, "missing_type": "None", "internal_value": -0.0458969, "internal_weight": 1058, "internal_count": 1058, "left_child": {"leaf_index": 8, "leaf_value": -0.04262479749281658, "leaf_weight": 963, "leaf_count": 963}, "right_child": {"leaf_index": 14, "leaf_value": -0.07906560612352272, "leaf_weight": 95, "leaf_count": 95}}}}, "right_child": {"split_index": 4, "split_feature": 0, "split_gain": 152.64199829101562, "threshold": 6.867200136184693, "decision_type": "<=", "default_left": true, "missing_type": "None", "internal_value": 0.0308377, "internal_weight": 4776, "internal_count": 4776, "left_child": {"split_index": 5, "split_feature": 5, "split_gain": 101.34200286865234, "threshold": 2.9742256402969365, "decision_type": "<=", "default_left": true, "missing_type": "None", "internal_value": 0.0214054, "internal_weight": 3736, "internal_count": 3736, "left_child": {"split_index": 6, "split_feature": 6, "split_gain": 76.60700225830078, "threshold": 37.924999237060554, "decision_type": "<=", "default_left": true, "missing_type": "None", "internal_value": 0.0348051, "internal_weight": 2248, "internal_count": 2248, "left_child": {"leaf_index": 1, "leaf_value": 0.04185312435962903, "leaf_weight": 1962, "leaf_count": 1962}, "right_child": {"leaf_index": 7, "leaf_value": -0.013545620007036657, "leaf_weight": 286, "leaf_count": 286}}, "right_child": {"split_index": 12, "split_feature": 7, "split_gain": 17.327999114990234, "threshold": -117.67499923706053, "decision_type": "<=", "default_left": true, "missing_type": "None", "internal_value": 0.00116182, "internal_weight": 1488, "internal_count": 1488, "left_child": {"leaf_index": 6, "leaf_value": 0.006196571797589389, "leaf_weight": 1222, "leaf_count": 1222}, "right_child": {"leaf_index": 13, "leaf_value": -0.021967777394325497, "leaf_weight": 266, "leaf_count": 266}}}, "right_child": {"split_index": 10, "split_feature": 6, "split_gain": 21.742799758911133, "threshold": 38.155000686645515, "decision_type": "<=", "default_left": true, "missing_type": "None", "internal_value": 0.0647215, "internal_weight": 1040, "internal_count": 1040, "left_child": {"split_index": 11, "split_feature": 7, "split_gain": 25.38360023498535, "threshold": -118.02499771118163, "decision_type": "<=", "default_left": true, "missing_type": "None", "internal_value": 0.066896, "internal_weight": 1017, "internal_count": 1017, "left_child": {"leaf_index": 5, "leaf_value": 0.07668177478598293, "leaf_weight": 735, "leaf_count": 735}, "right_child": {"leaf_index": 12, "leaf_value": 0.041390368008882086, "leaf_weight": 282, "leaf_count": 282}}, "right_child": {"leaf_index": 11, "leaf_value": -0.031425806685634286, "leaf_weight": 23, "leaf_count": 23}}}}}, {"tree_index": 13, "num_leaves": 16, "num_cat": 0, "shrinkage": 0.1, "tree_structure": {"split_index": 0, "split_feature": 0, "split_gain": 539.1199951171875, "threshold": 3.834650039672852, "decision_type": "<=", "default_left": true, "missing_type": "None", "internal_value": -2.33519e-11, "internal_weight": 16512, "internal_count": 16512, "left_child": {"split_index": 3, "split_feature": 5, "split_gain": 110.177001953125, "threshold": 2.037605166435242, "decision_type": "<=", "default_left": true, "missing_type": "None", "internal_value": -0.0156126, "internal_weight": 9454, "internal_count": 9454, "left_child": {"split_index": 9, "split_feature": 7, "split_gain": 48.243499755859375, "threshold": -117.14500045776366, "decision_type": "<=", "default_left": true, "missing_type": "None", "internal_value": 0.0145423, "internal_weight": 1074, "internal_count": 1074, "left_child": {"split_index": 10, "split_feature": 6, "split_gain": 63.80630111694336, "threshold": 37.815000534057624, "decision_type": "<=", "default_left": true, "missing_type": "None", "internal_value": 0.0213707, "internal_weight": 973, "internal_count": 973, "left_child": {"leaf_index": 0, "leaf_value": 0.03614533821624793, "leaf_weight": 730, "leaf_count": 730}, "right_child": {"leaf_index": 11, "leaf_value": -0.023014021872740657, "leaf_weight": 243, "leaf_count": 243}}, "right_child": {"split_index": 14, "split_feature": 2, "split_gain": 1.755020022392273, "threshold": 5.983814954757691, "decision_type": "<=", "default_left": true, "missing_type": "None", "internal_value": -0.0512406, "internal_weight": 101, "internal_count": 101, "left_child": {"leaf_index": 10, "leaf_value": -0.059606550509730974, "leaf_weight": 72, "leaf_count": 72}, "right_child": {"leaf_index": 15, "leaf_value": -0.03047008504127634, "leaf_weight": 29, "leaf_count": 29}}}, "right_child": {"split_index": 4, "split_feature": 6, "split_gain": 90.65170288085938, "threshold": 34.45499992370606, "decision_type": "<=", "default_left": true, "missing_type": "None", "internal_value": -0.0194773, "internal_weight": 8380, "internal_count": 8380, "left_child": {"split_index": 6, "split_feature": 7, "split_gain": 177.59300231933594, "threshold": -118.30500030517577, "decision_type": "<=", "default_left": true, "missing_type": "None", "internal_value": -0.0089215, "internal_weight": 4128, "internal_count": 4128, "left_child": {"leaf_index": 4, "leaf_value": 0.03488368527617014, "leaf_weight": 756, "leaf_count": 756}, "right_child": {"leaf_index": 7, "leaf_value": -0.018742592305613967, "leaf_weight": 3372, "leaf_count": 3372}}, "right_child": {"split_index": 5, "split_feature": 7, "split_gain": 208.70899963378906, "threshold": -120.09499740600585, "decision_type": "<=", "default_left": true, "missing_type": "None", "internal_value": -0.0297253, "internal_weight": 4252, "internal_count": 4252, "left_child": {"leaf_index": 5, "leaf_value": -0.017511970610967566, "leaf_weight": 3261, "leaf_count": 3261}, "right_child": {"leaf_index": 6, "leaf_value": -0.0699148573647662, "leaf_weight": 991, "leaf_count": 991}}}}, "right_child": {"split_index": 1, "split_feature": 0, "split_gain": 188.75399780273438, "threshold": 5.83080005645752, "decision_type": "<=", "default_left": true, "missing_type": "None", "internal_value": 0.0209127, "internal_weight": 7058, "internal_count": 7058, "left_child": {"split_index": 2, "split_feature": 5, "split_gain": 123.8219985961914, "threshold": 2.065373778343201, "decision_type": "<=", "default_left": true, "missing_type": "None", "internal_value": 0.0102913, "internal_weight": 4964, "internal_count": 4964, "left_child": {"split_index": 8, "split_feature": 1, "split_gain": 76.47740173339844, "threshold": 17.500000000000004, "decision_type": "<=", "default_left": true, "missing_type": "None", "internal_value": 0.0641547, "internal_weight": 393, "internal_count": 393, "left_child": {"leaf_index": 1, "leaf_value": -0.0015921934939096454, "leaf_weight": 122, "leaf_count": 122}, "right_child": {"leaf_index": 9, "leaf_value": 0.09375287279080921, "leaf_weight": 271, "leaf_count": 271}}, "right_child": {"split_index": 7, "split_feature": 7, "split_gain": 83.88629913330078, "threshold": -122.24499893188475, "decision_type": "<=", "default_left": true, "missing_type": "None", "internal_value": 0.00566033, "internal_weight": 4571, "internal_count": 4571, "left_child": {"leaf_index": 3, "leaf_value": 0.04347143185194385, "leaf_weight": 520, "leaf_count": 520}, "right_child": {"leaf_index": 8, "leaf_value": 0.0008067738644643261, "leaf_weight": 4051, "leaf_count": 4051}}}, "right_child": {"split_index": 11, "split_feature": 1, "split_gain": 47.56769943237305, "threshold": 26.500000000000004, "decision_type": "<=", "default_left": true, "missing_type": "None", "internal_value": 0.0460915, "internal_weight": 2094, "internal_count": 2094, "left_child": {"split_index": 12, "split_feature": 0, "split_gain": 34.72200012207031, "threshold": 9.16885042190552, "decision_type": "<=", "default_left": true, "missing_type": "None", "internal_value": 0.0333221, "internal_weight": 1219, "internal_count": 1219, "left_child": {"leaf_index": 2, "leaf_value": 0.027267354210726576, "leaf_weight": 1080, "leaf_count": 1080}, "right_child": {"leaf_index": 13, "leaf_value": 0.08036614644488575, "leaf_weight": 139, "leaf_count": 139}}, "right_child": {"split_index": 13, "split_feature": 4, "split_gain": 23.02400016784668, "threshold": 170.50000000000003, "decision_type": "<=", "default_left": true, "missing_type": "None", "internal_value": 0.0638811, "internal_weight": 875, "internal_count": 875, "left_child": {"leaf_index": 12, "leaf_value": -0.02373275384306908, "leaf_weight": 29, "leaf_count": 29}, "right_child": {"leaf_index": 14, "leaf_value": 0.0668843684174191, "leaf_weight": 846, "leaf_count": 846}}}}}}, {"tree_index": 14, "num_leaves": 16, "num_cat": 0, "shrinkage": 0.1, "tree_structure": {"split_index": 0, "split_feature": 0, "split_gain": 442.2560119628906, "threshold": 3.653050065040589, "decision_type": "<=", "default_left": true, "missing_type": "None", "internal_value": 3.80233e-11, "internal_weight": 16512, "internal_count": 16512, "left_child": {"split_index": 4, "split_feature": 2, "split_gain": 85.80619812011719, "threshold": 4.643757104873658, "decision_type": "<=", "default_left": true, "missing_type": "None", "internal_value": -0.0154517, "internal_weight": 8730, "internal_count": 8730, "left_child": {"split_index": 5, "split_feature": 0, "split_gain": 101.97200012207031, "threshold": 2.220999956130982, "decision_type": "<=", "default_left": true, "missing_type": "None", "internal_value": -0.00563029, "internal_weight": 4406, "internal_count": 4406, "left_child": {"split_index": 9, "split_feature": 2, "split_gain": 49.27790069580078, "threshold": 3.3654434680938725, "decision_type": "<=", "default_left": true, "missing_type": "None", "internal_value": -0.0237899, "internal_weight": 1817, "internal_count": 1817, "left_child": {"leaf_index": 0, "leaf_value": 0.00499812992249125, "leaf_weight": 448, "leaf_count": 448}, "right_child": {"leaf_index": 10, "leaf_value": -0.03321063448591641, "leaf_weight": 1369, "leaf_count": 1369}}, "right_child": {"split_index": 6, "split_feature": 5, "split_gain": 73.37699890136719, "threshold": 3.55892562866211, "decision_type": "<=", "default_left": true, "missing_type": "None", "internal_value": 0.00711439, "internal_weight": 2589, "internal_count": 2589, "left_child": {"leaf_index": 6, "leaf_value": 0.016881652969470806, "leaf_weight": 1937, "leaf_count": 1937}, "right_child": {"leaf_index": 7, "leaf_value": -0.02190277168207645, "leaf_weight": 652, "leaf_count": 652}}}, "right_child": {"split_index": 10, "split_feature": 1, "split_gain": 29.466899871826172, "threshold": 49.50000000000001, "decision_type": "<=", "default_left": true, "missing_type": "None", "internal_value": -0.0254593, "internal_weight": 4324, "internal_count": 4324, "left_child": {"split_index": 11, "split_feature": 6, "split_gain": 25.30139923095703, "threshold": 34.45499992370606, "decision_type": "<=", "default_left": true, "missing_type": "None", "internal_value": -0.0276315, "internal_weight": 4044, "internal_count": 4044, "left_child": {"leaf_index": 5, "leaf_value": -0.016488762210081144, "leaf_weight": 1355, "leaf_count": 1355}, "right_child": {"leaf_index": 12, "leaf_value": -0.03324638379454338, "leaf_weight": 2689, "leaf_count": 2689}}, "right_child": {"split_index": 13, "split_feature": 7, "split_gain": 19.989999771118164, "threshold": -122.31499862670897, "decision_type": "<=", "default_left": true, "missing_type": "None", "internal_value": 0.0059133, "internal_weight": 280, "internal_count": 280, "left_child": {"leaf_index": 11, "leaf_value": 0.06322013760358096, "leaf_weight": 50, "leaf_count": 50}, "right_child": {"leaf_index": 14, "leaf_value": -0.0065447117604882175, "leaf_weight": 230, "leaf_count": 230}}}}, "right_child": {"split_index": 1, "split_feature": 6, "split_gain": 169.80299377441406, "threshold": 37.9650001525879, "decision_type": "<=", "default_left": true, "missing_type": "None", "internal_value": 0.017334, "internal_weight": 7782, "internal_count": 7782, "left_child": {"split_index": 2, "split_feature": 7, "split_gain": 188.5260009765625, "threshold": -118.01499938964842, "decision_type": "<=", "default_left": true, "missing_type": "None", "internal_value": 0.0226926, "internal_weight": 6877, "internal_count": 6877, "left_child": {"split_index": 3, "split_feature": 5, "split_gain": 133.37100219726562, "threshold": 3.0375944375991826, "decision_type": "<=", "default_left": true, "missing_type": "None", "internal_value": 0.033946, "internal_weight": 4704, "internal_count": 4704, "left_child": {"leaf_index": 1, "leaf_value": 0.04492347222935886, "leaf_weight": 3301, "leaf_count": 3301}, "right_child": {"leaf_index": 4, "leaf_value": 0.008117921907342795, "leaf_weight": 1403, "leaf_count": 1403}}, "right_child": {"split_index": 7, "split_feature": 6, "split_gain": 71.67120361328125, "threshold": 33.924999237060554, "decision_type": "<=", "default_left": true, "missing_type": "None", "internal_value": -0.00166815, "internal_weight": 2173, "internal_count": 2173, "left_child": {"leaf_index": 3, "leaf_value": 0.009625763195085069, "leaf_weight": 1567, "leaf_count": 1567}, "right_child": {"leaf_index": 8, "leaf_value": -0.030872033934801257, "leaf_weight": 606, "leaf_count": 606}}}, "right_child": {"split_index": 8, "split_feature": 7, "split_gain": 55.095298767089844, "threshold": -122.40500259399413, "decision_type": "<=", "default_left": true, "missing_type": "None", "internal_value": -0.0233854, "internal_weight": 905, "internal_count": 905, "left_child": {"split_index": 12, "split_feature": 6, "split_gain": 23.1742000579834, "threshold": 38.73500061035157, "decision_type": "<=", "default_left": true, "missing_type": "None", "internal_value": 0.0206818, "internal_weight": 216, "internal_count": 216, "left_child": {"leaf_index": 2, "leaf_value": 0.03332261015906276, "leaf_weight": 188, "leaf_count": 188}, "right_child": {"leaf_index": 13, "leaf_value": -0.06419237554073334, "leaf_weight": 28, "leaf_count": 28}}, "right_child": {"split_index": 14, "split_feature": 1, "split_gain": 9.640580177307129, "threshold": 22.500000000000004, "decision_type": "<=", "default_left": true, "missing_type": "None", "internal_value": -0.0372004, "internal_weight": 689, "internal_count": 689, "left_child": {"leaf_index": 9, "leaf_value": -0.028357834682712437, "leaf_weight": 442, "leaf_count": 442}, "right_child": {"leaf_index": 15, "leaf_value": -0.05302399951730844, "leaf_weight": 247, "leaf_count": 247}}}}}}, {"tree_index": 15, "num_leaves": 15, "num_cat": 0, "shrinkage": 0.1, "tree_structure": {"split_index": 0, "split_feature": 0, "split_gain": 387.49200439453125, "threshold": 5.3736000061035165, "decision_type": "<=", "default_left": true, "missing_type": "None", "internal_value": 1.06585e-11, "internal_weight": 16512, "internal_count": 16512, "left_child": {"split_index": 1, "split_feature": 5, "split_gain": 163.9459991455078, "threshold": 2.839627861976624, "decision_type": "<=", "default_left": true, "missing_type": "None", "internal_value": -0.00691203, "internal_weight": 13719, "internal_count": 13719, "left_child": {"split_index": 2, "split_feature": 6, "split_gain": 182.46299743652344, "threshold": 37.89500045776368, "decision_type": "<=", "default_left": true, "missing_type": "None", "internal_value": 0.00359833, "internal_weight": 7129, "internal_count": 7129, "left_child": {"split_index": 3, "split_feature": 7, "split_gain": 207.92300415039062, "threshold": -122.31499862670897, "decision_type": "<=", "default_left": true, "missing_type": "None", "internal_value": 0.0131278, "internal_weight": 5262, "internal_count": 5262, "left_child": {"leaf_index": 0, "leaf_value": 0.08680973791671234, "leaf_weight": 357, "leaf_count": 357}, "right_child": {"leaf_index": 4, "leaf_value": 0.0077650479848166715, "leaf_weight": 4905, "leaf_count": 4905}}, "right_child": {"split_index": 10, "split_feature": 6, "split_gain": 21.838300704956055, "threshold": 39.354999542236335, "decision_type": "<=", "default_left": true, "missing_type": "None", "internal_value": -0.0232598, "internal_weight": 1867, "internal_count": 1867, "left_child": {"leaf_index": 3, "leaf_value": -0.017379403568504218, "leaf_weight": 1441, "leaf_count": 1441}, "right_child": {"leaf_index": 11, "leaf_value": -0.0431512005053277, "leaf_weight": 426, "leaf_count": 426}}}, "right_child": {"split_index": 5, "split_feature": 7, "split_gain": 54.2869987487793, "threshold": -117.77499771118163, "decision_type": "<=", "default_left": true, "missing_type": "None", "internal_value": -0.018282, "internal_weight": 6590, "internal_count": 6590, "left_child": {"split_index": 6, "split_feature": 6, "split_gain": 65.6531982421875, "threshold": 34.52499961853028, "decision_type": "<=", "default_left": true, "missing_type": "None", "internal_value": -0.0139821, "internal_weight": 5382, "internal_count": 5382, "left_child": {"leaf_index": 2, "leaf_value": -0.0030638214200895478, "leaf_weight": 2722, "leaf_count": 2722}, "right_child": {"leaf_index": 7, "leaf_value": -0.025154789681301304, "leaf_weight": 2660, "leaf_count": 2660}}, "right_child": {"split_index": 12, "split_feature": 6, "split_gain": 11.293999671936035, "threshold": 33.655000686645515, "decision_type": "<=", "default_left": true, "missing_type": "None", "internal_value": -0.0374397, "internal_weight": 1208, "internal_count": 1208, "left_child": {"leaf_index": 6, "leaf_value": -0.02707311170444131, "leaf_weight": 562, "leaf_count": 562}, "right_child": {"leaf_index": 13, "leaf_value": -0.04645840331087402, "leaf_weight": 646, "leaf_count": 646}}}}, "right_child": {"split_index": 4, "split_feature": 0, "split_gain": 56.550201416015625, "threshold": 7.7054998874664316, "decision_type": "<=", "default_left": true, "missing_type": "None", "internal_value": 0.0339514, "internal_weight": 2793, "internal_count": 2793, "left_child": {"split_index": 7, "split_feature": 5, "split_gain": 48.49980163574219, "threshold": 2.2544196844100957, "decision_type": "<=", "default_left": true, "missing_type": "None", "internal_value": 0.0259577, "internal_weight": 2123, "internal_count": 2123, "left_child": {"split_index": 8, "split_feature": 4, "split_gain": 27.72249984741211, "threshold": 431.50000000000006, "decision_type": "<=", "default_left": true, "missing_type": "None", "internal_value": 0.0734838, "internal_weight": 195, "internal_count": 195, "left_child": {"leaf_index": 1, "leaf_value": -0.020569092656175295, "leaf_weight": 27, "leaf_count": 27}, "right_child": {"leaf_index": 9, "leaf_value": 0.08859939237480008, "leaf_weight": 168, "leaf_count": 168}}, "right_child": {"split_index": 9, "split_feature": 7, "split_gain": 26.81529998779297, "threshold": -122.24499893188475, "decision_type": "<=", "default_left": true, "missing_type": "None", "internal_value": 0.0211509, "internal_weight": 1928, "internal_count": 1928, "left_child": {"leaf_index": 8, "leaf_value": 0.05767877204343677, "leaf_weight": 182, "leaf_count": 182}, "right_child": {"leaf_index": 10, "leaf_value": 0.017343309859144528, "leaf_weight": 1746, "leaf_count": 1746}}}, "right_child": {"split_index": 11, "split_feature": 4, "split_gain": 11.404500007629395, "threshold": 139.50000000000003, "decision_type": "<=", "default_left": true, "missing_type": "None", "internal_value": 0.0592804, "internal_weight": 670, "internal_count": 670, "left_child": {"leaf_index": 5, "leaf_value": -0.005651282175229146, "leaf_weight": 26, "leaf_count": 26}, "right_child": {"split_index": 13, "split_feature": 0, "split_gain": 9.311260223388672, "threshold": 9.16885042190552, "decision_type": "<=", "default_left": true, "missing_type": "None", "internal_value": 0.0619019, "internal_weight": 644, "internal_count": 644, "left_child": {"leaf_index": 12, "leaf_value": 0.05118826802101371, "leaf_weight": 359, "leaf_count": 359}, "right_child": {"leaf_index": 14, "leaf_value": 0.07539730624540857, "leaf_weight": 285, "leaf_count": 285}}}}}}, {"tree_index": 16, "num_leaves": 16, "num_cat": 0, "shrinkage": 0.1, "tree_structure": {"split_index": 0, "split_feature": 0, "split_gain": 315.92498779296875, "threshold": 3.653050065040589, "decision_type": "<=", "default_left": true, "missing_type": "None", "internal_value": 5.03593e-13, "internal_weight": 16512, "internal_count": 16512, "left_child": {"split_index": 3, "split_feature": 7, "split_gain": 74.85070037841797, "threshold": -117.77499771118163, "decision_type": "<=", "default_left": true, "missing_type": "None", "internal_value": -0.0130596, "internal_weight": 8730, "internal_count": 8730, "left_child": {"split_index": 4, "split_feature": 6, "split_gain": 160.06199645996094, "threshold": 34.655000686645515, "decision_type": "<=", "default_left": true, "missing_type": "None", "internal_value": -0.0087203, "internal_weight": 7158, "internal_count": 7158, "left_child": {"split_index": 6, "split_feature": 5, "split_gain": 132.71299743652344, "threshold": 3.1336553096771245, "decision_type": "<=", "default_left": true, "missing_type": "None", "internal_value": 0.00951547, "internal_weight": 2878, "internal_count": 2878, "left_child": {"leaf_index": 0, "leaf_value": 0.03202930970871921, "leaf_weight": 1371, "leaf_count": 1371}, "right_child": {"leaf_index": 7, "leaf_value": -0.010966602061693165, "leaf_weight": 1507, "leaf_count": 1507}}, "right_child": {"split_index": 5, "split_feature": 7, "split_gain": 186.10299682617188, "threshold": -121.67499923706053, "decision_type": "<=", "default_left": true, "missing_type": "None", "internal_value": -0.0209826, "internal_weight": 4280, "internal_count": 4280, "left_child": {"leaf_index": 5, "leaf_value": 0.0020705318829273, "leaf_weight": 1926, "leaf_count": 1926}, "right_child": {"leaf_index": 6, "leaf_value": -0.039844217452042044, "leaf_weight": 2354, "leaf_count": 2354}}}, "right_child": {"split_index": 11, "split_feature": 6, "split_gain": 29.65839958190918, "threshold": 33.694999694824226, "decision_type": "<=", "default_left": true, "missing_type": "None", "internal_value": -0.0328184, "internal_weight": 1572, "internal_count": 1572, "left_child": {"split_index": 12, "split_feature": 7, "split_gain": 39.764400482177734, "threshold": -117.14500045776366, "decision_type": "<=", "default_left": true, "missing_type": "None", "internal_value": -0.0200779, "internal_weight": 845, "internal_count": 845, "left_child": {"leaf_index": 4, "leaf_value": 0.010737226233551545, "leaf_weight": 280, "leaf_count": 280}, "right_child": {"leaf_index": 13, "leaf_value": -0.03534914349054349, "leaf_weight": 565, "leaf_count": 565}}, "right_child": {"split_index": 14, "split_feature": 6, "split_gain": 6.476039886474609, "threshold": 34.104999542236335, "decision_type": "<=", "default_left": true, "missing_type": "None", "internal_value": -0.0476268, "internal_weight": 727, "internal_count": 727, "left_child": {"leaf_index": 12, "leaf_value": -0.04104235181546864, "leaf_weight": 489, "leaf_count": 489}, "right_child": {"leaf_index": 15, "leaf_value": -0.06115544976961521, "leaf_weight": 238, "leaf_count": 238}}}}, "right_child": {"split_index": 1, "split_feature": 0, "split_gain": 125.49700164794922, "threshold": 5.83080005645752, "decision_type": "<=", "default_left": true, "missing_type": "None", "internal_value": 0.0146505, "internal_weight": 7782, "internal_count": 7782, "left_child": {"split_index": 2, "split_feature": 5, "split_gain": 102.71099853515625, "threshold": 2.065373778343201, "decision_type": "<=", "default_left": true, "missing_type": "None", "internal_value": 0.00694543, "internal_weight": 5688, "internal_count": 5688, "left_child": {"split_index": 8, "split_feature": 1, "split_gain": 63.252899169921875, "threshold": 17.500000000000004, "decision_type": "<=", "default_left": true, "missing_type": "None", "internal_value": 0.0513604, "internal_weight": 477, "internal_count": 477, "left_child": {"leaf_index": 1, "leaf_value": -0.004571453332376313, "leaf_weight": 142, "leaf_count": 142}, "right_child": {"leaf_index": 9, "leaf_value": 0.0750688498631839, "leaf_weight": 335, "leaf_count": 335}}, "right_child": {"split_index": 7, "split_feature": 7, "split_gain": 64.8552017211914, "threshold": -122.33499908447264, "decision_type": "<=", "default_left": true, "missing_type": "None", "internal_value": 0.00287981, "internal_weight": 5211, "internal_count": 5211, "left_child": {"leaf_index": 3, "leaf_value": 0.03925566514036681, "leaf_weight": 448, "leaf_count": 448}, "right_child": {"leaf_index": 8, "leaf_value": -0.0005416479476372085, "leaf_weight": 4763, "leaf_count": 4763}}}, "right_child": {"split_index": 9, "split_feature": 3, "split_gain": 32.78799819946289, "threshold": 1.0396863818168642, "decision_type": "<=", "default_left": true, "missing_type": "None", "internal_value": 0.0355802, "internal_weight": 2094, "internal_count": 2094, "left_child": {"split_index": 10, "split_feature": 0, "split_gain": 31.604400634765625, "threshold": 8.445449829101564, "decision_type": "<=", "default_left": true, "missing_type": "None", "internal_value": 0.0256215, "internal_weight": 1282, "internal_count": 1282, "left_child": {"leaf_index": 2, "leaf_value": 0.017759432293957374, "leaf_weight": 1025, "leaf_count": 1025}, "right_child": {"leaf_index": 11, "leaf_value": 0.05697779928620339, "leaf_weight": 257, "leaf_count": 257}}, "right_child": {"split_index": 13, "split_feature": 5, "split_gain": 22.982099533081055, "threshold": 2.5827177762985234, "decision_type": "<=", "default_left": true, "missing_type": "None", "internal_value": 0.0513032, "internal_weight": 812, "internal_count": 812, "left_child": {"leaf_index": 10, "leaf_value": 0.07487713222589044, "leaf_weight": 274, "leaf_count": 274}, "right_child": {"leaf_index": 14, "leaf_value": 0.03929710985670087, "leaf_weight": 538, "leaf_count": 538}}}}}}, {"tree_index": 17, "num_leaves": 16, "num_cat": 0, "shrinkage": 0.1, "tree_structure": {"split_index": 0, "split_feature": 0, "split_gain": 261.4880065917969, "threshold": 4.6754000186920175, "decision_type": "<=", "default_left": true, "missing_type": "None", "internal_value": 3.22331e-12, "internal_weight": 16512, "internal_count": 16512, "left_child": {"split_index": 1, "split_feature": 7, "split_gain": 105.14399719238281, "threshold": -117.77499771118163, "decision_type": "<=", "default_left": true, "missing_type": "None", 