{"learner":{"attributes":{},"feature_names":[],"feature_types":[],"gradient_booster":{"model":{"gbtree_model_param":{"num_parallel_tree":"1","num_trees":"80"},"iteration_indptr":[0,4,8,12,16,20,24,28,32,36,40,44,48,52,56,60,64,68,72,76,80],"tree_info":[0,1,2,3,0,1,2,3,0,1,2,3,0,1,2,3,0,1,2,3,0,1,2,3,0,1,2,3,0,1,2,3,0,1,2,3,0,1,2,3,0,1,2,3,0,1,2,3,0,1,2,3,0,1,2,3,0,1,2,3,0,1,2,3,0,1,2,3,0,1,2,3,0,1,2,3,0,1,2,3],"trees":[{"base_weights":[-1.1303084E-3,8.0453974E-1,-3.8038704E-1,2.8903112E-1,1.1824243E0,-2.2745883E-2,-5.533489E-1,7.161894E-1,-1.825E-1,1.4692508E0,7.739383E-1,-3.9945373E-1,4.0653569E-1,-5.648066E-1,3.772242E-1,7.2289156E-3,1.1010422E-1,-2.908012E-2,3.90625E-2,1.12364426E-1,1.646459E-1,3.313253E-2,1.009308E-1,-4.5524295E-2,3.877551E-2,-0E0,6.278162E-2,-5.695909E-2,1.4285715E-1,-1.1764706E-2,1.0588236E-1],"categories":[],"categories_nodes":[],"categories_segments":[],"categories_sizes":[],"default_left":[0,0,0,0,0,0,0,0,0,0,0,0,0,0,0,0,0,0,0,0,0,0,0,0,0,0,0,0,0,0,0],"id":0,"left_children":[1,3,5,7,9,11,13,15,17,19,21,23,25,27,29,-1,-1,-1,-1,-1,-1,-1,-1,-1,-1,-1,-1,-1,-1,-1,-1],"loss_changes":[1.8926129E3,3.8585474E2,2.6050354E2,1.69297E2,1.3285535E2,2.2233685E2,3.0479065E1,1.09172226E2,2.494164E1,3.9229614E1,4.9032806E1,3.2335304E1,5.7809517E1,2.7559937E1,1.1972366E1,0E0,0E0,0E0,0E0,0E0,0E0,0E0,0E0,0E0,0E0,0E0,0E0,0E0,0E0,0E0,0E0],"parents":[2147483647,0,0,1,1,2,2,3,3,4,4,5,5,6,6,7,7,8,8,9,9,10,10,11,11,12,12,13,13,14,14],"right_children":[2,4,6,8,10,12,14,16,18,20,22,24,26,28,30,-1,-1,-1,-1,-1,-1,-1,-1,-1,-1,-1,-1,-1,-1,-1,-1],"split_conditions":[2.8378E0,4.274194E0,3.7E0,2.1287E0,2.3687E0,5.009709E0,3.904E1,3.4459016E0,-1.1778E2,3.529E1,3.468E1,3.796E1,3.434E1,-1.1617E2,2.1E1,7.2289156E-3,1.1010422E-1,-2.908012E-2,3.90625E-2,1.12364426E-1,1.646459E-1,3.313253E-2,1.009308E-1,-4.5524295E-2,3.877551E-2,-0E0,6.278162E-2,-5.695909E-2,1.4285715E-1,-1.1764706E-2,1.0588236E-1],"split_indices":[0,2,0,0,0,2,6,2,7,6,6,6,6,7,1,0,0,0,0,0,0,0,0,0,0,0,0,0,0,0,0],"split_type":[0,0,0,0,0,0,0,0,0,0,0,0,0,0,0,0,0,0,0,0,0,0,0,0,0,0,0,0,0,0,0],"sum_hessian":[6.192E3,1.9815E3,4.2105E3,8.38875E2,1.142625E3,1.372875E3,2.837625E3,4.39875E2,3.99E2,6.6975E2,4.72875E2,7.3125E2,6.41625E2,2.8035E3,3.4125E1,1.65E2,2.74875E2,3.36E2,6.3E1,2.295E2,4.4025E2,1.65E2,3.07875E2,6.8325E2,4.8E1,2.265E2,4.15125E2,2.7975E3,6E0,2.025E1,1.3875E1],"tree_param":{"num_deleted":"0","num_feature":"8","num_nodes":"31","size_leaf_vector":"1"}},{"base_weights":[-1.6147263E-3,1.3648078E-1,-5.001861E-1,-4.2492356E-2,4.670237E-1,-2.9096127E-1,-5.999175E-1,-1.6228178E-1,1.7598924E-1,2.1074231E-1,8.629062E-1,-3.739942E-1,3.834197E-1,-6.1660314E-1,-3.4273317E-1,-3.8273007E-2,-2.7879388E-3,2.9856408E-2,-4.098255E-2,6.4070106E-2,6.89213E-3,1.1982838E-1,3.3825632E-2,-4.831758E-2,2.4680851E-2,-3.1578947E-2,8.099174E-2,-6.27363E-2,-4.931507E-2,-4.0000003E-2,6.2068965E-2],"categories":[],"categories_nodes":[],"categories_segments":[],"categories_sizes":[],"default_left":[0,0,0,0,0,0,0,0,0,0,0,0,0,0,0,0,0,0,0,0,0,0,0,0,0,0,0,0,0,0,0],"id":1,"left_children":[1,3,5,7,9,11,13,15,17,19,21,23,25,27,29,-1,-1,-1,-1,-1,-1,-1,-1,-1,-1,-1,-1,-1,-1,-1,-1],"loss_changes":[4.264592E2,2.8696716E2,2.7859283E1,8.2407524E1,1.7268878E2,2.4536583E1,3.6889038E0,6.0239456E1,8.019518E1,6.310534E1,1.1735312E2,2.6443394E1,1.4644449E1,8.226929E-1,3.4275718E0,0E0,0E0,0E0,0E0,0E0,0E0,0E0,0E0,0E0,0E0,0E0,0E0,0E0,0E0,0E0,0E0],"parents":[2147483647,0,0,1,1,2,2,3,3,4,4,5,5,6,6,7,7,8,8,9,9,10,10,11,11,12,12,13,13,14,14],"right_children":[2,4,6,8,10,12,14,16,18,20,22,24,26,28,30,-1,-1,-1,-1,-1,-1,-1,-1,-1,-1,-1,-1,-1,-1,-1,-1],"split_conditions":[5.0253E0,-1.1822E2,5.5942E0,3.779E1,3.1961539E0,3.799E1,3.797E1,2.6309178E0,3.941E1,3.314E1,-1.1784E2,-1.1762E2,-1.2207E2,-1.1732E2,3.6529968E0,-3.8273007E-2,-2.7879388E-3,2.9856408E-2,-4.098255E-2,6.4070106E-2,6.89213E-3,1.1982838E-1,3.3825632E-2,-4.831758E-2,2.4680851E-2,-3.1578947E-2,8.099174E-2,-6.27363E-2,-4.931507E-2,-4.0000003E-2,6.2068965E-2],"split_indices":[0,7,0,6,5,6,6,5,6,6,7,7,7,7,5,0,0,0,0,0,0,0,0,0,0,0,0,0,0,0,0],"split_type":[0,0,0,0,0,0,0,0,0,0,0,0,0,0,0,0,0,0,0,0,0,0,0,0,0,0,0,0,0,0,0],"sum_hessian":[6.192E3,4.8495E3,1.3425E3,3.146625E3,1.702875E3,4.34625E2,9.07875E2,2.0325E3,1.114125E3,1.034625E3,6.6825E2,3.87375E2,4.725E1,8.5125E2,5.6625E1,7.69125E2,1.263375E3,9.2175E2,1.92375E2,2.5575E2,7.78875E2,4.06875E2,2.61375E2,3.29625E2,5.775E1,1.8E1,2.925E1,7.7925E2,7.2E1,5.4E1,2.625E0],"tree_param":{"num_deleted":"0","num_feature":"8","num_nodes":"31","size_leaf_vector":"1"}},{"base_weights":[6.4589054E-4,-3.2650265E-1,1.5744694E-1,-1.1679521E-1,-4.6343976E-1,2.5548422E-1,-4.954296E-1,8.955224E-2,-4.551495E-1,-5.949749E-1,-3.7155804E-1,3.32198E-1,-1.0413476E-2,-1.9178082E-1,-5.4105264E-1,-2.114144E-2,4.008222E-2,3.0985916E-2,-4.7675908E-2,-3.3492826E-2,-6.080974E-2,-8.665511E-3,-4.4250872E-2,4.1507013E-2,-6.261135E-3,-1.9087965E-2,2.7643565E-2,-3.0458717E-2,1.14893615E-1,-3.9864864E-2,-6.0365856E-2],"categories":[],"categories_nodes":[],"categories_segments":[],"categories_sizes":[],"default_left":[0,0,0,0,0,0,0,0,0,0,0,0,0,0,0,0,0,0,0,0,0,0,0,0,0,0,0,0,0,0,0],"id":2,"left_children":[1,3,5,7,9,11,13,15,17,19,21,23,25,27,29,-1,-1,-1,-1,-1,-1,-1,-1,-1,-1,-1,-1,-1,-1,-1,-1],"loss_changes":[3.1773514E2,5.7576782E1,2.6812872E2,5.5485413E1,1.44479065E1,7.427516E1,7.4740295E0,4.6375298E1,5.123707E0,1.4940338E0,1.4460182E1,9.248489E1,4.230722E1,1.1390571E1,3.9941406E0,0E0,0E0,0E0,0E0,0E0,0E0,0E0,0E0,0E0,0E0,0E0,0E0,0E0,0E0,0E0,0E0],"parents":[2147483647,0,0,1,1,2,2,3,3,4,4,5,5,6,6,7,7,8,8,9,9,10,10,11,11,12,12,13,13,14,14],"right_children":[2,4,6,8,10,12,14,16,18,20,22,24,26,28,30,-1,-1,-1,-1,-1,-1,-1,-1,-1,-1,-1,-1,-1,-1,-1,-1],"split_conditions":[2.8594E0,4.2060304E0,6.3525E0,3.551635E0,2.1458E0,3.774E1,6.5891E0,2.1287E0,2.2291667E0,1.9127358E0,2.3207223E0,-1.1757E2,4.1514E0,-1.172E2,1.8E1,-2.114144E-2,4.008222E-2,3.0985916E-2,-4.7675908E-2,-3.3492826E-2,-6.080974E-2,-8.665511E-3,-4.4250872E-2,4.1507013E-2,-6.261135E-3,-1.9087965E-2,2.7643565E-2,-3.0458717E-2,1.14893615E-1,-3.9864864E-2,-6.0365856E-2],"split_indices":[0,2,0,5,0,6,0,0,2,5,5,7,0,7,1,0,0,0,0,0,0,0,0,0,0,0,0,0,0,0,0],"split_type":[0,0,0,0,0,0,0,0,0,0,0,0,0,0,0,0,0,0,0,0,0,0,0,0,0,0,0,0,0,0,0],"sum_hessian":[6.192E3,2.005875E3,4.186125E3,7.93125E2,1.21275E3,3.640125E3,5.46E2,4.93125E2,3E2,4.965E2,7.1625E2,2.824875E3,8.1525E2,7.2E1,4.74E2,2.50875E2,2.4225E2,7.875E0,2.92125E2,2.5125E1,4.71375E2,1.4325E2,5.73E2,2.33475E3,4.90125E2,5.00625E2,3.14625E2,6.7125E1,4.875E0,1.47E2,3.27E2],"tree_param":{"num_deleted":"0","num_feature":"8","num_nodes":"31","size_leaf_vector":"1"}},{"base_weights":[2.0991443E-3,-2.4971028E-1,1.4663732E0,2.4058501E-1,-4.2074707E-1,9.6383053E-1,1.7970749E0,-2.1249194E-1,8.344595E-1,-5.179951E-1,2.7142856E-2,1.4132712E0,3.101425E-1,1.8224344E0,1.1752577E0,-2.8763183E-3,-5.859375E-2,1.5108451E-2,1.1006751E-1,-1.2658228E-2,-5.4751962E-2,4.1463416E-2,-3.1367294E-2,1.5275796E-1,4.0000003E-2,3.7534E-2,-4.489796E-2,1.8699366E-1,1.4938489E-1,-1.5384616E-2,1.3181819E-1],"categories":[],"categories_nodes":[],"categories_segments":[],"categories_sizes":[],"default_left":[0,0,0,0,0,0,0,0,0,0,0,0,0,0,0,0,0,0,0,0,0,0,0,0,0,0,0,0,0,0,0],"id":3,"left_children":[1,3,5,7,9,11,13,15,17,19,21,23,25,27,29,-1,-1,-1,-1,-1,-1,-1,-1,-1,-1,-1,-1,-1,-1,-1,-1],"loss_changes":[2.2838367E3,4.4330408E2,1.4931567E2,3.6813165E2,1.7069531E2,1.0617218E2,6.4837646E0,5.3260902E1,1.0753339E2,3.7137512E1,9.2574265E1,2.4262451E1,7.54914E0,5.381592E0,4.809349E0,0E0,0E0,0E0,0E0,0E0,0E0,0E0,0E0,0E0,0E0,0E0,0E0,0E0,0E0,0E0,0E0],"parents":[2147483647,0,0,1,1,2,2,3,3,4,4,5,5,6,6,7,7,8,8,9,9,10,10,11,11,12,12,13,13,14,14],"right_children":[2,4,6,8,10,12,14,16,18,20,22,24,26,28,30,-1,-1,-1,-1,-1,-1,-1,-1,-1,-1,-1,-1,-1,-1,-1,-1],"split_conditions":[5.5942E0,2.4149444E0,6.3525E0,3.3427E0,4.5417E0,2.9836957E0,3.797E1,3.782E1,2E1,-1.2236E2,2.9310346E0,3.796E1,3.799E1,-1.177E2,5.9307117E0,-2.8763183E-3,-5.859375E-2,1.5108451E-2,1.1006751E-1,-1.2658228E-2,-5.4751962E-2,4.1463416E-2,-3.1367294E-2,1.5275796E-1,4.0000003E-2,3.7534E-2,-4.489796E-2,1.8699366E-1,1.4938489E-1,-1.5384616E-2,1.3181819E-1],"split_indices":[0,5,0,0,0,5,6,6,1,7,5,6,6,7,2,0,0,0,0,0,0,0,0,0,0,0,0,0,0,0,0],"split_type":[0,0,0,0,0,0,0,0,0,0,0,0,0,0,0,0,0,0,0,0,0,0,0,0,0,0,0,0,0,0,0],"sum_hessian":[6.192E3,5.284125E3,9.07875E2,1.3665E3,3.917625E3,3.61875E2,5.46E2,7.755E2,5.91E2,3.218625E3,6.99E2,2.1375E2,1.48125E2,5.2275E2,2.325E1,5.205E2,2.55E2,1.66125E2,4.24875E2,2.26125E2,2.9925E3,3.27E2,3.72E2,1.91625E2,2.2125E1,1.36875E2,1.125E1,4.52625E2,7.0125E1,2.25E0,2.1E1],"tree_param":{"num_deleted":"0","num_feature":"8","num_nodes":"31","size_leaf_vector":"1"}},{"base_weights":[-1.3972624E-3,6.3308185E-1,-4.152264E-1,2.376243E-1,9.885455E-1,-1.7087175E-1,-5.906195E-1,-1.2503582E-1,8.526323E-1,5.1376086E-1,1.3065133E0,-3.94188E-1,1.7407365E-1,-5.954357E-1,1.1880878E0,2.3187635E-2,-5.501401E-2,4.240362E-2,1.2840888E-1,1.8822838E-3,1.5017523E-1,1.102243E-1,1.65439E-1,-4.5247313E-2,2.0071661E-2,5.7370212E-2,-1.2220963E-3,-6.018285E-2,2.3903202E-2,1.404936E-1,3.451541E-2],"categories":[],"categories_nodes":[],"categories_segments":[],"categories_sizes":[],"default_left":[0,0,0,0,0,0,0,0,0,0,0,0,0,0,0,0,0,0,0,0,0,0,0,0,0,0,0,0,0,0,0],"id":4,"left_children":[1,3,5,7,9,11,13,15,17,19,21,23,25,27,29,-1,-1,-1,-1,-1,-1,-1,-1,-1,-1,-1,-1,-1,-1,-1,-1],"loss_changes":[1.6240042E3,3.4298785E2,1.6033807E2,2.5818802E2,1.9339917E2,1.2067273E2,1.937268E1,1.1069885E2,7.885162E1,2.5291032E2,5.284082E1,3.3054718E1,4.5864418E1,1.173938E1,6.515808E-1,0E0,0E0,0E0,0E0,0E0,0E0,0E0,0E0,0E0,0E0,0E0,0E0,0E0,0E0,0E0,0E0],"parents":[2147483647,0,0,1,1,2,2,3,3,4,4,5,5,6,6,7,7,8,8,9,9,10,10,11,11,12,12,13,13,14,14],"right_children":[2,4,6,8,10,12,14,16,18,20,22,24,26,28,30,-1,-1,-1,-1,-1,-1,-1,-1,-1,-1,-1,-1,-1,-1,-1,-1],"split_conditions":[3.0714E0,3.451E1,4.125E0,-1.178E2,-1.2166E2,5.345133E0,-1.1617E2,3.403E1,3.349E1,3.864E1,-1.1985E2,3.797E1,3.4375E0,3.904E1,1.0588236E0,2.3187635E-2,-5.501401E-2,4.240362E-2,1.2840888E-1,1.8822838E-3,1.5017523E-1,1.102243E-1,1.65439E-1,-4.5247313E-2,2.0071661E-2,5.7370212E-2,-1.2220963E-3,-6.018285E-2,2.3903202E-2,1.404936E-1,3.451541E-2],"split_indices":[0,6,0,7,7,2,7,6,6,6,7,6,0,6,3,0,0,0,0,0,0,0,0,0,0,0,0,0,0,0,0],"split_type":[0,0,0,0,0,0,0,0,0,0,0,0,0,0,0,0,0,0,0,0,0,0,0,0,0,0,0,0,0,0,0],"sum_hessian":[6.183128E3,2.4406365E3,3.7424915E3,1.1561141E3,1.2845222E3,1.5646383E3,2.177853E3,7.277617E2,4.2835248E2,5.1626263E2,7.682596E2,9.49678E2,6.149604E2,2.1726355E3,5.2175665E0,3.958585E2,3.3190323E2,2.1588327E2,2.1246921E2,3.446353E2,1.7162732E2,4.866632E2,2.8159637E2,8.651548E2,8.4523186E1,1.9486584E2,4.2009454E2,2.1563943E3,1.6241236E1,3.6196702E0,1.5978963E0],"tree_param":{"num_deleted":"0","num_feature":"8","num_nodes":"31","size_leaf_vector":"1"}},{"base_weights":[-1.0252426E-3,1.2679102E-1,-4.8318353E-1,-3.9966136E-2,4.2542166E-1,-3.0865377E-1,-6.0000825E-1,-1.5550382E-1,1.675695E-1,1.9457853E-1,7.6901364E-1,-3.9009455E-1,3.301634E-1,-6.01235E-1,1.5406151E-2,-3.6768213E-2,-2.9532972E-3,2.7977481E-2,-3.927915E-2,3.5268962E-3,5.228516E-2,1.0530988E-1,3.0552438E-2,-4.8507858E-2,1.4282832E-2,-3.25567E-2,7.172892E-2,-6.0995456E-2,-4.4697285E-2],"categories":[],"categories_nodes":[],"categories_segments":[],"categories_sizes":[],"default_left":[0,0,0,0,0,0,0,0,0,0,0,0,0,0,0,0,0,0,0,0,0,0,0,0,0,0,0,0,0],"id":5,"left_children":[1,3,5,7,9,11,13,15,17,19,21,23,25,27,-1,-1,-1,-1,-1,-1,-1,-1,-1,-1,-1,-1,-1,-1,-1],"loss_changes":[3.8121158E2,2.4351062E2,2.6243103E1,7.528031E1,1.3881989E2,2.727528E1,8.098755E-1,5.388917E1,7.07099E1,5.485891E1,9.234311E1,2.3518509E1,1.5348064E1,7.688904E-1,0E0,0E0,0E0,0E0,0E0,0E0,0E0,0E0,0E0,0E0,0E0,0E0,0E0,0E0,0E0],"parents":[2147483647,0,0,1,1,2,2,3,3,4,4,5,5,6,6,7,7,8,8,9,9,10,10,11,11,12,12,13,13],"right_children":[2,4,6,8,10,12,14,16,18,20,22,24,26,28,-1,-1,-1,-1,-1,-1,-1,-1,-1,-1,-1,-1,-1,-1,-1],"split_conditions":[5.0253E0,-1.1822E2,5.7628E0,3.779E1,3.1961539E0,3.799E1,-1.1617E2,2.6309178E0,3.941E1,-1.1719E2,-1.1784E2,-1.1765E2,-1.2207E2,3.797E1,1.5406151E-2,-3.6768213E-2,-2.9532972E-3,2.7977481E-2,-3.927915E-2,3.5268962E-3,5.228516E-2,1.0530988E-1,3.0552438E-2,-4.8507858E-2,1.4282832E-2,-3.25567E-2,7.172892E-2,-6.0995456E-2,-4.4697285E-2],"split_indices":[0,7,0,6,5,6,7,5,6,7,7,7,7,6,0,0,0,0,0,0,0,0,0,0,0,0,0,0,0],"split_type":[0,0,0,0,0,0,0,0,0,0,0,0,0,0,0,0,0,0,0,0,0,0,0,0,0,0,0,0,0],"sum_hessian":[6.183727E3,4.8885493E3,1.2951779E3,3.1374463E3,1.7511029E3,5.2078925E2,7.7438855E2,2.0155918E3,1.1218545E3,1.0483396E3,7.0276324E2,4.6224805E2,5.8541183E1,7.7333325E2,1.0553293E0,7.501545E2,1.2654374E3,9.3511096E2,1.8674358E2,7.0655756E2,3.4178207E2,4.3491803E2,2.6784518E2,3.9239957E2,6.9848465E1,2.1790503E1,3.6750683E1,7.2916364E2,4.416963E1],"tree_param":{"num_deleted":"0","num_feature":"8","num_nodes":"29","size_leaf_vector":"1"}},{"base_weights":[1.0920978E-3,-3.2767957E-1,1.3732965E-1,-1.3450761E-1,-4.6263587E-1,2.2113486E-1,-4.7636214E-1,4.9723905E-2,-4.464929E-1,-5.7596844E-1,-3.716457E-1,9.018256E-2,3.6976546E-1,-1.7351957E-1,-5.22733E-1,-1.9692017E-2,3.260998E-2,3.262815E-2,-4.696716E-2,-3.1076482E-2,-5.89552E-2,-1.8244086E-2,-4.8836205E-2,2.2903884E-2,-1.68593E-2,1.2481395E-4,5.325681E-2,-2.8521344E-2,1.0663942E-1,-3.456337E-2,-5.742235E-2],"categories":[],"categories_nodes":[],"categories_segments":[],"categories_sizes":[],"default_left":[0,0,0,0,0,0,0,0,0,0,0,0,0,0,0,0,0,0,0,0,0,0,0,0,0,0,0,0,0,0,0],"id":6,"left_children":[1,3,5,7,9,11,13,15,17,19,21,23,25,27,29,-1,-1,-1,-1,-1,-1,-1,-1,-1,-1,-1,-1,-1,-1,-1,-1],"loss_changes":[2.7711758E2,4.7192535E1,2.2507626E2,4.2953743E1,1.0785919E1,7.488902E1,7.2944107E0,3.213748E1,5.122246E0,1.5214691E0,1.3039185E1,7.3618164E1,1.08151276E2,1.0182437E1,3.9557724E0,0E0,0E0,0E0,0E0,0E0,0E0,0E0,0E0,0E0,0E0,0E0,0E0,0E0,0E0,0E0,0E0],"parents":[2147483647,0,0,1,1,2,2,3,3,4,4,5,5,6,6,7,7,8,8,9,9,10,10,11,11,12,12,13,13,14,14],"right_children":[2,4,6,8,10,12,14,16,18,20,22,24,26,28,30,-1,-1,-1,-1,-1,-1,-1,-1,-1,-1,-1,-1,-1,-1,-1,-1],"split_conditions":[2.7431E0,4.2060304E0,6.3525E0,3.5663266E0,2.1458E0,4.0893E0,6.5891E0,2.1287E0,2.2291667E0,1.9127358E0,3.542E1,5.345133E0,2.5831532E0,-1.172E2,1.6E1,-1.9692017E-2,3.260998E-2,3.262815E-2,-4.696716E-2,-3.1076482E-2,-5.89552E-2,-1.8244086E-2,-4.8836205E-2,2.2903884E-2,-1.68593E-2,1.2481395E-4,5.325681E-2,-2.8521344E-2,1.0663942E-1,-3.456337E-2,-5.742235E-2],"split_indices":[0,2,0,5,0,0,0,0,2,5,6,2,5,7,1,0,0,0,0,0,0,0,0,0,0,0,0,0,0,0,0],"split_type":[0,0,0,0,0,0,0,0,0,0,0,0,0,0,0,0,0,0,0,0,0,0,0,0,0,0,0,0,0,0,0],"sum_hessian":[6.1848916E3,1.8116266E3,4.373265E3,7.459274E2,1.0656991E3,3.8483743E3,5.2489087E2,4.6951385E2,2.764136E2,4.7220975E2,5.934894E2,2.0467096E3,1.8016647E3,7.032812E1,4.5456274E2,2.4825394E2,2.2125992E2,7.6685424E0,2.6874506E2,2.417123E1,4.480385E2,2.2740851E2,3.660809E2,1.3320568E3,7.1465283E2,5.5235986E2,1.2493048E3,6.52227E1,5.105416E0,1.04128845E2,3.504339E2],"tree_param":{"num_deleted":"0","num_feature":"8","num_nodes":"31","size_leaf_vector":"1"}},{"base_weights":[1.3299602E-3,-2.62672E-1,1.1411202E0,2.9772198E-1,-4.081217E-1,7.4181366E-1,1.5041013E0,-1.759143E-1,8.0747896E-1,-5.403955E-1,-1.3353889E-1,1.0857174E0,9.409282E-2,1.366503E0,1.5904037E0,7.3455524E-4,-5.671785E-2,1.1751556E-2,1.08538285E-1,-5.5934753E-2,-1.688986E-2,1.6560411E-2,-4.3149512E-2,6.409971E-2,1.300421E-1,-1.3687822E-2,3.2263342E-2,1.4104323E-1,5.2738912E-2,4.61515E-3,1.595572E-1],"categories":[],"categories_nodes":[],"categories_segments":[],"categories_sizes":[],"default_left":[0,0,0,0,0,0,0,0,0,0,0,0,0,0,0,0,0,0,0,0,0,0,0,0,0,0,0,0,0,0,0],"id":7,"left_children":[1,3,5,7,9,11,13,15,17,19,21,23,25,27,29,-1,-1,-1,-1,-1,-1,-1,-1,-1,-1,-1,-1,-1,-1,-1,-1],"loss_changes":[1.8614663E3,4.0952527E2,1.6750745E2,2.5017691E2,1.447796E2,1.23737915E2,5.052002E0,3.8554623E1,9.55448E1,1.8853577E1,1.15758514E2,3.38313E1,1.0279595E1,8.162933E0,2.8619385E0,0E0,0E0,0E0,0E0,0E0,0E0,0E0,0E0,0E0,0E0,0E0,0E0,0E0,0E0,0E0,0E0],"parents":[2147483647,0,0,1,1,2,2,3,3,4,4,5,5,6,6,7,7,8,8,9,9,10,10,11,11,12,12,13,13,14,14],"right_children":[2,4,6,8,10,12,14,16,18,20,22,24,26,28,30,-1,-1,-1,-1,-1,-1,-1,-1,-1,-1,-1,-1,-1,-1,-1,-1],"split_conditions":[5.3283E0,2.3019416E0,6.3525E0,3.1875E0,3.8393E0,3.0374532E0,7.2216E0,3.781E1,2E1,5.2E1,2.909091E0,2.2E1,5.7628E0,-1.172E2,1.5668104E0,7.3455524E-4,-5.671785E-2,1.1751556E-2,1.08538285E-1,-5.5934753E-2,-1.688986E-2,1.6560411E-2,-4.3149512E-2,6.409971E-2,1.300421E-1,-1.3687822E-2,3.2263342E-2,1.4104323E-1,5.2738912E-2,4.61515E-3,1.595572E-1],"split_indices":[0,5,0,0,0,5,0,6,1,1,5,1,0,7,5,0,0,0,0,0,0,0,0,0,0,0,0,0,0,0,0],"split_type":[0,0,0,0,0,0,0,0,0,0,0,0,0,0,0,0,0,0,0,0,0,0,0,0,0,0,0,0,0,0,0],"sum_hessian":[6.1841914E3,5.021796E3,1.1623953E3,1.0346008E3,3.9871953E3,5.54951E2,6.0744434E2,5.366407E2,4.9796014E2,2.6902585E3,1.2969366E3,3.620476E2,1.9290338E2,2.4062764E2,3.6681668E2,3.66133E2,1.7050772E2,1.4338791E2,3.5457224E2,2.559195E3,1.3106352E2,6.474011E2,6.495356E2,1.1917768E2,2.4286993E2,9.6141014E1,9.6762375E1,2.2801003E2,1.2617614E1,1.2566669E0,3.6556E2],"tree_param":{"num_deleted":"0","num_feature":"8","num_nodes":"31","size_leaf_vector":"1"}},{"base_weights":[-1.842808E-3,5.862732E-1,-3.905382E-1,2.3119901E-1,8.9227444E-1,-1.3360444E-1,-5.629585E-1,-1.106766E-1,7.860935E-1,4.7957772E-1,1.1584741E0,-3.5407412E-1,2.197185E-1,-5.6799525E-1,1.1550624E0,2.3427399E-2,-5.364431E-2,3.998791E-2,1.1661345E-1,2.8668053E-3,1.3165177E-1,9.868028E-2,1.4432882E-1,-4.143315E-2,2.2413528E-2,1.6045325E-2,1.2000995E-1,-5.7439715E-2,1.5380929E-2,1.3398549E-1,3.416229E-2],"categories":[],"categories_nodes":[],"categories_segments":[],"categories_sizes":[],"default_left":[0,0,0,0,0,0,0,0,0,0,0,0,0,0,0,0,0,0,0,0,0,0,0,0,0,0,0,0,0,0,0],"id":8,"left_children":[1,3,5,7,9,11,13,15,17,19,21,23,25,27,29,-1,-1,-1,-1,-1,-1,-1,-1,-1,-1,-1,-1,-1,-1,-1,-1],"loss_changes":[1.4080975E3,2.6611218E2,1.6421875E2,2.1557655E2,1.4403857E2,1.1619269E2,1.9857788E1,1.0348428E2,6.311319E1,1.9536627E2,3.7661133E1,3.2086296E1,3.3121223E1,1.0315308E1,5.668621E-1,0E0,0E0,0E0,0E0,0E0,0E0,0E0,0E0,0E0,0E0,0E0,0E0,0E0,0E0,0E0,0E0],"parents":[2147483647,0,0,1,1,2,2,3,3,4,4,5,5,6,6,7,7,8,8,9,9,10,10,11,11,12,12,13,13,14,14],"right_children":[2,4,6,8,10,12,14,16,18,20,22,24,26,28,30,-1,-1,-1,-1,-1,-1,-1,-1,-1,-1,-1,-1,-1,-1,-1,-1],"split_conditions":[3.0313E0,3.451E1,4.0282E0,-1.178E2,-1.2166E2,5.345133E0,-1.1617E2,3.403E1,3.349E1,3.864E1,-1.1985E2,3.797E1,3.941E1,3.904E1,1.0588236E0,2.3427399E-2,-5.364431E-2,3.998791E-2,1.1661345E-1,2.8668053E-3,1.3165177E-1,9.868028E-2,1.4432882E-1,-4.143315E-2,2.2413528E-2,1.6045325E-2,1.2000995E-1,-5.7439715E-2,1.5380929E-2,1.3398549E-1,3.416229E-2],"split_indices":[0,6,0,7,7,2,7,6,6,6,7,6,6,6,3,0,0,0,0,0,0,0,0,0,0,0,0,0,0,0,0],"split_type":[0,0,0,0,0,0,0,0,0,0,0,0,0,0,0,0,0,0,0,0,0,0,0,0,0,0,0,0,0,0,0],"sum_hessian":[6.1577095E3,2.4500896E3,3.7076196E3,1.1349198E3,1.3151698E3,1.489621E3,2.2179985E3,7.0274976E2,4.3217007E2,5.167851E2,7.983847E2,9.1725916E2,5.723619E2,2.2121824E3,5.8161607E0,3.8846783E2,3.1428192E2,2.15362E2,2.1680809E2,3.3651733E2,1.8026778E2,5.0092038E2,2.9746436E2,8.309465E2,8.631266E1,5.4083154E2,3.1530285E1,2.1929368E3,1.9245668E1,4.212127E0,1.6040336E0],"tree_param":{"num_deleted":"0","num_feature":"8","num_nodes":"31","size_leaf_vector":"1"}},{"base_weights":[-1.7836511E-4,1.18242145E-1,-4.668403E-1,-3.844701E-2,3.923241E-1,-2.959002E-1,-5.844926E-1,-1.3315178E-1,2.0040156E-1,2.4595672E-1,8.316994E-1,-3.7639424E-1,3.1270155E-1,-5.857719E-1,1.7039103E-2,-6.121538E-2,-8.545197E-3,-1.2906143E-2,4.861315E-2,5.5155504E-2,1.6648443E-2,1.1265321E-1,1.6035162E-2,-4.7113024E-2,1.3630248E-2,-3.127521E-2,6.638451E-2,-5.921307E-2,-3.691873E-2],"categories":[],"categories_nodes":[],"categories_segments":[],"categories_sizes":[],"default_left":[0,0,0,0,0,0,0,0,0,0,0,0,0,0,0,0,0,0,0,0,0,0,0,0,0,0,0,0,0],"id":9,"left_children":[1,3,5,7,9,11,13,15,17,19,21,23,25,27,-1,-1,-1,-1,-1,-1,-1,-1,-1,-1,-1,-1,-1,-1,-1],"loss_changes":[3.4088815E2,2.1130914E2,2.4936432E1,7.085758E1,1.1489188E2,2.5151657E1,8.1300354E-1,5.119323E1,8.379486E1,3.2547157E1,8.825647E1,2.2007324E1,1.3437392E1,7.9704285E-1,0E0,0E0,0E0,0E0,0E0,0E0,0E0,0E0,0E0,0E0,0E0,0E0,0E0,0E0,0E0],"parents":[2147483647,0,0,1,1,2,2,3,3,4,4,5,5,6,6,7,7,8,8,9,9,10,10,11,11,12,12,13,13],"right_children":[2,4,6,8,10,12,14,16,18,20,22,24,26,28,-1,-1,-1,-1,-1,-1,-1,-1,-1,-1,-1,-1,-1,-1,-1],"split_conditions":[5.0253E0,-1.1822E2,5.7628E0,3.797E1,3.6529968E0,3.799E1,-1.1617E2,-1.2234E2,2.8378E0,3.295E1,-1.1784E2,-1.1765E2,-1.2207E2,3.832E1,1.7039103E-2,-6.121538E-2,-8.545197E-3,-1.2906143E-2,4.861315E-2,5.5155504E-2,1.6648443E-2,1.1265321E-1,1.6035162E-2,-4.7113024E-2,1.3630248E-2,-3.127521E-2,6.638451E-2,-5.921307E-2,-3.691873E-2],"split_indices":[0,7,0,6,5,6,7,7,0,6,7,7,7,6,0,0,0,0,0,0,0,0,0,0,0,0,0,0,0],"split_type":[0,0,0,0,0,0,0,0,0,0,0,0,0,0,0,0,0,0,0,0,0,0,0,0,0,0,0,0,0],"sum_hessian":[6.1665435E3,4.919032E3,1.247511E3,3.1303252E3,1.7887073E3,5.100137E2,7.3749725E2,2.2418584E3,8.8846674E2,1.342909E3,4.4579822E2,4.5077542E2,5.9238293E1,7.3647314E2,1.0241039E0,2.0195831E2,2.0399001E3,4.1290823E2,4.7555853E2,2.7592856E2,1.0669805E3,3.0929053E2,1.3650768E2,3.8054034E2,7.023507E1,2.1338923E1,3.789937E1,7.137832E2,2.268998E1],"tree_param":{"num_deleted":"0","num_feature":"8","num_nodes":"29","size_leaf_vector":"1"}},{"base_weights":[1.6903392E-3,-3.4219483E-1,1.1761672E-1,-1.0733433E-1,-4.5856985E-1,1.8830986E-1,-4.581857E-1,6.2496863E-2,-4.2520702E-1,-2.3982482E-1,-5.008353E-1,6.749559E-2,3.367963E-1,-3.0940256E-1,-5.5665517E-1,1.6292013E-2,-6.414129E-2,4.4529703E-2,-4.6134E-2,-1.0790662E-2,-5.701835E-2,-4.0035978E-2,-5.691873E-2,1.5670927E-2,-3.2743007E-2,-8.65592E-3,4.529695E-2,-3.6501188E-2,5.4578252E-2,5.2339565E-2,-5.659942E-2],"categories":[],"categories_nodes":[],"categories_segments":[],"categories_sizes":[],"default_left":[0,0,0,0,0,0,0,0,0,0,0,0,0,0,0,0,0,0,0,0,0,0,0,0,0,0,0,0,0,0,0],"id":10,"left_children":[1,3,5,7,9,11,13,15,17,19,21,23,25,27,29,-1,-1,-1,-1,-1,-1,-1,-1,-1,-1,-1,-1,-1,-1,-1,-1],"loss_changes":[2.4606287E2,4.2483444E1,1.8798926E2,2.7931664E1,9.49736E0,7.37457E1,7.227234E0,2.3981703E1,5.8711853E0,7.3630943E0,5.7530823E0,7.997973E1,9.075824E1,9.871914E0,3.349121E0,0E0,0E0,0E0,0E0,0E0,0E0,0E0,0E0,0E0,0E0,0E0,0E0,0E0,0E0,0E0,0E0],"parents":[2147483647,0,0,1,1,2,2,3,3,4,4,5,5,6,6,7,7,8,8,9,9,10,10,11,11,12,12,13,13,14,14],"right_children":[2,4,6,8,10,12,14,16,18,20,22,24,26,28,30,-1,-1,-1,-1,-1,-1,-1,-1,-1,-1,-1,-1,-1,-1,-1,-1],"split_conditions":[2.6205E0,3.9507773E0,6.3525E0,3.67E0,2.232E0,4.0893E0,7.2216E0,-1.1715E2,2.2291667E0,3.854E1,3.535E1,3.794E1,2.448485E0,-1.172E2,1.6103723E0,1.6292013E-2,-6.414129E-2,4.4529703E-2,-4.6134E-2,-1.0790662E-2,-5.701835E-2,-4.0035978E-2,-5.691873E-2,1.5670927E-2,-3.2743007E-2,-8.65592E-3,4.529695E-2,-3.6501188E-2,5.4578252E-2,5.2339565E-2,-5.659942E-2],"split_indices":[0,2,0,5,5,0,0,7,2,6,6,6,5,7,5,0,0,0,0,0,0,0,0,0,0,0,0,0,0,0,0],"split_type":[0,0,0,0,0,0,0,0,0,0,0,0,0,0,0,0,0,0,0,0,0,0,0,0,0,0,0,0,0,0,0],"sum_hessian":[6.170337E3,1.5551558E3,4.615181E3,5.1590735E2,1.0392484E3,4.1111187E3,5.0406253E2,3.3677863E2,1.7912875E2,1.6936632E2,8.698821E2,2.2675818E3,1.8435371E3,2.0239485E2,3.016677E2,2.9540344E2,4.137518E1,6.687665E0,1.7244109E2,1.21982956E2,4.7383358E1,3.5495923E2,5.1492285E2,1.8502203E3,4.1736148E2,3.9701157E2,1.4465255E3,1.9057565E2,1.1819204E1,2.1142266E0,2.9955347E2],"tree_param":{"num_deleted":"0","num_feature":"8","num_nodes":"31","size_leaf_vector":"1"}},{"base_weights":[3.2772744E-4,-2.5386307E-1,9.9048877E-1,2.7522734E-1,-3.9679527E-1,6.409039E-1,1.2841197E0,-1.6264166E-1,7.2330916E-1,-5.285684E-1,-1.3952442E-1,9.685949E-1,1.18039906E-1,1.039374E0,1.3304943E0,1.2421713E-3,-5.5140387E-2,4.833537E-3,9.543696E-2,-5.4789092E-2,-1.607652E-2,1.3488724E-2,-4.2281117E-2,5.346463E-2,1.1584021E-1,4.305779E-2,-2.1142992E-3,1.1237688E-1,-1.461187E-2,1.3350314E-1,2.6729016E-2],"categories":[],"categories_nodes":[],"categories_segments":[],"categories_sizes":[],"default_left":[0,0,0,0,0,0,0,0,0,0,0,0,0,0,0,0,0,0,0,0,0,0,0,0,0,0,0,0,0,0,0],"id":11,"left_children":[1,3,5,7,9,11,13,15,17,19,21,23,25,27,29,-1,-1,-1,-1,-1,-1,-1,-1,-1,-1,-1,-1,-1,-1,-1,-1],"loss_changes":[1.5498329E3,3.70655E2,1.2829602E2,2.0470349E2,1.3072131E2,9.861394E1,6.3652344E0,3.595471E1,8.0357544E1,1.8041382E1,1.0174798E2,2.8545227E1,9.71557E0,1.1501221E1,2.3944092E0,0E0,0E0,0E0,0E0,0E0,0E0,0E0,0E0,0E0,0E0,0E0,0E0,0E0,0E0,0E0,0E0],"parents":[2147483647,0,0,1,1,2,2,3,3,4,4,5,5,6,6,7,7,8,8,9,9,10,10,11,11,12,12,13,13,14,14],"right_children":[2,4,6,8,10,12,14,16,18,20,22,24,26,28,30,-1,-1,-1,-1,-1,-1,-1,-1,-1,-1,-1,-1,-1,-1,-1,-1],"split_conditions":[5.299E0,2.3019416E0,6.2924E0,3.1875E0,3.8E0,2.9836957E0,6.5891E0,3.781E1,1.9E1,5.2E1,2.909091E0,2.1E1,3.1413794E0,-1.172E2,6.45E0,1.2421713E-3,-5.5140387E-2,4.833537E-3,9.543696E-2,-5.4789092E-2,-1.607652E-2,1.3488724E-2,-4.2281117E-2,5.346463E-2,1.1584021E-1,4.305779E-2,-2.1142992E-3,1.1237688E-1,-1.461187E-2,1.3350314E-1,2.6729016E-2],"split_indices":[0,5,0,0,0,5,0,6,1,1,5,1,5,7,5,0,0,0,0,0,0,0,0,0,0,0,0,0,0,0,0],"split_type":[0,0,0,0,0,0,0,0,0,0,0,0,0,0,0,0,0,0,0,0,0,0,0,0,0,0,0,0,0,0,0],"sum_hessian":[6.155711E3,4.8988403E3,1.2568702E3,1.0417354E3,3.8571052E3,5.752199E2,6.8165027E2,5.271942E2,5.145412E2,2.5499673E3,1.3071377E3,3.5308246E2,2.2213747E2,1.12314186E2,5.6933606E2,3.641721E2,1.6302214E2,1.315287E2,3.8301248E2,2.4222263E3,1.2774104E2,6.642358E2,6.42902E2,1.0860344E2,2.44479E2,6.779926E1,1.5433821E2,1.0489856E2,7.4156275E0,5.6666223E2,2.6738439E0],"tree_param":{"num_deleted":"0","num_feature":"8","num_nodes":"31","size_leaf_vector":"1"}},{"base_weights":[-2.3620832E-3,5.1552653E-1,-3.891707E-1,1.9784269E-1,7.825683E-1,-1.593178E-1,-5.6255203E-1,-1.2505159E-1,7.0563453E-1,4.0740967E-1,1.0206186E0,-3.6973196E-1,1.4401528E-1,-5.67607E-1,1.0506066E0,3.364555E-2,-4.0919762E-2,4.00323E-2,1.1167928E-1,-6.8695727E-4,1.15816966E-1,8.46576E-2,1.2521777E-1,-4.2804524E-2,1.8604029E-2,3.891656E-2,-9.100146E-3,-5.743866E-2,2.4666881E-2,1.2127888E-1,3.386448E-2],"categories":[],"categories_nodes":[],"categories_segments":[],"categories_sizes":[],"default_left":[0,0,0,0,0,0,0,0,0,0,0,0,0,0,0,0,0,0,0,0,0,0,0,0,0,0,0,0,0,0,0],"id":12,"left_children":[1,3,5,7,9,11,13,15,17,19,21,23,25,27,29,-1,-1,-1,-1,-1,-1,-1,-1,-1,-1,-1,-1,-1,-1,-1,-1],"loss_changes":[1.2255261E3,2.2174524E2,1.3947491E2,1.9617249E2,1.2646802E2,9.625091E1,1.687146E1,9.611522E1,5.7926056E1,1.7207036E2,3.3943726E1,2.8929337E1,3.564218E1,1.1128967E1,3.4969664E-1,0E0,0E0,0E0,0E0,0E0,0E0,0E0,0E0,0E0,0E0,0E0,0E0,0E0,0E0,0E0,0E0],"parents":[2147483647,0,0,1,1,2,2,3,3,4,4,5,5,6,6,7,7,8,8,9,9,10,10,11,11,12,12,13,13,14,14],"right_children":[2,4,6,8,10,12,14,16,18,20,22,24,26,28,30,-1,-1,-1,-1,-1,-1,-1,-1,-1,-1,-1,-1,-1,-1,-1,-1],"split_conditions":[3.0865E0,3.451E1,4.125E0,-1.178E2,-1.2166E2,5.345133E0,-1.1617E2,2.1287E0,2.9946237E0,3.864E1,-1.2017E2,3.797E1,3.6333E0,3.904E1,1.0588236E0,3.364555E-2,-4.0919762E-2,4.00323E-2,1.1167928E-1,-6.8695727E-4,1.15816966E-1,8.46576E-2,1.2521777E-1,-4.2804524E-2,1.8604029E-2,3.891656E-2,-9.100146E-3,-5.743866E-2,2.4666881E-2,1.2127888E-1,3.386448E-2],"split_indices":[0,6,0,7,7,2,7,0,5,6,7,6,0,6,3,0,0,0,0,0,0,0,0,0,0,0,0,0,0,0,0],"split_type":[0,0,0,0,0,0,0,0,0,0,0,0,0,0,0,0,0,0,0,0,0,0,0,0,0,0,0,0,0,0,0],"sum_hessian":[6.115725E3,2.6146719E3,3.5010532E3,1.1949048E3,1.4197672E3,1.5061962E3,1.9948569E3,7.3089655E2,4.6400818E2,5.522122E2,8.67555E2,8.89178E2,6.170182E2,1.9892716E3,5.58541E0,2.7845258E2,4.5244397E2,2.6741153E2,1.9659665E2,3.564882E2,1.9572403E2,4.9794763E2,3.6960736E2,8.0495E2,8.422794E1,3.016772E2,3.15341E2,1.9731378E3,1.6133703E1,3.9762E0,1.6092098E0],"tree_param":{"num_deleted":"0","num_feature":"8","num_nodes":"31","size_leaf_vector":"1"}},{"base_weights":[7.876385E-4,9.592754E-2,-5.2177906E-1,-4.7322568E-2,3.4051415E-1,-5.466185E-1,-2.0745869E-1,-1.448747E-1,1.9873703E-1,1.3863738E-1,6.3335013E-1,-5.6682235E-1,-3.488882E-1,-4.0831822E-1,3.54174E-1,-6.0373437E-2,-9.996269E-3,-1.1762971E-2,4.4472035E-2,3.5494418E-4,4.8213437E-2,9.5438816E-2,4.074887E-2,-4.8084177E-2,-5.9298515E-2,-5.261315E-2,9.912001E-2,-4.4108156E-2,5.6631323E-2,9.233137E-2,-2.0627774E-2],"categories":[],"categories_nodes":[],"categories_segments":[],"categories_sizes":[],"default_left":[0,0,0,0,0,0,0,0,0,0,0,0,0,0,0,0,0,0,0,0,0,0,0,0,0,0,0,0,0,0,0],"id":13,"left_children":[1,3,5,7,9,11,13,15,17,19,21,23,25,27,29,-1,-1,-1,-1,-1,-1,-1,-1,-1,-1,-1,-1,-1,-1,-1,-1],"loss_changes":[3.055335E2,1.8217107E2,7.276703E0,7.874976E1,1.1343878E2,3.3041687E0,8.146621E0,4.8349644E1,7.2541824E1,5.2804688E1,5.6413086E1,1.500351E0,2.04417E1,1.9330196E0,6.321573E0,0E0,0E0,0E0,0E0,0E0,0E0,0E0,0E0,0E0,0E0,0E0,0E0,0E0,0E0,0E0,0E0],"parents":[2147483647,0,0,1,1,2,2,3,3,4,4,5,5,6,6,7,7,8,8,9,9,10,10,11,11,12,12,13,13,14,14],"right_children":[2,4,6,8,10,12,14,16,18,20,22,24,26,28,30,-1,-1,-1,-1,-1,-1,-1,-1,-1,-1,-1,-1,-1,-1,-1,-1],"split_conditions":[5.3283E0,-1.1822E2,3.797E1,3.797E1,3.1961539E0,-1.1732E2,3.125E0,-1.2234E2,2.8378E0,-1.1715E2,-1.1802E2,1.7E1,3.404E1,-1.2094E2,5.7214E0,-6.0373437E-2,-9.996269E-3,-1.1762971E-2,4.4472035E-2,3.5494418E-4,4.8213437E-2,9.5438816E-2,4.074887E-2,-4.8084177E-2,-5.9298515E-2,-5.261315E-2,9.912001E-2,-4.4108156E-2,5.6631323E-2,9.233137E-2,-2.0627774E-2],"split_indices":[0,7,6,6,5,7,5,7,0,7,7,1,6,7,0,0,0,0,0,0,0,0,0,0,0,0,0,0,0,0,0],"split_type":[0,0,0,0,0,0,0,0,0,0,0,0,0,0,0,0,0,0,0,0,0,0,0,0,0,0,0,0,0,0,0],"sum_hessian":[6.1434536E3,5.1979224E3,9.4553125E2,3.2785432E3,1.9193789E3,8.755973E2,6.993394E1,2.348052E3,9.304913E2,1.1370127E3,7.823663E2,7.9273047E2,8.286684E1,5.1712658E1,1.822128E1,2.0822313E2,2.1398289E3,4.07244E2,5.232473E2,8.167985E2,3.2021414E2,3.2177365E2,4.6059262E2,1.8946326E2,6.032672E2,7.372339E1,9.143445E0,5.056045E1,1.1522088E0,8.719334E0,9.501945E0],"tree_param":{"num_deleted":"0","num_feature":"8","num_nodes":"31","size_leaf_vector":"1"}},{"base_weights":[2.3328091E-3,-3.276831E-1,1.10089764E-1,-1.0322603E-1,-4.4240665E-1,1.6915655E-1,-4.8820922E-1,7.0334524E-2,-3.8947532E-1,-2.2209722E-1,-4.855314E-1,2.7987394E-1,4.1948475E-2,-3.3641186E-1,-5.569349E-1,1.6661841E-2,-6.272864E-2,-2.032536E-2,-5.0733812E-2,-9.282555E-3,-5.5511493E-2,-3.853601E-2,-5.548296E-2,4.094031E-2,-3.7501385E-3,2.534016E-2,-3.0798921E-2,1.648421E-2,-3.9471626E-2,-5.6575127E-2,-1.9295245E-2],"categories":[],"categories_nodes":[],"categories_segments":[],"categories_sizes":[],"default_left":[0,0,0,0,0,0,0,0,0,0,0,0,0,0,0,0,0,0,0,0,0,0,0,0,0,0,0,0,0,0,0],"id":14,"left_children":[1,3,5,7,9,11,13,15,17,19,21,23,25,27,29,-1,-1,-1,-1,-1,-1,-1,-1,-1,-1,-1,-1,-1,-1,-1,-1],"loss_changes":[2.1876825E2,3.8947357E1,1.6397176E2,2.553811E1,9.409851E0,5.944577E1,4.162506E0,2.1633118E1,4.154339E0,7.087679E0,5.595978E0,9.279584E1,1.455288E2,3.9365435E0,8.069687E-1,0E0,0E0,0E0,0E0,0E0,0E0,0E0,0E0,0E0,0E0,0E0,0E0,0E0,0E0,0E0,0E0],"parents":[2147483647,0,0,1,1,2,2,3,3,4,4,5,5,6,6,7,7,8,8,9,9,10,10,11,11,12,12,13,13,14,14],"right_children":[2,4,6,8,10,12,14,16,18,20,22,24,26,28,30,-1,-1,-1,-1,-1,-1,-1,-1,-1,-1,-1,-1,-1,-1,-1,-1],"split_conditions":[2.6205E0,3.9507773E0,6.5891E0,3.551635E0,2.232E0,3.443E1,1.8E1,-1.1715E2,-1.1826E2,3.854E1,3.535E1,-1.1775E2,-1.2149E2,6.3003E0,3.8E1,1.6661841E-2,-6.272864E-2,-2.032536E-2,-5.0733812E-2,-9.282555E-3,-5.5511493E-2,-3.853601E-2,-5.548296E-2,4.094031E-2,-3.7501385E-3,2.534016E-2,-3.0798921E-2,1.648421E-2,-3.9471626E-2,-5.6575127E-2,-1.9295245E-2],"split_indices":[0,2,0,5,5,6,1,7,7,6,6,7,7,2,6,0,0,0,0,0,0,0,0,0,0,0,0,0,0,0,0],"split_type":[0,0,0,0,0,0,0,0,0,0,0,0,0,0,0,0,0,0,0,0,0,0,0,0,0,0,0,0,0,0,0],"sum_hessian":[6.1498125E3,1.5132622E3,4.6365503E3,5.1248444E2,1.00077783E3,4.2205913E3,4.1595865E2,3.1951083E2,1.929736E2,1.6483621E2,8.359416E2,2.2559192E3,1.9646722E3,1.3147008E2,2.844886E2,2.8142975E2,3.8081062E1,7.5852356E1,1.1712125E2,1.1966363E2,4.5172592E1,3.4450995E2,4.9143164E2,1.601866E3,6.540533E2,1.224832E3,7.3984033E2,1.3508417E1,1.1796166E2,2.7721945E2,7.2691417E0],"tree_param":{"num_deleted":"0","num_feature":"8","num_nodes":"31","size_leaf_vector":"1"}},{"base_weights":[-7.757943E-4,-2.4238756E-1,8.843174E-1,1.8505207E-1,-4.0931293E-1,5.8187497E-1,1.1334115E0,-1.7287609E-1,6.1225265E-1,-5.043708E-1,-1.24558195E-1,1.0141329E0,2.5782153E-1,9.234234E-1,1.17298E0,-1.0651966E-3,-5.4023784E-2,7.3450506E-2,-4.354397E-2,-1.6172636E-2,-5.3078897E-2,1.5389986E-2,-3.912369E-2,6.3874155E-2,1.1641689E-1,5.078295E-2,-1.2377107E-3,9.9603705E-2,-1.4538127E-2,1.0312537E-1,1.21203594E-1],"categories":[],"categories_nodes":[],"categories_segments":[],"categories_sizes":[],"default_left":[0,0,0,0,0,0,0,0,0,0,0,0,0,0,0,0,0,0,0,0,0,0,0,0,0,0,0,0,0,0,0],"id":15,"left_children":[1,3,5,7,9,11,13,15,17,19,21,23,25,27,29,-1,-1,-1,-1,-1,-1,-1,-1,-1,-1,-1,-1,-1,-1,-1,-1],"loss_changes":[1.3068218E3,3.4259497E2,9.80647E1,2.0636179E2,9.339325E1,8.2928604E1,4.878784E0,4.3780754E1,7.911148E1,2.334253E1,6.432638E1,1.3569183E1,2.302618E1,9.339241E0,2.0717773E0,0E0,0E0,0E0,0E0,0E0,0E0,0E0,0E0,0E0,0E0,0E0,0E0,0E0,0E0,0E0,0E0],"parents":[2147483647,0,0,1,1,2,2,3,3,4,4,5,5,6,6,7,7,8,8,9,9,10,10,11,11,12,12,13,13,14,14],"right_children":[2,4,6,8,10,12,14,16,18,20,22,24,26,28,30,-1,-1,-1,-1,-1,-1,-1,-1,-1,-1,-1,-1,-1,-1,-1,-1],"split_conditions":[5.299E0,2.4149444E0,6.2924E0,3.3427E0,4.1364E0,2.7457628E0,6.5891E0,3.782E1,3.8E1,-1.2236E2,2.9310346E0,2.1E1,3.125E0,-1.172E2,1.6E1,-1.0651966E-3,-5.4023784E-2,7.3450506E-2,-4.354397E-2,-1.6172636E-2,-5.3078897E-2,1.5389986E-2,-3.912369E-2,6.3874155E-2,1.1641689E-1,5.078295E-2,-1.2377107E-3,9.9603705E-2,-1.4538127E-2,1.0312537E-1,1.21203594E-1],"split_indices":[0,5,0,0,0,5,0,6,6,7,5,1,5,7,1,0,0,0,0,0,0,0,0,0,0,0,0,0,0,0,0],"split_type":[0,0,0,0,0,0,0,0,0,0,0,0,0,0,0,0,0,0,0,0,0,0,0,0,0,0,0,0,0,0,0],"sum_hessian":[6.1089556E3,4.799515E3,1.3094403E3,1.3478969E3,3.4516184E3,5.928978E2,7.165424E2,7.337353E2,6.1416156E2,2.5871838E3,8.644347E2,2.5312393E2,3.3977393E2,1.17470245E2,5.990722E2,5.096894E2,2.240459E2,5.502529E2,6.3908596E1,1.8570494E2,2.4014788E3,4.2308484E2,4.4134982E2,7.378083E1,1.7934311E2,1.7602396E2,1.6374997E2,1.100609E2,7.40935E0,1.3534312E2,4.6372903E2],"tree_param":{"num_deleted":"0","num_feature":"8","num_nodes":"31","size_leaf_vector":"1"}},{"base_weights":[-2.9322684E-3,4.3386805E-1,-4.0953287E-1,7.5910234E-1,2.01797E-1,-1.9180328E-1,-5.500263E-1,-6.7887143E-3,9.0492094E-1,-2.4442312E-1,4.9438313E-1,-3.961223E-1,7.3720284E-2,-5.5518574E-1,9.825123E-1,2.0422477E-2,-2.4076054E-2,3.155901E-2,9.613361E-2,-3.3307217E-2,2.2403797E-2,1.4189318E-2,6.1244078E-2,-4.4494353E-2,1.215849E-2,-2.63039E-2,2.1134427E-2,-5.6215048E-2,2.3885261E-2,1.126781E-1,3.2719437E-2],"categories":[],"categories_nodes":[],"categories_segments":[],"categories_sizes":[],"default_left":[0,0,0,0,0,0,0,0,0,0,0,0,0,0,0,0,0,0,0,0,0,0,0,0,0,0,0,0,0,0,0],"id":16,"left_children":[1,3,5,7,9,11,13,15,17,19,21,23,25,27,29,-1,-1,-1,-1,-1,-1,-1,-1,-1,-1,-1,-1,-1,-1,-1,-1],"loss_changes":[1.0767955E3,2.204613E2,9.5945984E1,1.358985E2,2.2299991E2,6.692306E1,1.5631775E1,9.706445E0,3.3681458E1,2.8178547E1,4.283365E1,1.7670425E1,2.49457E1,1.0654114E1,2.7069616E-1,0E0,0E0,0E0,0E0,0E0,0E0,0E0,0E0,0E0,0E0,0E0,0E0,0E0,0E0,0E0,0E0],"parents":[2147483647,0,0,1,1,2,2,3,3,4,4,5,5,6,6,7,7,8,8,9,9,10,10,11,11,12,12,13,13,14,14],"right_children":[2,4,6,8,10,12,14,16,18,20,22,24,26,28,30,-1,-1,-1,-1,-1,-1,-1,-1,-1,-1,-1,-1,-1,-1,-1,-1],"split_conditions":[3.225E0,2.2206E0,4.125E0,3.4459016E0,4.5315986E0,5.345133E0,-1.1617E2,1.43E3,2.0333333E0,-1.1778E2,2.4222221E0,3.799E1,3.411E1,3.904E1,1.0588236E0,2.0422477E-2,-2.4076054E-2,3.155901E-2,9.613361E-2,-3.3307217E-2,2.2403797E-2,1.4189318E-2,6.1244078E-2,-4.4494353E-2,1.215849E-2,-2.63039E-2,2.1134427E-2,-5.6215048E-2,2.3885261E-2,1.126781E-1,3.2719437E-2],"split_indices":[0,0,0,2,2,2,7,4,5,7,5,6,6,6,3,0,0,0,0,0,0,0,0,0,0,0,0,0,0,0,0],"split_type":[0,0,0,0,0,0,0,0,0,0,0,0,0,0,0,0,0,0,0,0,0,0,0,0,0,0,0,0,0,0,0],"sum_hessian":[6.0609253E3,2.9219182E3,3.139007E3,1.215789E3,1.7061294E3,1.2320319E3,1.9069751E3,1.9460542E2,1.0211835E3,6.75736E2,1.0303934E3,6.959839E2,5.36048E2,1.9012123E3,5.762853E0,1.0238974E2,9.2215675E1,8.979121E1,9.313923E2,5.6845386E2,1.07282135E2,2.5907205E2,7.713213E2,6.361352E2,5.9848717E1,1.5524924E2,3.8079874E2,1.8849706E3,1.624165E1,4.133433E0,1.6294203E0],"tree_param":{"num_deleted":"0","num_feature":"8","num_nodes":"31","size_leaf_vector":"1"}},{"base_weights":[1.8178253E-3,1.04573764E-1,-4.3789113E-1,-3.4240544E-2,3.3816501E-1,-2.7514982E-1,-5.5714405E-1,2.1497737E-1,-1.174132E-1,1.601245E-1,5.863885E-1,3.032778E-2,-4.2194983E-1,-5.667907E-1,-3.9359868E-1,-6.3813985E-3,4.2275634E-2,-3.732804E-2,-7.4656815E-3,4.6479426E-2,3.4198754E-3,7.783321E-2,2.4733936E-2,-3.5072606E-2,2.4551358E-2,-4.685578E-2,1.3423517E-2,-5.7871636E-2,-4.3253407E-2,7.3081575E-2,-4.605784E-2],"categories":[],"categories_nodes":[],"categories_segments":[],"categories_sizes":[],"default_left":[0,0,0,0,0,0,0,0,0,0,0,0,0,0,0,0,0,0,0,0,0,0,0,0,0,0,0,0,0,0,0],"id":17,"left_children":[1,3,5,7,9,11,13,15,17,19,21,23,25,27,29,-1,-1,-1,-1,-1,-1,-1,-1,-1,-1,-1,-1,-1,-1,-1,-1],"loss_changes":[2.7638474E2,1.6078902E2,2.2334366E1,6.451062E1,8.158984E1,2.2075527E1,8.303528E-1,4.5140965E1,2.5497265E1,4.1330406E1,5.00231E1,1.3256678E1,8.67868E0,7.556E-1,3.3841147E0,0E0,0E0,0E0,0E0,0E0,0E0,0E0,0E0,0E0,0E0,0E0,0E0,0E0,0E0,0E0,0E0],"parents":[2147483647,0,0,1,1,2,2,3,3,4,4,5,5,6,6,7,7,8,8,9,9,10,10,11,11,12,12,13,13,14,14],"right_children":[2,4,6,8,10,12,14,16,18,20,22,24,26,28,30,-1,-1,-1,-1,-1,-1,-1,-1,-1,-1,-1,-1,-1,-1,-1,-1],"split_conditions":[5.0253E0,-1.1822E2,5.7628E0,2E1,3.1961539E0,1.8E1,3.797E1,3.746E1,-1.2234E2,3.322E1,-1.1784E2,2.8E0,3.799E1,-1.1728E2,5.345133E0,-6.3813985E-3,4.2275634E-2,-3.732804E-2,-7.4656815E-3,4.6479426E-2,3.4198754E-3,7.783321E-2,2.4733936E-2,-3.5072606E-2,2.4551358E-2,-4.685578E-2,1.3423517E-2,-5.7871636E-2,-4.3253407E-2,7.3081575E-2,-4.605784E-2],"split_indices":[0,7,0,1,5,1,6,6,7,6,7,5,6,7,2,0,0,0,0,0,0,0,0,0,0,0,0,0,0,0,0],"split_type":[0,0,0,0,0,0,0,0,0,0,0,0,0,0,0,0,0,0,0,0,0,0,0,0,0,0,0,0,0,0,0],"sum_hessian":[6.115033E3,4.9573164E3,1.157717E3,3.1100103E3,1.847306E3,4.9098712E2,6.667299E2,7.7780786E2,2.3322024E3,1.0766874E3,7.706187E2,1.5962186E2,3.3136526E2,6.272652E2,3.946473E1,3.324413E2,4.4536655E2,3.328137E2,1.9993887E3,3.1408545E2,7.626019E2,4.9122766E2,2.7939105E2,5.7380985E1,1.02240875E2,3.0588947E2,2.5475803E1,5.7305225E2,5.4212917E1,1.6614982E0,3.7803234E1],"tree_param":{"num_deleted":"0","num_feature":"8","num_nodes":"31","size_leaf_vector":"1"}},{"base_weights":[3.0016713E-3,-3.1339166E-1,1.0304286E-1,-9.772064E-2,-4.268929E-1,1.614178E-1,-4.2384276E-1,5.4189272E-2,-3.997359E-1,-5.236752E-1,-3.233187E-1,6.699067E-2,3.0778053E-1,-2.7520594E-1,-5.2609587E-1,-1.6741518E-2,3.2758296E-2,4.180307E-2,-4.3637898E-2,-3.0505775E-2,-5.4417174E-2,-1.4639084E-2,-4.548111E-2,1.1453609E-2,-4.2909525E-2,-3.630963E-3,4.437389E-2,-3.3125006E-2,5.229165E-2,5.319653E-2,-5.362002E-2],"categories":[],"categories_nodes":[],"categories_segments":[],"categories_sizes":[],"default_left":[0,0,0,0,0,0,0,0,0,0,0,0,0,0,0,0,0,0,0,0,0,0,0,0,0,0,0,0,0,0,0],"id":18,"left_children":[1,3,5,7,9,11,13,15,17,19,21,23,25,27,29,-1,-1,-1,-1,-1,-1,-1,-1,-1,-1,-1,-1,-1,-1,-1,-1],"loss_changes":[1.9396599E2,3.5994965E1,1.4326767E2,2.3369831E1,9.496414E0,5.7917908E1,6.917343E0,2.0622152E1,5.2894115E0,2.0603485E0,1.0830406E1,6.0182526E1,7.691202E1,8.737838E0,3.2165527E0,0E0,0E0,0E0,0E0,0E0,0E0,0E0,0E0,0E0,0E0,0E0,0E0,0E0,0E0,0E0,0E0],"parents":[2147483647,0,0,1,1,2,2,3,3,4,4,5,5,6,6,7,7,8,8,9,9,10,10,11,11,12,12,13,13,14,14],"right_children":[2,4,6,8,10,12,14,16,18,20,22,24,26,28,30,-1,-1,-1,-1,-1,-1,-1,-1,-1,-1,-1,-1,-1,-1,-1,-1],"split_conditions":[2.6205E0,3.9507773E0,6.3525E0,3.67E0,2.1458E0,4.2578E0,7.2216E0,2.0556E0,2.2291667E0,2.0333333E0,3.542E1,3.855E1,2.5831532E0,-1.172E2,1.6103723E0,-1.6741518E-2,3.2758296E-2,4.180307E-2,-4.3637898E-2,-3.0505775E-2,-5.4417174E-2,-1.4639084E-2,-4.548111E-2,1.1453609E-2,-4.2909525E-2,-3.630963E-3,4.437389E-2,-3.3125006E-2,5.229165E-2,5.319653E-2,-5.362002E-2],"split_indices":[0,2,0,5,0,0,0,0,2,5,6,6,5,7,5,0,0,0,0,0,0,0,0,0,0,0,0,0,0,0,0],"split_type":[0,0,0,0,0,0,0,0,0,0,0,0,0,0,0,0,0,0,0,0,0,0,0,0,0,0,0,0,0,0,0],"sum_hessian":[6.1259893E3,1.4711506E3,4.654839E3,5.0790634E2,9.632443E2,4.191181E3,4.6365753E2,3.384771E2,1.694292E2,4.958521E2,4.6739224E2,2.5484714E3,1.6427097E3,1.904735E2,2.7318405E2,1.8715927E2,1.5131786E2,6.819936E0,1.6260927E2,4.386531E1,4.519868E2,2.0016982E2,2.6722244E2,2.3262866E3,2.2218471E2,4.654524E2,1.1772573E3,1.7852261E2,1.1950885E1,2.095638E0,2.710884E2],"tree_param":{"num_deleted":"0","num_feature":"8","num_nodes":"31","size_leaf_vector":"1"}},{"base_weights":[-1.9395758E-3,-2.5361353E-1,7.290264E-1,2.4259262E-1,-3.8655418E-1,4.1361603E-1,9.8572093E-1,-1.2098716E-1,6.125069E-1,-5.053613E-1,-1.6178963E-1,8.499605E-1,4.990943E-2,8.059457E-1,1.0524217E0,4.148461E-3,-5.293385E-2,-1.2229226E-2,7.875209E-2,-5.2470695E-2,-1.5932797E-2,-2.5699636E-2,4.7521643E-2,3.7245806E-2,9.90376E-2,2.8791336E-2,-1.894868E-2,9.6655905E-2,4.852094E-2,1.0562634E-1,1.6550982E-2],"categories":[],"categories_nodes":[],"categories_segments":[],"categories_sizes":[],"default_left":[0,0,0,0,0,0,0,0,0,0,0,0,0,0,0,0,0,0,0,0,0,0,0,0,0,0,0,0,0,0,0],"id":19,"left_children":[1,3,5,7,9,11,13,15,17,19,21,23,25,27,29,-1,-1,-1,-1,-1,-1,-1,-1,-1,-1,-1,-1,-1,-1,-1,-1],"loss_changes":[1.1131222E3,2.9700702E2,1.2506348E2,1.2807024E2,9.472449E1,1.1058121E2,9.388123E0,3.192024E1,6.0782837E1,1.5461487E1,7.466794E1,2.0873627E1,2.1776184E1,1.1651596E1,1.9355469E0,0E0,0E0,0E0,0E0,0E0,0E0,0E0,0E0,0E0,0E0,0E0,0E0,0E0,0E0,0E0,0E0],"parents":[2147483647,0,0,1,1,2,2,3,3,4,4,5,5,6,6,7,7,8,8,9,9,10,10,11,11,12,12,13,13,14,14],"right_children":[2,4,6,8,10,12,14,16,18,20,22,24,26,28,30,-1,-1,-1,-1,-1,-1,-1,-1,-1,-1,-1,-1,-1,-1,-1,-1],"split_conditions":[5.0736E0,2.2777777E0,6.091E0,3.1875E0,3.7159E0,2.7457628E0,6.5891E0,3.782E1,1.7E1,5.2E1,4.3E1,1.8E1,3.125E0,3.0088692E0,6.45E0,4.148461E-3,-5.293385E-2,-1.2229226E-2,7.875209E-2,-5.2470695E-2,-1.5932797E-2,-2.5699636E-2,4.7521643E-2,3.7245806E-2,9.90376E-2,2.8791336E-2,-1.894868E-2,9.6655905E-2,4.852094E-2,1.0562634E-1,1.6550982E-2],"split_indices":[0,5,0,0,0,5,0,6,1,1,1,1,5,5,5,0,0,0,0,0,0,0,0,0,0,0,0,0,0,0,0],"split_type":[0,0,0,0,0,0,0,0,0,0,0,0,0,0,0,0,0,0,0,0,0,0,0,0,0,0,0,0,0,0,0],"sum_hessian":[6.0487197E3,4.500006E3,1.5487136E3,9.506909E2,3.5493152E3,6.960553E2,8.526583E2,4.7979E2,4.7090094E2,2.321145E3,1.2281702E3,3.1582187E2,3.8023343E2,2.3428491E2,6.183734E2,3.438714E2,1.3591858E2,9.064167E1,3.8025928E2,2.1977585E3,1.233863E2,1.0689951E3,1.5917513E2,7.259725E1,2.4322464E2,1.9056953E2,1.8966388E2,1.5476869E2,7.951623E1,6.1551636E2,2.8570738E0],"tree_param":{"num_deleted":"0","num_feature":"8","num_nodes":"31","size_leaf_vector":"1"}},{"base_weights":[-3.58777E-3,3.9807668E-1,-3.962251E-1,6.275825E-1,1.1924889E-1,-1.8359964E-1,-5.37983E-1,7.030915E-2,7.7974725E-1,-2.875592E-1,4.1306907E-1,-4.1473693E-1,3.5034098E-2,-5.4326487E-1,9.3354183E-1,9.394081E-5,9.627952E-2,9.916303E-2,6.336697E-2,-3.620457E-2,1.6433394E-2,-1.1740109E-2,4.858325E-2,-4.620981E-2,1.4624138E-2,-4.590945E-3,5.5776983E-2,-5.504292E-2,2.3117421E-2,1.0629465E-1,3.2236192E-2],"categories":[],"categories_nodes":[],"categories_segments":[],"categories_sizes":[],"default_left":[0,0,0,0,0,0,0,0,0,0,0,0,0,0,0,0,0,0,0,0,0,0,0,0,0,0,0,0,0,0,0],"id":20,"left_children":[1,3,5,7,9,11,13,15,17,19,21,23,25,27,29,-1,-1,-1,-1,-1,-1,-1,-1,-1,-1,-1,-1,-1,-1,-1,-1],"loss_changes":[9.4690576E2,1.8985281E2,9.141611E1,1.3797266E2,1.6043391E2,6.146606E1,1.4661865E1,2.1682087E1,3.8943237E1,1.901194E1,3.0132202E1,1.5774712E1,2.6506268E1,1.0199036E1,2.0158482E-1,0E0,0E0,0E0,0E0,0E0,0E0,0E0,0E0,0E0,0E0,0E0,0E0,0E0,0E0,0E0,0E0],"parents":[2147483647,0,0,1,1,2,2,3,3,4,4,5,5,6,6,7,7,8,8,9,9,10,10,11,11,12,12,13,13,14,14],"right_children":[2,4,6,8,10,12,14,16,18,20,22,24,26,28,30,-1,-1,-1,-1,-1,-1,-1,-1,-1,-1,-1,-1,-1,-1,-1,-1],"split_conditions":[3.225E0,2.4583E0,4.125E0,3.7188406E0,4.646988E0,5.1879897E0,-1.1617E2,-1.1712E2,1.875E0,-1.178E2,2.232E0,3.797E1,3.868E1,3.904E1,1.0588236E0,9.394081E-5,9.627952E-2,9.916303E-2,6.336697E-2,-3.620457E-2,1.6433394E-2,-1.1740109E-2,4.858325E-2,-4.620981E-2,1.4624138E-2,-4.590945E-3,5.5776983E-2,-5.504292E-2,2.3117421E-2,1.0629465E-1,3.2236192E-2],"split_indices":[0,0,0,2,2,2,7,7,0,7,5,6,6,6,3,0,0,0,0,0,0,0,0,0,0,0,0,0,0,0,0],"split_type":[0,0,0,0,0,0,0,0,0,0,0,0,0,0,0,0,0,0,0,0,0,0,0,0,0,0,0,0,0,0,0],"sum_hessian":[6.0021533E3,2.9669631E3,3.0351904E3,1.6267329E3,1.3402301E3,1.2150334E3,1.820157E3,3.4922552E2,1.2775074E3,5.620568E2,7.781733E2,5.901919E2,6.248416E2,1.8142758E3,5.881299E0,3.2496796E2,2.4257544E1,5.189666E2,7.585408E2,4.8269247E2,7.936435E1,9.379107E1,6.843822E2,5.444061E2,4.5785774E1,5.418504E2,8.2991196E1,1.7979324E3,1.6343357E1,4.2436285E0,1.6376706E0],"tree_param":{"num_deleted":"0","num_feature":"8","num_nodes":"31","size_leaf_vector":"1"}},{"base_weights":[3.0498516E-3,8.5062064E-2,-4.9369657E-1,-4.2302277E-2,2.954952E-1,-5.199224E-1,-1.7795205E-1,-1.5220608E-1,1.501414E-1,1.7652248E-1,6.5005994E-1,-5.414492E-1,-3.169395E-1,-3.8950244E-1,3.1255308E-1,-3.456729E-2,-4.1048266E-3,2.3839727E-2,-3.5146676E-2,1.6120732E-3,3.1244671E-2,8.527198E-2,1.658619E-2,-5.838724E-2,-4.7690194E-2,-5.0142463E-2,9.474384E-2,-4.2522464E-2,5.6169517E-2,-3.384533E-2,7.088585E-2],"categories":[],"categories_nodes":[],"categories_segments":[],"categories_sizes":[],"default_left":[0,0,0,0,0,0,0,0,0,0,0,0,0,0,0,0,0,0,0,0,0,0,0,0,0,0,0,0,0,0,0],"id":21,"left_children":[1,3,5,7,9,11,13,15,17,19,21,23,25,27,29,-1,-1,-1,-1,-1,-1,-1,-1,-1,-1,-1,-1,-1,-1,-1,-1],"loss_changes":[2.4792021E2,1.4000195E2,7.0482635E0,6.88602E1,8.296501E1,3.3052063E0,7.1419377E0,4.454688E1,5.2480865E1,3.217626E1,4.8377228E1,1.6876221E0,1.8833778E1,1.860074E0,5.6426134E0,0E0,0E0,0E0,0E0,0E0,0E0,0E0,0E0,0E0,0E0,0E0,0E0,0E0,0E0,0E0,0E0],"parents":[2147483647,0,0,1,1,2,2,3,3,4,4,5,5,6,6,7,7,8,8,9,9,10,10,11,11,12,12,13,13,14,14],"right_children":[2,4,6,8,10,12,14,16,18,20,22,24,26,28,30,-1,-1,-1,-1,-1,-1,-1,-1,-1,-1,-1,-1,-1,-1,-1,-1],"split_conditions":[5.3283E0,-1.1822E2,3.797E1,3.779E1,3.6529968E0,-1.1732E2,3.1018634E0,2.6309178E0,3.941E1,-1.1775E2,-1.1784E2,3.461E1,3.404E1,-1.2094E2,-1.2214E2,-3.456729E-2,-4.1048266E-3,2.3839727E-2,-3.5146676E-2,1.6120732E-3,3.1244671E-2,8.527198E-2,1.658619E-2,-5.838724E-2,-4.7690194E-2,-5.0142463E-2,9.474384E-2,-4.2522464E-2,5.6169517E-2,-3.384533E-2,7.088585E-2],"split_indices":[0,7,6,6,5,7,5,5,6,7,7,6,6,7,7,0,0,0,0,0,0,0,0,0,0,0,0,0,0,0,0],"split_type":[0,0,0,0,0,0,0,0,0,0,0,0,0,0,0,0,0,0,0,0,0,0,0,0,0,0,0,0,0,0,0],"sum_hessian":[6.083503E3,5.2221597E3,8.6134326E2,3.2536763E3,1.9684835E3,7.9468945E2,6.6653755E1,2.0710928E3,1.1825836E3,1.4750383E3,4.934452E2,7.169842E2,7.770529E1,4.6712845E1,1.9940908E1,7.5497394E2,1.3161188E3,1.0060908E3,1.7649275E2,6.7711066E2,7.979277E2,3.4731592E2,1.4612929E2,4.277821E2,2.892021E2,6.833759E1,9.367702E0,4.555499E1,1.1578562E0,7.600928E0,1.233998E1],"tree_param":{"num_deleted":"0","num_feature":"8","num_nodes":"31","size_leaf_vector":"1"}},{"base_weights":[3.7655872E-3,-2.579288E-1,1.118026E-1,-8.675855E-2,-3.847886E-1,1.6620193E-1,-4.547307E-1,7.976385E-2,-3.9959252E-1,-1.3294187E-1,-4.3408296E-1,3.6940822E-1,9.482719E-2,-2.943571E-1,-5.291025E-1,-1.0191544E-2,3.956062E-2,2.0115087E-2,-4.2063016E-2,-3.917014E-2,2.6255932E-3,-4.9178272E-2,-2.9000923E-2,5.2878745E-2,7.2816783E-3,1.3329136E-2,-3.9638203E-2,-3.371522E-2,4.3028582E-2,-5.3872176E-2,-1.4893316E-2],"categories":[],"categories_nodes":[],"categories_segments":[],"categories_sizes":[],"default_left":[0,0,0,0,0,0,0,0,0,0,0,0,0,0,0,0,0,0,0,0,0,0,0,0,0,0,0,0,0,0,0],"id":22,"left_children":[1,3,5,7,9,11,13,15,17,19,21,23,25,27,29,-1,-1,-1,-1,-1,-1,-1,-1,-1,-1,-1,-1,-1,-1,-1,-1],"loss_changes":[1.7244933E2,3.866868E1,1.331269E2,3.9620537E1,1.2646851E1,5.71054E1,4.3586273E0,2.8546877E1,3.4231606E0,6.9702682E0,6.968338E0,4.8354187E1,5.5165554E1,3.9336233E0,8.6079407E-1,0E0,0E0,0E0,0E0,0E0,0E0,0E0,0E0,0E0,0E0,0E0,0E0,0E0,0E0,0E0,0E0],"parents":[2147483647,0,0,1,1,2,2,3,3,4,4,5,5,6,6,7,7,8,8,9,9,10,10,11,11,12,12,13,13,14,14],"right_children":[2,4,6,8,10,12,14,16,18,20,22,24,26,28,30,-1,-1,-1,-1,-1,-1,-1,-1,-1,-1,-1,-1,-1,-1,-1,-1],"split_conditions":[2.8594E0,4.2060304E0,6.5891E0,3.5663266E0,2.232E0,3.392E1,1.8E1,2.3333E0,2.2291667E0,2.1458E0,2.5667E0,-1.1749E2,-1.1775E2,3.796E1,3.8E1,-1.0191544E-2,3.956062E-2,2.0115087E-2,-4.2063016E-2,-3.917014E-2,2.6255932E-3,-4.9178272E-2,-2.9000923E-2,5.2878745E-2,7.2816783E-3,1.3329136E-2,-3.9638203E-2,-3.371522E-2,4.3028582E-2,-5.3872176E-2,-1.4893316E-2],"split_indices":[0,2,0,5,5,6,1,0,2,0,0,7,7,6,6,0,0,0,0,0,0,0,0,0,0,0,0,0,0,0,0],"split_type":[0,0,0,0,0,0,0,0,0,0,0,0,0,0,0,0,0,0,0,0,0,0,0,0,0,0,0,0,0,0,0],"sum_hessian":[6.097484E3,1.7813041E3,4.3161797E3,7.5894867E2,1.02235547E3,3.938688E3,3.7749182E2,4.957856E2,2.6316306E2,1.6795647E2,8.54399E2,1.0227394E3,2.9159487E3,1.21167366E2,2.5632446E2,3.1517026E2,1.8061537E2,8.614311E0,2.5454874E2,6.3417477E1,1.04538994E2,6.083491E2,2.4604987E2,6.647435E2,3.5799585E2,2.704872E3,2.110766E2,1.1491556E2,6.251813E0,2.4959209E2,6.7323656E0],"tree_param":{"num_deleted":"0","num_feature":"8","num_nodes":"31","size_leaf_vector":"1"}},{"base_weights":[-3.342714E-3,-2.4265116E-1,6.6466E-1,1.4026383E-1,-4.0524948E-1,3.797502E-1,8.958061E-1,-2.2135818E-1,4.3947822E-1,-5.08312E-1,-2.1587132E-1,7.702283E-1,4.4916693E-2,9.1903114E-1,4.4956455E-1,-7.1416E-3,-5.469498E-2,5.4344513E-2,-4.7609292E-2,-5.2581202E-2,-1.8582862E-2,3.973235E-2,-2.9624138E-2,3.347629E-2,8.968728E-2,2.6713848E-2,-1.8330488E-2,9.617036E-2,6.332812E-2,5.9717465E-2,-3.2765847E-2],"categories":[],"categories_nodes":[],"categories_segments":[],"categories_sizes":[],"default_left":[0,0,0,0,0,0,0,0,0,0,0,0,0,0,0,0,0,0,0,0,0,0,0,0,0,0,0,0,0,0,0],"id":23,"left_children":[1,3,5,7,9,11,13,15,17,19,21,23,25,27,29,-1,-1,-1,-1,-1,-1,-1,-1,-1,-1,-1,-1,-1,-1,-1,-1],"loss_changes":[9.558205E2,2.7413818E2,1.0351697E2,1.4215173E2,6.020517E1,9.254677E1,8.602844E0,2.901379E1,6.867639E1,1.1191772E1,5.3875614E1,1.7724136E1,1.9436457E1,9.462158E0,5.357669E0,0E0,0E0,0E0,0E0,0E0,0E0,0E0,0E0,0E0,0E0,0E0,0E0,0E0,0E0,0E0,0E0],"parents":[2147483647,0,0,1,1,2,2,3,3,4,4,5,5,6,6,7,7,8,8,9,9,10,10,11,11,12,12,13,13,14,14],"right_children":[2,4,6,8,10,12,14,16,18,20,22,24,26,28,30,-1,-1,-1,-1,-1,-1,-1,-1,-1,-1,-1,-1,-1,-1,-1,-1],"split_conditions":[5.0736E0,2.4222221E0,6.091E0,3.1131E0,3.7159E0,2.7457628E0,3.796E1,3.782E1,3.801E1,5.2E1,-1.222E2,1.8E1,3.125E0,-1.1768E2,3.1413794E0,-7.1416E-3,-5.469498E-2,5.4344513E-2,-4.7609292E-2,-5.2581202E-2,-1.8582862E-2,3.973235E-2,-2.9624138E-2,3.347629E-2,8.968728E-2,2.6713848E-2,-1.8330488E-2,9.617036E-2,6.332812E-2,5.9717465E-2,-3.2765847E-2],"split_indices":[0,5,0,0,0,5,6,6,6,1,7,1,5,7,5,0,0,0,0,0,0,0,0,0,0,0,0,0,0,0,0],"split_type":[0,0,0,0,0,0,0,0,0,0,0,0,0,0,0,0,0,0,0,0,0,0,0,0,0,0,0,0,0,0,0],"sum_hessian":[5.9771504E3,4.401112E3,1.5760385E3,1.3118575E3,3.0892542E3,7.0710565E2,8.6893274E2,5.941024E2,7.177551E2,1.9994429E3,1.0898114E3,3.258286E2,3.8127707E2,8.2493854E2,4.399416E1,4.0760883E2,1.8649359E2,6.4492737E2,7.2827736E1,1.8959269E3,1.0351602E2,1.2582996E2,9.6398145E2,7.423066E1,2.5159795E2,1.930914E2,1.8818568E2,7.156947E2,1.0924386E2,3.7167053E1,6.8271074E0],"tree_param":{"num_deleted":"0","num_feature":"8","num_nodes":"31","size_leaf_vector":"1"}},{"base_weights":[-4.1967034E-3,3.3161753E-1,-4.2329386E-1,5.7542163E-1,8.49561E-2,-2.2325088E-1,-5.269257E-1,1.9928185E-2,7.0467126E-1,-2.2692537E-1,4.2952278E-1,-2.781855E-1,4.3505776E-1,-5.323139E-1,8.8392735E-1,-5.9127826E-3,8.444991E-2,9.02225E-2,5.6740668E-2,-2.9031953E-2,3.0422509E-2,1.178073E-2,5.4634124E-2,-5.8263272E-2,-1.6750751E-2,-3.2836344E-2,7.4763745E-2,-5.3967845E-2,2.2184676E-2,1.0022396E-1,3.1289946E-2],"categories":[],"categories_nodes":[],"categories_segments":[],"categories_sizes":[],"default_left":[0,0,0,0,0,0,0,0,0,0,0,0,0,0,0,0,0,0,0,0,0,0,0,0,0,0,0,0,0,0,0],"id":24,"left_children":[1,3,5,7,9,11,13,15,17,19,21,23,25,27,29,-1,-1,-1,-1,-1,-1,-1,-1,-1,-1,-1,-1,-1,-1,-1,-1],"loss_changes":[8.356766E2,1.9818878E2,5.463983E1,1.1900043E2,1.7631544E2,3.2781467E1,1.3692078E1,2.051354E1,3.5953186E1,2.9092262E1,2.8317383E1,2.8010353E1,1.6937487E1,9.746368E0,1.5883827E-1,0E0,0E0,0E0,0E0,0E0,0E0,0E0,0E0,0E0,0E0,0E0,0E0,0E0,0E0,0E0,0E0],"parents":[2147483647,0,0,1,1,2,2,3,3,4,4,5,5,6,6,7,7,8,8,9,9,10,10,11,11,12,12,13,13,14,14],"right_children":[2,4,6,8,10,12,14,16,18,20,22,24,26,28,30,-1,-1,-1,-1,-1,-1,-1,-1,-1,-1,-1,-1,-1,-1,-1,-1],"split_conditions":[3.4375E0,2.4583E0,4.125E0,3.6454353E0,4.949367E0,3.868E1,-1.1617E2,-1.1715E2,1.875E0,3.792E1,3.434E1,-1.2158E2,1.5E1,3.904E1,1.0588236E0,-5.9127826E-3,8.444991E-2,9.02225E-2,5.6740668E-2,-2.9031953E-2,3.0422509E-2,1.178073E-2,5.4634124E-2,-5.8263272E-2,-1.6750751E-2,-3.2836344E-2,7.4763745E-2,-5.3967845E-2,2.2184676E-2,1.0022396E-1,3.1289946E-2],"split_indices":[0,0,0,2,2,6,7,7,0,6,6,7,1,6,3,0,0,0,0,0,0,0,0,0,0,0,0,0,0,0,0],"split_type":[0,0,0,0,0,0,0,0,0,0,0,0,0,0,0,0,0,0,0,0,0,0,0,0,0,0,0,0,0,0,0],"sum_hessian":[5.9357866E3,3.2954314E3,2.6403552E3,1.6566448E3,1.6387867E3,9.021219E2,1.7382334E3,3.129202E2,1.3437246E3,8.60371E2,7.784158E2,8.331726E2,6.894926E1,1.7322405E3,5.9929123E0,2.863907E2,2.652951E1,5.485986E2,7.95126E2,7.690378E2,9.13332E1,2.1274387E2,5.6567194E2,2.2099814E2,6.1217444E2,2.0015182E1,4.8934074E1,1.7157698E3,1.6470654E1,4.3387995E0,1.654113E0],"tree_param":{"num_deleted":"0","num_feature":"8","num_nodes":"31","size_leaf_vector":"1"}},{"base_weights":[4.2410605E-3,8.045915E-2,-4.8058313E-1,-3.9706673E-2,2.7620006E-1,-5.073886E-1,-1.6806228E-1,-1.299958E-1,1.8099807E-1,1.1327816E-1,5.032691E-1,-5.294151E-1,-3.051552E-1,-3.7438652E-1,2.8686136E-1,-5.8460444E-2,-8.758158E-3,-2.696671E-2,3.159064E-2,-1.0662089E-2,2.7866213E-2,5.471183E-2,-5.7900634E-2,-5.7354E-2,-4.6279058E-2,-4.550586E-2,1.12444416E-1,-4.1070376E-2,5.4897804E-2,-3.323658E-2,6.481522E-2],"categories":[],"categories_nodes":[],"categories_segments":[],"categories_sizes":[],"default_left":[0,0,0,0,0,0,0,0,0,0,0,0,0,0,0,0,0,0,0,0,0,0,0,0,0,0,0,0,0,0,0],"id":25,"left_children":[1,3,5,7,9,11,13,15,17,19,21,23,25,27,29,-1,-1,-1,-1,-1,-1,-1,-1,-1,-1,-1,-1,-1,-1,-1,-1],"loss_changes":[2.236027E2,1.23004425E2,6.8012238E0,6.4604774E1,7.353087E1,3.2088013E0,6.3430147E0,4.430744E1,5.7315838E1,4.2196705E1,3.973906E1,1.7363892E0,1.6943142E1,1.7726922E0,4.979587E0,0E0,0E0,0E0,0E0,0E0,0E0,0E0,0E0,0E0,0E0,0E0,0E0,0E0,0E0,0E0,0E0],"parents":[2147483647,0,0,1,1,2,2,3,3,4,4,5,5,6,6,7,7,8,8,9,9,10,10,11,11,12,12,13,13,14,14],"right_children":[2,4,6,8,10,12,14,16,18,20,22,24,26,28,30,-1,-1,-1,-1,-1,-1,-1,-1,-1,-1,-1,-1,-1,-1,-1,-1],"split_conditions":[5.3283E0,-1.1822E2,3.797E1,3.797E1,3.1961539E0,-1.1732E2,3.1018634E0,-1.2234E2,2.2652E0,-1.1775E2,-1.1667E2,3.461E1,3.406E1,-1.2094E2,-1.2214E2,-5.8460444E-2,-8.758158E-3,-2.696671E-2,3.159064E-2,-1.0662089E-2,2.7866213E-2,5.471183E-2,-5.7900634E-2,-5.7354E-2,-4.6279058E-2,-4.550586E-2,1.12444416E-1,-4.1070376E-2,5.4897804E-2,-3.323658E-2,6.481522E-2],"split_indices":[0,7,6,6,5,7,5,7,0,7,7,6,6,7,7,0,0,0,0,0,0,0,0,0,0,0,0,0,0,0,0],"split_type":[0,0,0,0,0,0,0,0,0,0,0,0,0,0,0,0,0,0,0,0,0,0,0,0,0,0,0,0,0,0,0],"sum_hessian":[6.049059E3,5.22801E3,8.2104926E2,3.239853E3,1.9881565E3,7.5561523E2,6.5434044E1,2.2995361E3,9.403169E2,1.1584604E3,8.2969604E2,6.7994086E2,7.567437E1,4.5138943E1,2.02951E1,1.951436E2,2.1043926E3,2.1640637E2,7.239105E2,4.9742535E2,6.6103516E2,7.9786444E2,3.1831606E1,4.0446094E2,2.7547992E2,6.910945E1,6.564916E0,4.396495E1,1.1739942E0,7.507622E0,1.2787477E1],"tree_param":{"num_deleted":"0","num_feature":"8","num_nodes":"31","size_leaf_vector":"1"}},{"base_weights":[4.4749063E-3,-2.4519767E-1,1.046827E-1,-8.1740946E-2,-3.696208E-1,1.5392652E-1,-4.3866888E-1,7.5286284E-2,-3.8645005E-1,-1.2131954E-1,-4.1931596E-1,3.433595E-1,8.670778E-2,-2.3783478E-1,-5.007485E-1,1.5408674E-2,-5.9817847E-2,1.835372E-2,-4.073134E-2,3.1876254E-3,-3.7454214E-2,-3.5195604E-2,-5.4816045E-2,-3.5375483E-2,3.9957818E-2,1.1774213E-2,-4.6265405E-2,1.7319734E-3,-4.359972E-2,6.691536E-2,-5.075548E-2],"categories":[],"categories_nodes":[],"categories_segments":[],"categories_sizes":[],"default_left":[0,0,0,0,0,0,0,0,0,0,0,0,0,0,0,0,0,0,0,0,0,0,0,0,0,0,0,0,0,0,0],"id":26,"left_children":[1,3,5,7,9,11,13,15,17,19,21,23,25,27,29,-1,-1,-1,-1,-1,-1,-1,-1,-1,-1,-1,-1,-1,-1,-1,-1],"loss_changes":[1.5187164E2,3.5328102E1,1.1596797E2,3.604376E1,1.21263275E1,5.055294E1,4.3719406E0,2.6497105E1,3.1207237E0,6.4507256E0,6.9401093E0,4.090246E1,5.0065624E1,4.4043603E0,2.5234299E0,0E0,0E0,0E0,0E0,0E0,0E0,0E0,0E0,0E0,0E0,0E0,0E0,0E0,0E0,0E0,0E0],"parents":[2147483647,0,0,1,1,2,2,3,3,4,4,5,5,6,6,7,7,8,8,9,9,10,10,11,11,12,12,13,13,14,14],"right_children":[2,4,6,8,10,12,14,16,18,20,22,24,26,28,30,-1,-1,-1,-1,-1,-1,-1,-1,-1,-1,-1,-1,-1,-1,-1,-1],"split_conditions":[2.8594E0,4.2060304E0,6.5891E0,3.5663266E0,2.232E0,3.392E1,1.6E1,-1.1714E2,2.2291667E0,3.788E1,3.779E1,3.275E1,-1.1762E2,1.207E3,1.5668104E0,1.5408674E-2,-5.9817847E-2,1.835372E-2,-4.073134E-2,3.1876254E-3,-3.7454214E-2,-3.5195604E-2,-5.4816045E-2,-3.5375483E-2,3.9957818E-2,1.1774213E-2,-4.6265405E-2,1.7319734E-3,-4.359972E-2,6.691536E-2,-5.075548E-2],"split_indices":[0,2,0,5,5,6,1,7,2,6,6,6,7,4,5,0,0,0,0,0,0,0,0,0,0,0,0,0,0,0,0],"split_type":[0,0,0,0,0,0,0,0,0,0,0,0,0,0,0,0,0,0,0,0,0,0,0,0,0,0,0,0,0,0,0],"sum_hessian":[6.068194E3,1.737552E3,4.330642E3,7.5169495E2,9.85857E2,3.971429E3,3.5921292E2,4.965555E2,2.5513943E2,1.6497961E2,8.208774E2,1.0390669E3,2.932362E3,8.59587E1,2.732542E2,4.452313E2,5.1324215E1,8.733824E0,2.4640561E2,1.0333665E2,6.164297E1,5.415084E2,2.79369E2,7.714708E1,9.619198E2,2.7763093E3,1.5605261E2,3.7974815E1,4.7983887E1,1.0176628E0,2.7223654E2],"tree_param":{"num_deleted":"0","num_feature":"8","num_nodes":"31","size_leaf_vector":"1"}},{"base_weights":[-4.7303233E-3,-2.321609E-1,6.096149E-1,1.3452221E-1,-3.92694E-1,3.4866473E-1,8.2226366E-1,-2.0862205E-1,4.0800902E-1,-4.9632567E-1,-2.0779379E-1,7.0786023E-1,3.579007E-2,6.641741E-1,8.8252455E-1,-6.392645E-3,-5.3540606E-2,4.184049E-3,6.484349E-2,-5.142602E-2,-1.7451376E-2,-2.8569043E-2,3.7476957E-2,8.495138E-2,3.7236907E-2,2.4301022E-2,-1.8089924E-2,9.3668215E-2,5.0915934E-2,7.1311975E-3,8.862359E-2],"categories":[],"categories_nodes":[],"categories_segments":[],"categories_sizes":[],"default_left":[0,0,0,0,0,0,0,0,0,0,0,0,0,0,0,0,0,0,0,0,0,0,0,0,0,0,0,0,0,0,0],"id":27,"left_children":[1,3,5,7,9,11,13,15,17,19,21,23,25,27,29,-1,-1,-1,-1,-1,-1,-1,-1,-1,-1,-1,-1,-1,-1,-1,-1],"loss_changes":[8.2431415E2,2.5350821E2,8.8164795E1,1.231918E2,5.728409E1,8.0603455E1,7.7738037E0,2.7507374E1,6.426876E1,1.0983032E1,4.8999275E1,1.5553925E1,1.7308933E1,9.924416E0,1.8405457E0,0E0,0E0,0E0,0E0,0E0,0E0,0E0,0E0,0E0,0E0,0E0,0E0,0E0,0E0,0E0,0E0],"parents":[2147483647,0,0,1,1,2,2,3,3,4,4,5,5,6,6,7,7,8,8,9,9,10,10,11,11,12,12,13,13,14,14],"right_children":[2,4,6,8,10,12,14,16,18,20,22,24,26,28,30,-1,-1,-1,-1,-1,-1,-1,-1,-1,-1,-1,-1,-1,-1,-1,-1],"split_conditions":[5.0736E0,2.4222221E0,6.091E0,3.1131E0,3.7159E0,2.7457628E0,6.5891E0,3.782E1,2.6E1,5.2E1,4.3E1,-1.1822E2,3.125E0,2.6575E0,1.6103723E0,-6.392645E-3,-5.3540606E-2,4.184049E-3,6.484349E-2,-5.142602E-2,-1.7451376E-2,-2.8569043E-2,3.7476957E-2,8.495138E-2,3.7236907E-2,2.4301022E-2,-1.8089924E-2,9.3668215E-2,5.0915934E-2,7.1311975E-3,8.862359E-2],"split_indices":[0,5,0,0,0,5,0,6,1,1,1,7,5,5,5,0,0,0,0,0,0,0,0,0,0,0,0,0,0,0,0],"split_type":[0,0,0,0,0,0,0,0,0,0,0,0,0,0,0,0,0,0,0,0,0,0,0,0,0,0,0,0,0,0,0],"sum_hessian":[5.8977075E3,4.304722E3,1.5929857E3,1.3108025E3,2.9939194E3,7.164454E2,8.7654034E2,5.8146936E2,7.293332E2,1.9175173E3,1.0764021E3,3.3294534E2,3.8350006E2,2.4522751E2,6.3131287E2,4.0384692E2,1.7762242E2,2.8953915E2,4.3979404E2,1.815729E3,1.0178834E2,9.498975E2,1.265046E2,2.3302408E2,9.992126E1,1.9597119E2,1.8752887E2,8.708826E1,1.5813925E2,2.9671984E0,6.2834564E2],"tree_param":{"num_deleted":"0","num_feature":"8","num_nodes":"31","size_leaf_vector":"1"}},{"base_weights":[-4.7648647E-3,3.066729E-1,-4.1069955E-1,5.5374067E-2,5.1478714E-1,-2.1254675E-1,-5.1639605E-1,-2.258365E-1,4.9731052E-1,1.7476234E-1,7.499462E-1,-3.821049E-1,-4.22056E-3,-5.2187324E-1,8.346983E-1,1.9492088E-2,-4.3195765E-2,1.8506374E-2,7.9161264E-2,-1.6479518E-2,8.714622E-2,5.794781E-2,9.8844975E-2,-3.9342385E-2,1.61555E-1,-2.9024435E-2,1.1286017E-2,-5.294701E-2,2.1762375E-2,9.422725E-2,3.0366732E-2],"categories":[],"categories_nodes":[],"categories_segments":[],"categories_sizes":[],"default_left":[0,0,0,0,0,0,0,0,0,0,0,0,0,0,0,0,0,0,0,0,0,0,0,0,0,0,0,0,0,0,0],"id":28,"left_children":[1,3,5,7,9,11,13,15,17,19,21,23,25,27,29,-1,-1,-1,-1,-1,-1,-1,-1,-1,-1,-1,-1,-1,-1,-1,-1],"loss_changes":[7.4158905E2,1.7356787E2,5.3226532E1,1.8712108E2,1.4503976E2,3.1349934E1,1.2720276E1,7.989886E1,5.3655533E1,1.7605064E2,4.305121E1,1.1699257E1,1.3403178E1,9.40686E0,1.1871815E-1,0E0,0E0,0E0,0E0,0E0,0E0,0E0,0E0,0E0,0E0,0E0,0E0,0E0,0E0,0E0,0E0],"parents":[2147483647,0,0,1,1,2,2,3,3,4,4,5,5,6,6,7,7,8,8,9,9,10,10,11,11,12,12,13,13,14,14],"right_children":[2,4,6,8,10,12,14,16,18,20,22,24,26,28,30,-1,-1,-1,-1,-1,-1,-1,-1,-1,-1,-1,-1,-1,-1,-1,-1],"split_conditions":[3.4375E0,3.444E1,4.125E0,-1.1778E2,-1.2162E2,5.40118E0,-1.1617E2,2.1287E0,3.349E1,3.868E1,-1.2006E2,-1.1689E2,3.412E1,3.904E1,1.0588236E0,1.9492088E-2,-4.3195765E-2,1.8506374E-2,7.9161264E-2,-1.6479518E-2,8.714622E-2,5.794781E-2,9.8844975E-2,-3.9342385E-2,1.61555E-1,-2.9024435E-2,1.1286017E-2,-5.294701E-2,2.1762375E-2,9.422725E-2,3.0366732E-2],"split_indices":[0,6,0,7,7,2,7,0,6,6,7,7,6,6,3,0,0,0,0,0,0,0,0,0,0,0,0,0,0,0,0],"split_type":[0,0,0,0,0,0,0,0,0,0,0,0,0,0,0,0,0,0,0,0,0,0,0,0,0,0,0,0,0,0,0],"sum_hessian":[5.863921E3,3.3183154E3,2.5456055E3,1.5037712E3,1.8145443E3,8.865575E2,1.6590479E3,9.192978E2,5.844735E2,7.4257385E2,1.0719703E3,4.882959E2,3.9826163E2,1.6529607E3,6.0871606E0,3.0228812E2,6.170097E2,2.843813E2,3.0009222E2,4.997629E2,2.4281094E2,6.271503E2,4.4482007E2,4.8634326E2,1.9526247E0,1.1524455E2,2.8301706E2,1.6364337E3,1.6527021E1,4.4177995E0,1.6693611E0],"tree_param":{"num_deleted":"0","num_feature":"8","num_nodes":"31","size_leaf_vector":"1"}},{"base_weights":[5.3696833E-3,8.888093E-2,-3.9808E-1,-2.7183753E-2,2.7596033E-1,-4.439588E-1,2.3661472E-2,1.989851E-1,-1.0477257E-1,7.103053E-1,2.0434071E-1,-4.9317744E-1,-1.24518655E-1,-4.1671497E-1,3.0288666E-1,-5.3000413E-3,3.79328E-2,-1.766397E-2,3.357371E-3,3.472611E-3,7.992449E-2,2.3040358E-2,-6.1664816E-2,-3.3381645E-2,-5.2513577E-2,-3.1382937E-2,7.243731E-2,-4.6215698E-2,6.7098446E-2,5.0821133E-2,-2.483668E-2],"categories":[],"categories_nodes":[],"categories_segments":[],"categories_sizes":[],"default_left":[0,0,0,0,0,0,0,0,0,0,0,0,0,0,0,0,0,0,0,0,0,0,0,0,0,0,0,0,0,0,0],"id":29,"left_children":[1,3,5,7,9,11,13,15,17,19,21,23,25,27,29,-1,-1,-1,-1,-1,-1,-1,-1,-1,-1,-1,-1,-1,-1,-1,-1],"loss_changes":[2.0265959E2,1.0821306E2,1.996968E1,5.4004326E1,5.921045E1,1.4566437E1,1.2687594E1,3.5744587E1,2.2786074E1,1.6176468E1,3.5220566E1,3.928711E0,2.0403835E1,2.2901425E0,7.2676888E0,0E0,0E0,0E0,0E0,0E0,0E0,0E0,0E0,0E0,0E0,0E0,0E0,0E0,0E0,0E0,0E0],"parents":[2147483647,0,0,1,1,2,2,3,3,4,4,5,5,6,6,7,7,8,8,9,9,10,10,11,11,12,12,13,13,14,14],"right_children":[2,4,6,8,10,12,14,16,18,20,22,24,26,28,30,-1,-1,-1,-1,-1,-1,-1,-1,-1,-1,-1,-1,-1,-1,-1,-1],"split_conditions":[5.0253E0,-1.1822E2,3.797E1,2E1,-1.1815E2,-1.1762E2,-1.2206E2,3.746E1,3.778E1,2.6112676E0,-1.1617E2,1.6E1,3.402E1,3.861E1,5.8752E0,-5.3000413E-3,3.79328E-2,-1.766397E-2,3.357371E-3,3.472611E-3,7.992449E-2,2.3040358E-2,-6.1664816E-2,-3.3381645E-2,-5.2513577E-2,-3.1382937E-2,7.243731E-2,-4.6215698E-2,6.7098446E-2,5.0821133E-2,-2.483668E-2],"split_indices":[0,7,6,1,7,7,7,6,6,5,7,1,6,6,0,0,0,0,0,0,0,0,0,0,0,0,0,0,0,0,0],"split_type":[0,0,0,0,0,0,0,0,0,0,0,0,0,0,0,0,0,0,0,0,0,0,0,0,0,0,0,0,0,0,0],"sum_hessian":[6.012911E3,4.9823745E3,1.0305366E3,3.0753018E3,1.9070726E3,9.2938196E2,1.01154755E2,7.8512463E2,2.290177E3,2.6868503E2,1.6383876E3,8.048314E2,1.24550514E2,3.9059757E1,6.2094994E1,3.2780402E2,4.5732062E2,1.507036E3,7.8314105E2,3.1418978E1,2.3726605E2,1.5886735E3,4.9714172E1,1.3635234E2,6.6847906E2,1.0235476E2,2.219575E1,3.80454E1,1.0143583E0,4.530018E1,1.6794817E1],"tree_param":{"num_deleted":"0","num_feature":"8","num_nodes":"31","size_leaf_vector":"1"}},{"base_weights":[5.1564225E-3,-2.7342954E-1,8.565317E-2,-1.3488515E-1,-4.2726427E-1,1.2556607E-1,-4.220367E-1,-1.3363048E-2,-3.877545E-1,-2.3086165E-1,-4.8230174E-1,2.1834898E-1,1.6500117E-2,-2.5513703E-1,-5.0239855E-1,1.4340251E-2,-2.6719937E-2,2.978214E-2,-4.1227076E-2,-1.0049186E-2,-5.3898957E-2,-2.7511848E-2,-5.035607E-2,2.7830377E-2,-2.935476E-2,2.0486273E-2,-3.0808924E-2,-4.8010447E-3,-4.2908274E-2,-5.129507E-2,-1.0963261E-2],"categories":[],"categories_nodes":[],"categories_segments":[],"categories_sizes":[],"default_left":[0,0,0,0,0,0,0,0,0,0,0,0,0,0,0,0,0,0,0,0,0,0,0,0,0,0,0,0,0,0,0],"id":30,"left_children":[1,3,5,7,9,11,13,15,17,19,21,23,25,27,29,-1,-1,-1,-1,-1,-1,-1,-1,-1,-1,-1,-1,-1,-1,-1,-1],"loss_changes":[1.3543163E2,2.8796707E1,9.499417E1,2.1928791E1,6.818184E0,4.3961685E1,4.4552116E0,1.926359E1,4.016262E0,5.659652E0,2.0629196E0,7.212713E1,1.222314E2,4.054122E0,8.954849E-1,0E0,0E0,0E0,0E0,0E0,0E0,0E0,0E0,0E0,0E0,0E0,0E0,0E0,0E0,0E0,0E0],"parents":[2147483647,0,0,1,1,2,2,3,3,4,4,5,5,6,6,7,7,8,8,9,9,10,10,11,11,12,12,13,13,14,14],"right_children":[2,4,6,8,10,12,14,16,18,20,22,24,26,28,30,-1,-1,-1,-1,-1,-1,-1,-1,-1,-1,-1,-1,-1,-1,-1,-1],"split_conditions":[2.6205E0,4.35545E0,6.5891E0,3.5991902E0,2.3207223E0,3.443E1,1.8E1,3.451E1,2.2291667E0,3.854E1,-1.2236E2,3.8648648E0,-1.2149E2,7.5177E0,3.8E1,1.4340251E-2,-2.6719937E-2,2.978214E-2,-4.1227076E-2,-1.0049186E-2,-5.3898957E-2,-2.7511848E-2,-5.035607E-2,2.7830377E-2,-2.935476E-2,2.0486273E-2,-3.0808924E-2,-4.8010447E-3,-4.2908274E-2,-5.129507E-2,-1.0963261E-2],"split_indices":[0,2,0,5,5,6,1,6,2,6,7,5,7,0,6,0,0,0,0,0,0,0,0,0,0,0,0,0,0,0,0],"split_type":[0,0,0,0,0,0,0,0,0,0,0,0,0,0,0,0,0,0,0,0,0,0,0,0,0,0,0,0,0,0,0],"sum_hessian":[6.037199E3,1.3528413E3,4.684358E3,7.127824E2,6.4005896E2,4.3436284E3,3.4072906E2,4.8213455E2,2.3064783E2,1.4123885E2,4.988201E2,2.346472E3,1.9971566E3,1.1209631E2,2.2863275E2,2.9832715E2,1.8380739E2,7.578337E0,2.230695E2,1.0017898E2,4.105987E1,4.771794E1,4.5110217E2,2.1008687E3,2.4560338E2,1.2640082E3,7.3314844E2,5.175036E1,6.0345955E1,2.2235295E2,6.279797E0],"tree_param":{"num_deleted":"0","num_feature":"8","num_nodes":"31","size_leaf_vector":"1"}},{"base_weights":[-6.1054397E-3,-2.5410184E-1,4.9135512E-1,1.8829156E-1,-3.8585973E-1,2.167924E-1,7.215505E-1,-2.2910134E-1,3.8700318E-1,4.787558E-2,-4.2563325E-1,4.717433E-1,-2.3673591E-1,5.6595373E-1,8.1258374E-1,-1.1554776E-2,-5.3722657E-2,-3.1796487E-3,6.188072E-2,6.282564E-2,-4.513431E-2,-2.9156616E-2,-5.1111754E-2,5.7184275E-2,-1.7476773E-2,5.654953E-3,-3.0289996E-2,7.144382E-2,1.0744943E-2,6.495564E-2,8.397173E-2],"categories":[],"categories_nodes":[],"categories_segments":[],"categories_sizes":[],"default_left":[0,0,0,0,0,0,0,0,0,0,0,0,0,0,0,0,0,0,0,0,0,0,0,0,0,0,0,0,0,0,0],"id":31,"left_children":[1,3,5,7,9,11,13,15,17,19,21,23,25,27,29,-1,-1,-1,-1,-1,-1,-1,-1,-1,-1,-1,-1,-1,-1,-1,-1],"loss_changes":[7.1710016E2,2.2616986E2,1.2206232E2,7.397367E1,5.1585846E1,1.02247284E2,1.4433044E1,1.0012657E1,5.8643417E1,7.329009E1,3.1231506E1,3.6714836E1,6.198244E0,2.6569122E1,2.3787537E0,0E0,0E0,0E0,0E0,0E0,0E0,0E0,0E0,0E0,0E0,0E0,0E0,0E0,0E0,0E0,0E0],"parents":[2147483647,0,0,1,1,2,2,3,3,4,4,5,5,6,6,7,7,8,8,9,9,10,10,11,11,12,12,13,13,14,14],"right_children":[2,4,6,8,10,12,14,16,18,20,22,24,26,28,30,-1,-1,-1,-1,-1,-1,-1,-1,-1,-1,-1,-1,-1,-1,-1,-1],"split_conditions":[4.6875E0,2.2690125E0,5.7628E0,2.6719E0,-1.2236E2,2.9625669E0,6.5095E0,3.79E1,2.5E1,3.811E1,2.805492E0,3.793E1,-1.2184E2,3.1413794E0,9.683908E-1,-1.1554776E-2,-5.3722657E-2,-3.1796487E-3,6.188072E-2,6.282564E-2,-4.513431E-2,-2.9156616E-2,-5.1111754E-2,5.7184275E-2,-1.7476773E-2,5.654953E-3,-3.0289996E-2,7.144382E-2,1.0744943E-2,6.495564E-2,8.397173E-2],"split_indices":[0,5,0,0,7,5,0,6,1,6,5,6,7,5,3,0,0,0,0,0,0,0,0,0,0,0,0,0,0,0,0],"split_type":[0,0,0,0,0,0,0,0,0,0,0,0,0,0,0,0,0,0,0,0,0,0,0,0,0,0,0,0,0,0,0],"sum_hessian":[5.8106587E3,3.8779126E3,1.9327463E3,8.8981604E2,2.9880967E3,8.823163E2,1.05043E3,2.8694223E2,6.0287384E2,2.509752E2,2.7371213E3,5.6478326E2,3.17533E2,3.903865E2,6.600435E2,2.106765E2,7.626573E1,2.1510571E2,3.877681E2,1.15934166E2,1.3504105E2,1.0674398E3,1.6696815E3,4.8916174E2,7.562154E1,5.84752E1,2.590578E2,2.9446667E2,9.591983E1,9.77385E1,5.62305E2],"tree_param":{"num_deleted":"0","num_feature":"8","num_nodes":"31","size_leaf_vector":"1"}},{"base_weights":[-5.3388565E-3,2.856622E-1,-3.9909765E-1,4.985212E-1,6.666534E-2,-2.039167E-1,-5.0648636E-1,-9.215164E-2,5.93911E-1,-2.1679606E-1,3.650207E-1,-2.577015E-1,4.0749586E-1,-5.120333E-1,7.8773737E-1,-1.6350193E-2,4.4691544E-2,7.743532E-2,4.5504868E-2,-2.8759554E-2,1.9582711E-2,3.1159027E-2,8.910242E-2,-5.6745835E-2,-1.4795176E-2,8.3284535E-2,-1.0703479E-2,-5.1984437E-2,2.0778297E-2,8.863732E-2,2.9348452E-2],"categories":[],"categories_nodes":[],"categories_segments":[],"categories_sizes":[],"default_left":[0,0,0,0,0,0,0,0,0,0,0,0,0,0,0,0,0,0,0,0,0,0,0,0,0,0,0,0,0,0,0],"id":32,"left_children":[1,3,5,7,9,11,13,15,17,19,21,23,25,27,29,-1,-1,-1,-1,-1,-1,-1,-1,-1,-1,-1,-1,-1,-1,-1,-1],"loss_changes":[6.627224E2,1.5500186E2,5.141461E1,9.507327E1,1.3881439E2,2.8847328E1,1.1781067E1,9.124908E0,3.603125E1,2.4649471E1,2.2194633E1,2.7247768E1,1.5640494E1,8.984283E0,8.880234E-2,0E0,0E0,0E0,0E0,0E0,0E0,0E0,0E0,0E0,0E0,0E0,0E0,0E0,0E0,0E0,0E0],"parents":[2147483647,0,0,1,1,2,2,3,3,4,4,5,5,6,6,7,7,8,8,9,9,10,10,11,11,12,12,13,13,14,14],"right_children":[2,4,6,8,10,12,14,16,18,20,22,24,26,28,30,-1,-1,-1,-1,-1,-1,-1,-1,-1,-1,-1,-1,-1,-1,-1,-1],"split_conditions":[3.4375E0,2.4583E0,4.125E0,3.4459016E0,4.949367E0,3.868E1,-1.1617E2,-1.1786E2,1.9E0,-1.1778E2,3.941E1,-1.2158E2,-1.2133E2,3.904E1,1.0588236E0,-1.6350193E-2,4.4691544E-2,7.743532E-2,4.5504868E-2,-2.8759554E-2,1.9582711E-2,3.1159027E-2,8.910242E-2,-5.6745835E-2,-1.4795176E-2,8.3284535E-2,-1.0703479E-2,-5.1984437E-2,2.0778297E-2,8.863732E-2,2.9348452E-2],"split_indices":[0,0,0,2,2,6,7,7,0,7,6,7,7,6,3,0,0,0,0,0,0,0,0,0,0,0,0,0,0,0,0],"split_type":[0,0,0,0,0,0,0,0,0,0,0,0,0,0,0,0,0,0,0,0,0,0,0,0,0,0,0,0,0,0,0],"sum_hessian":[5.781719E3,3.324831E3,2.456888E3,1.6853958E3,1.6394353E3,8.730329E2,1.5838551E3,2.3434128E2,1.4510544E3,8.408418E2,7.985935E2,8.029752E2,7.005768E1,1.5776975E3,6.157572E0,2.0756491E2,2.6776356E1,6.290588E2,8.2199567E2,7.1795526E2,1.2288655E2,7.263996E2,7.219392E1,2.0898032E2,5.9399493E2,3.80139E1,3.204378E1,1.5610358E3,1.66617E1,4.4717956E0,1.6857761E0],"tree_param":{"num_deleted":"0","num_feature":"8","num_nodes":"31","size_leaf_vector":"1"}},{"base_weights":[6.2258295E-3,7.236449E-2,-4.5647928E-1,-3.421509E-2,2.4167636E-1,-4.8443002E-1,-1.5032923E-1,2.2069539E-1,-1.012947E-1,9.953879E-2,4.3685254E-1,-3.6993468E-1,-5.279962E-1,-3.525933E-1,2.6978484E-1,-6.026408E-3,4.0273897E-2,-1.582121E-2,7.0362464E-3,-1.8523628E-3,3.8897347E-2,4.73716E-2,-5.52465E-2,-9.198234E-3,-4.664214E-2,3.472358E-2,-5.31679E-2,-3.8961057E-2,5.132025E-2,-3.1045306E-2,5.8467943E-2],"categories":[],"categories_nodes":[],"categories_segments":[],"categories_sizes":[],"default_left":[0,0,0,0,0,0,0,0,0,0,0,0,0,0,0,0,0,0,0,0,0,0,0,0,0,0,0,0,0,0,0],"id":33,"left_children":[1,3,5,7,9,11,13,15,17,19,21,23,25,27,29,-1,-1,-1,-1,-1,-1,-1,-1,-1,-1,-1,-1,-1,-1,-1,-1],"loss_changes":[1.8292017E2,9.437815E1,6.3239136E0,5.491548E1,5.600583E1,3.2192688E0,5.532465E0,3.4246723E1,2.4848694E1,3.999895E1,3.1299469E1,5.106838E0,1.7754059E0,1.5981493E0,4.084613E0,0E0,0E0,0E0,0E0,0E0,0E0,0E0,0E0,0E0,0E0,0E0,0E0,0E0,0E0,0E0,0E0],"parents":[2147483647,0,0,1,1,2,2,3,3,4,4,5,5,6,6,7,7,8,8,9,9,10,10,11,11,12,12,13,13,14,14],"right_children":[2,4,6,8,10,12,14,16,18,20,22,24,26,28,30,-1,-1,-1,-1,-1,-1,-1,-1,-1,-1,-1,-1,-1,-1,-1,-1],"split_conditions":[5.3283E0,-1.1822E2,3.797E1,1.8E1,3.1961539E0,1.7E1,3.1018634E0,3.746E1,3.797E1,-1.1715E2,-1.1667E2,5.7628E0,3.269E1,-1.2094E2,-1.2214E2,-6.026408E-3,4.0273897E-2,-1.582121E-2,7.0362464E-3,-1.8523628E-3,3.8897347E-2,4.73716E-2,-5.52465E-2,-9.198234E-3,-4.664214E-2,3.472358E-2,-5.31679E-2,-3.8961057E-2,5.132025E-2,-3.1045306E-2,5.8467943E-2],"split_indices":[0,7,6,1,5,1,5,6,6,7,7,0,6,7,7,0,0,0,0,0,0,0,0,0,0,0,0,0,0,0,0],"split_type":[0,0,0,0,0,0,0,0,0,0,0,0,0,0,0,0,0,0,0,0,0,0,0,0,0,0,0,0,0,0,0],"sum_hessian":[5.9751777E3,5.2286436E3,7.4653406E2,3.2092568E3,2.0193867E3,6.835457E2,6.2988293E1,6.681015E2,2.5411553E3,1.1693295E3,8.5005725E2,1.9102042E2,4.9252533E2,4.2626476E1,2.0361814E1,2.6294724E2,4.0515427E2,1.9084406E3,6.327147E2,8.3120935E2,3.3812006E2,8.2002313E2,3.0034113E1,4.9726124E1,1.412943E2,1.6728737E0,4.9085245E2,4.1406147E1,1.2203293E0,7.167952E0,1.3193863E1],"tree_param":{"num_deleted":"0","num_feature":"8","num_nodes":"31","size_leaf_vector":"1"}},{"base_weights":[5.8075096E-3,-2.7020273E-1,7.862804E-2,-1.4050573E-1,-4.2086717E-1,1.1400186E-1,-4.054247E-1,-2.7208213E-2,-3.6798182E-1,-2.1491945E-1,-4.811703E-1,2.7540407E-1,5.7575855E-2,-2.3441976E-1,-4.8938152E-1,8.040083E-3,-3.9034314E-2,7.30054E-2,-3.832775E-2,-4.207861E-2,-1.2480211E-3,-3.028956E-2,-4.994018E-2,4.179932E-2,1.7665146E-3,9.133258E-3,-3.9686643E-2,3.0254057E-2,-3.0255888E-2,-5.0043482E-2,-9.306999E-3],"categories":[],"categories_nodes":[],"categories_segments":[],"categories_sizes":[],"default_left":[0,0,0,0,0,0,0,0,0,0,0,0,0,0,0,0,0,0,0,0,0,0,0,0,0,0,0,0,0,0,0],"id":34,"left_children":[1,3,5,7,9,11,13,15,17,19,21,23,25,27,29,-1,-1,-1,-1,-1,-1,-1,-1,-1,-1,-1,-1,-1,-1,-1,-1],"loss_changes":[1.207214E2,2.4442024E1,8.1420044E1,1.7394466E1,7.0940475E0,4.032489E1,4.5350075E0,1.7688938E1,4.0493755E0,5.540369E0,1.3031082E0,4.2151253E1,5.0404472E1,4.063716E0,9.009247E-1,0E0,0E0,0E0,0E0,0E0,0E0,0E0,0E0,0E0,0E0,0E0,0E0,0E0,0E0,0E0,0E0],"parents":[2147483647,0,0,1,1,2,2,3,3,4,4,5,5,6,6,7,7,8,8,9,9,10,10,11,11,12,12,13,13,14,14],"right_children":[2,4,6,8,10,12,14,16,18,20,22,24,26,28,30,-1,-1,-1,-1,-1,-1,-1,-1,-1,-1,-1,-1,-1,-1,-1,-1],"split_conditions":[2.5804E0,4.35545E0,6.5891E0,3.5663266E0,2.3207223E0,3.392E1,1.8E1,3.777E1,-1.2229E2,2.1587E0,-1.2236E2,-1.1749E2,-1.1775E2,6.3003E0,3.8E1,8.040083E-3,-3.9034314E-2,7.30054E-2,-3.832775E-2,-4.207861E-2,-1.2480211E-3,-3.028956E-2,-4.994018E-2,4.179932E-2,1.7665146E-3,9.133258E-3,-3.9686643E-2,3.0254057E-2,-3.0255888E-2,-5.0043482E-2,-9.306999E-3],"split_indices":[0,2,0,5,5,6,1,6,7,0,7,7,7,2,6,0,0,0,0,0,0,0,0,0,0,0,0,0,0,0,0],"split_type":[0,0,0,0,0,0,0,0,0,0,0,0,0,0,0,0,0,0,0,0,0,0,0,0,0,0,0,0,0,0,0],"sum_hessian":[6.0042183E3,1.2528511E3,4.7513677E3,6.743127E2,5.785383E2,4.428504E3,3.2286374E2,4.508703E2,2.234424E2,1.3206674E2,4.464716E2,1.14615E3,3.2823538E3,1.075651E2,2.1529863E2,3.4840488E2,1.0246544E2,2.4277997E0,2.2101459E2,6.4944305E1,6.712243E1,4.3057076E1,4.0341452E2,7.375132E2,4.086369E2,3.0561377E3,2.2621591E2,1.1725327E1,9.5839775E1,2.092012E2,6.0974255E0],"tree_param":{"num_deleted":"0","num_feature":"8","num_nodes":"31","size_leaf_vector":"1"}},{"base_weights":[-7.2030267E-3,-1.7897746E-1,6.2751424E-1,8.880692E-2,-3.8199788E-1,4.5667842E-1,7.46929E-1,2.294477E-1,-4.7623312E-1,-4.737236E-1,-1.7274511E-1,6.575633E-1,1.2299472E-1,7.620072E-1,3.9873758E-1,1.1583264E-1,1.3885138E-2,-2.0394174E-2,-5.8234017E-2,-1.1824379E-2,-4.9709957E-2,4.4826996E-2,-2.471468E-2,6.9072686E-2,-4.992701E-2,2.0341264E-2,-2.445907E-2,7.874398E-2,5.9223484E-2,1.1871442E-2,7.5084046E-2],"categories":[],"categories_nodes":[],"categories_segments":[],"categories_sizes":[],"default_left":[0,0,0,0,0,0,0,0,0,0,0,0,0,0,0,0,0,0,0,0,0,0,0,0,0,0,0,0,0,0,0],"id":35,"left_children":[1,3,5,7,9,11,13,15,17,19,21,23,25,27,29,-1,-1,-1,-1,-1,-1,-1,-1,-1,-1,-1,-1,-1,-1,-1,-1],"loss_changes":[6.2386896E2,2.4485948E2,2.4521759E1,1.5449335E2,4.908481E1,3.3702614E1,3.453949E0,1.3079982E2,1.1077103E1,1.4735321E1,3.625373E1,1.24053955E1,5.6846833E0,2.4910889E0,3.046885E0,0E0,0E0,0E0,0E0,0E0,0E0,0E0,0E0,0E0,0E0,0E0,0E0,0E0,0E0,0E0,0E0],"parents":[2147483647,0,0,1,1,2,2,3,3,4,4,5,5,6,6,7,7,8,8,9,9,10,10,11,11,12,12,13,13,14,14],"right_children":[2,4,6,8,10,12,14,16,18,20,22,24,26,28,30,-1,-1,-1,-1,-1,-1,-1,-1,-1,-1,-1,-1,-1,-1,-1,-1],"split_conditions":[5.5248E0,2.625E0,6.3525E0,3.794E1,4.1364E0,2.9836957E0,3.797E1,-1.2232E2,-1.2239E2,-1.2239E2,-1.2217E2,3.861E1,-1.1773E2,-1.177E2,7.2216E0,1.1583264E-1,1.3885138E-2,-2.0394174E-2,-5.8234017E-2,-1.1824379E-2,-4.9709957E-2,4.4826996E-2,-2.471468E-2,6.9072686E-2,-4.992701E-2,2.0341264E-2,-2.445907E-2,7.874398E-2,5.9223484E-2,1.1871442E-2,7.5084046E-2],"split_indices":[0,5,0,6,0,5,6,7,7,7,7,6,7,7,0,0,0,0,0,0,0,0,0,0,0,0,0,0,0,0,0],"split_type":[0,0,0,0,0,0,0,0,0,0,0,0,0,0,0,0,0,0,0,0,0,0,0,0,0,0,0,0,0,0,0],"sum_hessian":[5.7200576E3,4.5023096E3,1.2177483E3,1.9417281E3,2.5605813E3,5.029902E2,7.147581E2,1.5552212E3,3.8650696E2,1.7793439E3,7.8123737E2,3.1336624E2,1.8962395E2,6.8395166E2,3.0806465E1,1.3715842E2,1.4180627E3,1.0920013E2,2.7730682E2,1.1016207E2,1.6691819E3,8.3045906E1,6.9819147E2,3.0502487E2,8.341385E0,1.5595235E2,3.3671604E1,5.916776E2,9.2274025E1,1.7904438E1,1.2902026E1],"tree_param":{"num_deleted":"0","num_feature":"8","num_nodes":"31","size_leaf_vector":"1"}},{"base_weights":[-5.5837804E-3,2.6674163E-1,-3.8785976E-1,3.9344806E-2,4.532855E-1,-1.9554792E-1,-4.9705252E-1,-2.2549574E-1,4.4005334E-1,1.4561509E-1,6.627168E-1,-3.6200973E-1,8.7934185E-4,-5.026477E-1,7.427822E-1,3.1034267E-3,-5.51698E-2,1.9362768E-2,7.718952E-2,-1.6835084E-2,7.825162E-2,5.0522964E-2,8.84775E-2,3.3566993E-2,-3.9477844E-2,-3.2649342E-2,9.839984E-3,-5.1067937E-2,1.9860568E-2,8.354658E-2,2.8019404E-2],"categories":[],"categories_nodes":[],"categories_segments":[],"categories_sizes":[],"default_left":[0,0,0,0,0,0,0,0,0,0,0,0,0,0,0,0,0,0,0,0,0,0,0,0,0,0,0,0,0,0,0],"id":36,"left_children":[1,3,5,7,9,11,13,15,17,19,21,23,25,27,29,-1,-1,-1,-1,-1,-1,-1,-1,-1,-1,-1,-1,-1,-1,-1,-1],"loss_changes":[5.940984E2,1.4135318E2,4.975714E1,1.5960168E2,1.17866486E2,2.8168026E1,1.087381E1,7.579546E1,4.878578E1,1.4865308E2,3.763571E1,1.0793083E1,1.267976E1,8.591827E0,7.4766874E-2,0E0,0E0,0E0,0E0,0E0,0E0,0E0,0E0,0E0,0E0,0E0,0E0,0E0,0E0,0E0,0E0],"parents":[2147483647,0,0,1,1,2,2,3,3,4,4,5,5,6,6,7,7,8,8,9,9,10,10,11,11,12,12,13,13,14,14],"right_children":[2,4,6,8,10,12,14,16,18,20,22,24,26,28,30,-1,-1,-1,-1,-1,-1,-1,-1,-1,-1,-1,-1,-1,-1,-1,-1],"split_conditions":[3.4375E0,3.444E1,4.125E0,-1.1778E2,-1.2162E2,5.40118E0,-1.1617E2,3.403E1,2.9946237E0,3.868E1,-1.2006E2,9.166667E-1,-1.2176E2,3.904E1,1.0588236E0,3.1034267E-3,-5.51698E-2,1.9362768E-2,7.718952E-2,-1.6835084E-2,7.825162E-2,5.0522964E-2,8.84775E-2,3.3566993E-2,-3.9477844E-2,-3.2649342E-2,9.839984E-3,-5.1067937E-2,1.9860568E-2,8.354658E-2,2.8019404E-2],"split_indices":[0,6,0,7,7,2,7,6,5,6,7,3,7,6,3,0,0,0,0,0,0,0,0,0,0,0,0,0,0,0,0],"split_type":[0,0,0,0,0,0,0,0,0,0,0,0,0,0,0,0,0,0,0,0,0,0,0,0,0,0,0,0,0,0,0],"sum_hessian":[5.7048135E3,3.33169E3,2.3731238E3,1.5019838E3,1.829706E3,8.604601E2,1.5126638E3,9.045658E2,5.9741797E2,7.417356E2,1.0879705E3,4.6529987E2,3.9516022E2,1.50646E3,6.2038307E0,5.0686496E2,3.9770087E2,3.437401E2,2.5367787E2,4.9731537E2,2.4442024E2,6.384482E2,4.4952225E2,2.0459162E1,4.448407E2,9.015735E1,3.0500287E2,1.48967E3,1.678993E1,4.4967904E0,1.70704E0],"tree_param":{"num_deleted":"0","num_feature":"8","num_nodes":"31","size_leaf_vector":"1"}},{"base_weights":[7.1913693E-3,8.178438E-2,-3.6785734E-1,-2.1382002E-2,2.4440725E-1,-2.2459534E-1,-5.012463E-1,1.8413591E-1,-9.3841664E-2,6.3099605E-1,1.7990036E-1,-2.9906246E-1,2.4085042E-1,-3.3232749E-1,-5.156464E-1,-4.1774637E-3,3.3945855E-2,-1.3584784E-2,1.3813826E-2,4.975853E-3,7.042519E-2,2.0330781E-2,-5.980382E-2,-4.030549E-2,1.7397474E-2,-5.157729E-2,4.0999737E-2,-1.7982842E-2,-4.984869E-2,2.3211217E-2,-5.195145E-2],"categories":[],"categories_nodes":[],"categories_segments":[],"categories_sizes":[],"default_left":[0,0,0,0,0,0,0,0,0,0,0,0,0,0,0,0,0,0,0,0,0,0,0,0,0,0,0,0,0,0,0],"id":37,"left_children":[1,3,5,7,9,11,13,15,17,19,21,23,25,27,29,-1,-1,-1,-1,-1,-1,-1,-1,-1,-1,-1,-1,-1,-1,-1,-1],"loss_changes":[1.661702E2,8.312442E1,1.8717484E1,4.5172028E1,4.784391E1,1.6602102E1,1.0678558E0,2.7760193E1,2.1870668E1,1.1657356E1,3.015805E1,2.0316833E1,8.700684E0,9.956813E-1,1.4731522E0,0E0,0E0,0E0,0E0,0E0,0E0,0E0,0E0,0E0,0E0,0E0,0E0,0E0,0E0,0E0,0E0],"parents":[2147483647,0,0,1,1,2,2,3,3,4,4,5,5,6,6,7,7,8,8,9,9,10,10,11,11,12,12,13,13,14,14],"right_children":[2,4,6,8,10,12,14,16,18,20,22,24,26,28,30,-1,-1,-1,-1,-1,-1,-1,-1,-1,-1,-1,-1,-1,-1,-1,-1],"split_conditions":[5E0,-1.1822E2,5.7628E0,2E1,-1.1815E2,3.799E1,4.23E2,3.746E1,3.6142132E0,2.6112676E0,-1.1617E2,-1.1765E2,-1.2246E2,7.5177E0,8.5714287E-1,-4.1774637E-3,3.3945855E-2,-1.3584784E-2,1.3813826E-2,4.975853E-3,7.042519E-2,2.0330781E-2,-5.980382E-2,-4.030549E-2,1.7397474E-2,-5.157729E-2,4.0999737E-2,-1.7982842E-2,-4.984869E-2,2.3211217E-2,-5.195145E-2],"split_indices":[0,7,0,1,7,6,4,6,5,5,7,7,7,0,3,0,0,0,0,0,0,0,0,0,0,0,0,0,0,0,0],"split_type":[0,0,0,0,0,0,0,0,0,0,0,0,0,0,0,0,0,0,0,0,0,0,0,0,0,0,0,0,0,0,0],"sum_hessian":[5.937663E3,4.9532905E3,9.843724E2,3.031197E3,1.9220936E3,4.7591513E2,5.0845724E2,7.897322E2,2.2414648E3,2.736045E2,1.6484891E3,4.1058304E2,6.5332115E1,4.1831875E1,4.666254E2,3.220518E2,4.676804E2,1.8981655E3,3.4329935E2,3.0811842E1,2.4279265E2,1.6010536E3,4.7435555E1,3.3670892E2,7.38741E1,1.1562373E1,5.376974E1,2.289833E1,1.8933546E1,2.097728E0,4.6452765E2],"tree_param":{"num_deleted":"0","num_feature":"8","num_nodes":"31","size_leaf_vector":"1"}},{"base_weights":[6.3772886E-3,-2.1260649E-1,8.8225946E-2,-1.4198205E-1,-4.849746E-1,1.2846008E-1,-3.4223905E-1,-4.2877372E-2,-3.772268E-1,-2.8666952E-1,-5.297577E-1,2.8877264E-1,7.076111E-2,-3.9694774E-1,-1.3053904E-2,3.3020382E-3,-5.3022563E-2,1.5392525E-1,-4.0554773E-2,2.8653795E-2,-4.5143582E-2,-5.332284E-2,1.988191E-2,-4.1434746E-2,3.3531424E-2,9.896541E-3,-4.5341905E-2,-4.3190926E-2,2.5690401E-2,-2.9578218E-2,6.6289365E-2],"categories":[],"categories_nodes":[],"categories_segments":[],"categories_sizes":[],"default_left":[0,0,0,0,0,0,0,0,0,0,0,0,0,0,0,0,0,0,0,0,0,0,0,0,0,0,0,0,0,0,0],"id":38,"left_children":[1,3,5,7,9,11,13,15,17,19,21,23,25,27,29,-1,-1,-1,-1,-1,-1,-1,-1,-1,-1,-1,-1,-1,-1,-1,-1],"loss_changes":[1.0708439E2,3.1199364E1,7.536511E1,3.0110624E1,2.8168793E0,3.677501E1,6.6944466E0,3.3689217E1,2.1406754E1,6.1515875E0,7.926254E-1,3.458055E1,4.331009E1,7.402298E0,1.0525369E1,0E0,0E0,0E0,0E0,0E0,0E0,0E0,0E0,0E0,0E0,0E0,0E0,0E0,0E0,0E0,0E0],"parents":[2147483647,0,0,1,1,2,2,3,3,4,4,5,5,6,6,7,7,8,8,9,9,10,10,11,11,12,12,13,13,14,14],"right_children":[2,4,6,8,10,12,14,16,18,20,22,24,26,28,30,-1,-1,-1,-1,-1,-1,-1,-1,-1,-1,-1,-1,-1,-1,-1,-1],"split_conditions":[2.8594E0,3.793E1,6.3525E0,3.5663266E0,2.144781E0,3.392E1,-1.177E2,-1.1714E2,-1.2229E2,-1.2243E2,6.291E3,3.274E1,-1.1762E2,3.799E1,3.364E1,3.3020382E-3,-5.3022563E-2,1.5392525E-1,-4.0554773E-2,2.8653795E-2,-4.5143582E-2,-5.332284E-2,1.988191E-2,-4.1434746E-2,3.3531424E-2,9.896541E-3,-4.5341905E-2,-4.3190926E-2,2.5690401E-2,-2.9578218E-2,6.6289365E-2],"split_indices":[0,6,0,5,5,6,7,7,7,7,4,6,7,6,6,0,0,0,0,0,0,0,0,0,0,0,0,0,0,0,0],"split_type":[0,0,0,0,0,0,0,0,0,0,0,0,0,0,0,0,0,0,0,0,0,0,0,0,0,0,0,0,0,0,0],"sum_hessian":[5.9724688E3,1.6245183E3,4.34795E3,1.2912272E3,3.3329105E2,3.9769404E3,3.7100986E2,9.093258E2,3.8190146E2,6.2764294E1,2.7052673E2,1.0514779E3,2.9254626E3,3.1796075E2,5.304911E1,7.876002E2,1.217256E2,4.78448E0,3.7711697E2,1.3848279E1,4.8916016E1,2.69511E2,1.0157428E0,6.478874E1,9.866892E2,2.7768606E3,1.4860199E2,3.0214447E2,1.5816268E1,3.7800663E1,1.5248447E1],"tree_param":{"num_deleted":"0","num_feature":"8","num_nodes":"31","size_leaf_vector":"1"}},{"base_weights":[-8.691032E-3,-2.3921111E-1,4.1922858E-1,1.7594153E-1,-3.7081462E-1,1.8807101E-1,6.2770957E-1,2.784405E-1,-5.1568866E-1,3.966626E-2,-4.1011557E-1,5.5525476E-1,-6.9838956E-2,5.290314E-1,7.630139E-1,4.5136776E-2,-1.7667344E-2,-3.4334477E-2,-5.9483178E-2,4.9517956E-2,-4.843098E-2,-2.9671565E-2,-5.061779E-2,1.3220233E-2,7.1495615E-2,1.6448844E-2,-2.2721669E-2,3.069368E-2,6.734054E-2,7.826733E-2,7.5119594E-3],"categories":[],"categories_nodes":[],"categories_segments":[],"categories_sizes":[],"default_left":[0,0,0,0,0,0,0,0,0,0,0,0,0,0,0,0,0,0,0,0,0,0,0,0,0,0,0,0,0,0,0],"id":39,"left_children":[1,3,5,7,9,11,13,15,17,19,21,23,25,27,29,-1,-1,-1,-1,-1,-1,-1,-1,-1,-1,-1,-1,-1,-1,-1,-1],"loss_changes":[5.555927E2,2.0005338E2,9.4910614E1,6.2650833E1,4.4858704E1,8.872676E1,1.3433472E1,6.056791E1,1.3528423E0,5.8427914E1,2.7485168E1,2.6018951E1,2.0357136E1,1.911409E1,5.821335E0,0E0,0E0,0E0,0E0,0E0,0E0,0E0,0E0,0E0,0E0,0E0,0E0,0E0,0E0,0E0,0E0],"parents":[2147483647,0,0,1,1,2,2,3,3,4,4,5,5,6,6,7,7,8,8,9,9,10,10,11,11,12,12,13,13,14,14],"right_children":[2,4,6,8,10,12,14,16,18,20,22,24,26,28,30,-1,-1,-1,-1,-1,-1,-1,-1,-1,-1,-1,-1,-1,-1,-1,-1],"split_conditions":[4.6406E0,2.2690125E0,5.7628E0,3.799E1,-1.2236E2,2.6814346E0,2.7E1,-1.1809E2,-1.2227E2,3.832E1,2.8965516E0,2.1E1,2.9625669E0,6.5095E0,3.4511628E0,4.5136776E-2,-1.7667344E-2,-3.4334477E-2,-5.9483178E-2,4.9517956E-2,-4.843098E-2,-2.9671565E-2,-5.061779E-2,1.3220233E-2,7.1495615E-2,1.6448844E-2,-2.2721669E-2,3.069368E-2,6.734054E-2,7.826733E-2,7.5119594E-3],"split_indices":[0,5,0,6,7,5,1,7,7,6,5,1,5,0,5,0,0,0,0,0,0,0,0,0,0,0,0,0,0,0,0],"split_type":[0,0,0,0,0,0,0,0,0,0,0,0,0,0,0,0,0,0,0,0,0,0,0,0,0,0,0,0,0,0,0],"sum_hessian":[5.630281E3,3.659403E3,1.9708776E3,8.8073267E2,2.7786704E3,9.355118E2,1.0353657E3,7.6757605E2,1.1315667E2,2.4279321E2,2.5358772E3,3.8551093E2,5.5000085E2,6.01557E2,4.3380875E2,5.562347E2,2.1134132E2,3.729042E1,7.586625E1,1.299112E2,1.1288203E2,1.1648641E3,1.3710131E3,1.0614865E2,2.7936227E2,2.2095901E2,3.290418E2,2.3822089E2,3.6333615E2,4.2162146E2,1.2187281E1],"tree_param":{"num_deleted":"0","num_feature":"8","num_nodes":"31","size_leaf_vector":"1"}},{"base_weights":[-5.944862E-3,2.268346E-1,-4.159139E-1,4.4249547E-1,3.417212E-2,-2.8678086E-1,-5.1931655E-1,2.8098607E-2,5.524622E-1,-2.192346E-1,2.8658816E-1,-4.4212478E-1,-1.1983875E-1,-5.242042E-1,7.4277416E-2,-3.046422E-3,7.2573796E-2,1.8131586E-2,6.1022352E-2,1.68736E-2,-3.0698264E-2,-2.497374E-2,3.3700604E-2,-4.6949327E-2,1.1822807E-1,-3.4268882E-2,1.2196177E-1,4.3756072E-3,-5.3073186E-2],"categories":[],"categories_nodes":[],"categories_segments":[],"categories_sizes":[],"default_left":[0,0,0,0,0,0,0,0,0,0,0,0,0,0,0,0,0,0,0,0,0,0,0,0,0,0,0,0,0],"id":40,"left_children":[1,3,5,7,9,11,13,15,17,19,21,23,25,27,-1,-1,-1,-1,-1,-1,-1,-1,-1,-1,-1,-1,-1,-1,-1],"loss_changes":[5.36441E2,1.4895758E2,2.7034088E1,7.70726E1,1.2125902E2,2.34813E1,7.3554993E0,1.455926E1,2.8548157E1,3.2260178E1,2.5763542E1,2.1436813E1,1.3139487E2,4.195984E0,0E0,0E0,0E0,0E0,0E0,0E0,0E0,0E0,0E0,0E0,0E0,0E0,0E0,0E0,0E0],"parents":[2147483647,0,0,1,1,2,2,3,3,4,4,5,5,6,6,7,7,8,8,9,9,10,10,11,11,12,12,13,13],"right_children":[2,4,6,8,10,12,14,16,18,20,22,24,26,28,-1,-1,-1,-1,-1,-1,-1,-1,-1,-1,-1,-1,-1,-1,-1],"split_conditions":[3.6333E0,2.4583E0,4.5213E0,3.7188406E0,4.974293E0,3.444E1,-1.1617E2,-1.1712E2,2.1879194E0,9.89899E-1,2.2105262E0,-1.1643E2,-1.2017E2,1.03E2,7.4277416E-2,-3.046422E-3,7.2573796E-2,1.8131586E-2,6.1022352E-2,1.68736E-2,-3.0698264E-2,-2.497374E-2,3.3700604E-2,-4.6949327E-2,1.1822807E-1,-3.4268882E-2,1.2196177E-1,4.3756072E-3,-5.3073186E-2],"split_indices":[0,0,0,2,2,6,7,7,5,3,5,7,7,4,0,0,0,0,0,0,0,0,0,0,0,0,0,0,0],"split_type":[0,0,0,0,0,0,0,0,0,0,0,0,0,0,0,0,0,0,0,0,0,0,0,0,0,0,0,0,0],"sum_hessian":[5.619175E3,3.5844048E3,2.0347698E3,1.6906465E3,1.8937583E3,9.064877E2,1.1282821E3,3.548167E2,1.3358298E3,9.450903E2,9.48668E2,4.6870096E2,4.3778668E2,1.124512E3,3.7702098E0,3.282208E2,2.6595922E1,1.8045456E2,1.1553752E3,1.741551E2,7.709352E2,8.1177704E1,8.6749036E2,4.616342E2,7.0667825E0,3.7597806E2,6.180862E1,1.2712507E1,1.1117994E3],"tree_param":{"num_deleted":"0","num_feature":"8","num_nodes":"29","size_leaf_vector":"1"}},{"base_weights":[8.005646E-3,6.538622E-2,-4.3346488E-1,9.522246E-3,3.274054E-1,-4.6273994E-1,-1.3202928E-1,2.0378937E-1,-8.3175704E-2,-1.4970818E-2,4.9776617E-1,-3.427613E-1,-5.097428E-1,-3.015563E-1,3.3132213E-1,-1.1925012E-2,2.4497172E-2,-1.2175887E-2,4.5443263E-2,3.27566E-2,-3.0676976E-2,1.513768E-2,6.0315102E-2,-5.1150946E-3,-4.298324E-2,-5.139639E-2,3.465969E-2,-5.146141E-2,-1.2320024E-2,-2.4047924E-2,6.464301E-2],"categories":[],"categories_nodes":[],"categories_segments":[],"categories_sizes":[],"default_left":[0,0,0,0,0,0,0,0,0,0,0,0,0,0,0,0,0,0,0,0,0,0,0,0,0,0,0,0,0,0,0],"id":41,"left_children":[1,3,5,7,9,11,13,15,17,19,21,23,25,27,29,-1,-1,-1,-1,-1,-1,-1,-1,-1,-1,-1,-1,-1,-1,-1,-1],"loss_changes":[1.4946114E2,7.6423965E1,5.9278336E0,7.753831E1,5.3526154E1,3.3114777E0,4.9288898E0,1.853255E1,6.0518623E1,3.066934E1,2.2275558E1,4.473833E0,1.7762756E0,1.6668286E0,3.2083836E0,0E0,0E0,0E0,0E0,0E0,0E0,0E0,0E0,0E0,0E0,0E0,0E0,0E0,0E0,0E0,0E0],"parents":[2147483647,0,0,1,1,2,2,3,3,4,4,5,5,6,6,7,7,8,8,9,9,10,10,11,11,12,12,13,13,14,14],"right_children":[2,4,6,8,10,12,14,16,18,20,22,24,26,28,30,-1,-1,-1,-1,-1,-1,-1,-1,-1,-1,-1,-1,-1,-1,-1,-1],"split_conditions":[5.3283E0,3.6529968E0,3.797E1,2.1E1,2.2652E0,1.7E1,3.1578126E0,2.1111E0,-1.1714E2,3.8515625E0,-1.1853E2,5.6762E0,4.896356E0,-1.2204E2,-1.222E2,-1.1925012E-2,2.4497172E-2,-1.2175887E-2,4.5443263E-2,3.27566E-2,-3.0676976E-2,1.513768E-2,6.0315102E-2,-5.1150946E-3,-4.298324E-2,-5.139639E-2,3.465969E-2,-5.146141E-2,-1.2320024E-2,-2.4047924E-2,6.464301E-2],"split_indices":[0,5,6,1,0,1,5,0,7,2,7,0,5,7,7,0,0,0,0,0,0,0,0,0,0,0,0,0,0,0,0],"split_type":[0,0,0,0,0,0,0,0,0,0,0,0,0,0,0,0,0,0,0,0,0,0,0,0,0,0,0,0,0,0,0],"sum_hessian":[5.8980127E3,5.220345E3,6.7766766E2,4.303789E3,9.1655585E2,6.1719165E2,6.047603E1,1.3898602E3,2.913929E3,3.048357E2,6.1172015E2,1.7606465E2,4.4112698E2,4.453217E1,1.594386E1,1.5693628E2,1.232924E3,2.7195269E3,1.9440196E2,1.401702E2,1.646655E2,1.4326361E2,4.6845654E2,4.0847958E1,1.3521669E2,4.3936108E2,1.7658813E0,1.9432945E1,2.5099226E1,5.7488017E0,1.0195059E1],"tree_param":{"num_deleted":"0","num_feature":"8","num_nodes":"31","size_leaf_vector":"1"}},{"base_weights":[7.106479E-3,-2.8120345E-1,6.3352585E-2,1.7354201E-1,-3.326675E-1,9.05841E-2,-3.737083E-1,-3.302939E-1,2.5366503E-1,-4.531543E-1,-2.417924E-1,1.1302109E-1,-3.2478154E-1,-1.9496076E-1,-4.6513444E-1,-5.1414795E-2,2.4165517E-2,4.31255E-2,-1.1158763E-2,-6.455473E-3,-4.7227833E-2,-1.4926771E-2,-5.074544E-2,2.2029331E-2,-7.392393E-4,1.945123E-3,-4.5507405E-2,3.1611752E-3,-3.7785217E-2,-6.3953684E-3,-4.7761213E-2],"categories":[],"categories_nodes":[],"categories_segments":[],"categories_sizes":[],"default_left":[0,0,0,0,0,0,0,0,0,0,0,0,0,0,0,0,0,0,0,0,0,0,0,0,0,0,0,0,0,0,0],"id":42,"left_children":[1,3,5,7,9,11,13,15,17,19,21,23,25,27,29,-1,-1,-1,-1,-1,-1,-1,-1,-1,-1,-1,-1,-1,-1,-1,-1],"loss_changes":[9.6332375E1,2.2752586E1,5.919337E1,4.0902405E0,9.432625E0,4.3651226E1,4.6768303E0,1.601847E0,5.639152E0,2.7456055E0,1.2188305E1,5.736346E1,1.0777494E1,4.1740966E0,9.3201065E-1,0E0,0E0,0E0,0E0,0E0,0E0,0E0,0E0,0E0,0E0,0E0,0E0,0E0,0E0,0E0,0E0],"parents":[2147483647,0,0,1,1,2,2,3,3,4,4,5,5,6,6,7,7,8,8,9,9,10,10,11,11,12,12,13,13,14,14],"right_children":[2,4,6,8,10,12,14,16,18,20,22,24,26,28,30,-1,-1,-1,-1,-1,-1,-1,-1,-1,-1,-1,-1,-1,-1,-1,-1],"split_conditions":[2.4E0,2.9268293E0,6.5891E0,1.6918138E0,1.9E0,4.1666665E0,1.8E1,-1.1827E2,3.551635E0,1.7884297E0,3.777E1,3.443E1,-1.1845E2,1.207E3,1.97E2,-5.1414795E-2,2.4165517E-2,4.31255E-2,-1.1158763E-2,-6.455473E-3,-4.7227833E-2,-1.4926771E-2,-5.074544E-2,2.2029331E-2,-7.392393E-4,1.945123E-3,-4.5507405E-2,3.1611752E-3,-3.7785217E-2,-6.3953684E-3,-4.7761213E-2],"split_indices":[0,2,0,5,0,5,1,7,5,5,6,6,7,4,4,0,0,0,0,0,0,0,0,0,0,0,0,0,0,0,0],"split_type":[0,0,0,0,0,0,0,0,0,0,0,0,0,0,0,0,0,0,0,0,0,0,0,0,0,0,0,0,0,0,0],"sum_hessian":[5.938363E3,9.687389E2,4.969624E3,9.824621E1,8.704927E2,4.6788936E3,2.9073038E2,1.3051625E1,8.519458E1,3.7255457E2,4.9793814E2,4.439795E3,2.3909842E2,9.9442474E1,1.912879E2,9.953208E0,3.0984166E0,5.720175E1,2.7992832E1,1.7679663E1,3.548749E2,3.7047208E2,1.2746604E2,2.347584E3,2.092211E3,6.588389E1,1.7321454E2,4.4786495E1,5.465598E1,5.9548254E0,1.8533308E2],"tree_param":{"num_deleted":"0","num_feature":"8","num_nodes":"31","size_leaf_vector":"1"}},{"base_weights":[-1.0122784E-2,-2.2930957E-1,3.8940462E-1,1.6800803E-1,-3.5939646E-1,1.739604E-1,5.870646E-1,-2.1097697E-1,3.403718E-1,-4.5587856E-1,-1.9604611E-1,5.168515E-1,-7.009938E-2,4.9093953E-1,7.2001135E-1,-9.715715E-3,-4.7506105E-2,-3.359231E-3,5.397893E-2,-4.7503404E-2,-1.6263345E-2,5.528714E-3,-3.8486045E-2,1.229141E-2,6.64253E-2,1.5110868E-2,-2.2124056E-2,2.7957922E-2,6.32583E-2,7.392614E-2,5.9021614E-3],"categories":[],"categories_nodes":[],"categories_segments":[],"categories_sizes":[],"default_left":[0,0,0,0,0,0,0,0,0,0,0,0,0,0,0,0,0,0,0,0,0,0,0,0,0,0,0,0,0,0,0],"id":43,"left_children":[1,3,5,7,9,11,13,15,17,19,21,23,25,27,29,-1,-1,-1,-1,-1,-1,-1,-1,-1,-1,-1,-1,-1,-1,-1,-1],"loss_changes":[4.847313E2,1.8480183E2,8.340436E1,5.7706806E1,4.2353546E1,7.867477E1,1.2710571E1,8.26323E0,4.527465E1,9.428741E0,4.7558964E1,2.261383E1,1.841647E1,1.7679092E1,5.3873596E0,0E0,0E0,0E0,0E0,0E0,0E0,0E0,0E0,0E0,0E0,0E0,0E0,0E0,0E0,0E0,0E0],"parents":[2147483647,0,0,1,1,2,2,3,3,4,4,5,5,6,6,7,7,8,8,9,9,10,10,11,11,12,12,13,13,14,14],"right_children":[2,4,6,8,10,12,14,16,18,20,22,24,26,28,30,-1,-1,-1,-1,-1,-1,-1,-1,-1,-1,-1,-1,-1,-1,-1,-1],"split_conditions":[4.6406E0,2.2690125E0,5.7628E0,2.6719E0,3.5417E0,2.6814346E0,2.7E1,3.78E1,2.5E1,5.2E1,2.7577198E0,2.1E1,2.9625669E0,6.5095E0,3.4511628E0,-9.715715E-3,-4.7506105E-2,-3.359231E-3,5.397893E-2,-4.7503404E-2,-1.6263345E-2,5.528714E-3,-3.8486045E-2,1.229141E-2,6.64253E-2,1.5110868E-2,-2.2124056E-2,2.7957922E-2,6.32583E-2,7.392614E-2,5.9021614E-3],"split_indices":[0,5,0,0,0,5,1,6,1,1,5,1,5,0,5,0,0,0,0,0,0,0,0,0,0,0,0,0,0,0,0],"split_type":[0,0,0,0,0,0,0,0,0,0,0,0,0,0,0,0,0,0,0,0,0,0,0,0,0,0,0,0,0,0,0],"sum_hessian":[5.533267E3,3.573317E3,1.9599498E3,8.813041E2,2.692013E3,9.3868646E2,1.02126337E3,2.7544504E2,6.058591E2,1.6912773E3,1.0007356E3,3.8985004E2,5.488364E2,5.954354E2,4.2582794E2,1.9344041E2,8.2004616E1,2.110021E2,3.9485693E2,1.5869912E3,1.0428608E2,4.295985E2,5.711371E2,1.0665187E2,2.8319818E2,2.2277959E2,3.2605682E2,2.4011288E2,3.5532254E2,4.1366238E2,1.2165548E1],"tree_param":{"num_deleted":"0","num_feature":"8","num_nodes":"31","size_leaf_vector":"1"}},{"base_weights":[-6.8006334E-3,2.109389E-1,-4.051064E-1,2.1034337E-3,3.8246602E-1,-2.7666545E-1,-5.1100147E-1,-2.4771054E-1,3.778347E-1,8.493902E-2,5.886863E-1,-4.3103427E-1,-1.1525002E-1,-5.160197E-1,7.137409E-2,-1.3594743E-3,-5.4994423E-2,1.2206431E-2,6.738564E-2,-2.1283552E-2,7.2217844E-2,4.3094732E-2,8.205534E-2,-4.5865748E-2,1.10212386E-1,-3.32724E-2,1.08817354E-1,5.1165964E-3,-5.228209E-2],"categories":[],"categories_nodes":[],"categories_segments":[],"categories_sizes":[],"default_left":[0,0,0,0,0,0,0,0,0,0,0,0,0,0,0,0,0,0,0,0,0,0,0,0,0,0,0,0,0],"id":44,"left_children":[1,3,5,7,9,11,13,15,17,19,21,23,25,27,-1,-1,-1,-1,-1,-1,-1,-1,-1,-1,-1,-1,-1,-1,-1],"loss_changes":[4.8046817E2,1.2830734E2,2.649121E1,1.518044E2,1.20614655E2,2.205297E1,6.957245E0,6.872862E1,4.88191E1,1.5314304E2,4.212314E1,1.9692444E1,1.1420331E2,4.147644E0,0E0,0E0,0E0,0E0,0E0,0E0,0E0,0E0,0E0,0E0,0E0,0E0,0E0,0E0,0E0],"parents":[2147483647,0,0,1,1,2,2,3,3,4,4,5,5,6,6,7,7,8,8,9,9,10,10,11,11,12,12,13,13],"right_children":[2,4,6,8,10,12,14,16,18,20,22,24,26,28,-1,-1,-1,-1,-1,-1,-1,-1,-1,-1,-1,-1,-1,-1,-1],"split_conditions":[3.6333E0,3.444E1,4.5213E0,-1.178E2,-1.2162E2,3.444E1,-1.1617E2,3.403E1,3.369E1,3.868E1,-1.2006E2,-1.1643E2,-1.2017E2,1.03E2,7.137409E-2,-1.3594743E-3,-5.4994423E-2,1.2206431E-2,6.738564E-2,-2.1283552E-2,7.2217844E-2,4.3094732E-2,8.205534E-2,-4.5865748E-2,1.10212386E-1,-3.32724E-2,1.08817354E-1,5.1165964E-3,-5.228209E-2],"split_indices":[0,6,0,7,7,6,7,6,6,6,7,7,7,4,0,0,0,0,0,0,0,0,0,0,0,0,0,0,0],"split_type":[0,0,0,0,0,0,0,0,0,0,0,0,0,0,0,0,0,0,0,0,0,0,0,0,0,0,0,0,0],"sum_hessian":[5.538027E3,3.5809307E3,1.9570963E3,1.6153019E3,1.9656288E3,8.860329E2,1.0710635E3,9.704293E2,6.4487256E2,8.0525226E2,1.1603765E3,4.5204837E2,4.3398453E2,1.0672692E3,3.794326E0,5.474271E2,4.2300217E2,3.4671457E2,2.9815796E2,5.492569E2,2.5599535E2,6.9227856E2,4.6809793E2,4.4473633E2,7.312063E0,3.6817426E2,6.5810265E1,1.2568767E1,1.0547003E3],"tree_param":{"num_deleted":"0","num_feature":"8","num_nodes":"29","size_leaf_vector":"1"}},{"base_weights":[9.044484E-3,7.459922E-2,-3.454072E-1,-1.8359361E-2,2.1899365E-1,-3.9328304E-1,3.467554E-2,7.309013E-2,-1.679418E-1,5.7217807E-1,1.6020973E-1,-4.5198837E-1,-5.3339552E-2,-3.6801764E-1,2.6087955E-1,-2.7173767E-2,1.6633516E-2,-3.5673063E-2,-9.7569026E-4,5.956765E-3,6.355351E-2,1.8165959E-2,-5.850699E-2,-5.1771957E-2,-3.5998356E-2,-2.6089538E-2,7.465825E-2,-4.145883E-2,6.409541E-2,-2.0867199E-2,4.6380173E-2],"categories":[],"categories_nodes":[],"categories_segments":[],"categories_sizes":[],"default_left":[0,0,0,0,0,0,0,0,0,0,0,0,0,0,0,0,0,0,0,0,0,0,0,0,0,0,0,0,0,0,0],"id":45,"left_children":[1,3,5,7,9,11,13,15,17,19,21,23,25,27,29,-1,-1,-1,-1,-1,-1,-1,-1,-1,-1,-1,-1,-1,-1,-1,-1],"loss_changes":[1.3622005E2,6.641058E1,1.6664032E1,4.1195633E1,4.0137695E1,1.6195274E1,9.504088E0,6.014262E1,3.411764E1,8.929176E0,2.6684608E1,4.0041046E0,2.0254015E1,2.030799E0,6.453894E0,0E0,0E0,0E0,0E0,0E0,0E0,0E0,0E0,0E0,0E0,0E0,0E0,0E0,0E0,0E0,0E0],"parents":[2147483647,0,0,1,1,2,2,3,3,4,4,5,5,6,6,7,7,8,8,9,9,10,10,11,11,12,12,13,13,14,14],"right_children":[2,4,6,8,10,12,14,16,18,20,22,24,26,28,30,-1,-1,-1,-1,-1,-1,-1,-1,-1,-1,-1,-1,-1,-1,-1,-1],"split_conditions":[5E0,-1.1822E2,3.797E1,-1.2017E2,-1.1815E2,-1.1762E2,-1.2206E2,-1.2234E2,-1.1844E2,2.6112676E0,-1.1617E2,3.451E1,3.402E1,3.861E1,2.7457628E0,-2.7173767E-2,1.6633516E-2,-3.5673063E-2,-9.7569026E-4,5.956765E-3,6.355351E-2,1.8165959E-2,-5.850699E-2,-5.1771957E-2,-3.5998356E-2,-2.6089538E-2,7.465825E-2,-4.145883E-2,6.409541E-2,-2.0867199E-2,4.6380173E-2],"split_indices":[0,7,6,7,7,7,7,7,7,5,7,6,6,6,5,0,0,0,0,0,0,0,0,0,0,0,0,0,0,0,0],"split_type":[0,0,0,0,0,0,0,0,0,0,0,0,0,0,0,0,0,0,0,0,0,0,0,0,0,0,0,0,0,0,0],"sum_hessian":[5.8603516E3,4.946332E3,9.1401917E2,3.0096475E3,1.9366848E3,8.1173676E2,1.02282425E2,1.8680798E3,1.1415676E3,2.7510013E2,1.6615847E3,6.919187E2,1.1981804E2,3.6563816E1,6.571861E1,3.972186E2,1.4708612E3,5.1986694E2,6.217006E2,3.0474737E1,2.4462538E2,1.6158357E3,4.5749046E1,4.00886E2,2.9103275E2,9.5668724E1,2.4149317E1,3.551372E1,1.0500927E0,1.9822357E1,4.589625E1],"tree_param":{"num_deleted":"0","num_feature":"8","num_nodes":"31","size_leaf_vector":"1"}},{"base_weights":[7.964823E-3,-1.938968E-1,8.052761E-2,-1.2640968E-1,-4.668405E-1,1.1022781E-1,-3.5723042E-1,-3.334554E-2,-3.562276E-1,-2.658733E-1,-5.142044E-1,2.5299942E-1,5.776701E-2,-1.760806E-1,-4.5244062E-1,3.7782304E-3,-5.1585656E-2,1.4017262E-1,-3.854228E-2,2.9234124E-2,-4.3390308E-2,-5.2129384E-2,-4.2644003E-3,-3.9430026E-2,2.9419212E-2,8.352376E-3,-4.345463E-2,4.8540477E-3,-3.743213E-2,-4.7832127E-3,-4.655443E-2],"categories":[],"categories_nodes":[],"categories_segments":[],"categories_sizes":[],"default_left":[0,0,0,0,0,0,0,0,0,0,0,0,0,0,0,0,0,0,0,0,0,0,0,0,0,0,0,0,0,0,0],"id":46,"left_children":[1,3,5,7,9,11,13,15,17,19,21,23,25,27,29,-1,-1,-1,-1,-1,-1,-1,-1,-1,-1,-1,-1,-1,-1,-1,-1],"loss_changes":[8.6547325E1,2.8719898E1,5.654643E1,2.6808563E1,2.807869E0,3.047548E1,4.6870346E0,3.0690144E1,1.908551E1,5.8552666E0,8.111267E-1,2.9275032E1,3.780165E1,4.3308954E0,9.348335E-1,0E0,0E0,0E0,0E0,0E0,0E0,0E0,0E0,0E0,0E0,0E0,0E0,0E0,0E0,0E0,0E0],"parents":[2147483647,0,0,1,1,2,2,3,3,4,4,5,5,6,6,7,7,8,8,9,9,10,10,11,11,12,12,13,13,14,14],"right_children":[2,4,6,8,10,12,14,16,18,20,22,24,26,28,30,-1,-1,-1,-1,-1,-1,-1,-1,-1,-1,-1,-1,-1,-1,-1,-1],"split_conditions":[2.8594E0,3.793E1,6.5891E0,3.5663266E0,2.144781E0,3.392E1,1.8E1,-1.1714E2,-1.2229E2,-1.2243E2,4.772031E0,3.274E1,-1.1762E2,7.5177E0,1.97E2,3.7782304E-3,-5.1585656E-2,1.4017262E-1,-3.854228E-2,