{"learner":{"attributes":{},"feature_names":[],"feature_types":[],"gradient_booster":{"model":{"gbtree_model_param":{"num_parallel_tree":"1","num_trees":"20"},"iteration_indptr":[0,1,2,3,4,5,6,7,8,9,10,11,12,13,14,15,16,17,18,19,20],"tree_info":[0,0,0,0,0,0,0,0,0,0,0,0,0,0,0,0,0,0,0,0],"trees":[{"base_weights":[7.8074756E-8,-3.3445087E-1,1.2646004E0,-7.143344E-1,1.4299E-2,8.6241084E-1,2.157467E0,-4.4698152E-1,-9.071237E-1,7.357087E-1,-1.8305266E-1,1.4227115E0,5.491042E-1,1.6766824E0,2.502606E0,-6.891511E-2,-1.5608436E-2,-1.11295216E-1,-7.2251074E-2,2.303086E-2,1.0552752E-1,-3.529857E-2,7.3647276E-3,8.921446E-2,1.6573088E-1,2.75116E-2,8.205937E-2,1.3565646E-1,2.1784988E-1,2.2206035E-1,2.6950827E-1],"categories":[],"categories_nodes":[],"categories_segments":[],"categories_sizes":[],"default_left":[0,0,0,0,0,0,0,0,0,0,0,0,0,0,0,0,0,0,0,0,0,0,0,0,0,0,0,0,0,0,0],"id":0,"left_children":[1,3,5,7,9,11,13,15,17,19,21,23,25,27,29,-1,-1,-1,-1,-1,-1,-1,-1,-1,-1,-1,-1,-1,-1,-1,-1],"loss_changes":[6.984543E3,1.7302559E3,1.2384761E3,3.2178833E2,9.6968396E2,4.1754456E2,1.7368896E2,1.8453253E2,1.371687E2,2.360445E2,2.333154E2,1.0481848E2,1.1358316E2,6.949365E1,2.7776855E1,0E0,0E0,0E0,0E0,0E0,0E0,0E0,0E0,0E0,0E0,0E0,0E0,0E0,0E0,0E0,0E0],"parents":[2147483647,0,0,1,1,2,2,3,3,4,4,5,5,6,6,7,7,8,8,9,9,10,10,11,11,12,12,13,13,14,14],"right_children":[2,4,6,8,10,12,14,16,18,20,22,24,26,28,30,-1,-1,-1,-1,-1,-1,-1,-1,-1,-1,-1,-1,-1,-1,-1,-1],"split_conditions":[5.0736E0,3.0714E0,6.828E0,4.314229E0,2.3433242E0,2.669708E0,7.8287E0,2.2328E0,2.3687E0,2.5E1,4.125E0,2.2E1,5.7214E0,2.7E1,8.7471E0,-6.891511E-2,-1.5608436E-2,-1.11295216E-1,-7.2251074E-2,2.303086E-2,1.0552752E-1,-3.529857E-2,7.3647276E-3,8.921446E-2,1.6573088E-1,2.75116E-2,8.205937E-2,1.3565646E-1,2.1784988E-1,2.2206035E-1,2.6950827E-1],"split_indices":[0,0,0,2,5,5,0,0,0,1,0,1,0,1,0,0,0,0,0,0,0,0,0,0,0,0,0,0,0,0,0],"split_type":[0,0,0,0,0,0,0,0,0,0,0,0,0,0,0,0,0,0,0,0,0,0,0,0,0,0,0,0,0,0,0],"sum_hessian":[1.6512E4,1.3059E4,3.453E3,6.25E3,6.809E3,2.382E3,1.071E3,2.62E3,3.63E3,1.462E3,5.347E3,8.53E2,1.529E3,4.5E2,6.21E2,1.429E3,1.191E3,1.714E3,1.916E3,5.67E2,8.95E2,3.217E3,2.13E3,2.63E2,5.9E2,7.62E2,7.67E2,2.77E2,1.73E2,2.57E2,3.64E2],"tree_param":{"num_deleted":"0","num_feature":"8","num_nodes":"31","size_leaf_vector":"1"}},{"base_weights":[6.318189E-5,-3.081978E-1,1.1133665E0,-6.1572576E-1,3.563737E-2,7.114977E-1,1.8485576E0,-8.3295844E-2,-7.1009624E-1,6.774083E-1,-1.6650395E-1,1.1512933E0,3.8770226E-1,1.4549302E0,2.2531354E0,1.10138245E-2,-7.027345E-2,-5.056853E-2,-9.0369456E-2,8.217903E-2,-2.7126474E-2,-2.322702E-2,3.0786479E-2,6.6479124E-2,1.3443927E-1,1.9468876E-2,6.483355E-2,1.1596372E-1,1.943907E-1,1.9354534E-1,2.4103633E-1],"categories":[],"categories_nodes":[],"categories_segments":[],"categories_sizes":[],"default_left":[0,0,0,0,0,0,0,0,0,0,0,0,0,0,0,0,0,0,0,0,0,0,0,0,0,0,0,0,0,0,0],"id":1,"left_children":[1,3,5,7,9,11,13,15,17,19,21,23,25,27,29,-1,-1,-1,-1,-1,-1,-1,-1,-1,-1,-1,-1,-1,-1,-1,-1],"loss_changes":[5.6674067E3,1.3675436E3,1.0566924E3,3.4296802E2,7.923642E2,3.295033E2,1.9817676E2,1.2337274E2,2.2903052E2,2.00612E2,1.4498364E2,9.135852E1,6.7082245E1,9.073389E1,2.6402832E1,0E0,0E0,0E0,0E0,0E0,0E0,0E0,0E0,0E0,0E0,0E0,0E0,0E0,0E0,0E0,0E0],"parents":[2147483647,0,0,1,1,2,2,3,3,4,4,5,5,6,6,7,7,8,8,9,9,10,10,11,11,12,12,13,13,14,14],"right_children":[2,4,6,8,10,12,14,16,18,20,22,24,26,28,30,-1,-1,-1,-1,-1,-1,-1,-1,-1,-1,-1,-1,-1,-1,-1,-1],"split_conditions":[5.0253E0,3.1875E0,6.5891E0,2.1589403E0,2.395105E0,2.7457628E0,7.8287E0,3.793E1,3.451E1,3.794E1,4.3E1,2.1E1,5.7214E0,2.7E1,2.1E1,1.10138245E-2,-7.027345E-2,-5.056853E-2,-9.0369456E-2,8.217903E-2,-2.7126474E-2,-2.322702E-2,3.0786479E-2,6.6479124E-2,1.3443927E-1,1.9468876E-2,6.483355E-2,1.1596372E-1,1.943907E-1,1.9354534E-1,2.4103633E-1],"split_indices":[0,0,0,5,5,5,0,6,6,6,1,1,0,1,1,0,0,0,0,0,0,0,0,0,0,0,0,0,0,0,0],"split_type":[0,0,0,0,0,0,0,0,0,0,0,0,0,0,0,0,0,0,0,0,0,0,0,0,0,0,0,0,0,0,0],"sum_hessian":[1.6512E4,1.2932E4,3.58E3,6.826E3,6.106E3,2.316E3,1.264E3,1.028E3,5.798E3,1.462E3,4.644E3,9.81E2,1.335E3,6.43E2,6.21E2,7.84E2,2.44E2,2.822E3,2.976E3,1.269E3,1.93E2,4.079E3,5.65E2,2.8E2,7.01E2,7.68E2,5.67E2,4.03E2,2.4E2,2.1E2,4.11E2],"tree_param":{"num_deleted":"0","num_feature":"8","num_nodes":"31","size_leaf_vector":"1"}},{"base_weights":[1.10913694E-4,-2.390235E-1,1.16784E0,-5.5418247E-1,7.36969E-2,9.018987E-1,1.9887723E0,-7.5023815E-2,-6.391109E-1,7.6118076E-1,-8.4456E-2,1.3725772E0,6.632493E-1,1.6353898E0,2.14018E0,9.9138515E-3,-6.327479E-2,-4.5513462E-2,-8.1335545E-2,9.874634E-3,1.04172684E-1,-2.738764E-2,1.1628962E-2,9.557304E-2,1.542376E-1,4.5133468E-2,9.9477425E-2,1.2626372E-1,2.0405705E-1,-6.0833376E-3,2.1636248E-1],"categories":[],"categories_nodes":[],"categories_segments":[],"categories_sizes":[],"default_left":[0,0,0,0,0,0,0,0,0,0,0,0,0,0,0,0,0,0,0,0,0,0,0,0,0,0,0,0,0,0,0],"id":2,"left_children":[1,3,5,7,9,11,13,15,17,19,21,23,25,27,29,-1,-1,-1,-1,-1,-1,-1,-1,-1,-1,-1,-1,-1,-1,-1,-1],"loss_changes":[4.611439E3,1.3509565E3,6.1103E2,2.7777148E2,7.482186E2,2.3744775E2,3.3204346E1,1.0001415E2,1.8552759E2,2.3907758E2,2.127835E2,4.8992188E1,9.8610535E1,2.9140198E1,2.474585E1,0E0,0E0,0E0,0E0,0E0,0E0,0E0,0E0,0E0,0E0,0E0,0E0,0E0,0E0,0E0,0E0],"parents":[2147483647,0,0,1,1,2,2,3,3,4,4,5,5,6,6,7,7,8,8,9,9,10,10,11,11,12,12,13,13,14,14],"right_children":[2,4,6,8,10,12,14,16,18,20,22,24,26,28,30,-1,-1,-1,-1,-1,-1,-1,-1,-1,-1,-1,-1,-1,-1,-1,-1],"split_conditions":[5.3681E0,3.1875E0,7.6659E0,2.1589403E0,2.3019416E0,2.6575E0,1.9E1,3.793E1,3.451E1,2E1,4.125E0,2.2E1,6.2924E0,8.7471E0,4.805646E0,9.9138515E-3,-6.327479E-2,-4.5513462E-2,-8.1335545E-2,9.874634E-3,1.04172684E-1,-2.738764E-2,1.1628962E-2,9.557304E-2,1.542376E-1,4.5133468E-2,9.9477425E-2,1.2626372E-1,2.0405705E-1,-6.0833376E-3,2.1636248E-1],"split_indices":[0,0,0,5,5,5,1,6,6,1,0,1,0,0,2,0,0,0,0,0,0,0,0,0,0,0,0,0,0,0,0],"split_type":[0,0,0,0,0,0,0,0,0,0,0,0,0,0,0,0,0,0,0,0,0,0,0,0,0,0,0,0,0,0,0],"sum_hessian":[1.6512E4,1.3706E4,2.806E3,6.826E3,6.88E3,2.121E3,6.85E2,1.028E3,5.798E3,1.286E3,5.594E3,7.12E2,1.409E3,2.09E2,4.76E2,7.84E2,2.44E2,2.822E3,2.976E3,3.83E2,9.03E2,2.878E3,2.716E3,2.08E2,5.04E2,8.61E2,5.48E2,1.11E2,9.8E1,5E0,4.71E2],"tree_param":{"num_deleted":"0","num_feature":"8","num_nodes":"31","size_leaf_vector":"1"}},{"base_weights":[1.5150943E-4,-1.9765788E-1,1.1510721E0,-4.44982E-1,1.566294E-1,8.9780545E-1,1.7906832E0,-4.776084E-2,-5.518114E-1,7.188788E-1,-1.4332686E-2,1.3462176E0,6.7243683E-1,1.5582002E0,1.9908717E0,1.2500283E-2,-5.89056E-2,-7.212329E-2,-3.994866E-2,1.5139714E-2,9.416201E-2,1.5864873E-2,-1.9864125E-2,1.413286E-1,4.757763E-2,5.4090995E-2,1.0771898E-1,1.2706947E-1,1.9784938E-1,5.077904E-2,2.0398496E-1],"categories":[],"categories_nodes":[],"categories_segments":[],"categories_sizes":[],"default_left":[0,0,0,0,0,0,0,0,0,0,0,0,0,0,0,0,0,0,0,0,0,0,0,0,0,0,0,0,0,0,0],"id":3,"left_children":[1,3,5,7,9,11,13,15,17,19,21,23,25,27,29,-1,-1,-1,-1,-1,-1,-1,-1,-1,-1,-1,-1,-1,-1,-1,-1],"loss_changes":[3.7596248E3,1.234864E3,3.9073755E2,3.5214087E2,5.5694885E2,1.7463269E2,2.8824463E1,1.6466205E2,1.6849048E2,1.7062604E2,1.4171494E2,3.31875E1,6.1064453E1,3.6395386E1,2.547705E1,0E0,0E0,0E0,0E0,0E0,0E0,0E0,0E0,0E0,0E0,0E0,0E0,0E0,0E0,0E0,0E0],"parents":[2147483647,0,0,1,1,2,2,3,3,4,4,5,5,6,6,7,7,8,8,9,9,10,10,11,11,12,12,13,13,14,14],"right_children":[2,4,6,8,10,12,14,16,18,20,22,24,26,28,30,-1,-1,-1,-1,-1,-1,-1,-1,-1,-1,-1,-1,-1,-1,-1,-1],"split_conditions":[5.5942E0,3.5547E0,7.6659E0,2.2950819E0,2.4149444E0,2.6575E0,8.7471E0,3.793E1,2.5125E0,2E1,2.9758065E0,3.796E1,2.8E1,2.9E1,6.9E1,1.2500283E-2,-5.89056E-2,-7.212329E-2,-3.994866E-2,1.5139714E-2,9.416201E-2,1.5864873E-2,-1.9864125E-2,1.413286E-1,4.757763E-2,5.4090995E-2,1.0771898E-1,1.2706947E-1,1.9784938E-1,5.077904E-2,2.0398496E-1],"split_indices":[0,0,0,5,5,5,0,6,0,1,5,6,1,1,4,0,0,0,0,0,0,0,0,0,0,0,0,0,0,0,0],"split_type":[0,0,0,0,0,0,0,0,0,0,0,0,0,0,0,0,0,0,0,0,0,0,0,0,0,0,0,0,0,0,0],"sum_hessian":[1.6512E4,1.4091E4,2.421E3,8.298E3,5.793E3,1.736E3,6.85E2,1.759E3,6.539E3,1.35E3,4.443E3,5.79E2,1.157E3,3.21E2,3.64E2,1.334E3,4.25E2,3.094E3,3.445E3,3.81E2,9.69E2,2.292E3,2.151E3,5.37E2,4.2E1,8.75E2,2.82E2,1.93E2,1.28E2,1.2E1,3.52E2],"tree_param":{"num_deleted":"0","num_feature":"8","num_nodes":"31","size_leaf_vector":"1"}},{"base_weights":[1.894902E-4,-2.7627042E-1,6.860944E-1,-5.350923E-1,-7.917896E-2,4.0098062E-1,1.289403E0,-2.0585331E-1,-6.6575503E-1,5.4639083E-1,-2.0186065E-1,9.0069395E-1,2.3616743E-1,1.0407187E0,1.6475623E0,5.692856E-4,-4.2064838E-2,-8.0592506E-2,-5.1770348E-2,7.189599E-3,8.468207E-2,-2.4679597E-2,3.722812E-2,4.390293E-2,1.121309E-1,4.040805E-2,4.5283637E-3,7.999517E-2,1.4282398E-1,6.628992E-2,1.6825618E-1],"categories":[],"categories_nodes":[],"categories_segments":[],"categories_sizes":[],"default_left":[0,0,0,0,0,0,0,0,0,0,0,0,0,0,0,0,0,0,0,0,0,0,0,0,0,0,0,0,0,0,0],"id":4,"left_children":[1,3,5,7,9,11,13,15,17,19,21,23,25,27,29,-1,-1,-1,-1,-1,-1,-1,-1,-1,-1,-1,-1,-1,-1,-1,-1],"loss_changes":[3.1314705E3,6.0036395E2,8.155056E2,2.1874524E2,5.130036E2,2.652315E2,1.3384766E2,6.575272E1,7.516284E1,1.5617654E2,1.4425807E2,8.088599E1,7.7707504E1,8.292285E1,2.0320557E1,0E0,0E0,0E0,0E0,0E0,0E0,0E0,0E0,0E0,0E0,0E0,0E0,0E0,0E0,0E0,0E0],"parents":[2147483647,0,0,1,1,2,2,3,3,4,4,5,5,6,6,7,7,8,8,9,9,10,10,11,11,12,12,13,13,14,14],"right_children":[2,4,6,8,10,12,14,16,18,20,22,24,26,28,30,-1,-1,-1,-1,-1,-1,-1,-1,-1,-1,-1,-1,-1,-1,-1,-1],"split_conditions":[4.5417E0,2.7813E0,6.2924E0,3.8976834E0,2.2105262E0,2.516854E0,7.8287E0,-1.1827E2,2.2206E0,2.5E1,4.8E1,2.2E1,3.0374532E0,2.7E1,1.38E2,5.692856E-4,-4.2064838E-2,-8.0592506E-2,-5.1770348E-2,7.189599E-3,8.468207E-2,-2.4679597E-2,3.722812E-2,4.390293E-2,1.121309E-1,4.040805E-2,4.5283637E-3,7.999517E-2,1.4282398E-1,6.628992E-2,1.6825618E-1],"split_indices":[0,0,0,2,5,5,0,7,0,1,1,1,5,1,4,0,0,0,0,0,0,0,0,0,0,0,0,0,0,0,0],"split_type":[0,0,0,0,0,0,0,0,0,0,0,0,0,0,0,0,0,0,0,0,0,0,0,0,0,0,0,0,0,0,0],"sum_hessian":[1.6512E4,1.1769E4,4.743E3,5.087E3,6.682E3,3.222E3,1.521E3,1.446E3,3.641E3,1.095E3,5.587E3,7.98E2,2.424E3,9E2,6.21E2,7.29E2,7.17E2,1.868E3,1.773E3,4.25E2,6.7E2,5.182E3,4.05E2,2.59E2,5.39E2,1.289E3,1.135E3,5.57E2,3.43E2,2.2E1,5.99E2],"tree_param":{"num_deleted":"0","num_feature":"8","num_nodes":"31","size_leaf_vector":"1"}},{"base_weights":[2.061942E-4,-2.0648009E-1,7.4666625E-1,-4.8161727E-1,-2.80319E-2,4.7994706E-1,1.2346044E0,-1.5695079E-1,-5.8957154E-1,6.878106E-1,-1.08614765E-1,9.163268E-1,3.106965E-1,1.0508995E0,1.5901437E0,4.9269036E-3,-3.6684945E-2,-7.89712E-2,-4.923069E-2,1.2343315E-2,9.933211E-2,-3.0343942E-3,-4.5628052E-2,1.5049177E-1,7.76683E-2,4.5024883E-2,8.461168E-3,8.219687E-2,1.4018868E-1,-2.633951E-2,1.6126226E-1],"categories":[],"categories_nodes":[],"categories_segments":[],"categories_sizes":[],"default_left":[0,0,0,0,0,0,0,0,0,0,0,0,0,0,0,0,0,0,0,0,0,0,0,0,0,0,0,0,0,0,0],"id":5,"left_children":[1,3,5,7,9,11,13,15,17,19,21,23,25,27,29,-1,-1,-1,-1,-1,-1,-1,-1,-1,-1,-1,-1,-1,-1,-1,-1],"loss_changes":[2.5478303E3,6.349674E2,4.654475E2,1.7823755E2,4.526684E2,1.7084314E2,8.095178E1,5.5033657E1,7.393469E1,1.367814E2,1.9191296E2,5.201007E1,5.268306E1,6.610211E1,1.8299316E1,0E0,0E0,0E0,0E0,0E0,0E0,0E0,0E0,0E0,0E0,0E0,0E0,0E0,0E0,0E0,0E0],"parents":[2147483647,0,0,1,1,2,2,3,3,4,4,5,5,6,6,7,7,8,8,9,9,10,10,11,11,12,12,13,13,14,14],"right_children":[2,4,6,8,10,12,14,16,18,20,22,24,26,28,30,-1,-1,-1,-1,-1,-1,-1,-1,-1,-1,-1,-1,-1,-1,-1,-1],"split_conditions":[5.0253E0,2.7813E0,6.5891E0,3.8045602E0,2.048583E0,2.5770235E0,8.4411E0,-1.1827E2,1.962E0,2.2E1,3.794E1,2.048583E0,3.1413794E0,2.7E1,4.805646E0,4.9269036E-3,-3.6684945E-2,-7.89712E-2,-4.923069E-2,1.2343315E-2,9.933211E-2,-3.0343942E-3,-4.5628052E-2,1.5049177E-1,7.76683E-2,4.5024883E-2,8.461168E-3,8.219687E-2,1.4018868E-1,-2.633951E-2,1.6126226E-1],"split_indices":[0,0,0,2,5,5,0,7,0,1,6,5,5,1,2,0,0,0,0,0,0,0,0,0,0,0,0,0,0,0,0],"split_type":[0,0,0,0,0,0,0,0,0,0,0,0,0,0,0,0,0,0,0,0,0,0,0,0,0,0,0,0,0,0,0],"sum_hessian":[1.6512E4,1.2932E4,3.58E3,5.087E3,7.845E3,2.316E3,1.264E3,1.27E3,3.817E3,7.93E2,7.052E3,6.46E2,1.67E3,8.36E2,4.28E2,6.41E2,6.29E2,1.246E3,2.571E3,2.79E2,5.14E2,5.757E3,1.295E3,1.22E2,5.24E2,1.032E3,6.38E2,5.08E2,3.28E2,5E0,4.23E2],"tree_param":{"num_deleted":"0","num_feature":"8","num_nodes":"31","size_leaf_vector":"1"}},{"base_weights":[2.183815E-4,-2.3938134E-1,5.3266734E-1,5.0007075E-2,-3.5886213E-1,3.1391436E-1,1.0503107E0,2.2054817E-1,-4.65384E-1,-5.3088003E-1,-2.4691541E-1,6.14733E-1,1.0449546E-1,8.613952E-1,1.3643215E0,1.3066004E-1,1.2356765E-2,-2.4157545E-2,-6.0805447E-2,-1.6923333E-2,-6.21154E-2,2.3673907E-2,-2.8463978E-2,2.422315E-2,7.8106456E-2,-1.4916338E-2,1.8238416E-2,7.407431E-2,1.4777796E-1,1.3887225E-1,-1.9343766E-4],"categories":[],"categories_nodes":[],"categories_segments":[],"categories_sizes":[],"default_left":[0,0,0,0,0,0,0,0,0,0,0,0,0,0,0,0,0,0,0,0,0,0,0,0,0,0,0,0,0,0,0],"id":6,"left_children":[1,3,5,7,9,11,13,15,17,19,21,23,25,27,29,-1,-1,-1,-1,-1,-1,-1,-1,-1,-1,-1,-1,-1,-1,-1,-1],"loss_changes":[2.1067673E3,3.9380804E2,5.800049E2,2.9270627E2,1.5509827E2,2.2697736E2,8.911206E1,2.6336395E2,2.6291885E1,1.0361517E2,8.91969E1,9.1447754E1,4.203093E1,6.977814E1,1.9005249E1,0E0,0E0,0E0,0E0,0E0,0E0,0E0,0E0,0E0,0E0,0E0,0E0,0E0,0E0,0E0,0E0],"parents":[2147483647,0,0,1,1,2,2,3,3,4,4,5,5,6,6,7,7,8,8,9,9,10,10,11,11,12,12,13,13,14,14],"right_children":[2,4,6,8,10,12,14,16,18,20,22,24,26,28,30,-1,-1,-1,-1,-1,-1,-1,-1,-1,-1,-1,-1,-1,-1,-1,-1],"split_conditions":[4.3958E0,2.448485E0,6.2924E0,3.794E1,2.6205E0,2.734E0,3E1,-1.2232E2,3.854E1,3.6454353E0,-1.2239E2,2.2E1,1.6E1,9.281E0,3.8E1,1.3066004E-1,1.2356765E-2,-2.4157545E-2,-6.0805447E-2,-1.6923333E-2,-6.21154E-2,2.3673907E-2,-2.8463978E-2,2.422315E-2,7.8106456E-2,-1.4916338E-2,1.8238416E-2,7.407431E-2,1.4777796E-1,1.3887225E-1,-1.9343766E-4],"split_indices":[0,5,0,6,0,5,1,7,6,2,7,1,1,0,6,0,0,0,0,0,0,0,0,0,0,0,0,0,0,0,0],"split_type":[0,0,0,0,0,0,0,0,0,0,0,0,0,0,0,0,0,0,0,0,0,0,0,0,0,0,0,0,0,0,0],"sum_hessian":[1.6512E4,1.1388E4,5.124E3,3.328E3,8.06E3,3.603E3,1.521E3,2.501E3,8.27E2,3.176E3,4.884E3,1.478E3,2.125E3,9.52E2,5.69E2,2.04E2,2.297E3,3.23E2,5.04E2,6.35E2,2.541E3,3.53E2,4.531E3,4.57E2,1.021E3,4.99E2,1.626E3,7.98E2,1.54E2,5.59E2,1E1],"tree_param":{"num_deleted":"0","num_feature":"8","num_nodes":"31","size_leaf_vector":"1"}},{"base_weights":[2.2323703E-4,-2.4585749E-1,4.272876E-1,2.2851074E-1,-3.0471364E-1,2.5253743E-1,9.455165E-1,-1.677175E-1,4.6136862E-1,-4.8788992E-1,-2.0587638E-1,6.958222E-1,1.262631E-1,7.5508225E-1,1.2198505E0,-8.323695E-3,-6.961001E-2,2.6328699E-3,6.925426E-2,-1.5518115E-3,-5.5797618E-2,-4.965778E-3,-3.5871044E-2,1.1234774E-2,8.590812E-2,2.9663518E-2,-1.437927E-3,5.5942666E-2,1.0206505E-1,1.318812E-1,8.939956E-2],"categories":[],"categories_nodes":[],"categories_segments":[],"categories_sizes":[],"default_left":[0,0,0,0,0,0,0,0,0,0,0,0,0,0,0,0,0,0,0,0,0,0,0,0,0,0,0,0,0,0,0],"id":7,"left_children":[1,3,5,7,9,11,13,15,17,19,21,23,25,27,29,-1,-1,-1,-1,-1,-1,-1,-1,-1,-1,-1,-1,-1,-1,-1,-1],"loss_changes":[1.7354943E3,2.9258215E2,5.464756E2,1.06827835E2,1.6865295E2,2.5269745E2,7.859216E1,1.9091785E1,7.329721E1,1.081181E2,1.4457236E2,9.5256226E1,8.4253006E1,4.6244873E1,1.8878723E1,0E0,0E0,0E0,0E0,0E0,0E0,0E0,0E0,0E0,0E0,0E0,0E0,0E0,0E0,0E0,0E0],"parents":[2147483647,0,0,1,1,2,2,3,3,4,4,5,5,6,6,7,7,8,8,9,9,10,10,11,11,12,12,13,13,14,14],"right_children":[2,4,6,8,10,12,14,16,18,20,22,24,26,28,30,-1,-1,-1,-1,-1,-1,-1,-1,-1,-1,-1,-1,-1,-1,-1,-1],"split_conditions":[4.125E0,2.0333333E0,6.2924E0,2.5263E0,2.4583E0,2.448485E0,7.8287E0,-1.1714E2,2.3E1,3.3595707E0,5.0460706E0,1.7E1,2.9310346E0,2.6E1,-1.18E2,-8.323695E-3,-6.961001E-2,2.6328699E-3,6.925426E-2,-1.5518115E-3,-5.5797618E-2,-4.965778E-3,-3.5871044E-2,1.1234774E-2,8.590812E-2,2.9663518E-2,-1.437927E-3,5.5942666E-2,1.0206505E-1,1.318812E-1,8.939956E-2],"split_indices":[0,5,0,0,0,5,0,7,1,2,2,1,5,1,7,0,0,0,0,0,0,0,0,0,0,0,0,0,0,0,0],"split_type":[0,0,0,0,0,0,0,0,0,0,0,0,0,0,0,0,0,0,0,0,0,0,0,0,0,0,0,0,0,0,0],"sum_hessian":[1.6512E4,1.0476E4,6.036E3,1.156E3,9.32E3,4.515E3,1.521E3,4.28E2,7.28E2,3.265E3,6.055E3,1E3,3.515E3,9E2,6.21E2,3.7E2,5.8E1,2.53E2,4.75E2,4.22E2,2.843E3,2.995E3,3.06E3,2.19E2,7.81E2,1.589E3,1.926E3,5.2E2,3.8E2,4.74E2,1.47E2],"tree_param":{"num_deleted":"0","num_feature":"8","num_nodes":"31","size_leaf_vector":"1"}},{"base_weights":[2.2514172E-4,-1.2179605E-1,7.101849E-1,-2.804368E-1,1.05453074E-1,5.4405713E-1,1.0370845E0,-1.2479692E-1,-4.1713068E-1,8.35552E-1,3.8447868E-2,7.235194E-1,2.445478E-1,1.1327232E0,7.525389E-1,-3.4750015E-2,5.0146477E-3,-5.5836376E-2,-3.3142846E-2,7.920713E-3,1.1313807E-1,2.126343E-2,-1.10156E-2,4.2677384E-2,8.6343445E-2,2.104516E-2,6.535747E-2,-2.859444E-2,1.1545161E-1,-6.351339E-2,7.969012E-2],"categories":[],"categories_nodes":[],"categories_segments":[],"categories_sizes":[],"default_left":[0,0,0,0,0,0,0,0,0,0,0,0,0,0,0,0,0,0,0,0,0,0,0,0,0,0,0,0,0,0,0],"id":8,"left_children":[1,3,5,7,9,11,13,15,17,19,21,23,25,27,29,-1,-1,-1,-1,-1,-1,-1,-1,-1,-1,-1,-1,-1,-1,-1,-1],"loss_changes":[1.4306099E3,5.080599E2,1.3096753E2,1.7650934E2,2.8341284E2,8.625412E1,2.132666E1,1.5126193E2,5.3290466E1,1.08875916E2,1.374198E2,4.1358215E1,8.285999E0,1.9127563E1,1.3310669E1,0E0,0E0,0E0,0E0,0E0,0E0,0E0,0E0,0E0,0E0,0E0,0E0,0E0,0E0,0E0,0E0],"parents":[2147483647,0,0,1,1,2,2,3,3,4,4,5,5,6,6,7,7,8,8,9,9,10,10,11,11,12,12,13,13,14,14],"right_children":[2,4,6,8,10,12,14,16,18,20,22,24,26,28,30,-1,-1,-1,-1,-1,-1,-1,-1,-1,-1,-1,-1,-1,-1,-1,-1],"split_conditions":[5.5942E0,3.5547E0,7.3518E0,4.5315986E0,2.048583E0,3.0088692E0,-1.1799E2,2.2328E0,2.5125E0,1.8E1,2.805492E0,2.2E1,7.0568E0,4.805646E0,1.38E2,-3.4750015E-2,5.0146477E-3,-5.5836376E-2,-3.3142846E-2,7.920713E-3,1.1313807E-1,2.126343E-2,-1.10156E-2,4.2677384E-2,8.6343445E-2,2.104516E-2,6.535747E-2,-2.859444E-2,1.1545161E-1,-6.351339E-2,7.969012E-2],"split_indices":[0,0,0,2,5,5,7,0,0,1,5,1,0,2,4,0,0,0,0,0,0,0,0,0,0,0,0,0,0,0,0],"split_type":[0,0,0,0,0,0,0,0,0,0,0,0,0,0,0,0,0,0,0,0,0,0,0,0,0,0,0,0,0,0,0],"sum_hessian":[1.6512E4,1.4091E4,2.421E3,8.298E3,5.793E3,1.607E3,8.14E2,3.881E3,4.417E3,4.86E2,5.307E3,1.004E3,6.03E2,6.07E2,2.07E2,1.707E3,2.174E3,1.666E3,2.751E3,1.37E2,3.49E2,2.443E3,2.864E3,3.23E2,6.81E2,5.58E2,4.5E1,9E0,5.98E2,6E0,2.01E2],"tree_param":{"num_deleted":"0","num_feature":"8","num_nodes":"31","size_leaf_vector":"1"}},{"base_weights":[2.2267124E-4,-1.5988685E-1,4.4808012E-1,3.1966425E-2,-2.7814877E-1,3.16633E-1,8.834455E-1,1.8073148E-1,-3.9083356E-1,-2.2715501E-1,-5.1662815E-1,6.856925E-1,2.0002443E-1,6.702676E-1,1.0272893E0,1.2160509E-1,9.480598E-3,-3.1391885E-2,-6.568783E-2,-4.605941E-3,-3.8332935E-2,-3.9321523E-2,-6.32057E-2,3.44578E-2,8.395585E-2,1.5740538E-2,6.723463E-2,5.4809477E-2,1.06831156E-1,2.7159724E-2,1.0693854E-1],"categories":[],"categories_nodes":[],"categories_segments":[],"categories_sizes":[],"default_left":[0,0,0,0,0,0,0,0,0,0,0,0,0,0,0,0,0,0,0,0,0,0,0,0,0,0,0,0,0,0,0],"id":9,"left_children":[1,3,5,7,9,11,13,15,17,19,21,23,25,27,29,-1,-1,-1,-1,-1,-1,-1,-1,-1,-1,-1,-1,-1,-1,-1,-1],"loss_changes":[1.1841567E3,2.760198E2,2.4860278E2,2.9191672E2,9.140607E1,1.4368747E2,3.022107E1,3.0528552E2,2.4512802E1,1.7539029E2,1.8626648E1,4.1804443E1,5.1044266E1,1.9304184E1,1.879657E1,0E0,0E0,0E0,0E0,0E0,0E0,0E0,0E0,0E0,0E0,0E0,0E0,0E0,0E0,0E0,0E0],"parents":[2147483647,0,0,1,1,2,2,3,3,4,4,5,5,6,6,7,7,8,8,9,9,10,10,11,11,12,12,13,13,14,14],"right_children":[2,4,6,8,10,12,14,16,18,20,22,24,26,28,30,-1,-1,-1,-1,-1,-1,-1,-1,-1,-1,-1,-1,-1,-1,-1,-1],"split_conditions":[4.6875E0,2.6063492E0,6.9343E0,3.793E1,-1.1778E2,2.516854E0,2.2E1,-1.2231E2,3.941E1,3.451E1,3.369E1,2.2E1,3.9E1,9.281E0,2.71E2,1.2160509E-1,9.480598E-3,-3.1391885E-2,-6.568783E-2,-4.605941E-3,-3.8332935E-2,-3.9321523E-2,-6.32057E-2,3.44578E-2,8.395585E-2,1.5740538E-2,6.723463E-2,5.4809477E-2,1.06831156E-1,2.7159724E-2,1.0693854E-1],"split_indices":[0,5,0,6,7,5,1,7,6,6,6,1,1,0,4,0,0,0,0,0,0,0,0,0,0,0,0,0,0,0,0],"split_type":[0,0,0,0,0,0,0,0,0,0,0,0,0,0,0,0,0,0,0,0,0,0,0,0,0,0,0,0,0,0,0],"sum_hessian":[1.6512E4,1.2164E4,4.348E3,4.639E3,7.525E3,3.341E3,1.007E3,3.432E3,1.207E3,6.201E3,1.324E3,8.01E2,2.54E3,4.08E2,5.99E2,2.62E2,3.17E3,9.38E2,2.69E2,2.872E3,3.329E3,6.42E2,6.82E2,2.5E2,5.51E2,2.331E3,2.09E2,3.14E2,9.4E1,3.2E1,5.67E2],"tree_param":{"num_deleted":"0","num_feature":"8","num_nodes":"31","size_leaf_vector":"1"}},{"base_weights":[2.2372944E-4,-2.0382653E-1,2.9590443E-1,4.7773656E-2,-2.7113065E-1,1.4459343E-1,6.301457E-1,1.203667E-1,-5.933467E-1,-1.5176277E-1,-3.9117342E-1,8.2792634E-1,8.782779E-2,4.6926218E-1,8.5327476E-1,2.9870478E-2,-2.9437318E-2,-5.4493096E-2,-1.0260501E-1,-5.42737E-4,-4.6251427E-2,-1.1663017E-2,-5.854982E-2,3.7360978E-3,1.12807386E-1,5.272242E-2,3.578769E-3,3.889596E-2,9.576869E-2,9.272393E-2,4.5956492E-2],"categories":[],"categories_nodes":[],"categories_segments":[],"categories_sizes":[],"default_left":[0,0,0,0,0,0,0,0,0,0,0,0,0,0,0,0,0,0,0,0,0,0,0,0,0,0,0,0,0,0,0],"id":10,"left_children":[1,3,5,7,9,11,13,15,17,19,21,23,25,27,29,-1,-1,-1,-1,-1,-1,-1,-1,-1,-1,-1,-1,-1,-1,-1,-1],"loss_changes":[9.963511E2,1.6547238E2,3.409319E2,9.608526E1,1.10404785E2,1.800285E2,7.502081E1,1.3721701E2,3.8403091E0,1.7584525E2,2.0495801E2,8.443173E1,9.8031525E1,4.7595703E1,2.5170898E1,0E0,0E0,0E0,0E0,0E0,0E0,0E0,0E0,0E0,0E0,0E0,0E0,0E0,0E0,0E0,0E0],"parents":[2147483647,0,0,1,1,2,2,3,3,4,4,5,5,6,6,7,7,8,8,9,9,10,10,11,11,12,12,13,13,14,14],"right_children":[2,4,6,8,10,12,14,16,18,20,22,24,26,28,30,-1,-1,-1,-1,-1,-1,-1,-1,-1,-1,-1,-1,-1,-1,-1,-1],"split_conditions":[3.9375E0,2.2950819E0,5.826E0,-1.1715E2,3.444E1,2.0605633E0,2.7E1,3.782E1,-1.1617E2,-1.178E2,-1.2162E2,1.7E1,-1.2226E2,8.7471E0,3.781E1,2.9870478E-2,-2.9437318E-2,-5.4493096E-2,-1.0260501E-1,-5.42737E-4,-4.6251427E-2,-1.1663017E-2,-5.854982E-2,3.7360978E-3,1.12807386E-1,5.272242E-2,3.578769E-3,3.889596E-2,9.576869E-2,9.272393E-2,4.5956492E-2],"split_indices":[0,5,0,7,6,5,1,6,7,7,7,1,7,0,6,0,0,0,0,0,0,0,0,0,0,0,0,0,0,0,0],"split_type":[0,0,0,0,0,0,0,0,0,0,0,0,0,0,0,0,0,0,0,0,0,0,0,0,0,0,0,0,0,0,0],"sum_hessian":[1.6512E4,9.77E3,6.742E3,2.062E3,7.708E3,4.642E3,2.1E3,1.853E3,2.09E2,3.866E3,3.842E3,3.55E2,4.287E3,1.222E3,8.78E2,1.296E3,5.57E2,1.9E2,1.9E1,2.629E3,1.237E3,1.593E3,2.249E3,9.8E1,2.57E2,4.53E2,3.834E3,1.051E3,1.71E2,7.38E2,1.4E2],"tree_param":{"num_deleted":"0","num_feature":"8","num_nodes":"31","size_leaf_vector":"1"}},{"base_weights":[2.1182957E-4,-1.7352524E-1,2.8275558E-1,1.721169E-1,-2.1682552E-1,1.3995963E-1,5.6726134E-1,-6.9623284E-2,4.3479374E-1,-1.7272538E-1,-4.8643667E-1,5.8078784E-1,6.622409E-2,4.224462E-1,7.681051E-1,1.4826575E-2,-4.031145E-2,6.288642E-2,-2.5939688E-2,6.279436E-2,-2.1273023E-2,-5.5037566E-2,-3.0500118E-2,7.630312E-3,7.800578E-2,4.8173927E-2,1.7593129E-3,2.7926996E-2,6.496625E-2,7.9154216E-2,-3.3438776E-2],"categories":[],"categories_nodes":[],"categories_segments":[],"categories_sizes":[],"default_left":[0,0,0,0,0,0,0,0,0,0,0,0,0,0,0,0,0,0,0,0,0,0,0,0,0,0,0,0,0,0,0],"id":11,"left_children":[1,3,5,7,9,11,13,15,17,19,21,23,25,27,29,-1,-1,-1,-1,-1,-1,-1,-1,-1,-1,-1,-1,-1,-1,-1,-1],"loss_changes":[8.1064453E2,1.5308374E2,2.5537863E2,7.2356255E1,1.0797125E2,1.3609125E2,6.078351E1,4.3222225E1,7.372126E1,2.50357E2,1.4646362E1,6.025766E1,7.25141E1,3.9605164E1,2.2977295E1,0E0,0E0,0E0,0E0,0E0,0E0,0E0,0E0,0E0,0E0,0E0,0E0,0E0,0E0,0E0,0E0],"parents":[2147483647,0,0,1,1,2,2,3,3,4,4,5,5,6,6,7,7,8,8,9,9,10,10,11,11,12,12,13,13,14,14],"right_children":[2,4,6,8,10,12,14,16,18,20,22,24,26,28,30,-1,-1,-1,-1,-1,-1,-1,-1,-1,-1,-1,-1,-1,-1,-1,-1],"split_conditions":[4.0556E0,2.0333333E0,5.826E0,2.8E1,3.848E1,2.2777777E0,2.7E1,-1.1824E2,3.782E1,-1.2236E2,-1.2135E2,1.8E1,-1.2224E2,7.2216E0,3.803E1,1.4826575E-2,-4.031145E-2,6.288642E-2,-2.5939688E-2,6.279436E-2,-2.1273023E-2,-5.5037566E-2,-3.0500118E-2,7.630312E-3,7.800578E-2,4.8173927E-2,1.7593129E-3,2.7926996E-2,6.496625E-2,7.9154216E-2,-3.3438776E-2],"split_indices":[0,5,0,1,6,5,1,7,6,7,7,1,7,0,6,0,0,0,0,0,0,0,0,0,0,0,0,0,0,0,0],"split_type":[0,0,0,0,0,0,0,0,0,0,0,0,0,0,0,0,0,0,0,0,0,0,0,0,0,0,0,0,0,0,0],"sum_hessian":[1.6512E4,1.0225E4,6.287E3,1.138E3,9.087E3,4.187E3,2.1E3,5.93E2,5.45E2,7.811E3,1.276E3,5.99E2,3.588E3,1.222E3,8.78E2,3.59E2,2.34E2,4.26E2,1.19E2,3.71E2,7.44E3,9.42E2,3.34E2,1.7E2,4.29E2,3.75E2,3.213E3,7.51E2,4.71E2,8.6E2,1.8E1],"tree_param":{"num_deleted":"0","num_feature":"8","num_nodes":"31","size_leaf_vector":"1"}},{"base_weights":[2.0528917E-4,-1.7320915E-1,2.3282598E-1,-1.2148199E-2,-2.4813789E-1,1.1495023E-1,5.106012E-1,9.527967E-2,-2.9052204E-1,-1.4271507E-1,-3.6526984E-1,2.7521616E-1,-5.564731E-2,4.2276543E-1,7.969935E-1,2.6172057E-2,-3.108183E-2,-2.2794794E-2,-5.0240364E-2,-2.5304847E-3,-4.080176E-2,-2.4752313E-2,-6.794822E-2,3.7038397E-2,-2.147818E-2,1.4862864E-2,-1.2626538E-2,6.9312416E-2,3.1069372E-2,8.1795074E-2,-4.1859638E-2],"categories":[],"categories_nodes":[],"categories_segments":[],"categories_sizes":[],"default_left":[0,0,0,0,0,0,0,0,0,0,0,0,0,0,0,0,0,0,0,0,0,0,0,0,0,0,0,0,0,0,0],"id":12,"left_children":[1,3,5,7,9,11,13,15,17,19,21,23,25,27,29,-1,-1,-1,-1,-1,-1,-1,-1,-1,-1,-1,-1,-1,-1,-1,-1],"loss_changes":[6.661712E2,1.1417325E2,2.3087735E2,8.989253E1,7.9681335E1,1.3543517E2,5.251477E1,1.4668689E2,1.0982681E1,1.0589705E2,1.1297012E2,1.19177734E2,3.4640137E1,4.8566956E1,1.2876282E1,0E0,0E0,0E0,0E0,0E0,0E0,0E0,0E0,0E0,0E0,0E0,0E0,0E0,0E0,0E0,0E0],"parents":[2147483647,0,0,1,1,2,2,3,3,4,4,5,5,6,6,7,7,8,8,9,9,10,10,11,11,12,12,13,13,14,14],"right_children":[2,4,6,8,10,12,14,16,18,20,22,24,26,28,30,-1,-1,-1,-1,-1,-1,-1,-1,-1,-1,-1,-1,-1,-1,-1,-1],"split_conditions":[3.8393E0,2.4851694E0,5.826E0,3.79E1,3.444E1,2.8362572E0,8.1988E0,-1.1789E2,3.941E1,-1.178E2,-1.2017E2,3.793E1,-1.2149E2,2.6E0,3.805E1,2.6172057E-2,-3.108183E-2,-2.2794794E-2,-5.0240364E-2,-2.5304847E-3,-4.080176E-2,-2.4752313E-2,-6.794822E-2,3.7038397E-2,-2.147818E-2,1.4862864E-2,-1.2626538E-2,6.9312416E-2,3.1069372E-2,8.1795074E-2,-4.1859638E-2],"split_indices":[0,5,0,6,6,5,0,7,6,7,7,6,7,5,6,0,0,0,0,0,0,0,0,0,0,0,0,0,0,0,0],"split_type":[0,0,0,0,0,0,0,0,0,0,0,0,0,0,0,0,0,0,0,0,0,0,0,0,0,0,0,0,0,0,0],"sum_hessian":[1.6512E4,9.46E3,7.052E3,3.004E3,6.456E3,4.952E3,2.1E3,2.168E3,8.36E2,3.399E3,3.057E3,2.553E3,2.399E3,1.609E3,4.91E2,1.538E3,6.3E2,6.47E2,1.89E2,2.357E3,1.042E3,2.225E3,8.32E2,2.138E3,4.15E2,6.16E2,1.783E3,4.7E2,1.139E3,4.83E2,8E0],"tree_param":{"num_deleted":"0","num_feature":"8","num_nodes":"31","size_leaf_vector":"1"}},{"base_weights":[1.8138776E-4,-8.520642E-2,3.8482496E-1,-2.3879269E-1,1.3431316E-2,3.0104873E-1,6.669782E-1,6.9851376E-2,-2.790053E-1,1.806885E-1,-1.1030861E-1,7.824388E-1,2.4936019E-1,-2.4625054E-2,6.942605E-1,-2.092118E-2,2.3348365E-2,-4.3270182E-2,-2.079073E-2,2.8633147E-2,-1.892941E-2,3.1448822E-2,-1.410939E-2,-2.1134758E-2,9.372066E-2,2.9037336E-2,-1.4442407E-2,3.4311127E-2,-9.4088785E-2,5.7343304E-2,8.561926E-2],"categories":[],"categories_nodes":[],"categories_segments":[],"categories_sizes":[],"default_left":[0,0,0,0,0,0,0,0,0,0,0,0,0,0,0,0,0,0,0,0,0,0,0,0,0,0,0,0,0,0,0],"id":13,"left_children":[1,3,5,7,9,11,13,15,17,19,21,23,25,27,29,-1,-1,-1,-1,-1,-1,-1,-1,-1,-1,-1,-1,-1,-1,-1,-1],"loss_changes":[5.4238367E2,2.0473218E2,7.07124E1,6.561365E1,1.7035124E2,5.7407562E1,1.2960876E1,2.7903728E1,5.100708E1,1.368554E2,6.1913982E1,3.4650635E1,3.382843E1,9.420293E0,1.2422485E1,0E0,0E0,0E0,0E0,0E0,0E0,0E0,0E0,0E0,0E0,0E0,0E0,0E0,0E0,0E0,0E0],"parents":[2147483647,0,0,1,1,2,2,3,3,4,4,5,5,6,6,7,7,8,8,9,9,10,10,11,11,12,12,13,13,14,14],"right_children":[2,4,6,8,10,12,14,16,18,20,22,24,26,28,30,-1,-1,-1,-1,-1,-1,-1,-1,-1,-1,-1,-1,-1,-1,-1,-1],"split_conditions":[5.2713E0,2.8378E0,7.6659E0,3.3595707E0,2.6640928E0,2.2600896E0,1.38E2,3.405E1,1.962E0,3.782E1,-1.2239E2,4.1E2,3.796E1,-1.1836E2,9.281E0,-2.092118E-2,2.3348365E-2,-4.3270182E-2,-2.079073E-2,2.8633147E-2,-1.892941E-2,3.1448822E-2,-1.410939E-2,-2.1134758E-2,9.372066E-2,2.9037336E-2,-1.4442407E-2,3.4311127E-2,-9.4088785E-2,5.7343304E-2,8.561926E-2],"split_indices":[0,0,0,2,5,5,4,6,0,6,7,4,6,7,0,0,0,0,0,0,0,0,0,0,0,0,0,0,0,0,0],"split_type":[0,0,0,0,0,0,0,0,0,0,0,0,0,0,0,0,0,0,0,0,0,0,0,0,0,0,0,0,0,0,0],"sum_hessian":[1.6512E4,1.3513E4,2.999E3,5.284E3,8.229E3,2.314E3,6.85E2,6.09E2,4.675E3,3.499E3,4.73E3,2.23E2,2.091E3,2.6E1,6.59E2,2.25E2,3.84E2,1.477E3,3.198E3,2.722E3,7.77E2,3.19E2,4.411E3,3E1,1.93E2,1.894E3,1.97E2,1.9E1,7E0,3.8E2,2.79E2],"tree_param":{"num_deleted":"0","num_feature":"8","num_nodes":"31","size_leaf_vector":"1"}},{"base_weights":[1.7148005E-4,-1.5633507E-1,1.7663956E-1,-6.068807E-2,-2.5382188E-1,2.316935E-1,-2.4337365E-1,4.6199884E-2,-2.7104932E-1,-2.7710575E-1,8.558028E-2,3.4795713E-1,-1.9907037E-2,1.991166E-1,-3.8170022E-1,-1.6018031E-2,1.6547123E-2,8.151936E-3,-2.9840559E-2,-1.6057273E-2,-3.3499036E-2,7.125668E-2,-4.778733E-3,4.4577714E-2,7.2411755E-3,8.89416E-3,-3.0097669E-2,3.2324385E-2,-6.4142026E-2,-2.9806433E-2,-5.2821018E-2],"categories":[],"categories_nodes":[],"categories_segments":[],"categories_sizes":[],"default_left":[0,0,0,0,0,0,0,0,0,0,0,0,0,0,0,0,0,0,0,0,0,0,0,0,0,0,0,0,0,0,0],"id":14,"left_children":[1,3,5,7,9,11,13,15,17,19,21,23,25,27,29,-1,-1,-1,-1,-1,-1,-1,-1,-1,-1,-1,-1,-1,-1,-1,-1],"loss_changes":[4.5609042E2,8.159105E1,1.7954008E2,9.937411E1,3.427356E1,2.0076334E2,5.5163345E1,7.217378E1,1.4385689E1,2.7305817E1,2.3363945E1,1.2648901E2,6.641586E1,2.2639038E1,8.248451E0,0E0,0E0,0E0,0E0,0E0,0E0,0E0,0E0,0E0,0E0,0E0,0E0,0E0,0E0,0E0,0E0],"parents":[2147483647,0,0,1,1,2,2,3,3,4,4,5,5,6,6,7,7,8,8,9,9,10,10,11,11,12,12,13,13,14,14],"right_children":[2,4,6,8,10,12,14,16,18,20,22,24,26,28,30,-1,-1,-1,-1,-1,-1,-1,-1,-1,-1,-1,-1,-1,-1,-1,-1],"split_conditions":[3.6591E0,4.646988E0,3.797E1,3.4362416E0,5E1,-1.1801E2,-1.2239E2,2.2328E0,-1.2166E2,3.444E1,-1.2236E2,3.0966952E0,3.393E1,3.87E1,2.3E1,-1.6018031E-2,1.6547123E-2,8.151936E-3,-2.9840559E-2,-1.6057273E-2,-3.3499036E-2,7.125668E-2,-4.778733E-3,4.4577714E-2,7.2411755E-3,8.89416E-3,-3.0097669E-2,3.2324385E-2,-6.4142026E-2,-2.9806433E-2,-5.2821018E-2],"split_indices":[0,2,6,5,1,7,7,0,7,6,7,5,6,6,1,0,0,0,0,0,0,0,0,0,0,0,0,0,0,0,0],"split_type":[0,0,0,0,0,0,0,0,0,0,0,0,0,0,0,0,0,0,0,0,0,0,0,0,0,0,0,0,0,0,0],"sum_hessian":[1.6512E4,8.751E3,7.761E3,4.418E3,4.333E3,6.862E3,8.99E2,2.93E3,1.488E3,4.055E3,2.78E2,4.693E3,2.169E3,2.14E2,6.85E2,1.073E3,1.857E3,1.07E2,1.381E3,1.347E3,2.708E3,4.8E1,2.3E2,3.463E3,1.23E3,1.564E3,6.05E2,1.87E2,2.7E1,4.38E2,2.47E2],"tree_param":{"num_deleted":"0","num_feature":"8","num_nodes":"31","size_leaf_vector":"1"}},{"base_weights":[1.4900915E-4,-6.926428E-2,3.3910438E-1,-1.650584E-2,-2.8714332E-1,4.201224E-1,1.1874977E-1,7.604338E-1,-5.7797715E-2,-2.4065357E-1,-4.8092484E-1,4.8018724E-1,1.3359559E-1,-6.9970577E-3,3.4511998E-1,5.5994447E-2,1.1356576E-1,1.3477051E-3,-3.0397857E-2,5.837753E-3,-3.132057E-2,-4.1321043E-2,-5.401495E-2,5.87286E-2,1.8052971E-2,2.458314E-2,-5.1481046E-2,3.2436557E-3,-3.522956E-2,1.8757991E-2,5.725639E-2],"categories":[],"categories_nodes":[],"categories_segments":[],"categories_sizes":[],"default_left":[0,0,0,0,0,0,0,0,0,0,0,0,0,0,0,0,0,0,0,0,0,0,0,0,0,0,0,0,0,0,0],"id":15,"left_children":[1,3,5,7,9,11,13,15,17,19,21,23,25,27,29,-1,-1,-1,-1,-1,-1,-1,-1,-1,-1,-1,-1,-1,-1,-1,-1],"loss_changes":[3.8854144E2,1.5755667E2,5.0062622E1,3.5409314E2,2.3955917E1,3.525116E1,2.152221E1,4.1266296E1,1.8389124E2,4.681514E1,1.8461533E0,5.432364E1,2.610701E1,6.6425996E0,9.567108E0,0E0,0E0,0E0,0E0,0E0,0E0,0E0,0E0,0E0,0E0,0E0,0E0,0E0,0E0,0E0,0E0],"parents":[2147483647,0,0,1,1,2,2,3,3,4,4,5,5,6,6,7,7,8,8,9,9,10,10,11,11,12,12,13,13,14,14],"right_children":[2,4,6,8,10,12,14,16,18,20,22,24,26,28,30,-1,-1,-1,-1,-1,-1,-1,-1,-1,-1,-1,-1,-1,-1,-1,-1],"split_conditions":[5.3681E0,3.792E1,3.1413794E0,-1.2231E2,3.941E1,-1.1784E2,6.828E0,3.777E1,-1.1775E2,-1.2239E2,2.5641026E0,3.761E1,3.396E1,3.776E1,8E0,5.5994447E-2,1.1356576E-1,1.3477051E-3,-3.0397857E-2,5.837753E-3,-3.132057E-2,-4.1321043E-2,-5.401495E-2,5.87286E-2,1.8052971E-2,2.458314E-2,-5.1481046E-2,3.2436557E-3,-3.522956E-2,1.8757991E-2,5.725639E-2],"split_indices":[0,6,5,7,6,7,0,6,7,7,5,6,6,6,2,0,0,0,0,0,0,0,0,0,0,0,0,0,0,0,0],"split_type":[0,0,0,0,0,0,0,0,0,0,0,0,0,0,0,0,0,0,0,0,0,0,0,0,0,0,0,0,0,0,0],"sum_hessian":[1.6512E4,1.3706E4,2.806E3,1.1035E4,2.671E3,2.051E3,7.55E2,5.56E2,1.0479E4,2.156E3,5.15E2,1.695E3,3.56E2,4.86E2,2.69E2,3.64E2,1.92E2,8.127E3,2.352E3,4.21E2,1.735E3,2.44E2,2.71E2,1.248E3,4.47E2,3.04E2,5.2E1,4.37E2,4.9E1,1.6E2,1.09E2],"tree_param":{"num_deleted":"0","num_feature":"8","num_nodes":"31","size_leaf_vector":"1"}},{"base_weights":[1.4098283E-4,-1.21401705E-1,1.6318014E-1,-3.069476E-2,-2.1208298E-1,9.672953E-2,4.183352E-1,3.5388745E-2,-2.9202116E-1,-1.3872784E-1,-3.1509006E-1,5.967545E-1,5.89569E-2,2.4570182E-1,5.113267E-1,6.2287867E-2,-1.3831694E-3,-2.964362E-2,1.9599603E-1,1.5412814E-2,-1.9954039E-2,-7.432536E-3,-4.5404457E-2,-3.9860955E-3,8.230002E-2,-1.1056441E-2,1.3422588E-2,4.4491007E-3,3.613385E-2,4.1665692E-2,6.670529E-2],"categories":[],"categories_nodes":[],"categories_segments":[],"categories_sizes":[],"default_left":[0,0,0,0,0,0,0,0,0,0,0,0,0,0,0,0,0,0,0,0,0,0,0,0,0,0,0,0,0,0,0],"id":16,"left_children":[1,3,5,7,9,11,13,15,17,19,21,23,25,27,29,-1,-1,-1,-1,-1,-1,-1,-1,-1,-1,-1,-1,-1,-1,-1,-1],"loss_changes":[3.2724503E2,7.781419E1,1.1954462E2,8.171171E1,3.5704178E1,1.0567682E2,2.3264221E1,1.0922627E2,1.0076157E1,4.9273506E1,6.577292E1,5.6637177E1,6.642905E1,1.1896809E1,1.3668533E1,0E0,0E0,0E0,0E0,0E0,0E0,0E0,0E0,0E0,0E0,0E0,0E0,0E0,0E0,0E0,0E0],"parents":[2147483647,0,0,1,1,2,2,3,3,4,4,5,5,6,6,7,7,8,8,9,9,10,10,11,11,12,12,13,13,14,14],"right_children":[2,4,6,8,10,12,14,16,18,20,22,24,26,28,30,-1,-1,-1,-1,-1,-1,-1,-1,-1,-1,-1,-1,-1,-1,-1,-1],"split_conditions":[3.8393E0,2.805492E0,6.3525E0,3.848E1,3.444E1,2.048583E0,1.9E1,-1.2236E2,2.5636364E1,-1.1829E2,-1.2158E2,1.7E1,1.9E1,1.0072993E0,1.038961E0,6.2287867E-2,-1.3831694E-3,-2.964362E-2,1.9599603E-1,1.5412814E-2,-1.9954039E-2,-7.432536E-3,-4.5404457E-2,-3.9860955E-3,8.230002E-2,-1.1056441E-2,1.3422588E-2,4.4491007E-3,3.613385E-2,4.1665692E-2,6.670529E-2],"split_indices":[0,5,0,6,6,5,1,7,3,7,7,1,1,3,3,0,0,0,0,0,0,0,0,0,0,0,0,0,0,0,0],"split_type":[0,0,0,0,0,0,0,0,0,0,0,0,0,0,0,0,0,0,0,0,0,0,0,0,0,0,0,0,0,0,0],"sum_hessian":[1.6512E4,9.46E3,7.052E3,4.73E3,4.73E3,5.596E3,1.456E3,3.776E3,9.54E2,2.764E3,1.966E3,3.92E2,5.204E3,5.11E2,9.45E2,2.91E2,3.485E3,9.53E2,1E0,4.75E2,2.289E3,7.2E2,1.246E3,1.03E2,2.89E2,1.6E3,3.604E3,1.87E2,3.24E2,5.9E2,3.55E2],"tree_param":{"num_deleted":"0","num_feature":"8","num_nodes":"31","size_leaf_vector":"1"}},{"base_weights":[1.511023E-4,-7.928234E-2,2.0927107E-1,6.019236E-3,-1.8490939E-1,2.4775785E-1,-1.6065407E-1,8.957914E-2,-2.1201393E-1,1.7167528E-1,-2.0075244E-1,3.0931255E-1,-5.7969004E-2,3.482103E-1,-3.2456207E-1,7.613455E-2,4.24229E-3,-1.5695278E-2,-3.9320637E-2,4.83811E-2,-3.3040214E-2,-1.3294456E-2,-3.1588785E-2,4.01284E-2,1.4484263E-2,8.225906E-3,-4.1253608E-2,6.0623504E-2,1.3676335E-2,-8.540123E-2,-2.8330162E-2],"categories":[],"categories_nodes":[],"categories_segments":[],"categories_sizes":[],"default_left":[0,0,0,0,0,0,0,0,0,0,0,0,0,0,0,0,0,0,0,0,0,0,0,0,0,0,0,0,0,0,0],"id":17,"left_children":[1,3,5,7,9,11,13,15,17,19,21,23,25,27,29,-1,-1,-1,-1,-1,-1,-1,-1,-1,-1,-1,-1,-1,-1,-1,-1],"loss_changes":[2.7431604E2,1.0783464E2,6.476225E1,1.20664085E2,3.024176E1,7.751425E1,3.58946E1,1.5164185E2,1.8245476E1,3.589117E1,3.9930283E1,5.1795654E1,3.439063E1,5.645735E0,6.8577957E0,0E0,0E0,0E0,0E0,0E0,0E0,0E0,0E0,0E0,0E0,0E0,0E0,0E0,0E0,0E0,0E0],"parents":[2147483647,0,0,1,1,2,2,3,3,4,4,5,5,6,6,7,7,8,8,9,9,10,10,11,11,12,12,13,13,14,14],"right_children":[2,4,6,8,10,12,14,16,18,20,22,24,26,28,30,-1,-1,-1,-1,-1,-1,-1,-1,-1,-1,-1,-1,-1,-1,-1,-1],"split_conditions":[4.6173E0,2.8965516E0,3.796E1,3.79E1,-1.2239E2,-1.1773E2,-1.2239E2,-1.2231E2,3.941E1,3.832E1,3.451E1,2.9946237E0,3.386E1,3.816E1,5.5914397E0,7.613455E-2,4.24229E-3,-1.5695278E-2,-3.9320637E-2,4.83811E-2,-3.3040214E-2,-1.3294456E-2,-3.1588785E-2,4.01284E-2,1.4484263E-2,8.225906E-3,-4.1253608E-2,6.0623504E-2,1.3676335E-2,-8.540123E-2,-2.8330162E-2],"split_indices":[0,5,6,6,7,7,7,7,6,6,6,5,6,6,2,0,0,0,0,0,0,0,0,0,0,0,0,0,0,0,0],"split_type":[0,0,0,0,0,0,0,0,0,0,0,0,0,0,0,0,0,0,0,0,0,0,0,0,0,0,0,0,0,0,0],"sum_hessian":[1.6512E4,1.1967E4,4.545E3,6.621E3,5.346E3,4.117E3,4.28E2,4.787E3,1.834E3,2.27E2,5.119E3,3.427E3,6.9E2,1.04E2,3.24E2,3.13E2,4.474E3,1.408E3,4.26E2,1.4E2,8.7E1,3.223E3,1.896E3,2.197E3,1.23E3,4.95E2,1.95E2,4.6E1,5.8E1,2.2E1,3.02E2],"tree_param":{"num_deleted":"0","num_feature":"8","num_nodes":"31","size_leaf_vector":"1"}},{"base_weights":[1.3467518E-4,-4.845613E-2,2.8285205E-1,-4.865197E-3,-2.5376248E-1,1.9336051E-1,4.2696908E-1,1.6029985E-1,-1.254448E-1,-1.15423545E-1,-4.285475E-1,1.2784488E-1,5.087147E-1,6.307134E-1,3.1954476E-1,4.4218536E-2,1.0421182E-3,9.091515E-3,-3.6064688E-2,1.8965494E-2,-2.952447E-2,8.116525E-2,-4.3731302E-2,6.363645E-2,9.5952945E-3,-7.395205E-2,5.3641587E-2,6.6604935E-2,-4.192413E-2,1.7380325E-2,4.9244635E-2],"categories":[],"categories_nodes":[],"categories_segments":[],"categories_sizes":[],"default_left":[0,0,0,0,0,0,0,0,0,0,0,0,0,0,0,0,0,0,0,0,0,0,0,0,0,0,0,0,0,0,0],"id":18,"left_children":[1,3,5,7,9,11,13,15,17,19,21,23,25,27,29,-1,-1,-1,-1,-1,-1,-1,-1,-1,-1,-1,-1,-1,-1,-1,-1],"loss_changes":[2.2686044E2,1.2611507E2,3.1154602E1,2.3153822E2,5.96257E1,3.0843262E1,2.00878E1,2.0726712E2,3.4200223E2,7.570733E1,1.2204346E1,2.0048855E1,9.283127E0,1.2114471E1,1.5260563E1,0E0,0E0,0E0,0E0,0E0,0E0,0E0,0E0,0E0,0E0,0E0,0E0,0E0,0E0,0E0,0E0],"parents":[2147483647,0,0,1,1,2,2,3,3,4,4,5,5,6,6,7,7,8,8,9,9,10,10,11,11,12,12,13,13,14,14],"right_children":[2,4,6,8,10,12,14,16,18,20,22,24,26,28,30,-1,-1,-1,-1,-1,-1,-1,-1,-1,-1,-1,-1,-1,-1,-1,-1],"split_conditions":[5.5942E0,-1.1778E2,1.0394737E0,3.451E1,3.369E1,8.4411E0,2.5831532E0,-1.183E2,-1.2166E2,-1.1715E2,8.125E-1,-1.2232E2,4.805646E0,3.836E1,6.9343E0,4.4218536E-2,1.0421182E-3,9.091515E-3,-3.6064688E-2,1.8965494E-2,-2.952447E-2,8.116525E-2,-4.3731302E-2,6.363645E-2,9.5952945E-3,-7.395205E-2,5.3641587E-2,6.6604935E-2,-4.192413E-2,1.7380325E-2,4.9244635E-2],"split_indices":[0,7,3,6,6,0,5,7,7,7,3,7,2,6,0,0,0,0,0,0,0,0,0,0,0,0,0,0,0,0,0],"split_type":[0,0,0,0,0,0,0,0,0,0,0,0,0,0,0,0,0,0,0,0,0,0,0,0,0,0,0,0,0,0,0],"sum_hessian":[1.6512E4,1.4091E4,2.421E3,1.1624E4,2.467E3,1.495E3,9.26E2,4.905E3,6.719E3,1.378E3,1.089E3,1.239E3,2.56E2,3.18E2,6.08E2,1.702E3,3.203E3,3.5E3,3.219E3,5.11E2,8.67E2,7E0,1.082E3,7.2E1,1.167E3,5E0,2.51E2,3.08E2,1E1,3.31E2,2.77E2],"tree_param":{"num_deleted":"0","num_feature":"8","num_nodes":"31","size_leaf_vector":"1"}},{"base_weights":[1.3267006E-4,-1.1416482E-1,1.035158E-1,-4.0433243E-2,-1.883576E-1,1.4572366E-1,-1.6882102E-1,3.526653E-1,-1.4054333E-1,-9.6525714E-2,-5.589927E-1,2.0300592E-1,-1.4149235E-1,1.4111516E-1,-2.6668918E-1,5.660258E-2,1.781776E-2,-5.4208064E-3,-2.5272677E-2,5.6080623E-3,-2.2495601E-2,-8.425123E-2,-5.109001E-2,2.9708384E-2,3.046631E-3,5.2767614E-4,-3.8727123E-2,2.7250513E-2,-5.698061E-2,-4.4443887E-2,-2.0757264E-2],"categories":[],"categories_nodes":[],"categories_segments":[],"categories_sizes":[],"default_left":[0,0,0,0,0,0,0,0,0,0,0,0,0,0,0,0,0,0,0,0,0,0,0,0,0,0,0,0,0,0,0],"id":19,"left_children":[1,3,5,7,9,11,13,15,17,19,21,23,25,27,29,-1,-1,-1,-1,-1,-1,-1,-1,-1,-1,-1,-1,-1,-1,-1,-1],"loss_changes":[1.9513657E2,4.2896347E1,9.96956E1,1.5490413E2,1.3299324E2,1.2355324E2,3.534511E1,2.9644943E1,3.0369354E1,6.143675E1,1.0150467E1,1.0160428E2,4.50569E1,2.6309494E1,9.207272E0,0E0,0E0,0E0,0E0,0E0,0E0,0E0,0E0,0E0,0E0,0E0,0E0,0E0,0E0,0E0,0E0],"parents":[2147483647,0,0,1,1,2,2,3,3,4,4,5,5,6,6,7,7,8,8,9,9,10,10,11,11,12,12,13,13,14,14],"right_children":[2,4,6,8,10,12,14,16,18,20,22,24,26,28,30,-1,-1,-1,-1,-1,-1,-1,-1,-1,-1,-1,-1,-1,-1,-1,-1],"split_conditions":[3.4375E0,3.468E1,3.794E1,-1.183E2,-1.1985E2,-1.1768E2,-1.2239E2,2.5716946E0,-1.1775E2,3.792E1,2.36E0,3.0088692E0,3.364E1,3.87E1,1E0,5.660258E-2,1.781776E-2,-5.4208064E-3,-2.5272677E-2,5.6080623E-3,-2.2495601E-2,-8.425123E-2,-5.109001E-2,2.9708384E-2,3.046631E-3,5.2767614E-4,-3.8727123E-2,2.7250513E-2,-5.698061E-2,-4.4443887E-2,-2.0757264E-2],"split_indices":[0,6,6,7,7,7,7,5,7,6,5,5,6,6,3,0,0,0,0,0,0,0,0,0,0,0,0,0,0,0,0],"split_type":[0,0,0,0,0,0,0,0,0,0,0,0,0,0,0,0,0,0,0,0,0,0,0,0,0,0,0,0,0,0,0],"sum_hessian":[1.6512E4,7.842E3,8.67E3,3.934E3,3.908E3,7.507E3,1.163E3,7.98E2,3.136E3,3.133E3,7.75E2,6.259E3,1.248E3,2.79E2,8.84E2,3.58E2,4.4E2,1.773E3,1.363E3,1.432E3,1.701E3,1.1E2,6.65E2,4.05E3,2.209E3,7.82E2,4.66E2,2.36E2,4.3E1,2.19E2,6.65E2],"tree_param":{"num_deleted":"0","num_feature":"8","num_nodes":"31","size_leaf_vector":"1"}}]},"name":"gbtree"},"learner_model_param":{"base_score":"2.0719469E0","boost_from_average":"1","num_class":"0","num_feature":"8","num_target":"1"},"objective":{"name":"reg:squarederror","reg_loss_param":{"scale_pos_weight":"1"}}},"version":[3,0,4]}