{"learner":{"attributes":{},"feature_names":[],"feature_types":[],"gradient_booster":{"model":{"gbtree_model_param":{"num_parallel_tree":"1","num_trees":"20"},"iteration_indptr":[0,1,2,3,4,5,6,7,8,9,10,11,12,13,14,15,16,17,18,19,20],"tree_info":[0,0,0,0,0,0,0,0,0,0,0,0,0,0,0,0,0,0,0,0],"trees":[{"base_weights":[-9.05403E-8,-7.562396E-1,1.3121505E0,-1.2959174E0,-2.0642409E-1,8.4642994E-1,1.8236705E0,-8.3503723E-1,-1.5967882E0,8.008639E-1,-6.009219E-1,1.2670453E0,1.2247897E-1,1.861237E0,1.2198553E0,-3.1203836E-2,-1.5211779E-1,-9.642376E-2,-1.7183094E-1,1.1425747E-1,-7.916587E-2,-3.8494807E-2,-1.5065895E-1,6.1377402E-2,1.5294716E-1,4.1372422E-2,-1.0673173E-1,1.6744737E-1,1.9250411E-1,1.5396385E-1,3.3738337E-2],"categories":[],"categories_nodes":[],"categories_segments":[],"categories_sizes":[],"default_left":[0,0,0,0,0,0,0,0,0,0,0,0,0,0,0,0,0,0,0,0,0,0,0,0,0,0,0,0,0,0,0],"id":0,"left_children":[1,3,5,7,9,11,13,15,17,19,21,23,25,27,29,-1,-1,-1,-1,-1,-1,-1,-1,-1,-1,-1,-1,-1,-1,-1,-1],"loss_changes":[4.0981934E3,7.7714624E2,3.5817603E2,1.8198193E2,5.1666797E2,2.410885E2,1.4032959E1,1.8765256E2,5.9741577E1,2.0007492E2,1.821106E2,8.495026E1,1.01712616E2,4.8171387E0,1.2179504E1,0E0,0E0,0E0,0E0,0E0,0E0,0E0,0E0,0E0,0E0,0E0,0E0,0E0,0E0,0E0,0E0],"parents":[2147483647,0,0,1,1,2,2,3,3,4,4,5,5,6,6,7,7,8,8,9,9,10,10,11,11,12,12,13,13,14,14],"right_children":[2,4,6,8,10,12,14,16,18,20,22,24,26,28,30,-1,-1,-1,-1,-1,-1,-1,-1,-1,-1,-1,-1,-1,-1,-1,-1],"split_conditions":[4.125E0,2.8378E0,5.3283E0,4.2060304E0,2.4149444E0,2.9886792E0,3.799E1,3.4077253E0,2.2404256E0,3.794E1,3.794E1,2E1,-1.177E2,1.7E1,3.125E0,-3.1203836E-2,-1.5211779E-1,-9.642376E-2,-1.7183094E-1,1.1425747E-1,-7.916587E-2,-3.8494807E-2,-1.5065895E-1,6.1377402E-2,1.5294716E-1,4.1372422E-2,-1.0673173E-1,1.6744737E-1,1.9250411E-1,1.5396385E-1,3.3738337E-2],"split_indices":[0,0,0,2,5,5,6,5,5,6,6,1,7,1,5,0,0,0,0,0,0,0,0,0,0,0,0,0,0,0,0],"split_type":[0,0,0,0,0,0,0,0,0,0,0,0,0,0,0,0,0,0,0,0,0,0,0,0,0,0,0,0,0,0,0],"sum_hessian":[4.1279937E3,2.618996E3,1.5089978E3,1.320998E3,1.297998E3,7.9124884E2,7.177489E2,5.232492E2,7.9774884E2,3.6499945E2,9.329986E2,4.9999927E2,2.9124957E2,6.73749E2,4.3999935E1,2.9774954E2,2.2549966E2,1.299998E2,6.67749E2,3.0074954E2,6.42499E1,7.544989E2,1.7849974E2,1.4424979E2,3.5574948E2,2.3449965E2,5.6749916E1,1.7849974E2,4.9524927E2,3.1749952E1,1.2249982E1],"tree_param":{"num_deleted":"0","num_feature":"8","num_nodes":"31","size_leaf_vector":"1"}},{"base_weights":[5.6504203E-5,-6.832538E-1,1.1885767E0,-1.1922109E0,-2.036644E-1,6.505708E-1,1.558124E0,-6.177126E-1,-1.4101136E0,7.0633364E-1,-5.6393284E-1,1.038032E0,-5.855127E-2,1.2330282E0,1.7119689E0,-1.1967829E-2,-1.3939391E-1,-7.281824E-2,-1.5072057E-1,1.0075729E-1,-8.0246165E-2,-3.701952E-2,-1.4504197E-1,3.9895624E-2,1.3021438E-1,2.1297332E-2,-1.1613911E-1,6.0653307E-2,1.5059745E-1,1.7166281E-1,-2.9641643E-2],"categories":[],"categories_nodes":[],"categories_segments":[],"categories_sizes":[],"default_left":[0,0,0,0,0,0,0,0,0,0,0,0,0,0,0,0,0,0,0,0,0,0,0,0,0,0,0,0,0,0,0],"id":1,"left_children":[1,3,5,7,9,11,13,15,17,19,21,23,25,27,29,-1,-1,-1,-1,-1,-1,-1,-1,-1,-1,-1,-1,-1,-1,-1,-1],"loss_changes":[3.3399429E3,6.3714734E2,2.9747168E2,1.5769409E2,4.4155685E2,1.6849536E2,4.236499E1,1.3517586E2,5.965393E1,1.7447108E2,1.651203E2,6.640109E1,6.539277E1,4.854367E1,6.1330566E0,0E0,0E0,0E0,0E0,0E0,0E0,0E0,0E0,0E0,0E0,0E0,0E0,0E0,0E0,0E0,0E0],"parents":[2147483647,0,0,1,1,2,2,3,3,4,4,5,5,6,6,7,7,8,8,9,9,10,10,11,11,12,12,13,13,14,14],"right_children":[2,4,6,8,10,12,14,16,18,20,22,24,26,28,30,-1,-1,-1,-1,-1,-1,-1,-1,-1,-1,-1,-1,-1,-1,-1,-1],"split_conditions":[4.125E0,2.7813E0,5.0253E0,3.8755245E0,2.4222221E0,3.0163934E0,5.5942E0,3.551635E0,2.1589403E0,3.797E1,-1.178E2,2E1,-1.177E2,1.8E1,3.904E1,-1.1967829E-2,-1.3939391E-1,-7.281824E-2,-1.5072057E-1,1.0075729E-1,-8.0246165E-2,-3.701952E-2,-1.4504197E-1,3.9895624E-2,1.3021438E-1,2.1297332E-2,-1.1613911E-1,6.0653307E-2,1.5059745E-1,1.7166281E-1,-2.9641643E-2],"split_indices":[0,0,0,2,5,5,0,5,5,6,7,1,7,1,6,0,0,0,0,0,0,0,0,0,0,0,0,0,0,0,0],"split_type":[0,0,0,0,0,0,0,0,0,0,0,0,0,0,0,0,0,0,0,0,0,0,0,0,0,0,0,0,0,0,0],"sum_hessian":[4.1105815E3,2.6102869E3,1.5002949E3,1.2656494E3,1.3446375E3,6.120303E2,8.882646E2,3.490959E2,9.165535E2,3.8108884E2,9.635486E2,3.9547864E2,2.1655164E2,2.8822354E2,6.000411E2,2.1335773E2,1.3573816E2,1.15292206E2,8.012613E2,3.1794214E2,6.314669E1,7.919E2,1.7164854E2,1.1638075E2,2.790979E2,1.7441635E2,4.213528E1,8.844269E1,1.9978084E2,5.9879724E2,1.243829E0],"tree_param":{"num_deleted":"0","num_feature":"8","num_nodes":"31","size_leaf_vector":"1"}},{"base_weights":[1.3225578E-4,-6.421266E-1,1.052872E0,-1.1598548E0,-2.567474E-1,5.586573E-1,1.4318248E0,-2.3547329E-1,-1.2982467E0,6.786022E-1,-5.5342656E-1,9.639295E-1,-7.0665325E-3,1.4904495E0,6.7392075E-1,-1.0632535E-1,2.4124948E-2,-5.3005874E-2,-1.3805161E-1,9.46469E-2,-7.3940106E-2,-3.5025734E-2,-1.3505237E-1,1.1347815E-1,-4.420428E-3,-7.65102E-2,3.7683155E-2,1.5518983E-1,1.0060375E-1,1.4227888E-1,1.2064628E-2],"categories":[],"categories_nodes":[],"categories_segments":[],"categories_sizes":[],"default_left":[0,0,0,0,0,0,0,0,0,0,0,0,0,0,0,0,0,0,0,0,0,0,0,0,0,0,0,0,0,0,0],"id":2,"left_children":[1,3,5,7,9,11,13,15,17,19,21,23,25,27,29,-1,-1,-1,-1,-1,-1,-1,-1,-1,-1,-1,-1,-1,-1,-1,-1],"loss_changes":[2.7513418E3,5.03963E2,2.8797205E2,1.3762512E2,4.0278983E2,1.5380667E2,3.7743652E1,5.614376E1,5.8521606E1,1.3351045E2,1.7790924E2,6.73692E1,8.205503E1,2.2508911E1,2.652697E1,0E0,0E0,0E0,0E0,0E0,0E0,0E0,0E0,0E0,0E0,0E0,0E0,0E0,0E0,0E0,0E0],"parents":[2147483647,0,0,1,1,2,2,3,3,4,4,5,5,6,6,7,7,8,8,9,9,10,10,11,11,12,12,13,13,14,14],"right_children":[2,4,6,8,10,12,14,16,18,20,22,24,26,28,30,-1,-1,-1,-1,-1,-1,-1,-1,-1,-1,-1,-1,-1,-1,-1,-1],"split_conditions":[4.0556E0,2.6205E0,5.0253E0,3.3595707E0,2.3433242E0,2.9310346E0,3.799E1,3.405E1,2.0333333E0,3.794E1,3.793E1,3.799E1,1.9E1,-1.1762E2,-1.2206E2,-1.0632535E-1,2.4124948E-2,-5.3005874E-2,-1.3805161E-1,9.46469E-2,-7.3940106E-2,-3.5025734E-2,-1.3505237E-1,1.1347815E-1,-4.420428E-3,-7.65102E-2,3.7683155E-2,1.5518983E-1,1.0060375E-1,1.4227888E-1,1.2064628E-2],"split_indices":[0,0,0,2,5,5,6,6,5,6,6,6,1,7,7,0,0,0,0,0,0,0,0,0,0,0,0,0,0,0,0],"split_type":[0,0,0,0,0,0,0,0,0,0,0,0,0,0,0,0,0,0,0,0,0,0,0,0,0,0,0,0,0,0,0],"sum_hessian":[4.0672412E3,2.5263484E3,1.5408928E3,1.0772004E3,1.449148E3,6.69818E2,8.710748E2,1.4062234E2,9.3657806E2,3.4865262E2,1.1004952E3,3.8984073E2,2.7997723E2,8.0763666E2,6.3438145E1,5.093997E1,8.968237E1,9.132036E1,8.452577E2,2.9353513E2,5.511749E1,8.7811505E2,2.2238022E2,3.3323978E2,5.6600952E1,9.378963E1,1.8618762E2,7.147636E2,9.287305E1,2.6286825E1,3.7151318E1],"tree_param":{"num_deleted":"0","num_feature":"8","num_nodes":"31","size_leaf_vector":"1"}},{"base_weights":[2.678197E-4,-6.4910287E-1,8.815795E-1,9.912911E-2,-8.5181063E-1,4.3749797E-1,1.3279572E0,4.7001633E-1,-1.1747203E0,-1.0863233E0,-3.6756545E-1,7.7454525E-1,-1.708897E-1,1.0116632E0,1.4808025E0,7.5163715E-2,-1.4340647E-1,-2.9692626E-2,-1.4827223E-1,-7.642017E-2,-1.320182E-1,-1.717861E-2,-1.3992131E-1,9.815377E-2,-2.9460728E-2,5.4528415E-3,-1.0828551E-1,4.3597333E-2,1.2697458E-1,1.4852332E-1,-3.011462E-2],"categories":[],"categories_nodes":[],"categories_segments":[],"categories_sizes":[],"default_left":[0,0,0,0,0,0,0,0,0,0,0,0,0,0,0,0,0,0,0,0,0,0,0,0,0,0,0,0,0,0,0],"id":3,"left_children":[1,3,5,7,9,11,13,15,17,19,21,23,25,27,29,-1,-1,-1,-1,-1,-1,-1,-1,-1,-1,-1,-1,-1,-1,-1,-1],"loss_changes":[2.2948022E3,3.502506E2,3.3662537E2,2.3348709E2,2.0590454E2,1.752981E2,3.9491333E1,2.0622159E2,2.9695435E1,9.115283E1,1.19782394E2,1.2198166E2,6.2831776E1,4.0957123E1,4.9432373E0,0E0,0E0,0E0,0E0,0E0,0E0,0E0,0E0,0E0,0E0,0E0,0E0,0E0,0E0,0E0,0E0],"parents":[2147483647,0,0,1,1,2,2,3,3,4,4,5,5,6,6,7,7,8,8,9,9,10,10,11,11,12,12,13,13,14,14],"right_children":[2,4,6,8,10,12,14,16,18,20,22,24,26,28,30,-1,-1,-1,-1,-1,-1,-1,-1,-1,-1,-1,-1,-1,-1,-1,-1],"split_conditions":[3.8393E0,2.2950819E0,5.0253E0,3.794E1,3.099E0,3.0163934E0,5.5942E0,-1.1714E2,-1.2239E2,4.370253E0,-1.1768E2,3.799E1,-1.1778E2,1.8E1,3.904E1,7.5163715E-2,-1.4340647E-1,-2.9692626E-2,-1.4827223E-1,-7.642017E-2,-1.320182E-1,-1.717861E-2,-1.3992131E-1,9.815377E-2,-2.9460728E-2,5.4528415E-3,-1.0828551E-1,4.3597333E-2,1.2697458E-1,1.4852332E-1,-3.011462E-2],"split_indices":[0,5,0,6,0,5,0,7,7,2,7,6,7,1,6,0,0,0,0,0,0,0,0,0,0,0,0,0,0,0,0],"split_type":[0,0,0,0,0,0,0,0,0,0,0,0,0,0,0,0,0,0,0,0,0,0,0,0,0,0,0,0,0,0,0],"sum_hessian":[4.0078035E3,2.3077004E3,1.7001031E3,4.9203156E2,1.8156688E3,8.532361E2,8.4686707E2,3.8156744E2,1.1046412E2,1.2224241E3,5.9324475E2,5.4888196E2,3.0435416E2,2.7839114E2,5.684759E2,3.3293094E2,4.8636505E1,2.9202408E1,8.126171E1,5.159761E2,7.0644794E2,4.996004E2,9.364437E1,4.5992117E2,8.8960754E1,2.4478804E2,5.9566105E1,8.7004524E1,1.9138663E2,5.6723206E2,1.2438197E0],"tree_param":{"num_deleted":"0","num_feature":"8","num_nodes":"31","size_leaf_vector":"1"}},{"base_weights":[3.0593172E-4,-5.1975375E-1,9.296913E-1,-1.0255525E0,-2.0130803E-1,5.7705504E-1,1.3422805E0,-1.9177978E-1,-1.1600503E0,3.2565272E-1,-6.0399604E-1,7.5699687E-1,-4.1444835E-1,1.3785545E0,8.500677E-1,2.1844566E-2,-9.7381026E-2,-1.3326676E-1,-8.7684266E-2,6.676225E-2,-8.421738E-2,6.0771037E-2,-6.937685E-2,9.3814276E-2,-2.8157318E-2,1.40114045E-2,-1.4991657E-1,1.3844192E-1,-1.1103813E-3,1.13053694E-1,7.6340424E-4],"categories":[],"categories_nodes":[],"categories_segments":[],"categories_sizes":[],"default_left":[0,0,0,0,0,0,0,0,0,0,0,0,0,0,0,0,0,0,0,0,0,0,0,0,0,0,0,0,0,0,0],"id":4,"left_children":[1,3,5,7,9,11,13,15,17,19,21,23,25,27,29,-1,-1,-1,-1,-1,-1,-1,-1,-1,-1,-1,-1,-1,-1,-1,-1],"loss_changes":[1.9043026E3,4.0669965E2,2.0490125E2,1.0920203E2,3.2942578E2,1.3661237E2,1.0445923E1,4.407973E1,3.989807E1,2.6921213E2,9.6124115E1,1.2197772E2,7.118863E1,4.941284E0,1.1160183E1,0E0,0E0,0E0,0E0,0E0,0E0,0E0,0E0,0E0,0E0,0E0,0E0,0E0,0E0,0E0,0E0],"parents":[2147483647,0,0,1,1,2,2,3,3,4,4,5,5,6,6,7,7,8,8,9,9,10,10,11,11,12,12,13,13,14,14],"right_children":[2,4,6,8,10,12,14,16,18,20,22,24,26,28,30,-1,-1,-1,-1,-1,-1,-1,-1,-1,-1,-1,-1,-1,-1,-1,-1],"split_conditions":[4.125E0,2.5667E0,5.3283E0,3.3595707E0,2.647482E0,-1.177E2,3.797E1,3.6340327E0,2.1875E0,3.794E1,-1.2236E2,3.799E1,3.386E1,-1.1643E2,3.125E0,2.1844566E-2,-9.7381026E-2,-1.3326676E-1,-8.7684266E-2,6.676225E-2,-8.421738E-2,6.0771037E-2,-6.937685E-2,9.3814276E-2,-2.8157318E-2,1.40114045E-2,-1.4991657E-1,1.3844192E-1,-1.1103813E-3,1.13053694E-1,7.6340424E-4],"split_indices":[0,0,0,2,5,7,6,5,0,6,7,6,6,7,5,0,0,0,0,0,0,0,0,0,0,0,0,0,0,0,0],"split_type":[0,0,0,0,0,0,0,0,0,0,0,0,0,0,0,0,0,0,0,0,0,0,0,0,0,0,0,0,0,0,0],"sum_hessian":[3.9379158E3,2.5252773E3,1.4126383E3,9.747796E2,1.5504978E3,7.6295013E2,6.496881E2,1.3573878E2,8.390408E2,6.716988E2,8.787991E2,6.4595605E2,1.1699408E2,6.03418E2,4.627006E1,8.950717E1,4.6231617E1,5.190002E2,3.2004062E2,5.198899E2,1.5180887E2,6.0219128E1,8.1857996E2,5.501044E2,9.58517E1,7.799164E1,3.9002438E1,6.008859E2,2.5321019E0,3.4456547E1,1.1813515E1],"tree_param":{"num_deleted":"0","num_feature":"8","num_nodes":"31","size_leaf_vector":"1"}},{"base_weights":[3.930046E-4,-5.48112E-1,7.5698364E-1,-9.959408E-1,-2.7722088E-1,4.394589E-1,1.2675556E0,-1.8814974E-1,-1.1418203E0,2.519463E-1,-6.6343284E-1,7.676333E-1,-8.371575E-2,1.1178553E0,1.3986657E0,-9.202047E-2,2.284138E-2,-5.8125336E-2,-1.2121464E-1,6.531029E-2,-9.982032E-2,-7.906046E-2,2.4957689E-2,8.779292E-2,-5.753209E-2,-6.21515E-2,1.9640846E-2,7.357532E-2,1.2655173E-1,5.4720934E-2,1.407188E-1],"categories":[],"categories_nodes":[],"categories_segments":[],"categories_sizes":[],"default_left":[0,0,0,0,0,0,0,0,0,0,0,0,0,0,0,0,0,0,0,0,0,0,0,0,0,0,0,0,0,0,0],"id":5,"left_children":[1,3,5,7,9,11,13,15,17,19,21,23,25,27,29,-1,-1,-1,-1,-1,-1,-1,-1,-1,-1,-1,-1,-1,-1,-1,-1],"loss_changes":[1.6027894E3,2.7134314E2,2.6259558E2,9.918445E1,2.8556836E2,1.7215765E2,1.0642029E1,3.9922245E1,2.7454346E1,2.9650208E2,9.396286E1,9.175687E1,5.8465626E1,1.5732086E1,1.6067505E0,0E0,0E0,0E0,0E0,0E0,0E0,0E0,0E0,0E0,0E0,0E0,0E0,0E0,0E0,0E0,0E0],"parents":[2147483647,0,0,1,1,2,2,3,3,4,4,5,5,6,6,7,7,8,8,9,9,10,10,11,11,12,12,13,13,14,14],"right_children":[2,4,6,8,10,12,14,16,18,20,22,24,26,28,30,-1,-1,-1,-1,-1,-1,-1,-1,-1,-1,-1,-1,-1,-1,-1,-1],"split_conditions":[3.8393E0,2.4583E0,5.3283E0,3.3595707E0,4.7034483E0,2.9758065E0,6.2924E0,3.405E1,2.0756502E0,3.4807122E0,4.5E1,3.855E1,1.9E1,1.7E1,6.9E1,-9.202047E-2,2.284138E-2,-5.8125336E-2,-1.2121464E-1,6.531029E-2,-9.982032E-2,-7.906046E-2,2.4957689E-2,8.779292E-2,-5.753209E-2,-6.21515E-2,1.9640846E-2,7.357532E-2,1.2655173E-1,5.4720934E-2,1.407188E-1],"split_indices":[0,0,0,2,2,5,0,6,5,5,1,6,1,1,4,0,0,0,0,0,0,0,0,0,0,0,0,0,0,0,0],"split_type":[0,0,0,0,0,0,0,0,0,0,0,0,0,0,0,0,0,0,0,0,0,0,0,0,0,0,0,0,0,0,0],"sum_hessian":[3.860202E3,2.2379978E3,1.6222041E3,8.4250977E2,1.395488E3,1.0013346E3,6.2086945E2,1.2922594E2,7.132839E2,5.8892365E2,8.065644E2,6.1505725E2,3.8627734E2,2.9433105E2,3.2653842E2,4.6427227E1,8.2798706E1,8.054294E1,6.327409E2,4.4621628E2,1.427074E2,7.0807214E2,9.849226E1,5.686969E2,4.636039E1,1.3187572E2,2.5440161E2,8.3706955E1,2.1062408E2,3.8822107E0,3.226562E2],"tree_param":{"num_deleted":"0","num_feature":"8","num_nodes":"31","size_leaf_vector":"1"}},{"base_weights":[4.731636E-4,-6.090634E-1,5.872301E-1,-4.390184E-1,-1.2473426E0,2.4364026E-1,1.1007272E0,1.6689703E0,-5.20324E-1,-9.0314376E-1,-1.352862E0,6.6095996E-1,-1.8193693E-1,8.514776E-1,1.2849895E0,1.7664187E-1,-1.0582037E-2,2.6030953E-3,-8.084984E-2,2.5670907E-2,-1.424975E-1,-1.36692E-1,-4.051066E-2,7.953779E-2,-8.29249E-2,6.462454E-4,-9.939443E-2,3.3483617E-2,1.0504065E-1,1.2908922E-1,-1.6339563E-3],"categories":[],"categories_nodes":[],"categories_segments":[],"categories_sizes":[],"default_left":[0,0,0,0,0,0,0,0,0,0,0,0,0,0,0,0,0,0,0,0,0,0,0,0,0,0,0,0,0,0,0],"id":6,"left_children":[1,3,5,7,9,11,13,15,17,19,21,23,25,27,29,-1,-1,-1,-1,-1,-1,-1,-1,-1,-1,-1,-1,-1,-1,-1,-1],"loss_changes":[1.3524171E3,2.0075415E2,3.396645E2,2.5214072E2,1.292926E1,2.0535832E2,3.4366028E1,9.644592E0,2.2239539E2,5.751792E1,3.3926392E0,1.17576996E2,8.76539E1,3.368106E1,3.4158936E0,0E0,0E0,0E0,0E0,0E0,0E0,0E0,0E0,0E0,0E0,0E0,0E0,0E0,0E0,0E0,0E0],"parents":[2147483647,0,0,1,1,2,2,3,3,4,4,5,5,6,6,7,7,8,8,9,9,10,10,11,11,12,12,13,13,14,14],"right_children":[2,4,6,8,10,12,14,16,18,20,22,24,26,28,30,-1,-1,-1,-1,-1,-1,-1,-1,-1,-1,-1,-1,-1,-1,-1,-1],"split_conditions":[3.5E0,3.793E1,5E0,-1.2231E2,-1.2239E2,2.805492E0,5.7628E0,3.782E1,2.6171448E0,3.868E1,1.8793522E1,3.855E1,-1.1775E2,1.7E1,-1.1643E2,1.7664187E-1,-1.0582037E-2,2.6030953E-3,-8.084984E-2,2.5670907E-2,-1.424975E-1,-1.36692E-1,-4.051066E-2,7.953779E-2,-8.29249E-2,6.462454E-4,-9.939443E-2,3.3483617E-2,1.0504065E-1,1.2908922E-1,-1.6339563E-3],"split_indices":[0,6,0,7,7,5,0,6,5,6,2,6,7,1,7,0,0,0,0,0,0,0,0,0,0,0,0,0,0,0,0],"split_type":[0,0,0,0,0,0,0,0,0,0,0,0,0,0,0,0,0,0,0,0,0,0,0,0,0,0,0,0,0,0,0],"sum_hessian":[3.7794004E3,1.8536982E3,1.9257021E3,1.4650735E3,3.8862476E2,1.1546083E3,7.710939E2,5.3684433E1,1.411389E3,9.342772E1,2.9519702E2,5.826805E2,5.7192786E2,3.301391E2,4.4095477E2,5.089468E1,2.7897537E0,4.8768604E2,9.23703E2,2.914853E1,6.427919E1,2.904466E2,4.7504354E0,5.3489856E2,4.7781944E1,4.65026E2,1.0690182E2,9.252473E1,2.3761436E2,4.3897168E2,1.9831027E0],"tree_param":{"num_deleted":"0","num_feature":"8","num_nodes":"31","size_leaf_vector":"1"}},{"base_weights":[5.280693E-4,-3.8585505E-1,8.05488E-1,-6.9193774E-1,1.8368794E-2,5.093017E-1,1.1568626E0,-3.3844256E-1,-9.8453975E-1,5.156081E-1,-3.4931144E-1,-5.819406E-2,7.7393717E-1,1.1971226E0,6.358363E-1,-1.5430491E-3,-1.03831425E-1,-8.5636385E-2,-1.2561637E-1,6.995884E-2,-6.1513275E-2,-1.733665E-2,-1.1365862E-1,6.405355E-2,-2.9913643E-2,9.023279E-2,-5.053699E-2,1.0190326E-1,1.2609303E-1,-8.456115E-2,8.1627995E-2],"categories":[],"categories_nodes":[],"categories_segments":[],"categories_sizes":[],"default_left":[0,0,0,0,0,0,0,0,0,0,0,0,0,0,0,0,0,0,0,0,0,0,0,0,0,0,0,0,0,0,0],"id":7,"left_children":[1,3,5,7,9,11,13,15,17,19,21,23,25,27,29,-1,-1,-1,-1,-1,-1,-1,-1,-1,-1,-1,-1,-1,-1,-1,-1],"loss_changes":[1.1504707E3,3.0924268E2,1.2426404E2,1.467846E2,1.9725993E2,9.807414E1,1.0732483E1,1.4594853E2,2.5999573E1,9.584564E1,8.572742E1,3.5296238E1,7.358539E1,4.4819946E0,1.1766529E1,0E0,0E0,0E0,0E0,0E0,0E0,0E0,0E0,0E0,0E0,0E0,0E0,0E0,0E0,0E0,0E0],"parents":[2147483647,0,0,1,1,2,2,3,3,4,4,5,5,6,6,7,7,8,8,9,9,10,10,11,11,12,12,13,13,14,14],"right_children":[2,4,6,8,10,12,14,16,18,20,22,24,26,28,30,-1,-1,-1,-1,-1,-1,-1,-1,-1,-1,-1,-1,-1,-1,-1,-1],"split_conditions":[4.2218E0,3.099E0,5.3681E0,4.370253E0,2.647482E0,1.9E1,3.797E1,3.5991902E0,3.793E1,-1.1768E2,-1.178E2,-1.2145E2,-1.1775E2,1.7E1,6.045181E0,-1.5430491E-3,-1.03831425E-1,-8.5636385E-2,-1.2561637E-1,6.995884E-2,-6.1513275E-2,-1.733665E-2,-1.1365862E-1,6.405355E-2,-2.9913643E-2,9.023279E-2,-5.053699E-2,1.0190326E-1,1.2609303E-1,-8.456115E-2,8.1627995E-2],"split_indices":[0,0,0,2,5,1,6,5,6,7,7,7,7,1,2,0,0,0,0,0,0,0,0,0,0,0,0,0,0,0,0],"split_type":[0,0,0,0,0,0,0,0,0,0,0,0,0,0,0,0,0,0,0,0,0,0,0,0,0,0,0,0,0,0,0],"sum_hessian":[3.696991E3,2.4983137E3,1.1986772E3,1.4213444E3,1.0769694E3,6.5174634E2,5.469309E2,6.4466956E2,7.766748E2,4.576523E2,6.19317E2,2.075173E2,4.44229E2,5.0649606E2,4.043483E1,4.4179144E2,2.0287816E2,5.3049414E2,2.4618066E2,3.93937E2,6.3715317E1,5.0718784E2,1.1212921E2,5.2784508E1,1.547328E2,4.0398038E2,4.0248634E1,1.3807979E2,3.684163E2,3.9900568E0,3.644477E1],"tree_param":{"num_deleted":"0","num_feature":"8","num_nodes":"31","size_leaf_vector":"1"}},{"base_weights":[5.8264E-4,-3.2632974E-1,8.253744E-1,-6.3955045E-1,3.535436E-2,5.738389E-1,1.1569318E0,-3.0908197E-1,-9.1929525E-1,4.8757583E-1,-2.9591238E-1,1.4602325E-2,7.8818023E-1,4.2637894E-1,1.1733613E0,2.0348057E-3,-9.068482E-2,-1.10906065E-1,-7.119175E-2,6.993231E-2,-4.259249E-2,-1.4017211E-2,-1.0855179E-1,6.5580726E-2,-2.4776055E-2,9.038093E-2,-3.3400763E-2,-3.554872E-2,7.114678E-2,1.0321466E-1,1.256113E-1],"categories":[],"categories_nodes":[],"categories_segments":[],"categories_sizes":[],"default_left":[0,0,0,0,0,0,0,0,0,0,0,0,0,0,0,0,0,0,0,0,0,0,0,0,0,0,0,0,0,0,0],"id":8,"left_children":[1,3,5,7,9,11,13,15,17,19,21,23,25,27,29,-1,-1,-1,-1,-1,-1,-1,-1,-1,-1,-1,-1,-1,-1,-1,-1],"loss_changes":[9.75266E2,2.9347046E2,8.4960205E1,1.2805127E2,1.8037558E2,7.02041E1,4.803711E0,1.2563768E2,2.8776184E1,9.876597E1,8.531909E1,2.7638332E1,5.5247986E1,2.7695584E0,3.7473145E0,0E0,0E0,0E0,0E0,0E0,0E0,0E0,0E0,0E0,0E0,0E0,0E0,0E0,0E0,0E0,0E0],"parents":[2147483647,0,0,1,1,2,2,3,3,4,4,5,5,6,6,7,7,8,8,9,9,10,10,11,11,12,12,13,13,14,14],"right_children":[2,4,6,8,10,12,14,16,18,20,22,24,26,28,30,-1,-1,-1,-1,-1,-1,-1,-1,-1,-1,-1,-1,-1,-1,-1,-1],"split_conditions":[4.4211E0,3.099E0,5.5942E0,4.370253E0,2.647482E0,1.7E1,1.68E2,3.4511628E0,2.5125E0,3.796E1,3.781E1,2.669708E0,-1.1765E2,6.2924E0,6.2924E0,2.0348057E-3,-9.068482E-2,-1.10906065E-1,-7.119175E-2,6.993231E-2,-4.259249E-2,-1.4017211E-2,-1.0855179E-1,6.5580726E-2,-2.4776055E-2,9.038093E-2,-3.3400763E-2,-3.554872E-2,7.114678E-2,1.0321466E-1,1.256113E-1],"split_indices":[0,0,0,2,5,1,4,5,0,6,6,5,7,0,0,0,0,0,0,0,0,0,0,0,0,0,0,0,0,0,0],"split_type":[0,0,0,0,0,0,0,0,0,0,0,0,0,0,0,0,0,0,0,0,0,0,0,0,0,0,0,0,0,0,0],"sum_hessian":[3.614992E3,2.5893057E3,1.0256863E3,1.3872073E3,1.2020985E3,5.8477686E2,4.4090942E2,6.3691315E2,7.5029407E2,5.0805994E2,6.9403864E2,1.623247E2,4.2245215E2,1.02903805E1,4.3061905E2,4.1124258E2,2.2567055E2,3.8951358E2,3.607805E2,4.126444E2,9.541552E1,5.806833E2,1.1335534E2,4.6697693E1,1.15627014E2,3.8316574E2,3.9286396E1,2.6835945E0,7.606786E0,1.6408435E2,2.665347E2],"tree_param":{"num_deleted":"0","num_feature":"8","num_nodes":"31","size_leaf_vector":"1"}},{"base_weights":[6.8594335E-4,-2.9970106E-1,7.748807E-1,-1.4135256E-1,-9.630958E-1,5.2896494E-1,1.1124513E0,9.1340326E-2,-9.673724E-1,-3.5512403E-1,-1.157051E0,7.8534985E-1,9.557702E-2,1.144365E0,6.703854E-1,5.0530612E-2,-5.1782448E-2,-6.0672652E-2,-1.3901404E-1,7.8106724E-2,-1.3224746E-1,-1.1747719E-1,-1.20257065E-2,4.5778915E-2,1.0986864E-1,2.6849676E-2,-8.889852E-2,1.1508693E-1,-5.98288E-3,-1.2470181E-1,7.802768E-2],"categories":[],"categories_nodes":[],"categories_segments":[],"categories_sizes":[],"default_left":[0,0,0,0,0,0,0,0,0,0,0,0,0,0,0,0,0,0,0,0,0,0,0,0,0,0,0,0,0,0,0],"id":9,"left_children":[1,3,5,7,9,11,13,15,17,19,21,23,25,27,29,-1,-1,-1,-1,-1,-1,-1,-1,-1,-1,-1,-1,-1,-1,-1,-1],"loss_changes":[8.2150665E2,2.6721173E2,8.1384705E1,3.952255E2,5.7398834E1,6.3614944E1,5.0914307E0,4.0496167E2,6.80607E1,1.329409E2,6.6793823E0,3.644655E1,3.670492E1,3.0913696E0,7.3732157E0,0E0,0E0,0E0,0E0,0E0,0E0,0E0,0E0,0E0,0E0,0E0,0E0,0E0,0E0,0E0,0E0],"parents":[2147483647,0,0,1,1,2,2,3,3,4,4,5,5,6,6,7,7,8,8,9,9,10,10,11,11,12,12,13,13,14,14],"right_children":[2,4,6,8,10,12,14,16,18,20,22,24,26,28,30,-1,-1,-1,-1,-1,-1,-1,-1,-1,-1,-1,-1,-1,-1,-1,-1],"split_conditions":[4.4211E0,3.793E1,5.5942E0,-1.1778E2,-1.2239E2,3.0298102E0,3.797E1,3.1092784E0,3.366E1,3.87E1,1.8793522E1,2.8E1,3.778E1,-1.1643E2,5.345133E0,5.0530612E-2,-5.1782448E-2,-6.0672652E-2,-1.3901404E-1,7.8106724E-2,-1.3224746E-1,-1.1747719E-1,-1.20257065E-2,4.5778915E-2,1.0986864E-1,2.6849676E-2,-8.889852E-2,1.1508693E-1,-5.98288E-3,-1.2470181E-1,7.802768E-2],"split_indices":[0,6,0,7,7,5,6,5,6,6,2,1,6,7,2,0,0,0,0,0,0,0,0,0,0,0,0,0,0,0,0],"split_type":[0,0,0,0,0,0,0,0,0,0,0,0,0,0,0,0,0,0,0,0,0,0,0,0,0,0,0,0,0,0,0],"sum_hessian":[3.5304812E3,2.5440173E3,9.86464E2,2.0547688E3,4.8924847E2,5.7219464E2,4.1426935E2,1.6038481E3,4.5092062E2,1.19015045E2,3.7023343E2,3.590027E2,2.1319196E2,3.8489435E2,2.9375006E1,9.550215E2,6.4882666E2,2.4465266E2,2.0626794E2,5.4819714E1,6.4195335E1,3.6388086E2,6.352563E0,1.7672067E2,1.8228203E2,1.8196121E2,3.1230751E1,3.828706E2,2.0237405E0,1.0313902E0,2.8343616E1],"tree_param":{"num_deleted":"0","num_feature":"8","num_nodes":"31","size_leaf_vector":"1"}},{"base_weights":[5.514968E-4,-5.266376E-1,3.92613E-1,-3.8275784E-1,-1.1067832E0,1.5495911E-1,9.1268146E-1,1.588851E0,-4.4626907E-1,-9.479308E-1,-1.22434E0,7.7840394E-1,-5.0560854E-2,9.799312E-1,1.9893014E-1,-5.1928934E-2,1.7152603E-1,9.541164E-3,-6.397816E-2,7.90482E-3,-1.1466304E-1,1.4653181E-2,-1.2353199E-1,1.1866206E-1,-7.215076E-3,3.148739E-2,-9.617833E-2,1.0503385E-1,4.955155E-2,1.0076626E-1,-3.454889E-2],"categories":[],"categories_nodes":[],"categories_segments":[],"categories_sizes":[],"default_left":[0,0,0,0,0,0,0,0,0,0,0,0,0,0,0,0,0,0,0,0,0,0,0,0,0,0,0,0,0,0,0],"id":10,"left_children":[1,3,5,7,9,11,13,15,17,19,21,23,25,27,29,-1,-1,-1,-1,-1,-1,-1,-1,-1,-1,-1,-1,-1,-1,-1,-1],"loss_changes":[7.137996E2,1.2252188E2,2.4464838E2,1.4868549E2,4.2954407E0,1.7437054E2,2.9612E1,1.0777039E1,1.2014935E2,2.635112E1,2.656784E0,1.17227585E2,3.413525E2,1.882666E1,2.444329E1,0E0,0E0,0E0,0E0,0E0,0E0,0E0,0E0,0E0,0E0,0E0,0E0,0E0,0E0,0E0,0E0],"parents":[2147483647,0,0,1,1,2,2,3,3,4,4,5,5,6,6,7,7,8,8,9,9,10,10,11,11,12,12,13,13,14,14],"right_children":[2,4,6,8,10,12,14,16,18,20,22,24,26,28,30,-1,-1,-1,-1,-1,-1,-1,-1,-1,-1,-1,-1,-1,-1,-1,-1],"split_conditions":[3.225E0,3.793E1,5.0253E0,-1.2236E2,3.859E1,-1.2185E2,3.799E1,2E1,2.4149444E0,-1.2239E2,4.1E1,3.794E1,3.451E1,-1.1762E2,-1.2206E2,-5.1928934E-2,1.7152603E-1,9.541164E-3,-6.397816E-2,7.90482E-3,-1.1466304E-1,1.4653181E-2,-1.2353199E-1,1.1866206E-1,-7.215076E-3,3.148739E-2,-9.617833E-2,1.0503385E-1,4.955155E-2,1.0076626E-1,-3.454889E-2],"split_indices":[0,6,0,7,6,7,6,1,5,7,4,6,6,7,7,0,0,0,0,0,0,0,0,0,0,0,0,0,0,0,0],"split_type":[0,0,0,0,0,0,0,0,0,0,0,0,0,0,0,0,0,0,0,0,0,0,0,0,0,0,0,0,0,0,0],"sum_hessian":[3.451469E3,1.4719093E3,1.9795598E3,1.1807384E3,2.9117093E2,1.3595767E3,6.199831E2,3.6098503E1,1.1446399E3,1.276898E2,1.6348114E2,3.363801E2,1.0231966E3,5.662573E2,5.3725735E1,1.866284E0,3.423222E1,3.0141776E2,8.432221E2,2.0797924E1,1.0689187E2,1.2008802E0,1.6228026E2,2.2702583E2,1.0935428E2,7.307804E2,2.924162E2,4.9337903E2,7.287832E1,2.1273355E1,3.245238E1],"tree_param":{"num_deleted":"0","num_feature":"8","num_nodes":"31","size_leaf_vector":"1"}},{"base_weights":[6.610316E-4,-2.3986809E-1,7.3817647E-1,-7.5059813E-1,-5.48875E-2,5.2047646E-1,1.0728966E0,2.2768162E-1,-8.662708E-1,9.7288065E-2,-8.177004E-1,1.064853E0,3.398595E-1,2.0699333E-1,1.0876796E0,5.4125328E-2,-6.4965665E-2,-3.0490145E-2,-9.413723E-2,5.746248E-2,-2.7871702E-2,-3.9599676E-2,-1.3581406E-1,1.2014526E-1,5.6827612E-2,6.5624945E-2,-5.3878523E-2,5.388043E-2,-7.7832274E-2,1.0954874E-1,-1.9690689E-2],"categories":[],"categories_nodes":[],"categories_segments":[],"categories_sizes":[],"default_left":[0,0,0,0,0,0,0,0,0,0,0,0,0,0,0,0,0,0,0,0,0,0,0,0,0,0,0,0,0,0,0],"id":11,"left_children":[1,3,5,7,9,11,13,15,17,19,21,23,25,27,29,-1,-1,-1,-1,-1,-1,-1,-1,-1,-1,-1,-1,-1,-1,-1,-1],"loss_changes":[5.986603E2,2.4037958E2,5.991867E1,7.675601E1,2.1706519E2,4.927388E1,3.9494324E0,2.025004E1,2.5229004E1,2.800183E2,7.0338425E1,7.816391E0,1.0613704E2,2.6128955E0,3.4294434E0,0E0,0E0,0E0,0E0,0E0,0E0,0E0,0E0,0E0,0E0,0E0,0E0,0E0,0E0,0E0,0E0],"parents":[2147483647,0,0,1,1,2,2,3,3,4,4,5,5,6,6,7,7,8,8,9,9,10,10,11,11,12,12,13,13,14,14],"right_children":[2,4,6,8,10,12,14,16,18,20,22,24,26,28,30,-1,-1,-1,-1,-1,-1,-1,-1,-1,-1,-1,-1,-1,-1,-1,-1],"split_conditions":[4.5648E0,2.4E0,5.7628E0,3.045238E0,-1.1775E2,-1.2188E2,1.03E2,-1.1824E2,2.0333333E0,3.451E1,3.366E1,3.799E1,3.451E1,4.7E1,-1.1643E2,5.4125328E-2,-6.4965665E-2,-3.0490145E-2,-9.413723E-2,5.746248E-2,-2.7871702E-2,-3.9599676E-2,-1.3581406E-1,1.2014526E-1,5.6827612E-2,6.5624945E-2,-5.3878523E-2,5.388043E-2,-7.7832274E-2,1.0954874E-1,-1.9690689E-2],"split_indices":[0,0,0,2,7,7,4,7,5,6,6,6,6,1,7,0,0,0,0,0,0,0,0,0,0,0,0,0,0,0,0],"split_type":[0,0,0,0,0,0,0,0,0,0,0,0,0,0,0,0,0,0,0,0,0,0,0,0,0,0,0,0,0,0,0],"sum_hessian":[3.3727522E3,2.543805E3,8.289473E2,6.755523E2,1.8682526E3,5.0382047E2,3.251269E2,7.132935E1,6.0422296E2,1.558263E3,3.0998953E2,1.2429671E2,3.7952374E2,5.7093062E0,3.194176E2,5.283024E1,1.8499111E1,7.189342E1,5.323295E2,6.863794E2,8.718836E2,1.750957E2,1.3489384E2,9.636806E1,2.7928654E1,2.792295E2,1.0029424E2,4.6100206E0,1.0992855E0,3.1763422E2,1.7833841E0],"tree_param":{"num_deleted":"0","num_feature":"8","num_nodes":"31","size_leaf_vector":"1"}},{"base_weights":[6.694575E-4,-4.1838095E-1,3.7428436E-1,-2.8205582E-1,-1.0039533E0,1.9413832E-1,9.394105E-1,-9.469378E-2,-9.3529785E-1,-7.1252376E-1,-1.095238E0,8.0102754E-1,-2.961743E-4,7.5972176E-1,1.1152009E0,1.9595139E-2,-7.174736E-2,-1.710333E-2,-1.08980134E-1,1.5053871E-1,-9.576758E-2,-1.1070707E-1,2.4558641E-2,9.171387E-2,-1.381278E-1,3.3171996E-2,-8.325109E-2,3.5127625E-2,9.444358E-2,6.661003E-2,1.1475464E-1],"categories":[],"categories_nodes":[],"categories_segments":[],"categories_sizes":[],"default_left":[0,0,0,0,0,0,0,0,0,0,0,0,0,0,0,0,0,0,0,0,0,0,0,0,0,0,0,0,0,0,0],"id":12,"left_children":[1,3,5,7,9,11,13,15,17,19,21,23,25,27,29,-1,-1,-1,-1,-1,-1,-1,-1,-1,-1,-1,-1,-1,-1,-1,-1],"loss_changes":[5.176984E2,1.2413312E2,1.7778185E2,1.5481421E2,7.039032E0,1.5656303E2,1.2491699E1,1.7836812E2,3.3110382E1,4.1117188E1,3.7934265E0,8.2842545E1,2.7820502E2,1.5659973E1,2.3053284E0,0E0,0E0,0E0,0E0,0E0,0E0,0E0,0E0,0E0,0E0,0E0,0E0,0E0,0E0,0E0,0E0],"parents":[2147483647,0,0,1,1,2,2,3,3,4,4,5,5,6,6,7,7,8,8,9,9,10,10,11,11,12,12,13,13,14,14],"right_children":[2,4,6,8,10,12,14,16,18,20,22,24,26,28,30,-1,-1,-1,-1,-1,-1,-1,-1,-1,-1,-1,-1,-1,-1,-1,-1],"split_conditions":[3.3906E0,3.793E1,5.3283E0,-1.178E2,-1.2239E2,-1.2187E2,6.2924E0,3.4511628E0,1.9896104E0,3.832E1,4.87E3,3.876E1,3.451E1,1.7E1,3.69E2,1.9595139E-2,-7.174736E-2,-1.710333E-2,-1.08980134E-1,1.5053871E-1,-9.576758E-2,-1.1070707E-1,2.4558641E-2,9.171387E-2,-1.381278E-1,3.3171996E-2,-8.325109E-2,3.5127625E-2,9.444358E-2,6.661003E-2,1.1475464E-1],"split_indices":[0,6,0,7,7,7,0,5,5,6,4,6,6,1,4,0,0,0,0,0,0,0,0,0,0,0,0,0,0,0,0],"split_type":[0,0,0,0,0,0,0,0,0,0,0,0,0,0,0,0,0,0,0,0,0,0,0,0,0,0,0,0,0,0,0],"sum_hessian":[3.304636E3,1.5575508E3,1.7470851E3,1.2646205E3,2.929303E2,1.3258011E3,4.2128397E2,9.836393E2,2.8098123E2,7.196979E1,2.2096053E2,3.2093756E2,1.0048636E3,2.1096367E2,2.1032028E2,6.7111975E2,3.1251953E2,4.760518E1,2.3337604E2,6.651597E0,6.531819E1,2.1920042E2,1.7600915E0,3.0527493E2,1.5662627E1,7.1872577E2,2.861378E2,6.659918E1,1.4436449E2,1.5580892E1,1.947394E2],"tree_param":{"num_deleted":"0","num_feature":"8","num_nodes":"31","size_leaf_vector":"1"}},{"base_weights":[5.3615257E-4,-2.048178E-1,6.618235E-1,-6.734532E-1,-4.2764205E-2,4.56472E-1,1.0080308E0,-2.4306701E-2,-8.390438E-1,4.318779E-1,-2.4550702E-1,6.455095E-1,-6.123914E-2,5.392928E-1,1.0443195E0,2.8449014E-2,-7.181542E-2,-6.2005516E-2,-1.0396596E-1,-1.4811884E-2,7.044189E-2,-1.1415068E-2,-9.310194E-2,3.2434255E-2,9.384696E-2,1.1355819E-2,-1.2504925E-1,6.8129614E-2,-2.634306E-2,-3.495836E-3,1.0577654E-1],"categories":[],"categories_nodes":[],"categories_segments":[],"categories_sizes":[],"default_left":[0,0,0,0,0,0,0,0,0,0,0,0,0,0,0,0,0,0,0,0,0,0,0,0,0,0,0,0,0,0,0],"id":13,"left_children":[1,3,5,7,9,11,13,15,17,19,21,23,25,27,29,-1,-1,-1,-1,-1,-1,-1,-1,-1,-1,-1,-1,-1,-1,-1,-1],"loss_changes":[4.390785E2,1.8733855E2,5.4008484E1,6.811536E1,1.7662221E2,4.7282784E1,4.274719E0,2.8027685E1,2.1541565E1,8.694572E1,1.1568749E2,3.2974777E1,2.7172718E1,2.7447724E0,3.8523254E0,0E0,0E0,0E0,0E0,0E0,0E0,0E0,0E0,0E0,0E0,0E0,0E0,0E0,0E0,0E0,0E0],"parents":[2147483647,0,0,1,1,2,2,3,3,4,4,5,5,6,6,7,7,8,8,9,9,10,10,11,11,12,12,13,13,14,14],"right_children":[2,4,6,8,10,12,14,16,18,20,22,24,26,28,30,-1,-1,-1,-1,-1,-1,-1,-1,-1,-1,-1,-1,-1,-1,-1,-1],"split_conditions":[4.5648E0,2.4E0,5.7628E0,3.4459016E0,2.4542253E0,3.1802325E0,3.96E2,-1.1823E2,3.535E1,2.2E1,-1.1778E2,2.6E1,3.78E1,1.2151898E0,8.917526E-1,2.8449014E-2,-7.181542E-2,-6.2005516E-2,-1.0396596E-1,-1.4811884E-2,7.044189E-2,-1.1415068E-2,-9.310194E-2,3.2434255E-2,9.384696E-2,1.1355819E-2,-1.2504925E-1,6.8129614E-2,-2.634306E-2,-3.495836E-3,1.0577654E-1],"split_indices":[0,0,0,2,5,5,4,7,6,1,7,1,6,3,3,0,0,0,0,0,0,0,0,0,0,0,0,0,0,0,0],"split_type":[0,0,0,0,0,0,0,0,0,0,0,0,0,0,0,0,0,0,0,0,0,0,0,0,0,0,0,0,0,0,0],"sum_hessian":[3.231323E3,2.4661755E3,7.651476E2,6.328653E2,1.8333102E3,4.8172992E2,2.8341766E2,1.2885927E2,5.0400604E2,5.4837555E2,1.2849346E3,3.5269846E2,1.2903145E2,2.150471E1,2.6191296E2,8.958116E1,3.9278114E1,2.4292464E2,2.6108142E2,1.7545172E2,3.729238E2,1.07929E3,2.0564459E2,1.6925468E2,1.8344377E2,1.1328522E2,1.5746231E1,1.8400837E1,3.1038737E0,3.2031229E0,2.5870984E2],"tree_param":{"num_deleted":"0","num_feature":"8","num_nodes":"31","size_leaf_vector":"1"}},{"base_weights":[5.514849E-4,-4.1961393E-1,2.8994563E-1,-1.1557621E-1,-6.874739E-1,1.4739169E-1,8.817085E-1,1.3433884E-1,-7.6320773E-1,-3.8550076E-1,-8.490771E-1,2.9220074E-1,-5.594014E-1,6.9437146E-1,1.064015E0,-4.8600297E-2,5.382793E-2,6.72934E-2,-8.4789E-2,1.570302E-1,-5.5874612E-2,-3.5519354E-2,-1.13642894E-1,4.6700142E-2,-4.54667E-2,-7.903672E-3,-1.255499E-1,3.0687317E-2,8.760222E-2,5.987894E-2,1.1001952E-1],"categories":[],"categories_nodes":[],"categories_segments":[],"categories_sizes":[],"default_left":[0,0,0,0,0,0,0,0,0,0,0,0,0,0,0,0,0,0,0,0,0,0,0,0,0,0,0,0,0,0,0],"id":14,"left_children":[1,3,5,7,9,11,13,15,17,19,21,23,25,27,29,-1,-1,-1,-1,-1,-1,-1,-1,-1,-1,-1,-1,-1,-1,-1,-1],"loss_changes":[3.8513025E2,1.05124954E2,1.5808798E2,9.8225464E1,3.317685E1,1.5498306E2,1.1689453E1,1.1008958E2,2.1118156E1,8.259325E1,6.2947876E1,1.6419858E2,8.602335E1,1.2566933E1,2.4138489E0,0E0,0E0,0E0,0E0,0E0,0E0,0E0,0E0,0E0,0E0,0E0,0E0,0E0,0E0,0E0,0E0],"parents":[2147483647,0,0,1,1,2,2,3,3,4,4,5,5,6,6,7,7,8,8,9,9,10,10,11,11,12,12,13,13,14,14],"right_children":[2,4,6,8,10,12,14,16,18,20,22,24,26,28,30,-1,-1,-1,-1,-1,-1,-1,-1,-1,-1,-1,-1,-1,-1,-1,-1],"split_conditions":[3.175E0,4.370253E0,5.3681E0,3.5991902E0,3.451E1,-1.1778E2,6.2924E0,2.1287E0,-1.2176E2,-1.1835E2,-1.2162E2,3.797E1,3.369E1,1.7E1,3.69E2,-4.8600297E-2,5.382793E-2,6.72934E-2,-8.4789E-2,1.570302E-1,-5.5874612E-2,-3.5519354E-2,-1.13642894E-1,4.6700142E-2,-4.54667E-2,-7.903672E-3,-1.255499E-1,3.0687317E-2,8.760222E-2,5.987894E-2,1.1001952E-1],"split_indices":[0,2,0,5,6,7,0,0,7,7,7,6,6,1,4,0,0,0,0,0,0,0,0,0,0,0,0,0,0,0,0],"split_type":[0,0,0,0,0,0,0,0,0,0,0,0,0,0,0,0,0,0,0,0,0,0,0,0,0,0,0,0,0,0,0],"sum_hessian":[3.165361E3,1.2908103E3,1.8745508E3,6.052478E2,6.8556244E2,1.5116483E3,3.6290253E2,4.3729303E2,1.6795479E2,2.40168E2,4.453944E2,1.2550898E3,2.5655847E2,1.8135359E2,1.8154895E2,1.7237268E2,2.6492035E2,8.965238E0,1.5898955E2,1.888681E1,2.2128119E2,1.646462E2,2.8074823E2,1.0173572E3,2.3773268E2,1.524612E2,1.0409726E2,5.8739517E1,1.2261407E2,1.4366463E1,1.671825E2],"tree_param":{"num_deleted":"0","num_feature":"8","num_nodes":"31","size_leaf_vector":"1"}},{"base_weights":[3.9366764E-4,-2.6375335E-1,3.9985302E-1,-1.4114165E-1,-8.2996565E-1,2.4726073E-1,9.1198593E-1,6.7249256E-1,-2.8618953E-1,-3.7807772E-1,-9.877897E-1,4.309124E-1,-3.043865E-1,7.1571213E-1,1.0399886E0,1.5110205E-1,3.656833E-2,-3.2209293E-3,-1.0434885E-1,5.1943857E-2,-1.1548825E-1,-1.0032531E-1,1.831867E-3,3.662246E-3,6.77718E-2,4.7242865E-2,-5.344791E-2,-9.267715E-2,7.51992E-2,5.650142E-2,1.07856765E-1],"categories":[],"categories_nodes":[],"categories_segments":[],"categories_sizes":[],"default_left":[0,0,0,0,0,0,0,0,0,0,0,0,0,0,0,0,0,0,0,0,0,0,0,0,0,0,0,0,0,0,0],"id":15,"left_children":[1,3,5,7,9,11,13,15,17,19,21,23,25,27,29,-1,-1,-1,-1,-1,-1,-1,-1,-1,-1,-1,-1,-1,-1,-1,-1],"loss_changes":[3.269983E2,1.2939206E2,9.6174576E1,1.8130234E2,2.3293854E1,9.655526E1,6.3606567E0,5.925862E1,2.5061038E2,6.1618496E1,3.8352356E0,6.950148E1,4.284664E1,7.540024E0,2.4866943E0,0E0,0E0,0E0,0E0,0E0,0E0,0E0,0E0,0E0,0E0,0E0,0E0,0E0,0E0,0E0,0E0],"parents":[2147483647,0,0,1,1,2,2,3,3,4,4,5,5,6,6,7,7,8,8,9,9,10,10,11,11,12,12,13,13,14,14],"right_children":[2,4,6,8,10,12,14,16,18,20,22,24,26,28,30,-1,-1,-1,-1,-1,-1,-1,-1,-1,-1,-1,-1,-1,-1,-1,-1],"split_conditions":[3.8393E0,3.793E1,5.5942E0,-1.2185E2,-1.2239E2,3.2047782E0,6.2924E0,-1.2236E2,3.451E1,3.876E1,1.8793522E1,2.2E1,-1.2147E2,8.917526E-1,3.69E2,1.5110205E-1,3.656833E-2,-3.2209293E-3,-1.0434885E-1,5.1943857E-2,-1.1548825E-1,-1.0032531E-1,1.831867E-3,3.662246E-3,6.77718E-2,4.7242865E-2,-5.344791E-2,-9.267715E-2,7.51992E-2,5.650142E-2,1.07856765E-1],"split_indices":[0,6,0,7,7,5,0,7,6,6,2,1,7,3,4,0,0,0,0,0,0,0,0,0,0,0,0,0,0,0,0],"split_type":[0,0,0,0,0,0,0,0,0,0,0,0,0,0,0,0,0,0,0,0,0,0,0,0,0,0,0,0,0,0,0],"sum_hessian":[3.0970405E3,1.864475E3,1.2325654E3,1.5336226E3,3.3085242E2,9.507639E2,2.8180154E2,2.3148576E2,1.3021367E3,8.652014E1,2.4433228E2,7.134609E2,2.3730304E2,1.13838295E2,1.6796324E2,6.0958263E1,1.705275E2,9.758891E2,3.2624768E2,4.0294914E1,4.6225224E1,2.4063663E2,3.6956482E0,2.751065E2,4.383544E2,5.3986404E1,1.8331664E2,1.929719E0,1.1190858E2,1.3792983E1,1.5417026E2],"tree_param":{"num_deleted":"0","num_feature":"8","num_nodes":"31","size_leaf_vector":"1"}},{"base_weights":[3.7243663E-4,-1.640955E-1,5.655737E-1,-4.5927778E-2,-7.5176E-1,3.8359523E-1,9.2141104E-1,2.9836425E-1,-3.7808555E-1,3.1699777E-1,-8.7816656E-1,8.459315E-1,1.8333624E-1,4.2491195E-1,9.6400684E-1,8.0534495E-2,-6.5599E-2,2.104606E-2,-1.0357904E-1,1.1180679E-1,-1.0576762E-2,7.0569195E-2,-8.982405E-2,1.1172624E-1,1.309277E-2,5.1055234E-2,-1.0418798E-1,5.778974E-2,-3.5136774E-2,9.761472E-2,-4.5596052E-2],"categories":[],"categories_nodes":[],"categories_segments":[],"categories_sizes":[],"default_left":[0,0,0,0,0,0,0,0,0,0,0,0,0,0,0,0,0,0,0,0,0,0,0,0,0,0,0,0,0,0,0],"id":16,"left_children":[1,3,5,7,9,11,13,15,17,19,21,23,25,27,29,-1,-1,-1,-1,-1,-1,-1,-1,-1,-1,-1,-1,-1,-1,-1,-1],"loss_changes":[2.8237613E2,1.6336447E2,4.3983963E1,2.2427193E2,5.3488647E1,4.194722E1,4.474991E0,4.6648657E2,3.8656708E2,1.447487E1,1.1840485E1,2.6462929E1,1.2825134E2,2.5827048E0,4.09848E0,0E0,0E0,0E0,0E0,0E0,0E0,0E0,0E0,0E0,0E0,0E0,0E0,0E0,0E0,0E0,0E0],"parents":[2147483647,0,0,1,1,2,2,3,3,4,4,5,5,6,6,7,7,8,8,9,9,10,10,11,11,12,12,13,13,14,14],"right_children":[2,4,6,8,10,12,14,16,18,20,22,24,26,28,30,-1,-1,-1,-1,-1,-1,-1,-1,-1,-1,-1,-1,-1,-1,-1,-1],"split_conditions":[4.5648E0,3.6142132E0,5.7628E0,3.451E1,-1.2166E2,-1.2147E2,3.96E2,-1.1775E2,-1.2162E2,-1.2226E2,2.2291667E0,3.797E1,3.451E1,1.2151898E0,-1.1667E2,8.0534495E-2,-6.5599E-2,2.104606E-2,-1.0357904E-1,1.1180679E-1,-1.0576762E-2,7.0569195E-2,-8.982405E-2,1.1172624E-1,1.309277E-2,5.1055234E-2,-1.0418798E-1,5.778974E-2,-3.5136774E-2,9.761472E-2,-4.5596052E-2],"split_indices":[0,5,0,6,7,7,4,7,7,7,2,6,6,3,7,0,0,0,0,0,0,0,0,0,0,0,0,0,0,0,0],"split_type":[0,0,0,0,0,0,0,0,0,0,0,0,0,0,0,0,0,0,0,0,0,0,0,0,0,0,0,0,0,0,0],"sum_hessian":[3.0356924E3,2.351995E3,6.8369745E2,1.9591307E3,3.9286435E2,4.5373248E2,2.2996498E2,9.620437E2,9.97087E2,4.1391827E1,3.5147253E2,1.3615904E2,3.1757343E2,1.903756E1,2.1092743E2,6.2838403E2,3.336597E2,5.2656824E2,4.7051877E2,1.3730383E1,2.7661444E1,3.9713824E0,3.4750116E2,9.829521E1,3.786384E1,2.5109679E2,6.647665E1,1.6116879E1,2.920681E0,2.0944925E2,1.4781824E0],"tree_param":{"num_deleted":"0","num_feature":"8","num_nodes":"31","size_leaf_vector":"1"}},{"base_weights":[2.5899566E-4,-3.4933695E-1,2.403103E-1,-2.3037423E-1,-9.123312E-1,3.9609048E-1,-2.3639697E-1,-1.2576282E-1,-1.069194E0,-5.699054E-1,-9.881636E-1,5.241839E-1,-2.2465979E-1,5.0252914E-1,-4.4352528E-1,2.5255296E-2,-4.3353762E-2,-1.1443466E-1,4.780365E-3,5.9618647E-3,-1.0081323E-1,5.248031E-2,-1.0088829E-1,6.9244936E-2,-2.3823794E-2,6.6112585E-2,-5.4540575E-2,8.554209E-2,-6.733279E-2,-6.1700463E-2,4.0291462E-2],"categories":[],"categories_nodes":[],"categories_segments":[],"categories_sizes":[],"default_left":[0,0,0,0,0,0,0,0,0,0,0,0,0,0,0,0,0,0,0,0,0,0,0,0,0,0,0,0,0,0,0],"id":17,"left_children":[1,3,5,7,9,11,13,15,17,19,21,23,25,27,29,-1,-1,-1,-1,-1,-1,-1,-1,-1,-1,-1,-1,-1,-1,-1,-1],"loss_changes":[2.4915771E2,8.074237E1,1.3081357E2,8.7543884E1,4.9031677E0,1.05639984E2,6.667449E1,1.03681915E2,9.344078E0,1.1241062E1,5.889328E0,1.413323E2,6.505438E1,4.021483E1,5.0122528E1,0E0,0E0,0E0,0E0,0E0,0E0,0E0,0E0,0E0,0E0,0E0,0E0,0E0,0E0,0E0,0E0],"parents":[2147483647,0,0,1,1,2,2,3,3,4,4,5,5,6,6,7,7,8,8,9,9,10,10,11,11,12,12,13,13,14,14],"right_children":[2,4,6,8,10,12,14,16,18,20,22,24,26,28,30,-1,-1,-1,-1,-1,-1,-1,-1,-1,-1,-1,-1,-1,-1,-1,-1],"split_conditions":[3.175E0,3.793E1,3.2137096E0,-1.1714E2,2.144781E0,3.797E1,-1.2149E2,2.810345E0,3.0865E0,-1.2205E2,8E0,-1.1768E2,-1.2239E2,3.779E1,5.2713E0,2.5255296E-2,-4.3353762E-2,-1.1443466E-1,4.780365E-3,5.9618647E-3,-1.0081323E-1,5.248031E-2,-1.0088829E-1,6.9244936E-2,-2.3823794E-2,6.6112585E-2,-5.4540575E-2,8.554209E-2,-6.733279E-2,-6.1700463E-2,4.0291462E-2],"split_indices":[0,6,5,7,5,6,7,5,0,7,1,7,7,6,0,0,0,0,0,0,0,0,0,0,0,0,0,0,0,0,0],"split_type":[0,0,0,0,0,0,0,0,0,0,0,0,0,0,0,0,0,0,0,0,0,0,0,0,0,0,0,0,0,0,0],"sum_hessian":[2.9669563E3,1.2076924E3,1.759264E3,9.9818207E2,2.0951028E2,1.3260889E3,4.331752E2,8.885221E2,1.0965999E2,3.9529175E1,1.6998111E2,1.0993837E3,2.2670515E2,9.452676E1,3.3864847E2,3.9866443E2,4.8985764E2,1.0272413E2,6.935862E0,1.657817E1,2.2951006E1,1.9676862E0,1.6801341E2,9.006937E2,1.9869E2,5.9985485E1,1.6671967E2,7.291609E1,2.1610662E1,2.8127228E2,5.7376186E1],"tree_param":{"num_deleted":"0","num_feature":"8","num_nodes":"31","size_leaf_vector":"1"}},{"base_weights":[5.079455E-5,-1.4491972E-1,5.1308024E-1,-7.578546E-2,-9.5746934E-1,3.3728918E-1,8.79675E-1,2.0914505E-1,-3.5776845E-1,-1.1163383E0,-6.337468E-1,7.7970785E-1,1.5416577E-1,6.4692086E-1,9.874232E-1,5.564579E-2,-5.9839126E-2,1.8985208E-2,-9.7788505E-2,-1.14197075E-1,-1.0809588E-2,-3.5948675E-2,-1.0202133E-1,1.0491272E-1,1.3701401E-2,4.5858495E-2,-9.34149E-2,7.639886E-2,-3.0667132E-2,4.7965746E-2,1.0331102E-1],"categories":[],"categories_nodes":[],"categories_segments":[],"categories_sizes":[],"default_left":[0,0,0,0,0,0,0,0,0,0,0,0,0,0,0,0,0,0,0,0,0,0,0,0,0,0,0,0,0,0,0],"id":18,"left_children":[1,3,5,7,9,11,13,15,17,19,21,23,25,27,29,-1,-1,-1,-1,-1,-1,-1,-1,-1,-1,-1,-1,-1,-1,-1,-1],"loss_changes":[2.1645355E2,1.273958E2,4.1025116E1,1.6818095E2,8.438736E0,3.5122883E1,4.55748E0,2.9239423E2,3.5741672E2,2.9256744E0,6.08374E0,2.1863998E1,1.0277088E2,7.877384E0,2.7460022E0,0E0,0E0,0E0,0E0,0E0,0E0,0E0,0E0,0E0,0E0,0E0,0E0,0E0,0E0,0E0,0E0],"parents":[2147483647,0,0,1,1,2,2,3,3,4,4,5,5,6,6,7,7,8,8,9,9,10,10,11,11,12,12,13,13,14,14],"right_children":[2,4,6,8,10,12,14,16,18,20,22,24,26,28,30,-1,-1,-1,-1,-1,-1,-1,-1,-1,-1,-1,-1,-1,-1,-1,-1],"split_conditions":[4.5648E0,-1.1714E2,5.7628E0,3.451E1,5.6525097E0,-1.2147E2,6.2924E0,3.4362416E0,-1.2162E2,5E1,3.372E1,3.797E1,3.451E1,-1.1728E2,3.69E2,5.564579E-2,-5.9839126E-2,1.8985208E-2,-9.7788505E-2,-1.14197075E-1,-1.0809588E-2,-3.5948675E-2,-1.0202133E-1,1.0491272E-1,1.3701401E-2,4.5858495E-2,-9.34149E-2,7.639886E-2,-3.0667132E-2,4.7965746E-2,1.0331102E-1],"split_indices":[0,7,0,6,2,7,0,5,7,1,6,6,6,7,4,0,0,0,0,0,0,0,0,0,0,0,0,0,0,0,0],"split_type":[0,0,0,0,0,0,0,0,0,0,0,0,0,0,0,0,0,0,0,0,0,0,0,0,0,0,0,0,0,0,0],"sum_hessian":[2.9083335E3,2.2681292E3,6.402044E2,2.091289E3,1.7684012E2,4.340074E2,2.0619704E2,1.0403364E3,1.0509526E3,1.1698201E2,5.9858105E1,1.26099144E2,3.0790823E2,6.7465126E1,1.387319E2,7.276799E2,3.126565E2,5.5846765E2,4.9248495E2,1.1395237E2,3.0296412E0,3.6140675E1,2.3717428E1,8.840648E1,3.7692673E1,2.4105884E2,6.684941E1,6.026547E1,7.199655E0,1.2401398E1,1.2633051E2],"tree_param":{"num_deleted":"0","num_feature":"8","num_nodes":"31","size_leaf_vector":"1"}},{"base_weights":[-1.6712322E-4,-3.073821E-1,2.1003701E-1,-1.9562174E-1,-8.6315167E-1,3.991348E-1,-1.3085346E-1,1.3405993E0,-2.4879165E-1,-5.1255834E-1,-9.43553E-1,5.008182E-1,-2.454928E-1,4.1856107E-1,-2.9439005E-1,4.180473E-2,1.728332E-1,-1.1220879E-2,-7.350954E-2,3.5668586E-3,-9.399684E-2,-9.6609555E-2,5.7161953E-2,9.2312776E-2,1.745946E-2,1.8943679E-2,-1.46446E-1,8.0612384E-2,-6.775696E-2,-9.7108595E-3,-1.11945115E-1],"categories":[],"categories_nodes":[],"categories_segments":[],"categories_sizes":[],"default_left":[0,0,0,0,0,0,0,0,0,0,0,0,0,0,0,0,0,0,0,0,0,0,0,0,0,0,0,0,0,0,0],"id":19,"left_children":[1,3,5,7,9,11,13,15,17,19,21,23,25,27,29,-1,-1,-1,-1,-1,-1,-1,-1,-1,-1,-1,-1,-1,-1,-1,-1],"loss_changes":[1.8395082E2,7.1709724E1,1.09075554E2,7.9136566E1,4.969467E0,7.14451E1,5.4410133E1,1.0878143E1,6.191051E1,9.002657E0,5.886566E0,1.2936351E2,7.92303E1,5.9597797E1,7.577351E1,0E0,0E0,0E0,0E0,0E0,0E0,0E0,0E0,0E0,0E0,0E0,0E0,0E0,0E0,0E0,0E0],"parents":[2147483647,0,0,1,1,2,2,3,3,4,4,5,5,6,6,7,7,8,8,9,9,10,10,11,11,12,12,13,13,14,14],"right_children":[2,4,6,8,10,12,14,16,18,20,22,24,26,28,30,-1,-1,-1,-1,-1,-1,-1,-1,-1,-1,-1,-1,-1,-1,-1,-1],"split_conditions":[3.175E0,3.793E1,3.0374532E0,-1.2236E2,2.144781E0,-1.1757E2,-1.2149E2,3.554517E0,-1.178E2,-1.2205E2,4.367E3,3.451E1,3.38E1,3.797E1,3.451E1,4.180473E-2,1.728332E-1,-1.1220879E-2,-7.350954E-2,3.5668586E-3,-9.399684E-2,-9.6609555E-2,5.7161953E-2,9.2312776E-2,1.745946E-2,1.8943679E-2,-1.46446E-1,8.0612384E-2,-6.775696E-2,-9.7108595E-3,-1.11945115E-1],"split_indices":[0,6,5,7,5,7,7,2,7,7,4,6,6,6,6,0,0,0,0,0,0,0,0,0,0,0,0,0,0,0,0],"split_type":[0,0,0,0,0,0,0,0,0,0,0,0,0,0,0,0,0,0,0,0,0,0,0,0,0,0,0,0,0,0,0],"sum_hessian":[2.8465127E3,1.1562224E3,1.6902903E3,9.637689E2,1.9245345E2,1.0870913E3,6.0319904E2,3.1430958E1,9.3233795E2,3.7277645E1,1.551758E2,9.391699E2,1.4792137E2,1.3800398E2,4.6519504E2,9.915854E0,2.1515102E1,7.2886127E2,2.0347668E2,1.673223E1,2.0545416E1,1.5325803E2,1.9177706E0,4.08509E2,5.306609E2,1.09644585E2,3.8276783E1,1.0215075E2,3.585322E1,3.7632837E2,8.8866684E1],"tree_param":{"num_deleted":"0","num_feature":"8","num_nodes":"31","size_leaf_vector":"1"}}]},"name":"gbtree"},"learner_model_param":{"base_score":"5.0060564E-1","boost_from_average":"1","num_class":"0","num_feature":"8","num_target":"1"},"objective":{"name":"binary:logistic","reg_loss_param":{"scale_pos_weight":"1"}}},"version":[3,0,4]}