{"learner":{"attributes":{},"feature_names":[],"feature_types":[],"gradient_booster":{"model":{"gbtree_model_param":{"num_parallel_tree":"1","num_trees":"5"},"iteration_indptr":[0,1,2,3,4,5],"tree_info":[0,0,0,0,0],"trees":[{"base_weights":[1.2669005E-7,-1.5674682E0,1.4024718E0,7.720023E-2,-1.6191669E0,1.7731938E0,5.8530474E-1,-1.7479861E0,-9.485749E-1,1.894738E-1,1.2037913E0,1.6465776E0,7.053373E-2,-1.8788497E-1,-1.3859713E0,-1.7003019E-1,-5.5364126E-1,1.7930591E-1,5.401972E-1,8.2659084E-1,1.817588E-1,-1.2462546E0,1.4704056E0,-1.7105205E0,-8.424645E-1,-1.1543198E0,3.7377915E-1,1.6554838E-1,-7.2400224E-1,1.2024029E-1,1.8436419E-2,6.688904E-2,-1.4539036E0,1.6263458E0,1.8436419E-2,-1.8027163E-1,-6.640017E-2,-1.4512774E-1,-3.494129E-1,-1.3715047E0,2.4000822E-4,-3.9706773E-1,1.0030031E0,2.2444502E-2,-1.0557678E0,-1.6259317E0,2.2444502E-2,1.748347E-1,4.0240105E-2,6.693352E-2,-7.6584864E-1,-1.5521532E-1,-2.2000043E-2,6.688904E-2,-1.19760275E-1,2.2444502E-2,1.2752761E-1,-1.3306701E-1,-2.2000043E-2,-1.8185842E-1,-4.587704E-2,2.4000822E-4,-9.9680305E-1,-3.3066746E-2,-1.3306701E-1],"categories":[],"categories_nodes":[],"categories_segments":[],"categories_sizes":[],"default_left":[0,0,0,0,0,0,0,0,0,0,0,0,0,0,0,0,0,0,0,0,0,0,0,0,0,0,0,0,0,0,0,0,0,0,0,0,0,0,0,0,0,0,0,0,0,0,0,0,0,0,0,0,0,0,0,0,0,0,0,0,0,0,0,0,0],"id":0,"left_children":[1,3,5,-1,7,9,11,13,15,-1,17,19,21,-1,23,-1,25,-1,27,29,-1,31,33,35,37,39,41,-1,43,-1,-1,-1,45,47,-1,-1,-1,-1,49,51,-1,53,55,-1,57,59,-1,-1,-1,-1,61,-1,-1,-1,-1,-1,-1,-1,-1,-1,-1,-1,63,-1,-1],"loss_changes":[5.53977E2,1.564267E1,3.9253265E1,0E0,8.427307E0,4.0169983E0,2.337521E1,1.9794617E0,5.293146E0,0E0,6.363264E0,4.607544E-1,5.7132336E1,0E0,3.7625694E0,0E0,8.926921E0,0E0,1.5650456E1,8.0408216E-1,0E0,7.335329E0,2.7083282E0,4.9147034E-1,3.3951797E0,2.3898945E0,3.6722374E0,0E0,1.9675984E0,0E0,0E0,0E0,4.6235867E0,1.2749786E0,0E0,0E0,0E0,0E0,4.118664E0,1.3226585E0,0E0,4.001069E0,5.616894E-1,0E0,6.8370485E-1,2.2012367E0,0E0,0E0,0E0,0E0,1.1556864E0,0E0,0E0,0E0,0E0,0E0,0E0,0E0,0E0,0E0,0E0,0E0,6.719909E-1,0E0,0E0],"parents":[2147483647,0,0,1,1,2,2,4,4,5,5,6,6,7,7,8,8,10,10,11,11,12,12,14,14,16,16,18,18,19,19,21,21,22,22,23,23,24,24,25,25,26,26,28,28,32,32,33,33,38,38,39,39,41,41,42,42,44,44,45,45,50,50,62,62],"right_children":[2,4,6,-1,8,10,12,14,16,-1,18,20,22,-1,24,-1,26,-1,28,30,-1,32,34,36,38,40,42,-1,44,-1,-1,-1,46,48,-1,-1,-1,-1,50,52,-1,54,56,-1,58,60,-1,-1,-1,-1,62,-1,-1,-1,-1,-1,-1,-1,-1,-1,-1,-1,64,-1,-1],"split_conditions":[-3.4096125E-1,-1.8420578E0,-1.958301E-1,7.720023E-2,-6.718682E-1,-4.1424504E-1,-8.2379985E-1,6.5814304E-1,1.7450161E-1,1.894738E-1,6.7453915E-1,-6.222702E-1,-4.3719077E-1,-1.8788497E-1,2.9137897E-1,-1.7003019E-1,-7.789781E-1,1.7930591E-1,-7.322672E-1,-5.7845974E-1,1.817588E-1,-1.9354299E0,4.2728212E-1,-8.219287E-1,-3.5744542E-1,5.2598715E-1,-5.327255E-1,1.6554838E-1,-2.1780325E-1,1.2024029E-1,1.8436419E-2,6.688904E-2,9.3166596E-1,1.4726707E0,1.8436419E-2,-1.8027163E-1,-6.640017E-2,-1.4512774E-1,-6.3524574E-2,5.009173E-1,2.4000822E-4,-1.3088204E0,3.3290055E-1,2.2444502E-2,-3.4157658E-1,-5.690307E-1,2.2444502E-2,1.748347E-1,4.0240105E-2,6.693352E-2,-1.3426036E0,-1.5521532E-1,-2.2000043E-2,6.688904E-2,-1.19760275E-1,2.2444502E-2,1.2752761E-1,-1.3306701E-1,-2.2000043E-2,-1.8185842E-1,-4.587704E-2,2.4000822E-4,-8.22537E-2,-3.3066746E-2,-1.3306701E-1],"split_indices":[6,8,2,0,6,2,8,1,2,0,6,5,8,0,9,0,8,0,8,1,0,4,8,6,7,2,3,0,0,0,0,0,1,3,0,0,0,0,7,1,0,3,0,0,2,8,0,0,0,0,8,0,0,0,0,0,0,0,0,0,0,0,4,0,0],"split_type":[0,0,0,0,0,0,0,0,0,0,0,0,0,0,0,0,0,0,0,0,0,0,0,0,0,0,0,0,0,0,0,0,0,0,0,0,0,0,0,0,0,0,0,0,0,0,0,0,0,0,0,0,0,0,0,0,0,0,0,0,0,0,0,0,0],"sum_hessian":[2.4999902E2,1.17999535E2,1.3199948E2,2.2499912E0,1.1574954E2,8.999965E1,4.1999836E1,9.5749626E1,1.9999922E1,7.224972E1,1.774993E1,1.29999485E1,2.8999886E1,6.724973E1,2.8499887E1,5.7499776E0,1.4249944E1,8.499967E0,9.249964E0,3.2499871E0,9.749962E0,1.4999941E1,1.3999945E1,1.6499935E1,1.1999952E1,8.499967E0,5.7499776E0,4.7499814E0,4.4999824E0,1.499994E0,1.7499931E0,1.2499951E0,1.3749946E1,1.2249951E1,1.7499931E0,1.4499943E1,1.9999921E0,4.4999824E0,7.4999704E0,6.9999723E0,1.499994E0,2.7499893E0,2.999988E0,1.2499951E0,3.2499871E0,1.249995E1,1.2499951E0,1.0749958E1,1.499994E0,1.9999921E0,5.4999785E0,5.7499776E0,1.2499951E0,1.2499951E0,1.499994E0,1.2499951E0,1.7499931E0,1.9999921E0,1.2499951E0,1.024996E1,2.2499912E0,1.499994E0,3.9999843E0,1.9999921E0,1.9999921E0],"tree_param":{"num_deleted":"0","num_feature":"10","num_nodes":"65","size_leaf_vector":"1"}},{"base_weights":[-1.6062966E-4,-1.4288045E0,1.278082E0,7.192428E-2,-1.4766636E0,1.6135837E0,5.3967494E-1,-1.593497E0,-8.696973E-1,1.2688715E0,1.7992672E-1,1.513983E0,6.699517E-2,-1.7097008E0,-1.271292E0,-1.5658776E-1,-5.052997E-1,1.7578185E-1,2.090808E-1,7.775469E-1,1.6650204E-1,-1.1370654E0,1.3462821E0,-5.6325257E-2,-1.7226036E-1,-1.56516E0,-7.793328E-1,-1.061796E0,3.515098E-1,7.5574577E-1,-5.985189E-1,1.1522343E-1,1.542437E-2,-1.753245E-1,-1.5912177E-1,1.489101E0,1.7263737E-2,-1.6475648E-1,-6.2026452E-2,-1.3388251E-1,-3.2662192E-1,6.66973E-3,-1.2816579E0,-3.722063E-1,9.418546E-1,-4.931322E-2,1.1480945E0,3.2888994E-2,-1.0282354E0,-8.6575216E-1,1.2010135E-1,1.5993889E-1,3.783329E-2,6.251373E-2,-7.159584E-1,-1.46346E-1,-1.663088E-2,6.3208684E-2,-1.1284244E-1,1.2154173E-1,1.888236E-2,5.867786E-2,-6.6325575E-2,2.026049E-2,1.3929E-1,-2.6667947E-2,-1.2760164E-1,-2.6913865E-2,-1.20068386E-1,-1.2296293E-1,-2.6763913E-1,-9.46362E-2,5.6932528E-2],"categories":[],"categories_nodes":[],"categories_segments":[],"categories_sizes":[],"default_left":[0,0,0,0,0,0,0,0,0,0,0,0,0,0,0,0,0,0,0,0,0,0,0,0,0,0,0,0,0,0,0,0,0,0,0,0,0,0,0,0,0,0,0,0,0,0,0,0,0,0,0,0,0,0,0,0,0,0,0,0,0,0,0,0,0,0,0,0,0,0,0,0,0],"id":1,"left_children":[1,3,5,-1,7,9,11,13,15,17,-1,19,21,23,25,-1,27,-1,29,31,-1,33,35,-1,-1,37,39,41,43,45,47,-1,-1,49,-1,51,-1,-1,-1,-1,53,-1,55,57,59,61,63,-1,65,67,-1,-1,-1,-1,69,-1,-1,-1,-1,-1,-1,-1,-1,-1,-1,-1,-1,-1,-1,-1,71,-1,-1],"loss_changes":[4.568157E2,1.3205902E1,3.1836777E1,0E0,6.8316193E0,3.495346E0,1.9585941E1,1.4198456E0,4.5124435E0,1.776717E1,0E0,2.5348473E-1,4.748006E1,3.0212402E-2,3.0216675E0,0E0,7.620653E0,0E0,5.831281E0,8.1363463E-1,0E0,6.6698093E0,2.2440224E0,0E0,0E0,3.3097076E-1,2.846095E0,2.4334965E0,3.2285824E0,2.4911618E0,2.5205498E0,0E0,0E0,6.9568405E0,0E0,1.0084572E0,0E0,0E0,0E0,0E0,3.5928268E0,0E0,1.3726816E0,3.5559654E0,5.931113E-1,1.7498945E0,9.267707E-1,0E0,4.1159248E-1,6.2157154E-1,0E0,0E0,0E0,0E0,1.165463E0,0E0,0E0,0E0,0E0,0E0,0E0,0E0,0E0,0E0,0E0,0E0,0E0,0E0,0E0,0E0,3.2334862E0,0E0,0E0],"parents":[2147483647,0,0,1,1,2,2,4,4,5,5,6,6,7,7,8,8,9,9,11,11,12,12,13,13,14,14,16,16,18,18,19,19,21,21,22,22,25,25,26,26,27,27,28,28,29,29,30,30,33,33,35,35,40,40,42,42,43,43,44,44,45,45,46,46,48,48,49,49,54,54,70,70],"right_children":[2,4,6,-1,8,10,12,14,16,18,-1,20,22,24,26,-1,28,-1,30,32,-1,34,36,-1,-1,38,40,42,44,46,48,-1,-1,50,-1,52,-1,-1,-1,-1,54,-1,56,58,60,62,64,-1,66,68,-1,-1,-1,-1,70,-1,-1,-1,-1,-1,-1,-1,-1,-1,-1,-1,-1,-1,-1,-1,72,-1,-1],"split_conditions":[-3.4096125E-1,-1.8420578E0,-1.958301E-1,7.192428E-2,-6.718682E-1,-8.257632E-2,-8.2379985E-1,6.5814304E-1,1.7450161E-1,-6.9334334E-1,1.7992672E-1,-6.222702E-1,-4.3719077E-1,-2.2168188E0,2.9137897E-1,-1.5658776E-1,-7.789781E-1,1.7578185E-1,8.298742E-2,2.2893574E-2,1.6650204E-1,-7.424842E-1,4.2728212E-1,-5.6325257E-2,-1.7226036E-1,-8.219287E-1,-3.5744542E-1,-9.186865E-1,-5.327255E-1,-1.7038576E-1,-7.267419E-1,1.1522343E-1,1.542437E-2,-6.280768E-1,-1.5912177E-1,1.4726707E0,1.7263737E-2,-1.6475648E-1,-6.2026452E-2,-1.3388251E-1,-6.3524574E-2,6.66973E-3,6.082672E-1,-1.3088204E0,4.1583684E-1,2.0832251E-1,-2.716551E-1,3.2888994E-2,-5.8832854E-2,5.8855325E-1,1.2010135E-1,1.5993889E-1,3.783329E-2,6.251373E-2,-8.369207E-1,-1.46346E-1,-1.663088E-2,6.3208684E-2,-1.1284244E-1,1.2154173E-1,1.888236E-2,5.867786E-2,-6.6325575E-2,2.026049E-2,1.3929E-1,-2.6667947E-2,-1.2760164E-1,-2.6913865E-2,-1.20068386E-1,-1.2296293E-1,5.030904E-1,-9.46362E-2,5.6932528E-2],"split_indices":[6,8,2,0,6,8,8,1,2,8,0,5,8,7,9,0,8,0,5,2,0,4,8,0,0,6,7,3,3,9,3,0,0,8,0,3,0,0,0,0,7,0,4,3,3,7,7,0,9,5,0,0,0,0,3,0,0,0,0,0,0,0,0,0,0,0,0,0,0,0,7,0,0],"split_type":[0,0,0,0,0,0,0,0,0,0,0,0,0,0,0,0,0,0,0,0,0,0,0,0,0,0,0,0,0,0,0,0,0,0,0,0,0,0,0,0,0,0,0,0,0,0,0,0,0,0,0,0,0,0,0,0,0,0,0,0,0,0,0,0,0,0,0,0,0,0,0,0,0],"sum_hessian":[2.4815187E2,1.1712635E2,1.3102553E2,2.2469888E0,1.14879364E2,8.927667E1,4.1748848E1,9.4972916E1,1.9906448E1,3.399682E1,5.5279854E1,1.2918237E1,2.8830612E1,6.663475E1,2.8338163E1,5.706682E0,1.4199767E1,2.2813086E1,1.1183732E1,3.2448533E0,9.673384E0,1.4909249E1,1.3921363E1,1.2385641E0,6.539619E1,1.6375126E1,1.19630375E1,8.463496E0,5.7362704E0,6.707576E0,4.476156E0,1.4966036E0,1.7482498E0,5.226769E0,9.682481E0,1.2171454E1,1.7499088E0,1.4377603E1,1.9975239E0,4.4750733E0,7.4879646E0,1.4936461E0,6.9698505E0,2.7430358E0,2.9932346E0,2.4843209E0,4.223255E0,1.4916122E0,2.9845443E0,3.7277503E0,1.4990184E0,1.0671947E1,1.4995077E0,1.998021E0,5.4899435E0,5.7246265E0,1.2452238E0,1.2487649E0,1.4942709E0,1.7452011E0,1.2480336E0,1.2418813E0,1.2424396E0,1.2444694E0,2.9787855E0,1.242374E0,1.7421703E0,1.9887516E0,1.7389987E0,1.7463149E0,3.7436285E0,1.9950594E0,1.7485693E0],"tree_param":{"num_deleted":"0","num_feature":"10","num_nodes":"73","size_leaf_vector":"1"}},{"base_weights":[-6.1897637E-4,-1.3085197E0,1.1895502E0,6.713747E-2,-1.3530166E0,1.5938709E0,6.783665E-1,-1.4728773E0,-7.703035E-1,1.6060708E-1,4.896316E-2,2.1495785E-1,1.4799327E0,-1.5799527E-1,-1.1773093E0,-1.3892885E-1,-4.0761414E-1,1.4750066E0,-8.18993E-1,6.400668E-2,1.5440778E-1,-1.449449E0,-7.250332E-1,-9.80775E-1,4.576599E-1,6.903558E-1,1.55634E-1,7.822158E-2,-9.754368E-1,-1.5258196E-1,-5.8020182E-2,-3.667797E-1,-1.3760227E-1,6.2688137E-3,-1.1863016E0,1.1037626E-1,6.0747143E-2,9.68816E-2,1.029556E-2,2.7525657E-1,-1.2076483E0,-8.283429E-1,4.2529815E-1,-1.1504038E-2,-1.3673396E-1,-4.7655806E-1,9.899215E-2,1.084733E-1,-4.9458273E-2,-2.8518668E-1,-1.503965E-1,-1.2667511E-1,-2.9961896E-1,1.1309381E-1,-2.4908744E-2,-7.804267E-2,1.9584699E-3,-1.19751625E-1,7.109768E-2,-1.01316646E-1,3.3401247E-2],"categories":[],"categories_nodes":[],"categories_segments":[],"categories_sizes":[],"default_left":[0,0,0,0,0,0,0,0,0,0,0,0,0,0,0,0,0,0,0,0,0,0,0,0,0,0,0,0,0,0,0,0,0,0,0,0,0,0,0,0,0,0,0,0,0,0,0,0,0,0,0,0,0,0,0,0,0,0,0,0,0],"id":2,"left_children":[1,3,5,-1,7,9,11,13,15,-1,-1,17,19,-1,21,-1,23,25,27,-1,-1,29,31,33,35,37,-1,-1,39,-1,-1,41,-1,-1,43,-1,45,-1,-1,47,49,51,53,-1,-1,55,-1,-1,-1,57,-1,-1,59,-1,-1,-1,-1,-1,-1,-1,-1],"loss_changes":[3.8198868E2,1.1208511E1,2.547345E1,0E0,6.874954E0,1.7008972E-1,2.1405487E1,1.1153412E0,4.2964773E0,0E0,0E0,5.1012905E1,1.567421E-1,0E0,2.5093575E0,0E0,7.9242086E0,4.795456E-2,6.18406E0,0E0,0E0,2.4714279E-1,2.4962173E0,2.0871077E0,1.6480284E0,4.643978E-1,0E0,0E0,6.1873417E0,0E0,0E0,3.8851075E0,0E0,0E0,1.3730736E0,0E0,3.0683966E0,0E0,0E0,3.011245E0,4.269432E0,1.114315E0,2.2891912E0,0E0,0E0,6.138834E-1,0E0,0E0,0E0,5.7708883E0,0E0,0E0,2.251457E0,0E0,0E0,0E0,0E0,0E0,0E0,0E0,0E0],"parents":[2147483647,0,0,1,1,2,2,4,4,5,5,6,6,7,7,8,8,11,11,12,12,14,14,16,16,17,17,18,18,21,21,22,22,23,23,24,24,25,25,28,28,31,31,34,34,36,36,39,39,40,40,41,41,42,42,45,45,49,49,52,52],"right_children":[2,4,6,-1,8,10,12,14,16,-1,-1,18,20,-1,22,-1,24,26,28,-1,-1,30,32,34,36,38,-1,-1,40,-1,-1,42,-1,-1,44,-1,46,-1,-1,48,50,52,54,-1,-1,56,-1,-1,-1,58,-1,-1,60,-1,-1,-1,-1,-1,-1,-1,-1],"split_conditions":[-3.16846E-1,-1.8420578E0,-4.1424504E-1,6.713747E-2,-6.718682E-1,2.4048376E0,-3.7093875E-1,6.5814304E-1,5.02895E-2,1.6060708E-1,4.896316E-2,-8.2379985E-1,-1.9628257E-1,-1.5799527E-1,2.9137897E-1,-1.3892885E-1,-7.789781E-1,1.9590534E-2,-2.700127E-1,6.400668E-2,1.5440778E-1,-8.219287E-1,3.475598E-1,-9.186865E-1,-3.733684E-1,-3.733684E-1,1.55634E-1,7.822158E-2,-9.7830796E-1,-1.5258196E-1,-5.8020182E-2,-8.2379985E-1,-1.3760227E-1,6.2688137E-3,-1.5118834E0,1.1037626E-1,5.3089434E-1,9.68816E-2,1.029556E-2,-5.312143E-1,-5.4915893E-1,-1.6912268E-1,-1.4492023E-1,-1.1504038E-2,-1.3673396E-1,3.1580383E-1,9.899215E-2,1.084733E-1,-4.9458273E-2,4.0867344E-1,-1.503965E-1,-1.2667511E-1,-8.369207E-1,1.1309381E-1,-2.4908744E-2,-7.804267E-2,1.9584699E-3,-1.19751625E-1,7.109768E-2,-1.01316646E-1,3.3401247E-2],"split_indices":[6,8,2,0,6,5,8,1,0,0,0,8,6,0,9,0,8,6,6,0,0,6,8,3,1,1,0,0,9,0,0,8,0,0,7,0,9,0,0,4,5,7,8,0,0,2,0,0,0,6,0,0,3,0,0,0,0,0,0,0,0],"split_type":[0,0,0,0,0,0,0,0,0,0,0,0,0,0,0,0,0,0,0,0,0,0,0,0,0,0,0,0,0,0,0,0,0,0,0,0,0,0,0,0,0,0,0,0,0,0,0,0,0,0,0,0,0,0,0,0,0,0,0,0,0],"sum_hessian":[2.4339578E2,1.15915016E2,1.27480774E2,2.2381945E0,1.1367682E2,6.9997925E1,5.7482845E1,9.30163E1,2.0660522E1,6.878353E1,1.214393E0,3.7228275E1,2.0254572E1,6.509048E1,2.7925827E1,6.5874724E0,1.407305E1,1.6587252E1,2.0641022E1,2.2161717E0,1.80384E1,1.6058472E1,1.1867354E1,8.385185E0,5.687864E0,2.4489896E0,1.4138263E1,1.4811736E0,1.915985E1,1.4067215E1,1.9912573E0,8.6632185E0,3.2041364E0,1.494181E0,6.8910046E0,1.4867812E0,4.2010827E0,1.220891E0,1.2280986E0,2.971256E0,1.6188593E1,5.444683E0,3.2185352E0,1.2326229E0,5.658382E0,2.9704843E0,1.2305983E0,1.2489561E0,1.7222999E0,4.4129877E0,1.1775605E1,2.2134593E0,3.231224E0,1.2419926E0,1.9765427E0,1.4868543E0,1.48363E0,2.1979144E0,2.2150733E0,1.2380465E0,1.9931774E0],"tree_param":{"num_deleted":"0","num_feature":"10","num_nodes":"61","size_leaf_vector":"1"}},{"base_weights":[-8.1689586E-4,-1.2661697E0,1.0664506E0,2.4902557E-1,-1.3032576E0,1.3358138E0,2.893903E-1,-6.370895E-2,1.01275444E-1,-1.3825594E0,-8.104429E-1,9.6853864E-1,1.5699999E-1,1.2487741E-1,-1.2734616E-1,-1.4753536E0,-1.1209939E0,-2.11027E-2,-1.0241817E0,1.5141767E-1,-5.9090197E-2,-1.2268627E0,7.541165E-1,-4.541784E-2,-1.4876975E-1,5.87927E-3,-1.1891133E0,3.7451702E-1,-6.211961E-2,-1.1762335E0,2.7808342E-2,5.9280777E-1,-8.5458577E-1,-1.1660833E-2,-1.4071798E-1,-4.232706E-1,1.1178169E0,-1.3004227E0,-4.3737242E-1,-5.121177E-2,1.0805271E-1,-1.2881576E-1,-9.290158E-3,-2.3005566E-2,9.014457E-1,2.166646E-2,-1.1719974E0,-9.948202E-2,5.2806266E-2,1.3987118E-1,1.4210577E-1,-1.4463525E-1,-6.0929966E-1,-1.1495151E-1,4.1670267E-2,1.0630137E0,1.01157455E-2,-1.3708284E-1,-2.5415793E-2,-6.2111158E-2,9.268766E-2,-1.2129034E-1,2.1997072E-2,1.2857667E-1,1.7377598E-2],"categories":[],"categories_nodes":[],"categories_segments":[],"categories_sizes":[],"default_left":[0,0,0,0,0,0,0,0,0,0,0,0,0,0,0,0,0,0,0,0,0,0,0,0,0,0,0,0,0,0,0,0,0,0,0,0,0,0,0,0,0,0,0,0,0,0,0,0,0,0,0,0,0,0,0,0,0,0,0,0,0,0,0,0,0],"id":3,"left_children":[1,3,5,7,9,11,13,-1,-1,15,17,19,-1,-1,21,23,25,27,29,-1,31,33,35,-1,-1,-1,37,39,-1,41,-1,43,45,-1,-1,47,49,51,53,-1,-1,-1,-1,-1,55,-1,57,-1,-1,-1,59,-1,61,-1,-1,63,-1,-1,-1,-1,-1,-1,-1,-1,-1],"loss_changes":[3.2230817E2,6.4609375E0,2.6712128E1,2.9790506E0,3.051422E0,6.724655E0,1.3993569E1,0E0,0E0,5.4359436E-1,2.8824778E0,2.2481987E1,0E0,0E0,2.5185131E1,1.2683105E-1,2.3098526E0,1.3458301E0,3.0050735E0,0E0,8.188307E0,2.1419296E0,6.687683E0,0E0,0E0,0E0,1.6400452E0,2.7128084E0,0E0,1.3719025E0,0E0,2.4249406E0,2.6617374E0,0E0,0E0,2.78202E0,2.9153185E0,1.3865776E0,3.4661686E0,0E0,0E0,0E0,0E0,0E0,7.3981285E-1,0E0,6.769705E-1,0E0,0E0,0E0,2.7636292E0,0E0,3.093948E0,0E0,0E0,8.357625E-1,0E0,0E0,0E0,0E0,0E0,0E0,0E0,0E0,0E0],"parents":[2147483647,0,0,1,1,2,2,3,3,4,4,5,5,6,6,9,9,10,10,11,11,14,14,15,15,16,16,17,17,18,18,20,20,21,21,22,22,26,26,27,27,29,29,31,31,32,32,35,35,36,36,37,37,38,38,44,44,46,46,50,50,52,52,55,55],"right_children":[2,4,6,8,10,12,14,-1,-1,16,18,20,-1,-1,22,24,26,28,30,-1,32,34,36,-1,-1,-1,38,40,-1,42,-1,44,46,-1,-1,48,50,52,54,-1,-1,-1,-1,-1,56,-1,58,-1,-1,-1,60,-1,62,-1,-1,64,-1,-1,-1,-1,-1,-1,-1,-1,-1],"split_conditions":[-4.2074677E-1,-1.7559732E0,-5.8462378E-2,-2.7599292E0,-6.718682E-1,-8.257632E-2,-9.068446E-1,-6.370895E-2,1.01275444E-1,6.5814304E-1,-9.186865E-1,-6.9334334E-1,1.5699999E-1,1.2487741E-1,-6.280768E-1,-2.2168188E0,6.9091094E-1,1.0601438E0,1.588627E0,1.5141767E-1,8.298742E-2,-1.4972576E0,-3.7962634E-2,-4.541784E-2,-1.4876975E-1,5.87927E-3,-9.17271E-1,4.8259822E-1,-6.211961E-2,5.2598715E-1,2.7808342E-2,-8.480656E-1,-4.4177586E-1,-1.1660833E-2,-1.4071798E-1,3.1952468E-1,3.8352203E-2,8.707467E-1,4.1848797E-1,-5.121177E-2,1.0805271E-1,-1.2881576E-1,-9.290158E-3,-2.3005566E-2,1.1912607E0,2.166646E-2,-4.1295952E-1,-9.948202E-2,5.2806266E-2,1.3987118E-1,-4.6048713E-1,-1.4463525E-1,5.313074E-1,-1.1495151E-1,4.1670267E-2,-1.0906533E-1,1.01157455E-2,-1.3708284E-1,-2.5415793E-2,-6.2111158E-2,9.268766E-2,-1.2129034E-1,2.1997072E-2,1.2857667E-1,1.7377598E-2],"split_indices":[6,8,2,6,6,8,8,0,0,1,3,8,0,0,8,7,1,5,5,0,5,4,0,0,0,0,6,0,0,2,0,3,0,0,0,9,6,9,0,0,0,0,0,0,3,0,8,0,0,0,8,0,0,0,0,0,0,0,0,0,0,0,0,0,0],"split_type":[0,0,0,0,0,0,0,0,0,0,0,0,0,0,0,0,0,0,0,0,0,0,0,0,0,0,0,0,0,0,0,0,0,0,0,0,0,0,0,0,0,0,0,0,0,0,0,0,0,0,0,0,0,0,0,0,0,0,0,0,0,0,0,0,0],"sum_hessian":[2.3666383E2,1.0819794E2,1.284659E2,2.4485846E0,1.0574936E2,9.486311E1,3.360278E1,1.210232E0,1.2383524E0,8.953612E1,1.6213236E1,3.8935753E1,5.592736E1,9.571449E0,2.4031328E1,6.2664486E1,2.6871632E1,3.6888814E0,1.2524355E1,2.5122852E1,1.38129E1,1.0518696E1,1.3512632E1,1.1998222E0,6.1464664E1,1.4743152E0,2.5397316E1,2.4497516E0,1.2391299E0,1.1301568E1,1.2227867E0,7.7316833E0,6.0812163E0,1.6997327E0,8.818963E0,3.1503599E0,1.0362273E1,2.1486025E1,3.9112926E0,1.2077028E0,1.2420489E0,1.0071922E1,1.2296458E0,2.178409E0,5.553274E0,1.462556E0,4.6186604E0,1.9394499E0,1.21091E0,7.709325E0,2.652948E0,1.6837955E1,4.6480684E0,1.9442362E0,1.9670563E0,4.347317E0,1.2059567E0,3.3906152E0,1.2280451E0,1.450667E0,1.2022809E0,2.4223151E0,2.2257533E0,3.119873E0,1.2274443E0],"tree_param":{"num_deleted":"0","num_feature":"10","num_nodes":"65","size_leaf_vector":"1"}},{"base_weights":[-1.465725E-3,-1.141709E0,1.0411423E0,5.9568297E-2,-1.1827688E0,1.4046295E0,5.922414E-1,-1.2922748E0,-6.6711575E-1,1.416506E-1,4.022823E-2,1.8164213E-1,1.308435E0,-1.3912928E0,-1.0261736E0,-1.2414298E-1,-3.381859E-1,1.3010792E0,-7.1919376E-1,5.5924255E-2,1.3676396E-1,-4.317714E-2,-1.4030809E0,-1.2805148E0,-6.1918294E-1,-8.6409223E-1,4.42238E-1,1.3408166E0,4.18497E-2,6.8949394E-2,-8.597429E-1,-9.71087E-1,-1.4619245E-1,-1.349663E-1,-5.210958E-2,-1.112647E-1,-2.3653345E-1,-1.0669588E0,1.1100428E-2,1.02787115E-1,7.491887E-2,4.233427E-2,1.3869934E0,2.4447612E-1,-1.0703847E0,-1.1250314E0,1.4558646E-2,6.140807E-2,-5.977639E-1,-2.8480345E-2,-1.3279174E-1,-3.9147016E-1,8.833468E-2,1.4397494E-1,4.21477E-2,9.850194E-2,-4.5862887E-2,-2.5821573E-1,-1.3334088E-1,-1.1964867E0,-3.2627765E-2,-2.00253E-1,-1.0684142E-1,-6.968793E-2,7.1080076E-3,-1.0732565E-1,6.135844E-2,-3.2627765E-2,-1.2913752E-1,-6.377363E-2,4.4951227E-2],"categories":[],"categories_nodes":[],"categories_segments":[],"categories_sizes":[],"default_left":[0,0,0,0,0,0,0,0,0,0,0,0,0,0,0,0,0,0,0,0,0,0,0,0,0,0,0,0,0,0,0,0,0,0,0,0,0,0,0,0,0,0,0,0,0,0,0,0,0,0,0,0,0,0,0,0,0,0,0,0,0,0,0,0,0,0,0,0,0,0,0],"id":4,"left_children":[1,3,5,-1,7,9,11,13,15,-1,-1,17,19,21,23,-1,25,27,29,-1,-1,-1,31,33,35,37,39,41,-1,-1,43,45,-1,-1,-1,-1,47,49,-1,-1,51,-1,53,55,57,59,-1,-1,61,-1,-1,63,-1,-1,-1,-1,-1,65,-1,67,-1,69,-1,-1,-1,-1,-1,-1,-1,-1,-1],"loss_changes":[2.7412207E2,8.561157E0,1.882167E1,0E0,5.2321625E0,2.1380615E-1,1.611882E1,8.897705E-1,3.5419588E0,0E0,0E0,3.7757828E1,1.2701797E-1,8.744812E-2,2.0706558E0,0E0,6.419197E0,2.2382736E-2,4.7261543E0,0E0,0E0,0E0,1.0814667E-1,1.4151192E-1,2.1113157E0,1.9236946E0,1.3391132E0,6.810379E-2,0E0,0E0,4.7804794E0,1.9144335E0,0E0,0E0,0E0,0E0,2.9336376E0,1.1829586E0,0E0,0E0,2.2778573E0,0E0,1.2089348E-1,2.4961605E0,3.1807098E0,1.2697124E-1,0E0,0E0,9.777534E-1,0E0,0E0,6.0647535E-1,0E0,0E0,0E0,0E0,0E0,4.4080315E0,0E0,2.3471451E-1,0E0,1.6181078E0,0E0,0E0,0E0,0E0,0E0,0E0,0E0,0E0,0E0],"parents":[2147483647,0,0,1,1,2,2,4,4,5,5,6,6,7,7,8,8,11,11,12,12,13,13,14,14,16,16,17,17,18,18,22,22,23,23,24,24,25,25,26,26,27,27,30,30,31,31,36,36,37,37,40,40,42,42,43,43,44,44,45,45,48,48,51,51,57,57,59,59,61,61],"right_children":[2,4,6,-1,8,10,12,14,16,-1,-1,18,20,22,24,-1,26,28,30,-1,-1,-1,32,34,36,38,40,42,-1,-1,44,46,-1,-1,-1,-1,48,50,-1,-1,52,-1,54,56,58,60,-1,-1,62,-1,-1,64,-1,-1,-1,-1,-1,66,-1,68,-1,70,-1,-1,-1,-1,-1,-1,-1,-1,-1],"split_conditions":[-3.16846E-1,-1.8420578E0,-4.1424504E-1,5.9568297E-2,-6.718682E-1,2.4048376E0,-3.7093875E-1,6.5814304E-1,5.02895E-2,1.416506E-1,4.022823E-2,-8.2379985E-1,-1.9628257E-1,-2.2168188E0,2.9137897E-1,-1.2414298E-1,-7.789781E-1,1.0066066E0,-2.700127E-1,5.5924255E-2,1.3676396E-1,-4.317714E-2,-1.2148061E0,-8.219287E-1,-3.5744542E-1,5.2598715E-1,-3.733684E-1,-1.8927622E0,4.18497E-2,6.8949394E-2,-9.7830796E-1,-1.3224579E0,-1.4619245E-1,-1.349663E-1,-5.210958E-2,-1.112647E-1,-6.3524574E-2,-9.0690285E-1,1.1100428E-2,1.02787115E-1,5.3089434E-1,4.233427E-2,9.5730484E-1,-5.312143E-1,-5.4915893E-1,-1.4042395E0,1.4558646E-2,6.140807E-2,5.376299E-1,-2.8480345E-2,-1.3279174E-1,-5.327255E-1,8.833468E-2,1.4397494E-1,4.21477E-2,9.850194E-2,-4.5862887E-2,4.0867344E-1,-1.3334088E-1,-8.14756E-1,-3.2627765E-2,7.569494E-2,-1.0684142E-1,-6.968793E-2,7.1080076E-3,-1.0732565E-1,6.135844E-2,-3.2627765E-2,-1.2913752E-1,-6.377363E-2,4.4951227E-2],"split_indices":[6,8,2,0,6,5,8,1,0,0,0,8,6,7,9,0,8,7,6,0,0,0,3,6,7,2,1,4,0,0,9,3,0,0,0,0,7,7,0,0,9,0,1,4,5,3,0,0,4,0,0,3,0,0,0,0,0,6,0,9,0,5,0,0,0,0,0,0,0,0,0],"split_type":[0,0,0,0,0,0,0,0,0,0,0,0,0,0,0,0,0,0,0,0,0,0,0,0,0,0,0,0,0,0,0,0,0,0,0,0,0,0,0,0,0,0,0,0,0,0,0,0,0,0,0,0,0,0,0,0,0,0,0,0,0,0,0,0,0,0,0,0,0,0,0],"sum_hessian":[2.2858214E2,1.0913363E2,1.1944851E2,2.207755E0,1.0692587E2,6.482717E1,5.4621334E1,8.695391E1,1.9971964E1,6.3659695E1,1.1674815E0,3.5514324E1,1.9107012E1,6.029086E1,2.6663054E1,6.262843E0,1.3709122E1,1.5637657E1,1.9876667E1,2.1643698E0,1.6942642E1,1.1883671E0,5.910249E1,1.508787E1,1.1575184E1,8.126014E0,5.583107E0,1.4467092E1,1.1705654E0,1.4489083E0,1.8427757E1,9.183753E0,4.991874E1,1.3116342E1,1.9715273E0,4.2223296E0,7.352854E0,6.648584E0,1.4774303E0,1.4588664E0,4.124241E0,1.1804736E0,1.3286618E1,2.926411E0,1.5501347E1,8.064498E0,1.1192542E0,1.9831129E0,5.369741E0,2.1864996E0,4.4620843E0,2.942469E0,1.181772E0,1.21325245E1,1.1540933E0,1.2299808E0,1.69643E0,4.276876E0,1.1224471E1,6.9452443E0,1.1192542E0,3.6838474E0,1.6858933E0,1.4671485E0,1.4753202E0,2.0909646E0,2.1859114E0,1.1192542E0,5.8259897E0,2.2126174E0,1.4712303E0],"tree_param":{"num_deleted":"0","num_feature":"10","num_nodes":"71","size_leaf_vector":"1"}}]},"name":"gbtree"},"learner_model_param":{"base_score":"4.99E-1","boost_from_average":"1","num_class":"0","num_feature":"10","num_target":"1"},"objective":{"name":"binary:logistic","reg_loss_param":{"scale_pos_weight":"1"}}},"version":[3,0,4]}